{"learner":{"attributes":{"best_iteration":"755","best_score":"1.473194074249604"},"feature_names":["open","high","low","close","value"],"feature_types":["float","float","float","float","int"],"gradient_booster":{"model":{"gbtree_model_param":{"num_parallel_tree":"1","num_trees":"855"},"iteration_indptr":[0,1,2,3,4,5,6,7,8,9,10,11,12,13,14,15,16,17,18,19,20,21,22,23,24,25,26,27,28,29,30,31,32,33,34,35,36,37,38,39,40,41,42,43,44,45,46,47,48,49,50,51,52,53,54,55,56,57,58,59,60,61,62,63,64,65,66,67,68,69,70,71,72,73,74,75,76,77,78,79,80,81,82,83,84,85,86,87,88,89,90,91,92,93,94,95,96,97,98,99,100,101,102,103,104,105,106,107,108,109,110,111,112,113,114,115,116,117,118,119,120,121,122,123,124,125,126,127,128,129,130,131,132,133,134,135,136,137,138,139,140,141,142,143,144,145,146,147,148,149,150,151,152,153,154,155,156,157,158,159,160,161,162,163,164,165,166,167,168,169,170,171,172,173,174,175,176,177,178,179,180,181,182,183,184,185,186,187,188,189,190,191,192,193,194,195,196,197,198,199,200,201,202,203,204,205,206,207,208,209,210,211,212,213,214,215,216,217,218,219,220,221,222,223,224,225,226,227,228,229,230,231,232,233,234,235,236,237,238,239,240,241,242,243,244,245,246,247,248,249,250,251,252,253,254,255,256,257,258,259,260,261,262,263,264,265,266,267,268,269,270,271,272,273,274,275,276,277,278,279,280,281,282,283,284,285,286,287,288,289,290,291,292,293,294,295,296,297,298,299,300,301,302,303,304,305,306,307,308,309,310,311,312,313,314,315,316,317,318,319,320,321,322,323,324,325,326,327,328,329,330,331,332,333,334,335,336,337,338,339,340,341,342,343,344,345,346,347,348,349,350,351,352,353,354,355,356,357,358,359,360,361,362,363,364,365,366,367,368,369,370,371,372,373,374,375,376,377,378,379,380,381,382,383,384,385,386,387,388,389,390,391,392,393,394,395,396,397,398,399,400,401,402,403,404,405,406,407,408,409,410,411,412,413,414,415,416,417,418,419,420,421,422,423,424,425,426,427,428,429,430,431,432,433,434,435,436,437,438,439,440,441,442,443,444,445,446,447,448,449,450,451,452,453,454,455,456,457,458,459,460,461,462,463,464,465,466,467,468,469,470,471,472,473,474,475,476,477,478,479,480,481,482,483,484,485,486,487,488,489,490,491,492,493,494,495,496,497,498,499,500,501,502,503,504,505,506,507,508,509,510,511,512,513,514,515,516,517,518,519,520,521,522,523,524,525,526,527,528,529,530,531,532,533,534,535,536,537,538,539,540,541,542,543,544,545,546,547,548,549,550,551,552,553,554,555,556,557,558,559,560,561,562,563,564,565,566,567,568,569,570,571,572,573,574,575,576,577,578,579,580,581,582,583,584,585,586,587,588,589,590,591,592,593,594,595,596,597,598,599,600,601,602,603,604,605,606,607,608,609,610,611,612,613,614,615,616,617,618,619,620,621,622,623,624,625,626,627,628,629,630,631,632,633,634,635,636,637,638,639,640,641,642,643,644,645,646,647,648,649,650,651,652,653,654,655,656,657,658,659,660,661,662,663,664,665,666,667,668,669,670,671,672,673,674,675,676,677,678,679,680,681,682,683,684,685,686,687,688,689,690,691,692,693,694,695,696,697,698,699,700,701,702,703,704,705,706,707,708,709,710,711,712,713,714,715,716,717,718,719,720,721,722,723,724,725,726,727,728,729,730,731,732,733,734,735,736,737,738,739,740,741,742,743,744,745,746,747,748,749,750,751,752,753,754,755,756,757,758,759,760,761,762,763,764,765,766,767,768,769,770,771,772,773,774,775,776,777,778,779,780,781,782,783,784,785,786,787,788,789,790,791,792,793,794,795,796,797,798,799,800,801,802,803,804,805,806,807,808,809,810,811,812,813,814,815,816,817,818,819,820,821,822,823,824,825,826,827,828,829,830,831,832,833,834,835,836,837,838,839,840,841,842,843,844,845,846,847,848,849,850,851,852,853,854,855],"tree_info":[0,0,0,0,0,0,0,0,0,0,0,0,0,0,0,0,0,0,0,0,0,0,0,0,0,0,0,0,0,0,0,0,0,0,0,0,0,0,0,0,0,0,0,0,0,0,0,0,0,0,0,0,0,0,0,0,0,0,0,0,0,0,0,0,0,0,0,0,0,0,0,0,0,0,0,0,0,0,0,0,0,0,0,0,0,0,0,0,0,0,0,0,0,0,0,0,0,0,0,0,0,0,0,0,0,0,0,0,0,0,0,0,0,0,0,0,0,0,0,0,0,0,0,0,0,0,0,0,0,0,0,0,0,0,0,0,0,0,0,0,0,0,0,0,0,0,0,0,0,0,0,0,0,0,0,0,0,0,0,0,0,0,0,0,0,0,0,0,0,0,0,0,0,0,0,0,0,0,0,0,0,0,0,0,0,0,0,0,0,0,0,0,0,0,0,0,0,0,0,0,0,0,0,0,0,0,0,0,0,0,0,0,0,0,0,0,0,0,0,0,0,0,0,0,0,0,0,0,0,0,0,0,0,0,0,0,0,0,0,0,0,0,0,0,0,0,0,0,0,0,0,0,0,0,0,0,0,0,0,0,0,0,0,0,0,0,0,0,0,0,0,0,0,0,0,0,0,0,0,0,0,0,0,0,0,0,0,0,0,0,0,0,0,0,0,0,0,0,0,0,0,0,0,0,0,0,0,0,0,0,0,0,0,0,0,0,0,0,0,0,0,0,0,0,0,0,0,0,0,0,0,0,0,0,0,0,0,0,0,0,0,0,0,0,0,0,0,0,0,0,0,0,0,0,0,0,0,0,0,0,0,0,0,0,0,0,0,0,0,0,0,0,0,0,0,0,0,0,0,0,0,0,0,0,0,0,0,0,0,0,0,0,0,0,0,0,0,0,0,0,0,0,0,0,0,0,0,0,0,0,0,0,0,0,0,0,0,0,0,0,0,0,0,0,0,0,0,0,0,0,0,0,0,0,0,0,0,0,0,0,0,0,0,0,0,0,0,0,0,0,0,0,0,0,0,0,0,0,0,0,0,0,0,0,0,0,0,0,0,0,0,0,0,0,0,0,0,0,0,0,0,0,0,0,0,0,0,0,0,0,0,0,0,0,0,0,0,0,0,0,0,0,0,0,0,0,0,0,0,0,0,0,0,0,0,0,0,0,0,0,0,0,0,0,0,0,0,0,0,0,0,0,0,0,0,0,0,0,0,0,0,0,0,0,0,0,0,0,0,0,0,0,0,0,0,0,0,0,0,0,0,0,0,0,0,0,0,0,0,0,0,0,0,0,0,0,0,0,0,0,0,0,0,0,0,0,0,0,0,0,0,0,0,0,0,0,0,0,0,0,0,0,0,0,0,0,0,0,0,0,0,0,0,0,0,0,0,0,0,0,0,0,0,0,0,0,0,0,0,0,0,0,0,0,0,0,0,0,0,0,0,0,0,0,0,0,0,0,0,0,0,0,0,0,0,0,0,0,0,0,0,0,0,0,0,0,0,0,0,0,0,0,0,0,0,0,0,0,0,0,0,0,0,0,0,0,0,0,0,0,0,0,0,0,0,0,0,0,0,0,0,0,0,0,0,0,0,0,0,0,0,0,0,0,0,0,0,0,0,0,0,0,0,0,0,0,0,0,0,0,0,0,0,0,0,0,0,0,0,0,0,0,0,0,0,0,0,0,0,0,0,0,0,0,0,0,0,0,0,0,0,0,0,0,0,0,0,0,0,0,0,0,0,0,0,0,0,0,0,0,0,0,0,0,0,0,0,0,0,0,0,0,0,0,0,0,0,0,0,0,0,0,0,0,0,0,0,0,0,0,0,0,0,0,0,0,0,0,0,0,0,0,0,0,0,0,0,0,0,0,0,0,0,0,0,0,0,0,0,0,0,0,0,0,0,0,0,0,0,0,0,0,0,0,0],"trees":[{"base_weights":[-1.2638804E-6,-2.7839357E1,9.488982E1,-3.889515E-1,-1.1558078E-1,6.0681653E-1,1.4000047E0],"categories":[],"categories_nodes":[],"categories_segments":[],"categories_sizes":[],"default_left":[0,0,0,0,0,0,0],"id":0,"left_children":[1,3,5,-1,-1,-1,-1],"loss_changes":[6.731243E7,3.54578E6,8.91092E6,0E0,0E0,0E0,0E0],"parents":[2147483647,0,0,1,1,2,2],"right_children":[2,4,6,-1,-1,-1,-1],"split_conditions":[8.46E1,2.63E1,1.5435E2,-3.889515E-1,-1.1558078E-1,6.0681653E-1,1.4000047E0],"split_indices":[3,3,1,0,0,0,0],"split_type":[0,0,0,0,0,0,0],"sum_hessian":[2.5479E4,1.97E4,5.779E3,1.1732E4,7.968E3,3.288E3,2.491E3],"tree_param":{"num_deleted":"0","num_feature":"5","num_nodes":"7","size_leaf_vector":"1"}},{"base_weights":[5.7808757E-5,-2.755801E1,9.395213E1,-3.8617152E-1,-1.1595969E-1,5.8851993E-1,1.3705673E0],"categories":[],"categories_nodes":[],"categories_segments":[],"categories_sizes":[],"default_left":[0,0,0,0,0,0,0],"id":1,"left_children":[1,3,5,-1,-1,-1,-1],"loss_changes":[6.5973816E7,3.477477E6,8.735436E6,0E0,0E0,0E0,0E0],"parents":[2147483647,0,0,1,1,2,2],"right_children":[2,4,6,-1,-1,-1,-1],"split_conditions":[8.565E1,2.575E1,1.4945E2,-3.8617152E-1,-1.1595969E-1,5.8851993E-1,1.3705673E0],"split_indices":[1,3,3,0,0,0,0],"split_type":[0,0,0,0,0,0,0],"sum_hessian":[2.5479E4,1.9701E4,5.778E3,1.1637E4,8.064E3,3.186E3,2.592E3],"tree_param":{"num_deleted":"0","num_feature":"5","num_nodes":"7","size_leaf_vector":"1"}},{"base_weights":[1.144246E-4,-2.6974295E1,9.4077995E1,-3.800188E-1,-1.0579747E-1,6.0293454E-1,1.3721616E0],"categories":[],"categories_nodes":[],"categories_segments":[],"categories_sizes":[],"default_left":[0,0,0,0,0,0,0],"id":2,"left_children":[1,3,5,-1,-1,-1,-1],"loss_changes":[6.4663016E7,3.579826E6,8.266864E6,0E0,0E0,0E0,0E0],"parents":[2147483647,0,0,1,1,2,2],"right_children":[2,4,6,-1,-1,-1,-1],"split_conditions":[8.665E1,2.675E1,1.525E2,-3.800188E-1,-1.0579747E-1,6.0293454E-1,1.3721616E0],"split_indices":[3,3,3,0,0,0,0],"split_type":[0,0,0,0,0,0,0],"sum_hessian":[2.5479E4,1.9802E4,5.677E3,1.1838E4,7.964E3,3.185E3,2.492E3],"tree_param":{"num_deleted":"0","num_feature":"5","num_nodes":"7","size_leaf_vector":"1"}},{"base_weights":[1.7197698E-4,-2.7308475E1,9.109405E1,-3.797021E-1,-1.2075174E-1,5.57542E-1,1.3291382E0],"categories":[],"categories_nodes":[],"categories_segments":[],"categories_sizes":[],"default_left":[0,0,0,0,0,0,0],"id":3,"left_children":[1,3,5,-1,-1,-1,-1],"loss_changes":[6.3387824E7,3.183494E6,8.678232E6,0E0,0E0,0E0,0E0],"parents":[2147483647,0,0,1,1,2,2],"right_children":[2,4,6,-1,-1,-1,-1],"split_conditions":[8.26E1,2.52E1,1.4725E2,-3.797021E-1,-1.2075174E-1,5.57542E-1,1.3291382E0],"split_indices":[3,3,3,0,0,0,0],"split_type":[0,0,0,0,0,0,0],"sum_hessian":[2.5479E4,1.9603E4,5.876E3,1.1531E4,8.072E3,3.186E3,2.69E3],"tree_param":{"num_deleted":"0","num_feature":"5","num_nodes":"7","size_leaf_vector":"1"}},{"base_weights":[2.255811E-4,-2.6746174E1,9.116473E1,-3.7236786E-1,-1.0910652E-1,5.827743E-1,1.3453357E0],"categories":[],"categories_nodes":[],"categories_segments":[],"categories_sizes":[],"default_left":[0,0,0,0,0,0,0],"id":4,"left_children":[1,3,5,-1,-1,-1,-1],"loss_changes":[6.2130884E7,3.27241E6,8.236084E6,0E0,0E0,0E0,0E0],"parents":[2147483647,0,0,1,1,2,2],"right_children":[2,4,6,-1,-1,-1,-1],"split_conditions":[8.46E1,2.715E1,1.5435E2,-3.7236786E-1,-1.0910652E-1,5.827743E-1,1.3453357E0],"split_indices":[3,1,1,0,0,0,0],"split_type":[0,0,0,0,0,0,0],"sum_hessian":[2.5479E4,1.97E4,5.779E3,1.1849E4,7.851E3,3.288E3,2.491E3],"tree_param":{"num_deleted":"0","num_feature":"5","num_nodes":"7","size_leaf_vector":"1"}},{"base_weights":[2.802283E-4,-2.7061874E1,8.832815E1,-3.7646034E-1,-1.2950222E-1,5.275503E-1,1.2893144E0],"categories":[],"categories_nodes":[],"categories_segments":[],"categories_sizes":[],"default_left":[0,0,0,0,0,0,0],"id":5,"left_children":[1,3,5,-1,-1,-1,-1],"loss_changes":[6.090831E7,2.91278E6,8.624852E6,0E0,0E0,0E0,0E0],"parents":[2147483647,0,0,1,1,2,2],"right_children":[2,4,6,-1,-1,-1,-1],"split_conditions":[8.155E1,2.425E1,1.4495E2,-3.7646034E-1,-1.2950222E-1,5.275503E-1,1.2893144E0],"split_indices":[3,3,3,0,0,0,0],"split_type":[0,0,0,0,0,0,0],"sum_hessian":[2.5479E4,1.9504E4,5.975E3,1.1144E4,8.36E3,3.186E3,2.789E3],"tree_param":{"num_deleted":"0","num_feature":"5","num_nodes":"7","size_leaf_vector":"1"}},{"base_weights":[3.2842762E-4,-2.5918222E1,9.039572E1,-3.6305904E-1,-9.833496E-2,5.9047765E-1,1.3343517E0],"categories":[],"categories_nodes":[],"categories_segments":[],"categories_sizes":[],"default_left":[0,0,0,0,0,0,0],"id":6,"left_children":[1,3,5,-1,-1,-1,-1],"loss_changes":[5.969988E7,3.308388E6,7.652872E6,0E0,0E0,0E0,0E0],"parents":[2147483647,0,0,1,1,2,2],"right_children":[2,4,6,-1,-1,-1,-1],"split_conditions":[8.665E1,2.76E1,1.571E2,-3.6305904E-1,-9.833496E-2,5.9047765E-1,1.3343517E0],"split_indices":[3,3,1,0,0,0,0],"split_type":[0,0,0,0,0,0,0],"sum_hessian":[2.5479E4,1.9802E4,5.677E3,1.2031E4,7.771E3,3.286E3,2.391E3],"tree_param":{"num_deleted":"0","num_feature":"5","num_nodes":"7","size_leaf_vector":"1"}},{"base_weights":[3.831447E-4,-2.6821762E1,8.566261E1,-3.769695E-1,-1.4163588E-1,5.1034033E-1,1.2640208E0],"categories":[],"categories_nodes":[],"categories_segments":[],"categories_sizes":[],"default_left":[0,0,0,0,0,0,0],"id":7,"left_children":[1,3,5,-1,-1,-1,-1],"loss_changes":[5.854629E7,2.670757E6,8.565268E6,0E0,0E0,0E0,0E0],"parents":[2147483647,0,0,1,1,2,2],"right_children":[2,4,6,-1,-1,-1,-1],"split_conditions":[7.935E1,2.285E1,1.4635E2,-3.769695E-1,-1.4163588E-1,5.1034033E-1,1.2640208E0],"split_indices":[3,3,1,0,0,0,0],"split_type":[0,0,0,0,0,0,0],"sum_hessian":[2.5479E4,1.9404E4,6.075E3,1.0436E4,8.968E3,3.285E3,2.79E3],"tree_param":{"num_deleted":"0","num_feature":"5","num_nodes":"7","size_leaf_vector":"1"}},{"base_weights":[4.2855728E-4,-2.6556595E1,8.4797615E1,-3.7529105E-1,-1.4263715E-1,5.0526005E-1,1.2515613E0],"categories":[],"categories_nodes":[],"categories_segments":[],"categories_sizes":[],"default_left":[0,0,0,0,0,0,0],"id":8,"left_children":[1,3,5,-1,-1,-1,-1],"loss_changes":[5.7382212E7,2.61675E6,8.399088E6,0E0,0E0,0E0,0E0],"parents":[2147483647,0,0,1,1,2,2],"right_children":[2,4,6,-1,-1,-1,-1],"split_conditions":[7.935E1,2.25E1,1.4495E2,-3.7529105E-1,-1.4263715E-1,5.0526005E-1,1.2515613E0],"split_indices":[0,3,3,0,0,0,0],"split_type":[0,0,0,0,0,0,0],"sum_hessian":[2.5479E4,1.9403E4,6.076E3,1.0251E4,9.152E3,3.287E3,2.789E3],"tree_param":{"num_deleted":"0","num_feature":"5","num_nodes":"7","size_leaf_vector":"1"}},{"base_weights":[4.7166742E-4,-2.4601908E1,8.975293E1,-3.472131E-1,-7.599154E-2,6.211788E-1,1.3447012E0],"categories":[],"categories_nodes":[],"categories_segments":[],"categories_sizes":[],"default_left":[0,0,0,0,0,0,0],"id":9,"left_children":[1,3,5,-1,-1,-1,-1],"loss_changes":[5.626521E7,3.440719E6,6.766092E6,0E0,0E0,0E0,0E0],"parents":[2147483647,0,0,1,1,2,2],"right_children":[2,4,6,-1,-1,-1,-1],"split_conditions":[8.88E1,2.93E1,1.6205E2,-3.472131E-1,-7.599154E-2,6.211788E-1,1.3447012E0],"split_indices":[3,3,3,0,0,0,0],"split_type":[0,0,0,0,0,0,0],"sum_hessian":[2.5479E4,1.9998E4,5.481E3,1.2536E4,7.462E3,3.389E3,2.092E3],"tree_param":{"num_deleted":"0","num_feature":"5","num_nodes":"7","size_leaf_vector":"1"}},{"base_weights":[5.285484E-4,-2.6037144E1,8.315738E1,-3.959969E-1,-1.6422723E-1,4.7209746E-1,1.2021898E0],"categories":[],"categories_nodes":[],"categories_segments":[],"categories_sizes":[],"default_left":[0,0,0,0,0,0,0],"id":10,"left_children":[1,3,5,-1,-1,-1,-1],"loss_changes":[5.517174E7,2.529685E6,8.089236E6,0E0,0E0,0E0,0E0],"parents":[2147483647,0,0,1,1,2,2],"right_children":[2,4,6,-1,-1,-1,-1],"split_conditions":[8.02E1,1.96E1,1.406E2,-3.959969E-1,-1.6422723E-1,4.7209746E-1,1.2021898E0],"split_indices":[1,3,3,0,0,0,0],"split_type":[0,0,0,0,0,0,0],"sum_hessian":[2.5479E4,1.9404E4,6.075E3,8.048E3,1.1356E4,3.085E3,2.99E3],"tree_param":{"num_deleted":"0","num_feature":"5","num_nodes":"7","size_leaf_vector":"1"}},{"base_weights":[5.666259E-4,-2.3278694E1,9.11904E1,-3.3741942E-1,-5.296947E-2,6.4634955E-1,1.3358014E0],"categories":[],"categories_nodes":[],"categories_segments":[],"categories_sizes":[],"default_left":[0,0,0,0,0,0,0],"id":11,"left_children":[1,3,5,-1,-1,-1,-1],"loss_changes":[5.4091876E7,3.819027E6,5.824632E6,0E0,0E0,0E0,0E0],"parents":[2147483647,0,0,1,1,2,2],"right_children":[2,4,6,-1,-1,-1,-1],"split_conditions":[9.16E1,3.04E1,1.669E2,-3.3741942E-1,-5.296947E-2,6.4634955E-1,1.3358014E0],"split_indices":[3,3,3,0,0,0,0],"split_type":[0,0,0,0,0,0,0],"sum_hessian":[2.5479E4,2.0298E4,5.181E3,1.2831E4,7.467E3,3.187E3,1.994E3],"tree_param":{"num_deleted":"0","num_feature":"5","num_nodes":"7","size_leaf_vector":"1"}},{"base_weights":[6.227367E-4,-2.5536081E1,8.1557526E1,-3.9158183E-1,-1.6286302E-1,4.7432902E-1,1.1913605E0],"categories":[],"categories_nodes":[],"categories_segments":[],"categories_sizes":[],"default_left":[0,0,0,0,0,0,0],"id":12,"left_children":[1,3,5,-1,-1,-1,-1],"loss_changes":[5.306914E7,2.444421E6,7.785928E6,0E0,0E0,0E0,0E0],"parents":[2147483647,0,0,1,1,2,2],"right_children":[2,4,6,-1,-1,-1,-1],"split_conditions":[7.855E1,1.925E1,1.426E2,-3.9158183E-1,-1.6286302E-1,4.7432902E-1,1.1913605E0],"split_indices":[2,3,3,0,0,0,0],"split_type":[0,0,0,0,0,0,0],"sum_hessian":[2.5479E4,1.9404E4,6.075E3,7.846E3,1.1558E4,3.185E3,2.89E3],"tree_param":{"num_deleted":"0","num_feature":"5","num_nodes":"7","size_leaf_vector":"1"}},{"base_weights":[6.6102645E-4,-2.5280838E1,8.0742516E1,-3.529632E-1,-1.293257E-1,4.339979E-1,1.1444614E0],"categories":[],"categories_nodes":[],"categories_segments":[],"categories_sizes":[],"default_left":[0,0,0,0,0,0,0],"id":13,"left_children":[1,3,5,-1,-1,-1,-1],"loss_changes":[5.2013732E7,2.399435E6,7.642196E6,0E0,0E0,0E0,0E0],"parents":[2147483647,0,0,1,1,2,2],"right_children":[2,4,6,-1,-1,-1,-1],"split_conditions":[7.935E1,2.335E1,1.3735E2,-3.529632E-1,-1.293257E-1,4.339979E-1,1.1444614E0],"split_indices":[3,3,3,0,0,0,0],"split_type":[0,0,0,0,0,0,0],"sum_hessian":[2.5479E4,1.9404E4,6.075E3,1.0713E4,8.691E3,2.883E3,3.192E3],"tree_param":{"num_deleted":"0","num_feature":"5","num_nodes":"7","size_leaf_vector":"1"}},{"base_weights":[6.968612E-4,-2.2324682E1,8.963615E1,-2.9517186E-1,4.019518E-2,6.357956E-1,1.2991035E0],"categories":[],"categories_nodes":[],"categories_segments":[],"categories_sizes":[],"default_left":[0,0,0,0,0,0,0],"id":14,"left_children":[1,3,5,-1,-1,-1,-1],"loss_changes":[5.0991184E7,3.865527E6,5.323788E6,0E0,0E0,0E0,0E0],"parents":[2147483647,0,0,1,1,2,2],"right_children":[2,4,6,-1,-1,-1,-1],"split_conditions":[9.275E1,3.695E1,1.669E2,-2.9517186E-1,4.019518E-2,6.357956E-1,1.2991035E0],"split_indices":[3,3,3,0,0,0,0],"split_type":[0,0,0,0,0,0,0],"sum_hessian":[2.5479E4,2.0399E4,5.08E3,1.6024E4,4.375E3,3.086E3,1.994E3],"tree_param":{"num_deleted":"0","num_feature":"5","num_nodes":"7","size_leaf_vector":"1"}},{"base_weights":[7.570895E-4,-2.5058191E1,7.834701E1,-3.8386744E-1,-1.6284424E-1,4.0856394E-1,1.1121008E0],"categories":[],"categories_nodes":[],"categories_segments":[],"categories_sizes":[],"default_left":[0,0,0,0,0,0,0],"id":15,"left_children":[1,3,5,-1,-1,-1,-1],"loss_changes":[5.00262E7,2.25705E6,7.603408E6,0E0,0E0,0E0,0E0],"parents":[2147483647,0,0,1,1,2,2],"right_children":[2,4,6,-1,-1,-1,-1],"split_conditions":[7.615E1,1.855E1,1.358E2,-3.8386744E-1,-1.6284424E-1,4.0856394E-1,1.1121008E0],"split_indices":[1,3,3,0,0,0,0],"split_type":[0,0,0,0,0,0,0],"sum_hessian":[2.5479E4,1.9305E4,6.174E3,7.662E3,1.1643E4,2.885E3,3.289E3],"tree_param":{"num_deleted":"0","num_feature":"5","num_nodes":"7","size_leaf_vector":"1"}},{"base_weights":[7.889236E-4,-2.4810322E1,7.7555595E1,-3.8002926E-1,-1.6125295E-1,4.7968405E-1,1.1847496E0],"categories":[],"categories_nodes":[],"categories_segments":[],"categories_sizes":[],"default_left":[0,0,0,0,0,0,0],"id":16,"left_children":[1,3,5,-1,-1,-1,-1],"loss_changes":[4.903107E7,2.211318E6,7.471528E6,0E0,0E0,0E0,0E0],"parents":[2147483647,0,0,1,1,2,2],"right_children":[2,4,6,-1,-1,-1,-1],"split_conditions":[7.4E1,1.855E1,1.509E2,-3.8002926E-1,-1.6125295E-1,4.7968405E-1,1.1847496E0],"split_indices":[2,3,1,0,0,0,0],"split_type":[0,0,0,0,0,0,0],"sum_hessian":[2.5479E4,1.9304E4,6.175E3,7.662E3,1.1642E4,3.585E3,2.59E3],"tree_param":{"num_deleted":"0","num_feature":"5","num_nodes":"7","size_leaf_vector":"1"}},{"base_weights":[8.2421664E-4,-2.1415182E1,8.811939E1,-2.5805438E-1,2.1799895E-1,6.2587E-1,1.2631621E0],"categories":[],"categories_nodes":[],"categories_segments":[],"categories_sizes":[],"default_left":[0,0,0,0,0,0,0],"id":17,"left_children":[1,3,5,-1,-1,-1,-1],"loss_changes":[4.808641E7,3.889742E6,4.85082E6,0E0,0E0,0E0,0E0],"parents":[2147483647,0,0,1,1,2,2],"right_children":[2,4,6,-1,-1,-1,-1],"split_conditions":[9.41E1,4.75E1,1.669E2,-2.5805438E-1,2.1799895E-1,6.2587E-1,1.2631621E0],"split_indices":[3,3,3,0,0,0,0],"split_type":[0,0,0,0,0,0,0],"sum_hessian":[2.5479E4,2.0498E4,4.981E3,1.8608E4,1.89E3,2.987E3,1.994E3],"tree_param":{"num_deleted":"0","num_feature":"5","num_nodes":"7","size_leaf_vector":"1"}},{"base_weights":[8.876151E-4,-2.1201033E1,8.723858E1,-2.8130522E-1,5.834513E-2,6.299133E-1,1.2667108E0],"categories":[],"categories_nodes":[],"categories_segments":[],"categories_sizes":[],"default_left":[0,0,0,0,0,0,0],"id":18,"left_children":[1,3,5,-1,-1,-1,-1],"loss_changes":[4.7129828E7,3.840499E6,4.755456E6,0E0,0E0,0E0,0E0],"parents":[2147483647,0,0,1,1,2,2],"right_children":[2,4,6,-1,-1,-1,-1],"split_conditions":[9.41E1,3.815E1,1.6955E2,-2.8130522E-1,5.834513E-2,6.299133E-1,1.2667108E0],"split_indices":[3,3,3,0,0,0,0],"split_type":[0,0,0,0,0,0,0],"sum_hessian":[2.5479E4,2.0498E4,4.981E3,1.6316E4,4.182E3,3.086E3,1.895E3],"tree_param":{"num_deleted":"0","num_feature":"5","num_nodes":"7","size_leaf_vector":"1"}},{"base_weights":[9.4326853E-4,-2.4090378E1,7.532192E1,-3.7218493E-1,-1.5624776E-1,3.793676E-1,1.060641E0],"categories":[],"categories_nodes":[],"categories_segments":[],"categories_sizes":[],"default_left":[0,0,0,0,0,0,0],"id":19,"left_children":[1,3,5,-1,-1,-1,-1],"loss_changes":[4.6237356E7,2.145037E6,7.092916E6,0E0,0E0,0E0,0E0],"parents":[2147483647,0,0,1,1,2,2],"right_children":[2,4,6,-1,-1,-1,-1],"split_conditions":[7.615E1,1.77E1,1.3265E2,-3.7218493E-1,-1.5624776E-1,3.793676E-1,1.060641E0],"split_indices":[1,2,3,0,0,0,0],"split_type":[0,0,0,0,0,0,0],"sum_hessian":[2.5479E4,1.9305E4,6.174E3,7.567E3,1.1738E4,2.787E3,3.387E3],"tree_param":{"num_deleted":"0","num_feature":"5","num_nodes":"7","size_leaf_vector":"1"}},{"base_weights":[9.690749E-4,-2.3849623E1,7.456931E1,-3.6588535E-1,-1.5295768E-1,3.8718644E-1,1.0599499E0],"categories":[],"categories_nodes":[],"categories_segments":[],"categories_sizes":[],"default_left":[0,0,0,0,0,0,0],"id":20,"left_children":[1,3,5,-1,-1,-1,-1],"loss_changes":[4.5317936E7,2.103153E6,6.952848E6,0E0,0E0,0E0,0E0],"parents":[2147483647,0,0,1,1,2,2],"right_children":[2,4,6,-1,-1,-1,-1],"split_conditions":[7.51E1,1.895E1,1.358E2,-3.6588535E-1,-1.5295768E-1,3.8718644E-1,1.0599499E0],"split_indices":[3,3,3,0,0,0,0],"split_type":[0,0,0,0,0,0,0],"sum_hessian":[2.5479E4,1.9305E4,6.174E3,7.754E3,1.1551E4,2.885E3,3.289E3],"tree_param":{"num_deleted":"0","num_feature":"5","num_nodes":"7","size_leaf_vector":"1"}},{"base_weights":[9.960352E-4,-2.0331264E1,8.574702E1,-2.4697572E-1,2.2899015E-1,6.291098E-1,1.2497572E0],"categories":[],"categories_nodes":[],"categories_segments":[],"categories_sizes":[],"default_left":[0,0,0,0,0,0,0],"id":21,"left_children":[1,3,5,-1,-1,-1,-1],"loss_changes":[4.442384E7,3.888388E6,4.36736E6,0E0,0E0,0E0,0E0],"parents":[2147483647,0,0,1,1,2,2],"right_children":[2,4,6,-1,-1,-1,-1],"split_conditions":[9.535E1,4.905E1,1.719E2,-2.4697572E-1,2.2899015E-1,6.291098E-1,1.2497572E0],"split_indices":[3,3,3,0,0,0,0],"split_type":[0,0,0,0,0,0,0],"sum_hessian":[2.5479E4,2.0596E4,4.883E3,1.8707E4,1.889E3,3.088E3,1.795E3],"tree_param":{"num_deleted":"0","num_feature":"5","num_nodes":"7","size_leaf_vector":"1"}},{"base_weights":[1.0586663E-3,-2.3379036E1,7.3098404E1,-3.5461333E-1,-1.4556646E-1,4.5934683E-1,1.1319903E0],"categories":[],"categories_nodes":[],"categories_segments":[],"categories_sizes":[],"default_left":[0,0,0,0,0,0,0],"id":22,"left_children":[1,3,5,-1,-1,-1,-1],"loss_changes":[4.3547612E7,2.057401E6,6.721116E6,0E0,0E0,0E0,0E0],"parents":[2147483647,0,0,1,1,2,2],"right_children":[2,4,6,-1,-1,-1,-1],"split_conditions":[7.615E1,1.99E1,1.525E2,-3.5461333E-1,-1.4556646E-1,4.5934683E-1,1.1319903E0],"split_indices":[1,3,3,0,0,0,0],"split_type":[0,0,0,0,0,0,0],"sum_hessian":[2.5479E4,1.9305E4,6.174E3,8.146E3,1.1159E4,3.682E3,2.492E3],"tree_param":{"num_deleted":"0","num_feature":"5","num_nodes":"7","size_leaf_vector":"1"}},{"base_weights":[1.0906615E-3,-1.9682652E1,8.518071E1,-2.4338198E-1,2.1778938E-1,6.365336E-1,1.2436229E0],"categories":[],"categories_nodes":[],"categories_segments":[],"categories_sizes":[],"default_left":[0,0,0,0,0,0,0],"id":23,"left_children":[1,3,5,-1,-1,-1,-1],"loss_changes":[4.2722816E7,3.9957875E6,4.026428E6,0E0,0E0,0E0,0E0],"parents":[2147483647,0,0,1,1,2,2],"right_children":[2,4,6,-1,-1,-1,-1],"split_conditions":[9.66E1,4.75E1,1.7435E2,-2.4338198E-1,2.1778938E-1,6.365336E-1,1.2436229E0],"split_indices":[3,3,3,0,0,0,0],"split_type":[0,0,0,0,0,0,0],"sum_hessian":[2.5479E4,2.0697E4,4.782E3,1.8608E4,2.089E3,3.088E3,1.694E3],"tree_param":{"num_deleted":"0","num_feature":"5","num_nodes":"7","size_leaf_vector":"1"}},{"base_weights":[1.1520782E-3,-1.9738773E1,8.324916E1,-2.6704603E-1,6.021026E-2,6.008103E-1,1.1979225E0],"categories":[],"categories_nodes":[],"categories_segments":[],"categories_sizes":[],"default_left":[0,0,0,0,0,0,0],"id":24,"left_children":[1,3,5,-1,-1,-1,-1],"loss_changes":[4.1873172E7,3.696052E6,4.127768E6,0E0,0E0,0E0,0E0],"parents":[2147483647,0,0,1,1,2,2],"right_children":[2,4,6,-1,-1,-1,-1],"split_conditions":[9.535E1,3.765E1,1.711E2,-2.6704603E-1,6.021026E-2,6.008103E-1,1.1979225E0],"split_indices":[3,3,1,0,0,0,0],"split_type":[0,0,0,0,0,0,0],"sum_hessian":[2.5479E4,2.0596E4,4.883E3,1.6212E4,4.384E3,2.99E3,1.893E3],"tree_param":{"num_deleted":"0","num_feature":"5","num_nodes":"7","size_leaf_vector":"1"}},{"base_weights":[1.2044063E-3,-2.2706684E1,7.098174E1,-3.5384098E-1,-1.4550593E-1,3.5487992E-1,1.0017923E0],"categories":[],"categories_nodes":[],"categories_segments":[],"categories_sizes":[],"default_left":[0,0,0,0,0,0,0],"id":25,"left_children":[1,3,5,-1,-1,-1,-1],"loss_changes":[4.107074E7,1.995586E6,6.39681E6,0E0,0E0,0E0,0E0],"parents":[2147483647,0,0,1,1,2,2],"right_children":[2,4,6,-1,-1,-1,-1],"split_conditions":[7.4E1,1.79E1,1.34E2,-3.5384098E-1,-1.4550593E-1,3.5487992E-1,1.0017923E0],"split_indices":[2,3,1,0,0,0,0],"split_type":[0,0,0,0,0,0,0],"sum_hessian":[2.5479E4,1.9304E4,6.175E3,7.556E3,1.1748E4,2.788E3,3.387E3],"tree_param":{"num_deleted":"0","num_feature":"5","num_nodes":"7","size_leaf_vector":"1"}},{"base_weights":[1.2263515E-3,-2.2477514E1,7.028051E1,-3.2369223E-1,-1.2202217E-1,3.51389E-1,9.9177945E-1],"categories":[],"categories_nodes":[],"categories_segments":[],"categories_sizes":[],"default_left":[0,0,0,0,0,0,0],"id":26,"left_children":[1,3,5,-1,-1,-1,-1],"loss_changes":[4.0254624E7,1.961872E6,6.267242E6,0E0,0E0,0E0,0E0],"parents":[2147483647,0,0,1,1,2,2],"right_children":[2,4,6,-1,-1,-1,-1],"split_conditions":[7.51E1,2.2E1,1.3265E2,-3.2369223E-1,-1.2202217E-1,3.51389E-1,9.9177945E-1],"split_indices":[0,1,3,0,0,0,0],"split_type":[0,0,0,0,0,0,0],"sum_hessian":[2.5479E4,1.9305E4,6.174E3,9.835E3,9.47E3,2.787E3,3.387E3],"tree_param":{"num_deleted":"0","num_feature":"5","num_nodes":"7","size_leaf_vector":"1"}},{"base_weights":[1.2483653E-3,-1.8675592E1,8.294827E1,-2.3292032E-1,2.2636239E-1,6.287576E-1,1.2173333E0],"categories":[],"categories_nodes":[],"categories_segments":[],"categories_sizes":[],"default_left":[0,0,0,0,0,0,0],"id":27,"left_children":[1,3,5,-1,-1,-1,-1],"loss_changes":[3.9474868E7,3.9669875E6,3.638124E6,0E0,0E0,0E0,0E0],"parents":[2147483647,0,0,1,1,2,2],"right_children":[2,4,6,-1,-1,-1,-1],"split_conditions":[9.79E1,4.905E1,1.769E2,-2.3292032E-1,2.2636239E-1,6.287576E-1,1.2173333E0],"split_indices":[3,3,3,0,0,0,0],"split_type":[0,0,0,0,0,0,0],"sum_hessian":[2.5479E4,2.0797E4,4.682E3,1.8707E4,2.09E3,3.087E3,1.595E3],"tree_param":{"num_deleted":"0","num_feature":"5","num_nodes":"7","size_leaf_vector":"1"}},{"base_weights":[1.3085251E-3,-2.0158463E1,7.532316E1,-2.918741E-1,-4.897287E-2,5.161247E-1,1.1253549E0],"categories":[],"categories_nodes":[],"categories_segments":[],"categories_sizes":[],"default_left":[0,0,0,0,0,0,0],"id":28,"left_children":[1,3,5,-1,-1,-1,-1],"loss_changes":[3.869217E7,2.7696215E6,4.741124E6,0E0,0E0,0E0,0E0],"parents":[2147483647,0,0,1,1,2,2],"right_children":[2,4,6,-1,-1,-1,-1],"split_conditions":[8.98E1,2.975E1,1.6205E2,-2.918741E-1,-4.897287E-2,5.161247E-1,1.1253549E0],"split_indices":[3,3,3,0,0,0,0],"split_type":[0,0,0,0,0,0,0],"sum_hessian":[2.5479E4,2.01E4,5.379E3,1.2628E4,7.472E3,3.287E3,2.092E3],"tree_param":{"num_deleted":"0","num_feature":"5","num_nodes":"7","size_leaf_vector":"1"}},{"base_weights":[1.3463888E-3,-2.2063883E1,6.752249E1,-3.4313762E-1,-1.4281984E-1,3.364535E-1,9.639012E-1],"categories":[],"categories_nodes":[],"categories_segments":[],"categories_sizes":[],"default_left":[0,0,0,0,0,0,0],"id":29,"left_children":[1,3,5,-1,-1,-1,-1],"loss_changes":[3.7963364E7,1.830271E6,6.134388E6,0E0,0E0,0E0,0E0],"parents":[2147483647,0,0,1,1,2,2],"right_children":[2,4,6,-1,-1,-1,-1],"split_conditions":[7.19E1,1.725E1,1.34E2,-3.4313762E-1,-1.4281984E-1,3.364535E-1,9.639012E-1],"split_indices":[3,3,1,0,0,0,0],"split_type":[0,0,0,0,0,0,0],"sum_hessian":[2.5479E4,1.9204E4,6.275E3,7.459E3,1.1745E4,2.888E3,3.387E3],"tree_param":{"num_deleted":"0","num_feature":"5","num_nodes":"7","size_leaf_vector":"1"}},{"base_weights":[1.3640549E-3,-1.7901085E1,8.159123E1,-2.2626325E-1,2.2449568E-1,6.2823594E-1,1.2030141E0],"categories":[],"categories_nodes":[],"categories_segments":[],"categories_sizes":[],"default_left":[0,0,0,0,0,0,0],"id":30,"left_children":[1,3,5,-1,-1,-1,-1],"loss_changes":[3.7219036E7,3.9846775E6,3.323442E6,0E0,0E0,0E0,0E0],"parents":[2147483647,0,0,1,1,2,2],"right_children":[2,4,6,-1,-1,-1,-1],"split_conditions":[9.925E1,4.97E1,1.796E2,-2.2626325E-1,2.2449568E-1,6.2823594E-1,1.2030141E0],"split_indices":[3,1,3,0,0,0,0],"split_type":[0,0,0,0,0,0,0],"sum_hessian":[2.5479E4,2.0895E4,4.584E3,1.8705E4,2.19E3,3.089E3,1.495E3],"tree_param":{"num_deleted":"0","num_feature":"5","num_nodes":"7","size_leaf_vector":"1"}},{"base_weights":[1.4238204E-3,-2.1628729E1,6.619121E1,-3.3744437E-1,-1.3932082E-1,3.5901195E-1,9.735099E-1],"categories":[],"categories_nodes":[],"categories_segments":[],"categories_sizes":[],"default_left":[0,0,0,0,0,0,0],"id":31,"left_children":[1,3,5,-1,-1,-1,-1],"loss_changes":[3.6481024E7,1.790402E6,5.919984E6,0E0,0E0,0E0,0E0],"parents":[2147483647,0,0,1,1,2,2],"right_children":[2,4,6,-1,-1,-1,-1],"split_conditions":[7.19E1,1.725E1,1.3905E2,-3.3744437E-1,-1.3932082E-1,3.5901195E-1,9.735099E-1],"split_indices":[3,3,3,0,0,0,0],"split_type":[0,0,0,0,0,0,0],"sum_hessian":[2.5479E4,1.9204E4,6.275E3,7.459E3,1.1745E4,3.183E3,3.092E3],"tree_param":{"num_deleted":"0","num_feature":"5","num_nodes":"7","size_leaf_vector":"1"}},{"base_weights":[1.4430754E-3,-1.7552645E1,8.000367E1,-2.2530897E-1,1.9255489E-1,6.242436E-1,1.2011685E0],"categories":[],"categories_nodes":[],"categories_segments":[],"categories_sizes":[],"default_left":[0,0,0,0,0,0,0],"id":32,"left_children":[1,3,5,-1,-1,-1,-1],"loss_changes":[3.5784656E7,3.8294215E6,3.22567E6,0E0,0E0,0E0,0E0],"parents":[2147483647,0,0,1,1,2,2],"right_children":[2,4,6,-1,-1,-1,-1],"split_conditions":[9.82E1,4.58E1,1.8265E2,-2.2530897E-1,1.9255489E-1,6.242436E-1,1.2011685E0],"split_indices":[2,3,3,0,0,0,0],"split_type":[0,0,0,0,0,0,0],"sum_hessian":[2.5479E4,2.0895E4,4.584E3,1.8406E4,2.489E3,3.189E3,1.395E3],"tree_param":{"num_deleted":"0","num_feature":"5","num_nodes":"7","size_leaf_vector":"1"}},{"base_weights":[1.4975383E-3,-1.7144756E1,8.02914E1,-2.1846066E-1,2.3197393E-1,6.2809694E-1,1.1891654E0],"categories":[],"categories_nodes":[],"categories_segments":[],"categories_sizes":[],"default_left":[0,0,0,0,0,0,0],"id":33,"left_children":[1,3,5,-1,-1,-1,-1],"loss_changes":[3.5078956E7,3.9828185E6,3.020278E6,0E0,0E0,0E0,0E0],"parents":[2147483647,0,0,1,1,2,2],"right_children":[2,4,6,-1,-1,-1,-1],"split_conditions":[1.005E2,5.04E1,1.8265E2,-2.1846066E-1,2.3197393E-1,6.2809694E-1,1.1891654E0],"split_indices":[3,3,3,0,0,0,0],"split_type":[0,0,0,0,0,0,0],"sum_hessian":[2.5479E4,2.0996E4,4.483E3,1.8805E4,2.191E3,3.088E3,1.395E3],"tree_param":{"num_deleted":"0","num_feature":"5","num_nodes":"7","size_leaf_vector":"1"}},{"base_weights":[1.55405E-3,-1.6741432E1,8.059556E1,-2.150788E-1,2.4358082E-1,6.322012E-1,1.1772822E0],"categories":[],"categories_nodes":[],"categories_segments":[],"categories_sizes":[],"default_left":[0,0,0,0,0,0,0],"id":34,"left_children":[1,3,5,-1,-1,-1,-1],"loss_changes":[3.438366E7,4.1335955E6,2.820452E6,0E0,0E0,0E0,0E0],"parents":[2147483647,0,0,1,1,2,2],"right_children":[2,4,6,-1,-1,-1,-1],"split_conditions":[1.014E2,5.225E1,1.8265E2,-2.150788E-1,2.4358082E-1,6.322012E-1,1.1772822E0],"split_indices":[3,3,3,0,0,0,0],"split_type":[0,0,0,0,0,0,0],"sum_hessian":[2.5479E4,2.1097E4,4.382E3,1.8905E4,2.192E3,2.987E3,1.395E3],"tree_param":{"num_deleted":"0","num_feature":"5","num_nodes":"7","size_leaf_vector":"1"}},{"base_weights":[1.6114155E-3,-1.6120054E1,8.2062584E1,-2.1292812E-1,2.4771366E-1,6.5681106E-1,1.1847558E0],"categories":[],"categories_nodes":[],"categories_segments":[],"categories_sizes":[],"default_left":[0,0,0,0,0,0,0],"id":35,"left_children":[1,3,5,-1,-1,-1,-1],"loss_changes":[3.3710336E7,4.5052995E6,2.48797E6,0E0,0E0,0E0,0E0],"parents":[2147483647,0,0,1,1,2,2],"right_children":[2,4,6,-1,-1,-1,-1],"split_conditions":[1.0305E2,5.225E1,1.872E2,-2.1292812E-1,2.4771366E-1,6.5681106E-1,1.1847558E0],"split_indices":[3,3,3,0,0,0,0],"split_type":[0,0,0,0,0,0,0],"sum_hessian":[2.5479E4,2.1296E4,4.183E3,1.8905E4,2.391E3,2.887E3,1.296E3],"tree_param":{"num_deleted":"0","num_feature":"5","num_nodes":"7","size_leaf_vector":"1"}},{"base_weights":[1.6691993E-3,-1.5958852E1,8.12424E1,-2.1079895E-1,2.4523756E-1,6.411343E-1,1.1540532E0],"categories":[],"categories_nodes":[],"categories_segments":[],"categories_sizes":[],"default_left":[0,0,0,0,0,0,0],"id":36,"left_children":[1,3,5,-1,-1,-1,-1],"loss_changes":[3.3039796E7,4.415666E6,2.440974E6,0E0,0E0,0E0,0E0],"parents":[2147483647,0,0,1,1,2,2],"right_children":[2,4,6,-1,-1,-1,-1],"split_conditions":[1.0305E2,5.225E1,1.8265E2,-2.1079895E-1,2.4523756E-1,6.411343E-1,1.1540532E0],"split_indices":[3,3,3,0,0,0,0],"split_type":[0,0,0,0,0,0,0],"sum_hessian":[2.5479E4,2.1296E4,4.183E3,1.8905E4,2.391E3,2.788E3,1.395E3],"tree_param":{"num_deleted":"0","num_feature":"5","num_nodes":"7","size_leaf_vector":"1"}},{"base_weights":[1.7248882E-3,-1.973169E1,6.440939E1,-2.8150555E-1,-7.778672E-2,4.1715416E-1,1.0081633E0],"categories":[],"categories_nodes":[],"categories_segments":[],"categories_sizes":[],"default_left":[0,0,0,0,0,0,0],"id":37,"left_children":[1,3,5,-1,-1,-1,-1],"loss_changes":[3.2385922E7,1.9625855E6,4.933276E6,0E0,0E0,0E0,0E0],"parents":[2147483647,0,0,1,1,2,2],"right_children":[2,4,6,-1,-1,-1,-1],"split_conditions":[8.21E1,2.485E1,1.577E2,-2.8150555E-1,-7.778672E-2,4.1715416E-1,1.0081633E0],"split_indices":[1,3,3,0,0,0,0],"split_type":[0,0,0,0,0,0,0],"sum_hessian":[2.5479E4,1.9504E4,5.975E3,1.1443E4,8.061E3,3.682E3,2.293E3],"tree_param":{"num_deleted":"0","num_feature":"5","num_nodes":"7","size_leaf_vector":"1"}},{"base_weights":[1.7493215E-3,-1.543051E1,8.085484E1,-2.0784752E-1,2.3456761E-1,6.488021E-1,1.1513119E0],"categories":[],"categories_nodes":[],"categories_segments":[],"categories_sizes":[],"default_left":[0,0,0,0,0,0,0],"id":38,"left_children":[1,3,5,-1,-1,-1,-1],"loss_changes":[3.1793812E7,4.455598E6,2.228732E6,0E0,0E0,0E0,0E0],"parents":[2147483647,0,0,1,1,2,2],"right_children":[2,4,6,-1,-1,-1,-1],"split_conditions":[1.0545E2,5.13E1,1.872E2,-2.0784752E-1,2.3456761E-1,6.488021E-1,1.1513119E0],"split_indices":[3,1,3,0,0,0,0],"split_type":[0,0,0,0,0,0,0],"sum_hessian":[2.5479E4,2.1396E4,4.083E3,1.8807E4,2.589E3,2.787E3,1.296E3],"tree_param":{"num_deleted":"0","num_feature":"5","num_nodes":"7","size_leaf_vector":"1"}},{"base_weights":[1.803518E-3,-1.5276202E1,8.004673E1,-2.0926648E-1,2.087201E-1,6.4231634E-1,1.1398076E0],"categories":[],"categories_nodes":[],"categories_segments":[],"categories_sizes":[],"default_left":[0,0,0,0,0,0,0],"id":39,"left_children":[1,3,5,-1,-1,-1,-1],"loss_changes":[3.11614E7,4.3708495E6,2.184438E6,0E0,0E0,0E0,0E0],"parents":[2147483647,0,0,1,1,2,2],"right_children":[2,4,6,-1,-1,-1,-1],"split_conditions":[1.0545E2,4.59E1,1.872E2,-2.0926648E-1,2.087201E-1,6.4231634E-1,1.1398076E0],"split_indices":[3,2,3,0,0,0,0],"split_type":[0,0,0,0,0,0,0],"sum_hessian":[2.5479E4,2.1396E4,4.083E3,1.8504E4,2.892E3,2.787E3,1.296E3],"tree_param":{"num_deleted":"0","num_feature":"5","num_nodes":"7","size_leaf_vector":"1"}},{"base_weights":[1.8553239E-3,-1.5125658E1,7.9235214E1,-2.1047194E-1,1.8701324E-1,6.357834E-1,1.1284183E0],"categories":[],"categories_nodes":[],"categories_segments":[],"categories_sizes":[],"default_left":[0,0,0,0,0,0,0],"id":40,"left_children":[1,3,5,-1,-1,-1,-1],"loss_changes":[3.054162E7,4.286179E6,2.142252E6,0E0,0E0,0E0,0E0],"parents":[2147483647,0,0,1,1,2,2],"right_children":[2,4,6,-1,-1,-1,-1],"split_conditions":[1.0625E2,4.455E1,1.872E2,-2.1047194E-1,1.8701324E-1,6.357834E-1,1.1284183E0],"split_indices":[1,3,3,0,0,0,0],"split_type":[0,0,0,0,0,0,0],"sum_hessian":[2.5479E4,2.1395E4,4.084E3,1.8208E4,3.187E3,2.788E3,1.296E3],"tree_param":{"num_deleted":"0","num_feature":"5","num_nodes":"7","size_leaf_vector":"1"}},{"base_weights":[1.9057362E-3,-1.95944E1,5.9980656E1,-3.1546247E-1,-1.2164337E-1,2.9388666E-1,8.600676E-1],"categories":[],"categories_nodes":[],"categories_segments":[],"categories_sizes":[],"default_left":[0,0,0,0,0,0,0],"id":41,"left_children":[1,3,5,-1,-1,-1,-1],"loss_changes":[2.9949398E7,1.705166E6,4.993566E6,0E0,0E0,0E0,0E0],"parents":[2147483647,0,0,1,1,2,2],"right_children":[2,4,6,-1,-1,-1,-1],"split_conditions":[7.295E1,1.685E1,1.326E2,-3.1546247E-1,-1.2164337E-1,2.9388666E-1,8.600676E-1],"split_indices":[1,3,0,0,0,0,0],"split_type":[0,0,0,0,0,0,0],"sum_hessian":[2.5479E4,1.9205E4,6.274E3,7.361E3,1.1844E4,2.885E3,3.389E3],"tree_param":{"num_deleted":"0","num_feature":"5","num_nodes":"7","size_leaf_vector":"1"}},{"base_weights":[1.9150925E-3,-1.6317295E1,7.062182E1,-2.3655568E-1,3.6077604E-2,5.12924E-1,1.027408E0],"categories":[],"categories_nodes":[],"categories_segments":[],"categories_sizes":[],"default_left":[0,0,0,0,0,0,0],"id":42,"left_children":[1,3,5,-1,-1,-1,-1],"loss_changes":[2.936586E7,3.0264545E6,2.964216E6,0E0,0E0,0E0,0E0],"parents":[2147483647,0,0,1,1,2,2],"right_children":[2,4,6,-1,-1,-1,-1],"split_conditions":[9.575E1,3.445E1,1.719E2,-2.3655568E-1,3.6077604E-2,5.12924E-1,1.027408E0],"split_indices":[2,3,3,0,0,0,0],"split_type":[0,0,0,0,0,0,0],"sum_hessian":[2.5479E4,2.0697E4,4.782E3,1.5126E4,5.571E3,2.987E3,1.795E3],"tree_param":{"num_deleted":"0","num_feature":"5","num_nodes":"7","size_leaf_vector":"1"}},{"base_weights":[1.9491074E-3,-1.922206E1,5.8828762E1,-3.111599E-1,-1.19760714E-1,3.4810862E-1,9.081291E-1],"categories":[],"categories_nodes":[],"categories_segments":[],"categories_sizes":[],"default_left":[0,0,0,0,0,0,0],"id":43,"left_children":[1,3,5,-1,-1,-1,-1],"loss_changes":[2.8816134E7,1.6547775E6,4.818014E6,0E0,0E0,0E0,0E0],"parents":[2147483647,0,0,1,1,2,2],"right_children":[2,4,6,-1,-1,-1,-1],"split_conditions":[7.19E1,1.655E1,1.486E2,-3.111599E-1,-1.19760714E-1,3.4810862E-1,9.081291E-1],"split_indices":[3,3,1,0,0,0,0],"split_type":[0,0,0,0,0,0,0],"sum_hessian":[2.5479E4,1.9204E4,6.275E3,7.269E3,1.1935E4,3.585E3,2.69E3],"tree_param":{"num_deleted":"0","num_feature":"5","num_nodes":"7","size_leaf_vector":"1"}},{"base_weights":[1.963567E-3,-1.45487175E1,7.6236275E1,-2.0870045E-1,1.488948E-1,6.1846495E-1,1.1084985E0],"categories":[],"categories_nodes":[],"categories_segments":[],"categories_sizes":[],"default_left":[0,0,0,0,0,0,0],"id":44,"left_children":[1,3,5,-1,-1,-1,-1],"loss_changes":[2.8265084E7,3.982045E6,2.02731E6,0E0,0E0,0E0,0E0],"parents":[2147483647,0,0,1,1,2,2],"right_children":[2,4,6,-1,-1,-1,-1],"split_conditions":[1.0545E2,4.245E1,1.901E2,-2.0870045E-1,1.488948E-1,6.1846495E-1,1.1084985E0],"split_indices":[3,3,3,0,0,0,0],"split_type":[0,0,0,0,0,0,0],"sum_hessian":[2.5479E4,2.1396E4,4.083E3,1.7614E4,3.782E3,2.886E3,1.197E3],"tree_param":{"num_deleted":"0","num_feature":"5","num_nodes":"7","size_leaf_vector":"1"}},{"base_weights":[2.0108684E-3,-1.8848997E1,5.7699615E1,-3.05962E-1,-1.1693011E-1,2.823786E-1,8.2796377E-1],"categories":[],"categories_nodes":[],"categories_segments":[],"categories_sizes":[],"default_left":[0,0,0,0,0,0,0],"id":45,"left_children":[1,3,5,-1,-1,-1,-1],"loss_changes":[2.7714614E7,1.614153E6,4.637364E6,0E0,0E0,0E0,0E0],"parents":[2147483647,0,0,1,1,2,2],"right_children":[2,4,6,-1,-1,-1,-1],"split_conditions":[7.195E1,1.655E1,1.3265E2,-3.05962E-1,-1.1693011E-1,2.823786E-1,8.2796377E-1],"split_indices":[0,3,3,0,0,0,0],"split_type":[0,0,0,0,0,0,0],"sum_hessian":[2.5479E4,1.9205E4,6.274E3,7.269E3,1.1936E4,2.887E3,3.387E3],"tree_param":{"num_deleted":"0","num_feature":"5","num_nodes":"7","size_leaf_vector":"1"}},{"base_weights":[2.0182708E-3,-1.4265086E1,7.472881E1,-2.0766173E-1,1.3314682E-1,5.968376E-1,1.0702327E0],"categories":[],"categories_nodes":[],"categories_segments":[],"categories_sizes":[],"default_left":[0,0,0,0,0,0,0],"id":46,"left_children":[1,3,5,-1,-1,-1,-1],"loss_changes":[2.7166186E7,3.836547E6,1.9784E6,0E0,0E0,0E0,0E0],"parents":[2147483647,0,0,1,1,2,2],"right_children":[2,4,6,-1,-1,-1,-1],"split_conditions":[1.043E2,4.13E1,1.872E2,-2.0766173E-1,1.3314682E-1,5.968376E-1,1.0702327E0],"split_indices":[2,3,3,0,0,0,0],"split_type":[0,0,0,0,0,0,0],"sum_hessian":[2.5479E4,2.1395E4,4.084E3,1.7314E4,4.081E3,2.788E3,1.296E3],"tree_param":{"num_deleted":"0","num_feature":"5","num_nodes":"7","size_leaf_vector":"1"}},{"base_weights":[2.0592457E-3,-1.8490597E1,5.6578922E1,-3.022629E-1,-1.1512924E-1,3.5590267E-1,9.065305E-1],"categories":[],"categories_nodes":[],"categories_segments":[],"categories_sizes":[],"default_left":[0,0,0,0,0,0,0],"id":47,"left_children":[1,3,5,-1,-1,-1,-1],"loss_changes":[2.6659662E7,1.5722255E6,4.485896E6,0E0,0E0,0E0,0E0],"parents":[2147483647,0,0,1,1,2,2],"right_children":[2,4,6,-1,-1,-1,-1],"split_conditions":[7.1E1,1.62E1,1.571E2,-3.022629E-1,-1.1512924E-1,3.5590267E-1,9.065305E-1],"split_indices":[2,3,1,0,0,0,0],"split_type":[0,0,0,0,0,0,0],"sum_hessian":[2.5479E4,1.9203E4,6.276E3,7.159E3,1.2044E4,3.885E3,2.391E3],"tree_param":{"num_deleted":"0","num_feature":"5","num_nodes":"7","size_leaf_vector":"1"}},{"base_weights":[2.0702668E-3,-1.3993194E1,7.3305046E1,-2.0843226E-1,1.11900195E-1,5.932726E-1,1.0693988E0],"categories":[],"categories_nodes":[],"categories_segments":[],"categories_sizes":[],"default_left":[0,0,0,0,0,0,0],"id":48,"left_children":[1,3,5,-1,-1,-1,-1],"loss_changes":[2.614082E7,3.691168E6,1.914176E6,0E0,0E0,0E0,0E0],"parents":[2147483647,0,0,1,1,2,2],"right_children":[2,4,6,-1,-1,-1,-1],"split_conditions":[1.0625E2,3.98E1,1.901E2,-2.0843226E-1,1.11900195E-1,5.932726E-1,1.0693988E0],"split_indices":[1,3,3,0,0,0,0],"split_type":[0,0,0,0,0,0,0],"sum_hessian":[2.5479E4,2.1395E4,4.084E3,1.682E4,4.575E3,2.887E3,1.197E3],"tree_param":{"num_deleted":"0","num_feature":"5","num_nodes":"7","size_leaf_vector":"1"}},{"base_weights":[2.110798E-3,-1.83252E1,5.4929417E1,-2.9835024E-1,-1.1564832E-1,2.684054E-1,7.968581E-1],"categories":[],"categories_nodes":[],"categories_segments":[],"categories_sizes":[],"default_left":[0,0,0,0,0,0,0],"id":49,"left_children":[1,3,5,-1,-1,-1,-1],"loss_changes":[2.5650954E7,1.486305E6,4.430902E6,0E0,0E0,0E0,0E0],"parents":[2147483647,0,0,1,1,2,2],"right_children":[2,4,6,-1,-1,-1,-1],"split_conditions":[6.695E1,1.595E1,1.34E2,-2.9835024E-1,-1.1564832E-1,2.684054E-1,7.968581E-1],"split_indices":[3,3,1,0,0,0,0],"split_type":[0,0,0,0,0,0,0],"sum_hessian":[2.5479E4,1.9105E4,6.374E3,7.068E3,1.2037E4,2.987E3,3.387E3],"tree_param":{"num_deleted":"0","num_feature":"5","num_nodes":"7","size_leaf_vector":"1"}},{"base_weights":[2.1164813E-3,-1.6061224E1,6.1444923E1,-2.4360305E-1,-2.7705763E-2,4.2328194E-1,9.2936575E-1],"categories":[],"categories_nodes":[],"categories_segments":[],"categories_sizes":[],"default_left":[0,0,0,0,0,0,0],"id":50,"left_children":[1,3,5,-1,-1,-1,-1],"loss_changes":[2.5149152E7,2.2279965E6,3.175322E6,0E0,0E0,0E0,0E0],"parents":[2147483647,0,0,1,1,2,2],"right_children":[2,4,6,-1,-1,-1,-1],"split_conditions":[9.07E1,2.88E1,1.6835E2,-2.4360305E-1,-2.7705763E-2,4.2328194E-1,9.2936575E-1],"split_indices":[3,3,1,0,0,0,0],"split_type":[0,0,0,0,0,0,0],"sum_hessian":[2.5479E4,2.0199E4,5.28E3,1.2434E4,7.765E3,3.287E3,1.993E3],"tree_param":{"num_deleted":"0","num_feature":"5","num_nodes":"7","size_leaf_vector":"1"}},{"base_weights":[2.1379474E-3,-1.7973759E1,5.3876255E1,-2.9432577E-1,-1.1403626E-1,3.242454E-1,8.5151976E-1],"categories":[],"categories_nodes":[],"categories_segments":[],"categories_sizes":[],"default_left":[0,0,0,0,0,0,0],"id":51,"left_children":[1,3,5,-1,-1,-1,-1],"loss_changes":[2.4676706E7,1.4380775E6,4.274342E6,0E0,0E0,0E0,0E0],"parents":[2147483647,0,0,1,1,2,2],"right_children":[2,4,6,-1,-1,-1,-1],"split_conditions":[6.695E1,1.56E1,1.4945E2,-2.9432577E-1,-1.1403626E-1,3.242454E-1,8.5151976E-1],"split_indices":[3,3,3,0,0,0,0],"split_type":[0,0,0,0,0,0,0],"sum_hessian":[2.5479E4,1.9105E4,6.374E3,6.961E3,1.2144E4,3.782E3,2.592E3],"tree_param":{"num_deleted":"0","num_feature":"5","num_nodes":"7","size_leaf_vector":"1"}},{"base_weights":[2.1478864E-3,-1.3273591E1,7.157193E1,-1.804895E-1,2.1587965E-1,5.870565E-1,1.0537155E0],"categories":[],"categories_nodes":[],"categories_segments":[],"categories_sizes":[],"default_left":[0,0,0,0,0,0,0],"id":52,"left_children":[1,3,5,-1,-1,-1,-1],"loss_changes":[2.4210562E7,3.5786342E6,1.727664E6,0E0,0E0,0E0,0E0],"parents":[2147483647,0,0,1,1,2,2],"right_children":[2,4,6,-1,-1,-1,-1],"split_conditions":[1.08E2,5.32E1,1.925E2,-1.804895E-1,2.1587965E-1,5.870565E-1,1.0537155E0],"split_indices":[3,1,3,0,0,0,0],"split_type":[0,0,0,0,0,0,0],"sum_hessian":[2.5479E4,2.1493E4,3.986E3,1.8904E4,2.589E3,2.889E3,1.097E3],"tree_param":{"num_deleted":"0","num_feature":"5","num_nodes":"7","size_leaf_vector":"1"}},{"base_weights":[2.1909364E-3,-1.3140855E1,7.085662E1,-1.9720854E-1,1.1754497E-1,5.811879E-1,1.043188E0],"categories":[],"categories_nodes":[],"categories_segments":[],"categories_sizes":[],"default_left":[0,0,0,0,0,0,0],"id":53,"left_children":[1,3,5,-1,-1,-1,-1],"loss_changes":[2.3729002E7,3.5211945E6,1.693338E6,0E0,0E0,0E0,0E0],"parents":[2147483647,0,0,1,1,2,2],"right_children":[2,4,6,-1,-1,-1,-1],"split_conditions":[1.08E2,4.035E1,1.925E2,-1.9720854E-1,1.1754497E-1,5.811879E-1,1.043188E0],"split_indices":[3,3,3,0,0,0,0],"split_type":[0,0,0,0,0,0,0],"sum_hessian":[2.5479E4,2.1493E4,3.986E3,1.7E4,4.493E3,2.889E3,1.097E3],"tree_param":{"num_deleted":"0","num_feature":"5","num_nodes":"7","size_leaf_vector":"1"}},{"base_weights":[2.2296694E-3,-1.7272697E1,5.2875893E1,-2.8021592E-1,-1.0281983E-1,3.3830976E-1,8.593434E-1],"categories":[],"categories_nodes":[],"categories_segments":[],"categories_sizes":[],"default_left":[0,0,0,0,0,0,0],"id":54,"left_children":[1,3,5,-1,-1,-1,-1],"loss_changes":[2.3274056E7,1.4428975E6,3.947802E6,0E0,0E0,0E0,0E0],"parents":[2147483647,0,0,1,1,2,2],"right_children":[2,4,6,-1,-1,-1,-1],"split_conditions":[7.295E1,1.77E1,1.594E2,-2.8021592E-1,-1.0281983E-1,3.3830976E-1,8.593434E-1],"split_indices":[1,2,1,0,0,0,0],"split_type":[0,0,0,0,0,0,0],"sum_hessian":[2.5479E4,1.9205E4,6.274E3,7.567E3,1.1638E4,3.982E3,2.292E3],"tree_param":{"num_deleted":"0","num_feature":"5","num_nodes":"7","size_leaf_vector":"1"}},{"base_weights":[2.2399651E-3,-1.2891139E1,6.951071E1,-1.9794062E-1,9.949618E-2,5.776231E-1,1.0463918E0],"categories":[],"categories_nodes":[],"categories_segments":[],"categories_sizes":[],"default_left":[0,0,0,0,0,0,0],"id":55,"left_children":[1,3,5,-1,-1,-1,-1],"loss_changes":[2.2836048E7,3.389113E6,1.639404E6,0E0,0E0,0E0,0E0],"parents":[2147483647,0,0,1,1,2,2],"right_children":[2,4,6,-1,-1,-1,-1],"split_conditions":[1.08E2,3.88E1,1.957E2,-1.9794062E-1,9.949618E-2,5.776231E-1,1.0463918E0],"split_indices":[3,3,3,0,0,0,0],"split_type":[0,0,0,0,0,0,0],"sum_hessian":[2.5479E4,2.1493E4,3.986E3,1.6505E4,4.988E3,2.989E3,9.97E2],"tree_param":{"num_deleted":"0","num_feature":"5","num_nodes":"7","size_leaf_vector":"1"}},{"base_weights":[2.277907E-3,-1.7124685E1,5.133212E1,-2.8408217E-1,-1.0795769E-1,2.653224E-1,7.6038253E-1],"categories":[],"categories_nodes":[],"categories_segments":[],"categories_sizes":[],"default_left":[0,0,0,0,0,0,0],"id":56,"left_children":[1,3,5,-1,-1,-1,-1],"loss_changes":[2.2400966E7,1.3641015E6,3.904004E6,0E0,0E0,0E0,0E0],"parents":[2147483647,0,0,1,1,2,2],"right_children":[2,4,6,-1,-1,-1,-1],"split_conditions":[6.695E1,1.53E1,1.3735E2,-2.8408217E-1,-1.0795769E-1,2.653224E-1,7.6038253E-1],"split_indices":[3,3,3,0,0,0,0],"split_type":[0,0,0,0,0,0,0],"sum_hessian":[2.5479E4,1.9105E4,6.374E3,6.864E3,1.2241E4,3.182E3,3.192E3],"tree_param":{"num_deleted":"0","num_feature":"5","num_nodes":"7","size_leaf_vector":"1"}},{"base_weights":[2.2788197E-3,-1.3929628E1,6.187625E1,-2.2059242E-1,8.884806E-3,4.613137E-1,9.230126E-1],"categories":[],"categories_nodes":[],"categories_segments":[],"categories_sizes":[],"default_left":[0,0,0,0,0,0,0],"id":57,"left_children":[1,3,5,-1,-1,-1,-1],"loss_changes":[2.1965194E7,2.5054615E6,2.239076E6,0E0,0E0,0E0,0E0],"parents":[2147483647,0,0,1,1,2,2],"right_children":[2,4,6,-1,-1,-1,-1],"split_conditions":[9.79E1,3.165E1,1.769E2,-2.2059242E-1,8.884806E-3,4.613137E-1,9.230126E-1],"split_indices":[3,3,3,0,0,0,0],"split_type":[0,0,0,0,0,0,0],"sum_hessian":[2.5479E4,2.0797E4,4.682E3,1.3429E4,7.368E3,3.087E3,1.595E3],"tree_param":{"num_deleted":"0","num_feature":"5","num_nodes":"7","size_leaf_vector":"1"}},{"base_weights":[2.3023612E-3,-1.6801052E1,5.0362286E1,-2.8025314E-1,-1.0640311E-1,2.8233686E-1,7.7020115E-1],"categories":[],"categories_nodes":[],"categories_segments":[],"categories_sizes":[],"default_left":[0,0,0,0,0,0,0],"id":58,"left_children":[1,3,5,-1,-1,-1,-1],"loss_changes":[2.1562448E7,1.320877E6,3.75844E6,0E0,0E0,0E0,0E0],"parents":[2147483647,0,0,1,1,2,2],"right_children":[2,4,6,-1,-1,-1,-1],"split_conditions":[6.695E1,1.5E1,1.426E2,-2.8025314E-1,-1.0640311E-1,2.8233686E-1,7.7020115E-1],"split_indices":[3,3,3,0,0,0,0],"split_type":[0,0,0,0,0,0,0],"sum_hessian":[2.5479E4,1.9105E4,6.374E3,6.769E3,1.2336E4,3.484E3,2.89E3],"tree_param":{"num_deleted":"0","num_feature":"5","num_nodes":"7","size_leaf_vector":"1"}},{"base_weights":[2.3061503E-3,-1.2398282E1,6.6893906E1,-1.9570953E-1,8.0739565E-2,5.543233E-1,1.0114269E0],"categories":[],"categories_nodes":[],"categories_segments":[],"categories_sizes":[],"default_left":[0,0,0,0,0,0,0],"id":59,"left_children":[1,3,5,-1,-1,-1,-1],"loss_changes":[2.1136368E7,3.1566445E6,1.558686E6,0E0,0E0,0E0,0E0],"parents":[2147483647,0,0,1,1,2,2],"right_children":[2,4,6,-1,-1,-1,-1],"split_conditions":[1.093E2,3.66E1,1.957E2,-1.9570953E-1,8.0739565E-2,5.543233E-1,1.0114269E0],"split_indices":[1,3,3,0,0,0,0],"split_type":[0,0,0,0,0,0,0],"sum_hessian":[2.5479E4,2.1495E4,3.984E3,1.5918E4,5.577E3,2.987E3,9.97E2],"tree_param":{"num_deleted":"0","num_feature":"5","num_nodes":"7","size_leaf_vector":"1"}},{"base_weights":[2.3400246E-3,-1.6485254E1,4.9405647E1,-2.7549422E-1,-1.04118995E-1,3.2124087E-1,8.2354397E-1],"categories":[],"categories_nodes":[],"categories_segments":[],"categories_sizes":[],"default_left":[0,0,0,0,0,0,0],"id":60,"left_children":[1,3,5,-1,-1,-1,-1],"loss_changes":[2.0755336E7,1.2835045E6,3.627886E6,0E0,0E0,0E0,0E0],"parents":[2147483647,0,0,1,1,2,2],"right_children":[2,4,6,-1,-1,-1,-1],"split_conditions":[6.825E1,1.5E1,1.596E2,-2.7549422E-1,-1.04118995E-1,3.2124087E-1,8.2354397E-1],"split_indices":[1,3,3,0,0,0,0],"split_type":[0,0,0,0,0,0,0],"sum_hessian":[2.5479E4,1.9104E4,6.375E3,6.769E3,1.2335E4,4.183E3,2.192E3],"tree_param":{"num_deleted":"0","num_feature":"5","num_nodes":"7","size_leaf_vector":"1"}},{"base_weights":[2.345576E-3,-1.4966176E1,5.335066E1,-2.2576994E-1,-3.7851043E-2,3.6392963E-1,8.383077E-1],"categories":[],"categories_nodes":[],"categories_segments":[],"categories_sizes":[],"default_left":[0,0,0,0,0,0,0],"id":61,"left_children":[1,3,5,-1,-1,-1,-1],"loss_changes":[2.0347736E7,1.693176E6,2.882649E6,0E0,0E0,0E0,0E0],"parents":[2147483647,0,0,1,1,2,2],"right_children":[2,4,6,-1,-1,-1,-1],"split_conditions":[8.785E1,2.675E1,1.669E2,-2.2576994E-1,-3.7851043E-2,3.6392963E-1,8.383077E-1],"split_indices":[3,3,3,0,0,0,0],"split_type":[0,0,0,0,0,0,0],"sum_hessian":[2.5479E4,1.9897E4,5.582E3,1.1838E4,8.059E3,3.588E3,1.994E3],"tree_param":{"num_deleted":"0","num_feature":"5","num_nodes":"7","size_leaf_vector":"1"}},{"base_weights":[2.357814E-3,-1.2055659E1,6.500738E1,-1.7502473E-1,1.3400485E-1,5.454355E-1,1.0083771E0],"categories":[],"categories_nodes":[],"categories_segments":[],"categories_sizes":[],"default_left":[0,0,0,0,0,0,0],"id":62,"left_children":[1,3,5,-1,-1,-1,-1],"loss_changes":[1.9972816E7,2.980482E6,1.489316E6,0E0,0E0,0E0,0E0],"parents":[2147483647,0,0,1,1,2,2],"right_children":[2,4,6,-1,-1,-1,-1],"split_conditions":[1.08E2,4.28E1,1.9815E2,-1.7502473E-1,1.3400485E-1,5.454355E-1,1.0083771E0],"split_indices":[3,3,3,0,0,0,0],"split_type":[0,0,0,0,0,0,0],"sum_hessian":[2.5479E4,2.1493E4,3.986E3,1.7705E4,3.788E3,3.087E3,8.99E2],"tree_param":{"num_deleted":"0","num_feature":"5","num_nodes":"7","size_leaf_vector":"1"}},{"base_weights":[2.3948033E-3,-1.601217E1,4.799836E1,-2.7282292E-1,-1.0263623E-1,2.3231277E-1,6.979969E-1],"categories":[],"categories_nodes":[],"categories_segments":[],"categories_sizes":[],"default_left":[0,0,0,0,0,0,0],"id":63,"left_children":[1,3,5,-1,-1,-1,-1],"loss_changes":[1.9585576E7,1.237537E6,3.440595E6,0E0,0E0,0E0,0E0],"parents":[2147483647,0,0,1,1,2,2],"right_children":[2,4,6,-1,-1,-1,-1],"split_conditions":[6.695E1,1.44E1,1.326E2,-2.7282292E-1,-1.0263623E-1,2.3231277E-1,6.979969E-1],"split_indices":[3,3,0,0,0,0,0],"split_type":[0,0,0,0,0,0,0],"sum_hessian":[2.5479E4,1.9105E4,6.374E3,6.452E3,1.2653E4,2.985E3,3.389E3],"tree_param":{"num_deleted":"0","num_feature":"5","num_nodes":"7","size_leaf_vector":"1"}},{"base_weights":[2.391478E-3,-1.5852162E1,4.75188E1,-2.860727E-1,-1.08674265E-1,3.0840737E-1,7.930941E-1],"categories":[],"categories_nodes":[],"categories_segments":[],"categories_sizes":[],"default_left":[0,0,0,0,0,0,0],"id":64,"left_children":[1,3,5,-1,-1,-1,-1],"loss_changes":[1.9196148E7,1.2144645E6,3.377617E6,0E0,0E0,0E0,0E0],"parents":[2147483647,0,0,1,1,2,2],"right_children":[2,4,6,-1,-1,-1,-1],"split_conditions":[6.7E1,1.32E1,1.6135E2,-2.860727E-1,-1.08674265E-1,3.0840737E-1,7.930941E-1],"split_indices":[0,3,1,0,0,0,0],"split_type":[0,0,0,0,0,0,0],"sum_hessian":[2.5479E4,1.9105E4,6.374E3,5.367E3,1.3738E4,4.182E3,2.192E3],"tree_param":{"num_deleted":"0","num_feature":"5","num_nodes":"7","size_leaf_vector":"1"}},{"base_weights":[2.3942767E-3,-1.1539637E1,6.410401E1,-1.8675645E-1,7.541863E-2,5.377366E-1,9.834102E-1],"categories":[],"categories_nodes":[],"categories_segments":[],"categories_sizes":[],"default_left":[0,0,0,0,0,0,0],"id":65,"left_children":[1,3,5,-1,-1,-1,-1],"loss_changes":[1.8852444E7,2.9403678E6,1.369821E6,0E0,0E0,0E0,0E0],"parents":[2147483647,0,0,1,1,2,2],"right_children":[2,4,6,-1,-1,-1,-1],"split_conditions":[1.1055E2,3.595E1,1.9815E2,-1.8675645E-1,7.541863E-2,5.377366E-1,9.834102E-1],"split_indices":[3,3,3,0,0,0,0],"split_type":[0,0,0,0,0,0,0],"sum_hessian":[2.5479E4,2.1592E4,3.887E3,1.5715E4,5.877E3,2.988E3,8.99E2],"tree_param":{"num_deleted":"0","num_feature":"5","num_nodes":"7","size_leaf_vector":"1"}},{"base_weights":[2.425451E-3,-1.2443126E1,5.8280575E1,-2.0100617E-1,1.9757785E-2,4.4859135E-1,8.7937135E-1],"categories":[],"categories_nodes":[],"categories_segments":[],"categories_sizes":[],"default_left":[0,0,0,0,0,0,0],"id":66,"left_children":[1,3,5,-1,-1,-1,-1],"loss_changes":[1.8481464E7,2.3183742E6,1.780839E6,0E0,0E0,0E0,0E0],"parents":[2147483647,0,0,1,1,2,2],"right_children":[2,4,6,-1,-1,-1,-1],"split_conditions":[1.005E2,3.215E1,1.8265E2,-2.0100617E-1,1.9757785E-2,4.4859135E-1,8.7937135E-1],"split_indices":[3,3,3,0,0,0,0],"split_type":[0,0,0,0,0,0,0],"sum_hessian":[2.5479E4,2.0996E4,4.483E3,1.3713E4,7.283E3,3.088E3,1.395E3],"tree_param":{"num_deleted":"0","num_feature":"5","num_nodes":"7","size_leaf_vector":"1"}},{"base_weights":[2.447044E-3,-1.5416539E1,4.6203785E1,-2.8101432E-1,-1.05876684E-1,2.2374696E-1,6.721292E-1],"categories":[],"categories_nodes":[],"categories_segments":[],"categories_sizes":[],"default_left":[0,0,0,0,0,0,0],"id":67,"left_children":[1,3,5,-1,-1,-1,-1],"loss_changes":[1.8152098E7,1.169955E6,3.190505E6,0E0,0E0,0E0,0E0],"parents":[2147483647,0,0,1,1,2,2],"right_children":[2,4,6,-1,-1,-1,-1],"split_conditions":[6.825E1,1.295E1,1.3265E2,-2.8101432E-1,-1.05876684E-1,2.2374696E-1,6.721292E-1],"split_indices":[1,3,3,0,0,0,0],"split_type":[0,0,0,0,0,0,0],"sum_hessian":[2.5479E4,1.9104E4,6.375E3,5.266E3,1.3838E4,2.988E3,3.387E3],"tree_param":{"num_deleted":"0","num_feature":"5","num_nodes":"7","size_leaf_vector":"1"}},{"base_weights":[2.4427956E-3,-1.5260861E1,4.5746864E1,-2.4165177E-1,-8.4947005E-2,3.021537E-1,7.7507794E-1],"categories":[],"categories_nodes":[],"categories_segments":[],"categories_sizes":[],"default_left":[0,0,0,0,0,0,0],"id":68,"left_children":[1,3,5,-1,-1,-1,-1],"loss_changes":[1.7791114E7,1.150894E6,3.142412E6,0E0,0E0,0E0,0E0],"parents":[2147483647,0,0,1,1,2,2],"right_children":[2,4,6,-1,-1,-1,-1],"split_conditions":[6.695E1,2.01E1,1.6205E2,-2.4165177E-1,-8.4947005E-2,3.021537E-1,7.7507794E-1],"split_indices":[3,3,3,0,0,0,0],"split_type":[0,0,0,0,0,0,0],"sum_hessian":[2.5479E4,1.9105E4,6.374E3,8.248E3,1.0857E4,4.282E3,2.092E3],"tree_param":{"num_deleted":"0","num_feature":"5","num_nodes":"7","size_leaf_vector":"1"}},{"base_weights":[2.4472731E-3,-1.1104819E1,6.1689487E1,-1.7262223E-1,9.47161E-2,5.2341264E-1,9.7651565E-1],"categories":[],"categories_nodes":[],"categories_segments":[],"categories_sizes":[],"default_left":[0,0,0,0,0,0,0],"id":69,"left_children":[1,3,5,-1,-1,-1,-1],"loss_changes":[1.745893E7,2.7359402E6,1.301963E6,0E0,0E0,0E0,0E0],"parents":[2147483647,0,0,1,1,2,2],"right_children":[2,4,6,-1,-1,-1,-1],"split_conditions":[1.1055E2,3.92E1,2.0185E2,-1.7262223E-1,9.47161E-2,5.2341264E-1,9.7651565E-1],"split_indices":[3,3,3,0,0,0,0],"split_type":[0,0,0,0,0,0,0],"sum_hessian":[2.5479E4,2.1592E4,3.887E3,1.6619E4,4.973E3,3.087E3,8E2],"tree_param":{"num_deleted":"0","num_feature":"5","num_nodes":"7","size_leaf_vector":"1"}},{"base_weights":[2.4784952E-3,-1.4970571E1,4.4877E1,-2.7554977E-1,-1.0291338E-1,2.7977327E-1,7.3005515E-1],"categories":[],"categories_nodes":[],"categories_segments":[],"categories_sizes":[],"default_left":[0,0,0,0,0,0,0],"id":70,"left_children":[1,3,5,-1,-1,-1,-1],"loss_changes":[1.7120896E7,1.12478E6,3.028395E6,0E0,0E0,0E0,0E0],"parents":[2147483647,0,0,1,1,2,2],"right_children":[2,4,6,-1,-1,-1,-1],"split_conditions":[6.7E1,1.25E1,1.558E2,-2.7554977E-1,-1.0291338E-1,2.7977327E-1,7.3005515E-1],"split_indices":[0,3,3,0,0,0,0],"split_type":[0,0,0,0,0,0,0],"sum_hessian":[2.5479E4,1.9105E4,6.374E3,5.177E3,1.3928E4,3.983E3,2.391E3],"tree_param":{"num_deleted":"0","num_feature":"5","num_nodes":"7","size_leaf_vector":"1"}},{"base_weights":[2.4783858E-3,-1.0893553E1,6.0516365E1,-1.7732178E-1,6.9683E-2,5.1306343E-1,9.594713E-1],"categories":[],"categories_nodes":[],"categories_segments":[],"categories_sizes":[],"default_left":[0,0,0,0,0,0,0],"id":71,"left_children":[1,3,5,-1,-1,-1,-1],"loss_changes":[1.6801184E7,2.6377198E6,1.263801E6,0E0,0E0,0E0,0E0],"parents":[2147483647,0,0,1,1,2,2],"right_children":[2,4,6,-1,-1,-1,-1],"split_conditions":[1.1055E2,3.56E1,2.0185E2,-1.7732178E-1,6.9683E-2,5.1306343E-1,9.594713E-1],"split_indices":[3,3,3,0,0,0,0],"split_type":[0,0,0,0,0,0,0],"sum_hessian":[2.5479E4,2.1592E4,3.887E3,1.5614E4,5.978E3,3.087E3,8E2],"tree_param":{"num_deleted":"0","num_feature":"5","num_nodes":"7","size_leaf_vector":"1"}},{"base_weights":[2.5082822E-3,-1.4690422E1,4.4028297E1,-2.710738E-1,-1.0076794E-1,2.9070318E-1,7.4623585E-1],"categories":[],"categories_nodes":[],"categories_segments":[],"categories_sizes":[],"default_left":[0,0,0,0,0,0,0],"id":72,"left_children":[1,3,5,-1,-1,-1,-1],"loss_changes":[1.6482838E7,1.0941985E6,2.915767E6,0E0,0E0,0E0,0E0],"parents":[2147483647,0,0,1,1,2,2],"right_children":[2,4,6,-1,-1,-1,-1],"split_conditions":[6.825E1,1.26E1,1.6205E2,-2.710738E-1,-1.0076794E-1,2.9070318E-1,7.4623585E-1],"split_indices":[1,1,3,0,0,0,0],"split_type":[0,0,0,0,0,0,0],"sum_hessian":[2.5479E4,1.9104E4,6.375E3,5.174E3,1.393E4,4.283E3,2.092E3],"tree_param":{"num_deleted":"0","num_feature":"5","num_nodes":"7","size_leaf_vector":"1"}},{"base_weights":[2.5099884E-3,-1.0522838E1,6.0316143E1,-1.5441921E-1,1.4339045E-1,5.119485E-1,9.4243556E-1],"categories":[],"categories_nodes":[],"categories_segments":[],"categories_sizes":[],"default_left":[0,0,0,0,0,0,0],"id":73,"left_children":[1,3,5,-1,-1,-1,-1],"loss_changes":[1.6175898E7,2.6534702E6,1.166797E6,0E0,0E0,0E0,0E0],"parents":[2147483647,0,0,1,1,2,2],"right_children":[2,4,6,-1,-1,-1,-1],"split_conditions":[1.1235E2,4.41E1,2.0185E2,-1.5441921E-1,1.4339045E-1,5.119485E-1,9.4243556E-1],"split_indices":[3,3,3,0,0,0,0],"split_type":[0,0,0,0,0,0,0],"sum_hessian":[2.5479E4,2.1694E4,3.785E3,1.8111E4,3.583E3,2.985E3,8E2],"tree_param":{"num_deleted":"0","num_feature":"5","num_nodes":"7","size_leaf_vector":"1"}},{"base_weights":[2.5419735E-3,-1.2452421E1,4.9984116E1,-1.9876255E-1,-1.33196395E-2,3.6663878E-1,7.9063696E-1],"categories":[],"categories_nodes":[],"categories_segments":[],"categories_sizes":[],"default_left":[0,0,0,0,0,0,0],"id":74,"left_children":[1,3,5,-1,-1,-1,-1],"loss_changes":[1.5862399E7,1.6839595E6,1.965986E6,0E0,0E0,0E0,0E0],"parents":[2147483647,0,0,1,1,2,2],"right_children":[2,4,6,-1,-1,-1,-1],"split_conditions":[9.18E1,2.82E1,1.769E2,-1.9876255E-1,-1.33196395E-2,3.6663878E-1,7.9063696E-1],"split_indices":[2,3,3,0,0,0,0],"split_type":[0,0,0,0,0,0,0],"sum_hessian":[2.5479E4,2.0397E4,5.082E3,1.2231E4,8.166E3,3.487E3,1.595E3],"tree_param":{"num_deleted":"0","num_feature":"5","num_nodes":"7","size_leaf_vector":"1"}},{"base_weights":[2.5540872E-3,-1.0324158E1,5.9159588E1,-1.4992826E-1,1.4897136E-1,5.019575E-1,9.2512655E-1],"categories":[],"categories_nodes":[],"categories_segments":[],"categories_sizes":[],"default_left":[0,0,0,0,0,0,0],"id":75,"left_children":[1,3,5,-1,-1,-1,-1],"loss_changes":[1.5566282E7,2.554689E6,1.127561E6,0E0,0E0,0E0,0E0],"parents":[2147483647,0,0,1,1,2,2],"right_children":[2,4,6,-1,-1,-1,-1],"split_conditions":[1.11E2,4.505E1,2.0185E2,-1.4992826E-1,1.4897136E-1,5.019575E-1,9.2512655E-1],"split_indices":[2,3,3,0,0,0,0],"split_type":[0,0,0,0,0,0,0],"sum_hessian":[2.5479E4,2.1693E4,3.786E3,1.8305E4,3.388E3,2.986E3,8E2],"tree_param":{"num_deleted":"0","num_feature":"5","num_nodes":"7","size_leaf_vector":"1"}},{"base_weights":[2.5847838E-3,-1.41337E1,4.236931E1,-2.650911E-1,-9.66404E-2,2.2953737E-1,6.432829E-1],"categories":[],"categories_nodes":[],"categories_segments":[],"categories_sizes":[],"default_left":[0,0,0,0,0,0,0],"id":76,"left_children":[1,3,5,-1,-1,-1,-1],"loss_changes":[1.5260777E7,1.0565712E6,2.716482E6,0E0,0E0,0E0,0E0],"parents":[2147483647,0,0,1,1,2,2],"right_children":[2,4,6,-1,-1,-1,-1],"split_conditions":[6.695E1,1.225E1,1.406E2,-2.650911E-1,-9.66404E-2,2.2953737E-1,6.432829E-1],"split_indices":[3,3,3,0,0,0,0],"split_type":[0,0,0,0,0,0,0],"sum_hessian":[2.5479E4,1.9105E4,6.374E3,5.068E3,1.4037E4,3.384E3,2.99E3],"tree_param":{"num_deleted":"0","num_feature":"5","num_nodes":"7","size_leaf_vector":"1"}},{"base_weights":[2.5796997E-3,-1.0122491E1,5.8022495E1,-1.6944298E-1,6.583926E-2,4.9868497E-1,9.377328E-1],"categories":[],"categories_nodes":[],"categories_segments":[],"categories_sizes":[],"default_left":[0,0,0,0,0,0,0],"id":77,"left_children":[1,3,5,-1,-1,-1,-1],"loss_changes":[1.496896E7,2.4726465E6,1.098987E6,0E0,0E0,0E0,0E0],"parents":[2147483647,0,0,1,1,2,2],"right_children":[2,4,6,-1,-1,-1,-1],"split_conditions":[1.1235E2,3.51E1,2.0475E2,-1.6944298E-1,6.583926E-2,4.9868497E-1,9.377328E-1],"split_indices":[3,3,3,0,0,0,0],"split_type":[0,0,0,0,0,0,0],"sum_hessian":[2.5479E4,2.1694E4,3.785E3,1.5404E4,6.29E3,3.084E3,7.01E2],"tree_param":{"num_deleted":"0","num_feature":"5","num_nodes":"7","size_leaf_vector":"1"}},{"base_weights":[2.6054725E-3,-1.3868685E1,4.1575134E1,-2.357301E-1,-8.3146855E-2,2.7400604E-1,7.056125E-1],"categories":[],"categories_nodes":[],"categories_segments":[],"categories_sizes":[],"default_left":[0,0,0,0,0,0,0],"id":78,"left_children":[1,3,5,-1,-1,-1,-1],"loss_changes":[1.469399E7,1.029576E6,2.617329E6,0E0,0E0,0E0,0E0],"parents":[2147483647,0,0,1,1,2,2],"right_children":[2,4,6,-1,-1,-1,-1],"split_conditions":[6.7E1,1.545E1,1.643E2,-2.357301E-1,-8.3146855E-2,2.7400604E-1,7.056125E-1],"split_indices":[0,2,1,0,0,0,0],"split_type":[0,0,0,0,0,0,0],"sum_hessian":[2.5479E4,1.9105E4,6.374E3,6.953E3,1.2152E4,4.282E3,2.092E3],"tree_param":{"num_deleted":"0","num_feature":"5","num_nodes":"7","size_leaf_vector":"1"}},{"base_weights":[2.6037362E-3,-1.0237212E1,5.523851E1,-1.7289515E-1,4.4347398E-2,4.5964596E-1,8.697635E-1],"categories":[],"categories_nodes":[],"categories_segments":[],"categories_sizes":[],"default_left":[0,0,0,0,0,0,0],"id":79,"left_children":[1,3,5,-1,-1,-1,-1],"loss_changes":[1.4412194E7,2.22429E6,1.168923E6,0E0,0E0,0E0,0E0],"parents":[2147483647,0,0,1,1,2,2],"right_children":[2,4,6,-1,-1,-1,-1],"split_conditions":[1.093E2,3.33E1,1.9815E2,-1.7289515E-1,4.4347398E-2,4.5964596E-1,8.697635E-1],"split_indices":[1,3,3,0,0,0,0],"split_type":[0,0,0,0,0,0,0],"sum_hessian":[2.5479E4,2.1495E4,3.984E3,1.4517E4,6.978E3,3.085E3,8.99E2],"tree_param":{"num_deleted":"0","num_feature":"5","num_nodes":"7","size_leaf_vector":"1"}},{"base_weights":[2.6243157E-3,-1.2908548E1,4.301353E1,-1.9858223E-1,-4.3062672E-2,2.9040906E-1,7.025049E-1],"categories":[],"categories_nodes":[],"categories_segments":[],"categories_sizes":[],"default_left":[0,0,0,0,0,0,0],"id":80,"left_children":[1,3,5,-1,-1,-1,-1],"loss_changes":[1.415014E7,1.1715428E6,2.236864E6,0E0,0E0,0E0,0E0],"parents":[2147483647,0,0,1,1,2,2],"right_children":[2,4,6,-1,-1,-1,-1],"split_conditions":[8.33E1,2.36E1,1.6835E2,-1.9858223E-1,-4.3062672E-2,2.9040906E-1,7.025049E-1],"split_indices":[1,3,1,0,0,0,0],"split_type":[0,0,0,0,0,0,0],"sum_hessian":[2.5479E4,1.9597E4,5.882E3,1.0839E4,8.758E3,3.889E3,1.993E3],"tree_param":{"num_deleted":"0","num_feature":"5","num_nodes":"7","size_leaf_vector":"1"}},{"base_weights":[2.6285974E-3,-1.347957E1,4.040059E1,-2.5633264E-1,-9.206727E-2,1.9378617E-1,5.891157E-1],"categories":[],"categories_nodes":[],"categories_segments":[],"categories_sizes":[],"default_left":[0,0,0,0,0,0,0],"id":81,"left_children":[1,3,5,-1,-1,-1,-1],"loss_changes":[1.3878312E7,9.9190275E5,2.479999E6,0E0,0E0,0E0,0E0],"parents":[2147483647,0,0,1,1,2,2],"right_children":[2,4,6,-1,-1,-1,-1],"split_conditions":[6.825E1,1.2E1,1.326E2,-2.5633264E-1,-9.206727E-2,1.9378617E-1,5.891157E-1],"split_indices":[1,1,0,0,0,0,0],"split_type":[0,0,0,0,0,0,0],"sum_hessian":[2.5479E4,1.9104E4,6.375E3,4.968E3,1.4136E4,2.986E3,3.389E3],"tree_param":{"num_deleted":"0","num_feature":"5","num_nodes":"7","size_leaf_vector":"1"}},{"base_weights":[2.6194712E-3,-9.6522045E0,5.5310715E1,-1.5576571E-1,7.8965455E-2,4.7407627E-1,8.997398E-1],"categories":[],"categories_nodes":[],"categories_segments":[],"categories_sizes":[],"default_left":[0,0,0,0,0,0,0],"id":82,"left_children":[1,3,5,-1,-1,-1,-1],"loss_changes":[1.3606598E7,2.255545E6,1.033171E6,0E0,0E0,0E0,0E0],"parents":[2147483647,0,0,1,1,2,2],"right_children":[2,4,6,-1,-1,-1,-1],"split_conditions":[1.11E2,3.815E1,2.0475E2,-1.5576571E-1,7.8965455E-2,4.7407627E-1,8.997398E-1],"split_indices":[2,1,3,0,0,0,0],"split_type":[0,0,0,0,0,0,0],"sum_hessian":[2.5479E4,2.1693E4,3.786E3,1.6218E4,5.475E3,3.085E3,7.01E2],"tree_param":{"num_deleted":"0","num_feature":"5","num_nodes":"7","size_leaf_vector":"1"}},{"base_weights":[2.644591E-3,-1.3223123E1,3.964053E1,-2.5211844E-1,-9.001702E-2,2.6097807E-1,6.7334664E-1],"categories":[],"categories_nodes":[],"categories_segments":[],"categories_sizes":[],"default_left":[0,0,0,0,0,0,0],"id":83,"left_children":[1,3,5,-1,-1,-1,-1],"loss_changes":[1.3358196E7,9.667175E5,2.389211E6,0E0,0E0,0E0,0E0],"parents":[2147483647,0,0,1,1,2,2],"right_children":[2,4,6,-1,-1,-1,-1],"split_conditions":[6.53E1,1.19E1,1.6205E2,-2.5211844E-1,-9.001702E-2,2.6097807E-1,6.7334664E-1],"split_indices":[2,3,3,0,0,0,0],"split_type":[0,0,0,0,0,0,0],"sum_hessian":[2.5479E4,1.9105E4,6.374E3,4.974E3,1.4131E4,4.282E3,2.092E3],"tree_param":{"num_deleted":"0","num_feature":"5","num_nodes":"7","size_leaf_vector":"1"}},{"base_weights":[2.6410508E-3,-9.322146E0,5.51393E1,-1.4434345E-1,1.0949438E-1,4.7317532E-1,8.849597E-1],"categories":[],"categories_nodes":[],"categories_segments":[],"categories_sizes":[],"default_left":[0,0,0,0,0,0,0],"id":84,"left_children":[1,3,5,-1,-1,-1,-1],"loss_changes":[1.3100741E7,2.2588255E6,9.5752E5,0E0,0E0,0E0,0E0],"parents":[2147483647,0,0,1,1,2,2],"right_children":[2,4,6,-1,-1,-1,-1],"split_conditions":[1.145E2,4.165E1,2.0705E2,-1.4434345E-1,1.0949438E-1,4.7317532E-1,8.849597E-1],"split_indices":[3,3,1,0,0,0,0],"split_type":[0,0,0,0,0,0,0],"sum_hessian":[2.5479E4,2.1794E4,3.685E3,1.7405E4,4.389E3,2.987E3,6.98E2],"tree_param":{"num_deleted":"0","num_feature":"5","num_nodes":"7","size_leaf_vector":"1"}},{"base_weights":[2.6669225E-3,-1.10714035E1,4.5545444E1,-1.8119992E-1,-8.340641E-3,3.3834928E-1,7.282649E-1],"categories":[],"categories_nodes":[],"categories_segments":[],"categories_sizes":[],"default_left":[0,0,0,0,0,0,0],"id":85,"left_children":[1,3,5,-1,-1,-1,-1],"loss_changes":[1.2851188E7,1.4790238E6,1.5898E6,0E0,0E0,0E0,0E0],"parents":[2147483647,0,0,1,1,2,2],"right_children":[2,4,6,-1,-1,-1,-1],"split_conditions":[9.495E1,2.795E1,1.796E2,-1.8119992E-1,-8.340641E-3,3.3834928E-1,7.282649E-1],"split_indices":[1,3,3,0,0,0,0],"split_type":[0,0,0,0,0,0,0],"sum_hessian":[2.5479E4,2.0496E4,4.983E3,1.2138E4,8.358E3,3.488E3,1.495E3],"tree_param":{"num_deleted":"0","num_feature":"5","num_nodes":"7","size_leaf_vector":"1"}},{"base_weights":[2.673578E-3,-1.28525E1,3.8521824E1,-2.4814759E-1,-8.765059E-2,2.2415982E-1,6.0568494E-1],"categories":[],"categories_nodes":[],"categories_segments":[],"categories_sizes":[],"default_left":[0,0,0,0,0,0,0],"id":86,"left_children":[1,3,5,-1,-1,-1,-1],"loss_changes":[1.2617436E7,9.33922E5,2.262634E6,0E0,0E0,0E0,0E0],"parents":[2147483647,0,0,1,1,2,2],"right_children":[2,4,6,-1,-1,-1,-1],"split_conditions":[6.825E1,1.14E1,1.4725E2,-2.4814759E-1,-8.765059E-2,2.2415982E-1,6.0568494E-1],"split_indices":[1,3,3,0,0,0,0],"split_type":[0,0,0,0,0,0,0],"sum_hessian":[2.5479E4,1.9104E4,6.375E3,4.864E3,1.424E4,3.685E3,2.69E3],"tree_param":{"num_deleted":"0","num_feature":"5","num_nodes":"7","size_leaf_vector":"1"}},{"base_weights":[2.6664997E-3,-9.062999E0,5.3573177E1,-1.5727144E-1,5.6579325E-2,4.5907035E-1,8.6288756E-1],"categories":[],"categories_nodes":[],"categories_segments":[],"categories_sizes":[],"default_left":[0,0,0,0,0,0,0],"id":87,"left_children":[1,3,5,-1,-1,-1,-1],"loss_changes":[1.2374907E7,2.1380352E6,9.20997E5,0E0,0E0,0E0,0E0],"parents":[2147483647,0,0,1,1,2,2],"right_children":[2,4,6,-1,-1,-1,-1],"split_conditions":[1.1335E2,3.415E1,2.031E2,-1.5727144E-1,5.6579325E-2,4.5907035E-1,8.6288756E-1],"split_indices":[2,3,2,0,0,0,0],"split_type":[0,0,0,0,0,0,0],"sum_hessian":[2.5479E4,2.1792E4,3.687E3,1.5001E4,6.791E3,2.989E3,6.98E2],"tree_param":{"num_deleted":"0","num_feature":"5","num_nodes":"7","size_leaf_vector":"1"}},{"base_weights":[2.6883092E-3,-1.2611427E1,3.7807438E1,-2.4385384E-1,-8.571959E-2,2.5329337E-1,6.5210265E-1],"categories":[],"categories_nodes":[],"categories_segments":[],"categories_sizes":[],"default_left":[0,0,0,0,0,0,0],"id":88,"left_children":[1,3,5,-1,-1,-1,-1],"loss_changes":[1.2151214E7,9.084825E5,2.178185E6,0E0,0E0,0E0,0E0],"parents":[2147483647,0,0,1,1,2,2],"right_children":[2,4,6,-1,-1,-1,-1],"split_conditions":[6.7E1,1.15E1,1.6835E2,-2.4385384E-1,-8.571959E-2,2.5329337E-1,6.5210265E-1],"split_indices":[0,1,1,0,0,0,0],"split_type":[0,0,0,0,0,0,0],"sum_hessian":[2.5479E4,1.9105E4,6.374E3,4.879E3,1.4226E4,4.381E3,1.993E3],"tree_param":{"num_deleted":"0","num_feature":"5","num_nodes":"7","size_leaf_vector":"1"}},{"base_weights":[2.6842714E-3,-8.890416E0,5.258682E1,-1.5209621E-1,6.0698934E-2,4.5702085E-1,8.79211E-1],"categories":[],"categories_nodes":[],"categories_segments":[],"categories_sizes":[],"default_left":[0,0,0,0,0,0,0],"id":89,"left_children":[1,3,5,-1,-1,-1,-1],"loss_changes":[1.1915832E7,2.0605322E6,8.92664E5,0E0,0E0,0E0,0E0],"parents":[2147483647,0,0,1,1,2,2],"right_children":[2,4,6,-1,-1,-1,-1],"split_conditions":[1.145E2,3.49E1,2.0995E2,-1.5209621E-1,6.0698934E-2,4.5702085E-1,8.79211E-1],"split_indices":[3,3,3,0,0,0,0],"split_type":[0,0,0,0,0,0,0],"sum_hessian":[2.5479E4,2.1794E4,3.685E3,1.5322E4,6.472E3,3.086E3,5.99E2],"tree_param":{"num_deleted":"0","num_feature":"5","num_nodes":"7","size_leaf_vector":"1"}},{"base_weights":[2.705822E-3,-1.2375541E1,3.710055E1,-2.2478166E-1,-7.79137E-2,2.52963E-1,6.4972883E-1],"categories":[],"categories_nodes":[],"categories_segments":[],"categories_sizes":[],"default_left":[0,0,0,0,0,0,0],"id":90,"left_children":[1,3,5,-1,-1,-1,-1],"loss_changes":[1.1701036E7,8.84665E5,2.095809E6,0E0,0E0,0E0,0E0],"parents":[2147483647,0,0,1,1,2,2],"right_children":[2,4,6,-1,-1,-1,-1],"split_conditions":[6.695E1,1.385E1,1.6955E2,-2.2478166E-1,-7.79137E-2,2.52963E-1,6.4972883E-1],"split_indices":[3,3,3,0,0,0,0],"split_type":[0,0,0,0,0,0,0],"sum_hessian":[2.5479E4,1.9105E4,6.374E3,5.962E3,1.3143E4,4.479E3,1.895E3],"tree_param":{"num_deleted":"0","num_feature":"5","num_nodes":"7","size_leaf_vector":"1"}},{"base_weights":[2.702938E-3,-9.539068E0,4.7214867E1,-1.6838917E-1,1.2205687E-2,3.7729484E-1,7.4703664E-1],"categories":[],"categories_nodes":[],"categories_segments":[],"categories_sizes":[],"default_left":[0,0,0,0,0,0,0],"id":91,"left_children":[1,3,5,-1,-1,-1,-1],"loss_changes":[1.1478876E7,1.6649119E6,1.1142E6,0E0,0E0,0E0,0E0],"parents":[2147483647,0,0,1,1,2,2],"right_children":[2,4,6,-1,-1,-1,-1],"split_conditions":[1.0205E2,2.975E1,1.925E2,-1.6838917E-1,1.2205687E-2,3.7729484E-1,7.4703664E-1],"split_indices":[3,3,3,0,0,0,0],"split_type":[0,0,0,0,0,0,0],"sum_hessian":[2.5479E4,2.1196E4,4.283E3,1.2628E4,8.568E3,3.186E3,1.097E3],"tree_param":{"num_deleted":"0","num_feature":"5","num_nodes":"7","size_leaf_vector":"1"}},{"base_weights":[2.712872E-3,-1.2145986E1,3.6404984E1,-2.3763698E-1,-8.2720265E-2,1.743638E-1,5.3128934E-1],"categories":[],"categories_nodes":[],"categories_segments":[],"categories_sizes":[],"default_left":[0,0,0,0,0,0,0],"id":92,"left_children":[1,3,5,-1,-1,-1,-1],"loss_changes":[1.1268724E7,8.596535E5,2.021732E6,0E0,0E0,0E0,0E0],"parents":[2147483647,0,0,1,1,2,2],"right_children":[2,4,6,-1,-1,-1,-1],"split_conditions":[6.825E1,1.105E1,1.3265E2,-2.3763698E-1,-8.2720265E-2,1.743638E-1,5.3128934E-1],"split_indices":[1,3,3,0,0,0,0],"split_type":[0,0,0,0,0,0,0],"sum_hessian":[2.5479E4,1.9104E4,6.375E3,4.776E3,1.4328E4,2.988E3,3.387E3],"tree_param":{"num_deleted":"0","num_feature":"5","num_nodes":"7","size_leaf_vector":"1"}},{"base_weights":[2.701258E-3,-1.2023357E1,3.6045036E1,-2.0229912E-1,-6.6422984E-2,2.4970125E-1,6.426722E-1],"categories":[],"categories_nodes":[],"categories_segments":[],"categories_sizes":[],"default_left":[0,0,0,0,0,0,0],"id":93,"left_children":[1,3,5,-1,-1,-1,-1],"loss_changes":[1.1044669E7,8.435855E5,1.990953E6,0E0,0E0,0E0,0E0],"parents":[2147483647,0,0,1,1,2,2],"right_children":[2,4,6,-1,-1,-1,-1],"split_conditions":[6.7E1,1.815E1,1.734E2,-2.0229912E-1,-6.6422984E-2,2.4970125E-1,6.426722E-1],"split_indices":[0,1,1,0,0,0,0],"split_type":[0,0,0,0,0,0,0],"sum_hessian":[2.5479E4,1.9105E4,6.374E3,7.565E3,1.154E4,4.579E3,1.795E3],"tree_param":{"num_deleted":"0","num_feature":"5","num_nodes":"7","size_leaf_vector":"1"}},{"base_weights":[2.6980375E-3,-8.482484E0,5.0174843E1,-1.5349032E-1,4.1217342E-2,4.349152E-1,8.4476894E-1],"categories":[],"categories_nodes":[],"categories_segments":[],"categories_sizes":[],"default_left":[0,0,0,0,0,0,0],"id":94,"left_children":[1,3,5,-1,-1,-1,-1],"loss_changes":[1.0847765E7,1.8863654E6,8.41348E5,0E0,0E0,0E0,0E0],"parents":[2147483647,0,0,1,1,2,2],"right_children":[2,4,6,-1,-1,-1,-1],"split_conditions":[1.154E2,3.275E1,2.0995E2,-1.5349032E-1,4.1217342E-2,4.349152E-1,8.4476894E-1],"split_indices":[1,3,3,0,0,0,0],"split_type":[0,0,0,0,0,0,0],"sum_hessian":[2.5479E4,2.1794E4,3.685E3,1.4108E4,7.686E3,3.086E3,5.99E2],"tree_param":{"num_deleted":"0","num_feature":"5","num_nodes":"7","size_leaf_vector":"1"}},{"base_weights":[2.7171965E-3,-1.09440775E1,3.81556E1,-1.7638524E-1,-3.3439692E-2,2.7547064E-1,6.5314794E-1],"categories":[],"categories_nodes":[],"categories_segments":[],"categories_sizes":[],"default_left":[0,0,0,0,0,0,0],"id":95,"left_children":[1,3,5,-1,-1,-1,-1],"loss_changes":[1.0642184E7,1.00733575E6,1.6350065E6,0E0,0E0,0E0,0E0],"parents":[2147483647,0,0,1,1,2,2],"right_children":[2,4,6,-1,-1,-1,-1],"split_conditions":[8.595E1,2.305E1,1.7855E2,-1.7638524E-1,-3.3439692E-2,2.7547064E-1,6.5314794E-1],"split_indices":[2,3,1,0,0,0,0],"split_type":[0,0,0,0,0,0,0],"sum_hessian":[2.5479E4,1.9799E4,5.68E3,1.0526E4,9.273E3,4.086E3,1.594E3],"tree_param":{"num_deleted":"0","num_feature":"5","num_nodes":"7","size_leaf_vector":"1"}},{"base_weights":[2.7185914E-3,-8.326413E0,4.922093E1,-1.3100274E-1,9.137355E-2,4.2639732E-1,8.2953876E-1],"categories":[],"categories_nodes":[],"categories_segments":[],"categories_sizes":[],"default_left":[0,0,0,0,0,0,0],"id":96,"left_children":[1,3,5,-1,-1,-1,-1],"loss_changes":[1.0445806E7,1.8169936E6,8.1521E5,0E0,0E0,0E0,0E0],"parents":[2147483647,0,0,1,1,2,2],"right_children":[2,4,6,-1,-1,-1,-1],"split_conditions":[1.1335E2,4.065E1,2.125E2,-1.3100274E-1,9.137355E-2,4.2639732E-1,8.2953876E-1],"split_indices":[2,3,1,0,0,0,0],"split_type":[0,0,0,0,0,0,0],"sum_hessian":[2.5479E4,2.1792E4,3.687E3,1.7114E4,4.678E3,3.087E3,6E2],"tree_param":{"num_deleted":"0","num_feature":"5","num_nodes":"7","size_leaf_vector":"1"}},{"base_weights":[2.739266E-3,-1.1580684E1,3.4718487E1,-2.286626E-1,-7.819854E-2,2.105339E-1,5.598878E-1],"categories":[],"categories_nodes":[],"categories_segments":[],"categories_sizes":[],"default_left":[0,0,0,0,0,0,0],"id":97,"left_children":[1,3,5,-1,-1,-1,-1],"loss_changes":[1.0246602E7,8.1073975E5,1.851783E6,0E0,0E0,0E0,0E0],"parents":[2147483647,0,0,1,1,2,2],"right_children":[2,4,6,-1,-1,-1,-1],"split_conditions":[6.695E1,1.115E1,1.525E2,-2.286626E-1,-7.819854E-2,2.105339E-1,5.598878E-1],"split_indices":[3,1,3,0,0,0,0],"split_type":[0,0,0,0,0,0,0],"sum_hessian":[2.5479E4,1.9105E4,6.374E3,4.774E3,1.4331E4,3.882E3,2.492E3],"tree_param":{"num_deleted":"0","num_feature":"5","num_nodes":"7","size_leaf_vector":"1"}},{"base_weights":[2.7295256E-3,-8.165078E0,4.829827E1,-1.5335876E-1,3.1004159E-2,4.1809776E-1,8.160107E-1],"categories":[],"categories_nodes":[],"categories_segments":[],"categories_sizes":[],"default_left":[0,0,0,0,0,0,0],"id":98,"left_children":[1,3,5,-1,-1,-1,-1],"loss_changes":[1.0051457E7,1.760704E6,7.93077E5,0E0,0E0,0E0,0E0],"parents":[2147483647,0,0,1,1,2,2],"right_children":[2,4,6,-1,-1,-1,-1],"split_conditions":[1.145E2,3.145E1,2.0995E2,-1.5335876E-1,3.1004159E-2,4.1809776E-1,8.160107E-1],"split_indices":[3,3,3,0,0,0,0],"split_type":[0,0,0,0,0,0,0],"sum_hessian":[2.5479E4,2.1794E4,3.685E3,1.3317E4,8.477E3,3.086E3,5.99E2],"tree_param":{"num_deleted":"0","num_feature":"5","num_nodes":"7","size_leaf_vector":"1"}},{"base_weights":[2.745472E-3,-1.13687E1,3.407606E1,-2.2481321E-1,-7.663182E-2,2.3602282E-1,6.0772216E-1],"categories":[],"categories_nodes":[],"categories_segments":[],"categories_sizes":[],"default_left":[0,0,0,0,0,0,0],"id":99,"left_children":[1,3,5,-1,-1,-1,-1],"loss_changes":[9.872941E6,7.8653375E5,1.7813575E6,0E0,0E0,0E0,0E0],"parents":[2147483647,0,0,1,1,2,2],"right_children":[2,4,6,-1,-1,-1,-1],"split_conditions":[6.825E1,1.105E1,1.734E2,-2.2481321E-1,-7.663182E-2,2.3602282E-1,6.0772216E-1],"split_indices":[1,3,1,0,0,0,0],"split_type":[0,0,0,0,0,0,0],"sum_hessian":[2.5479E4,1.9104E4,6.375E3,4.776E3,1.4328E4,4.58E3,1.795E3],"tree_param":{"num_deleted":"0","num_feature":"5","num_nodes":"7","size_leaf_vector":"1"}},{"base_weights":[2.7396497E-3,-7.887267E0,4.8161037E1,-1.2112245E-1,1.1132426E-1,4.1708025E-1,8.015267E-1],"categories":[],"categories_nodes":[],"categories_segments":[],"categories_sizes":[],"default_left":[0,0,0,0,0,0,0],"id":100,"left_children":[1,3,5,-1,-1,-1,-1],"loss_changes":[9.681998E6,1.7594885E6,7.37166E5,0E0,0E0,0E0,0E0],"parents":[2147483647,0,0,1,1,2,2],"right_children":[2,4,6,-1,-1,-1,-1],"split_conditions":[1.1815E2,4.35E1,2.125E2,-1.2112245E-1,1.1132426E-1,4.1708025E-1,8.015267E-1],"split_indices":[3,3,1,0,0,0,0],"split_type":[0,0,0,0,0,0,0],"sum_hessian":[2.5479E4,2.1893E4,3.586E3,1.7914E4,3.979E3,2.986E3,6E2],"tree_param":{"num_deleted":"0","num_feature":"5","num_nodes":"7","size_leaf_vector":"1"}},{"base_weights":[2.7602895E-3,-9.868221E0,3.7759594E1,-1.6244957E-1,-1.7031014E-2,2.8250203E-1,6.420352E-1],"categories":[],"categories_nodes":[],"categories_segments":[],"categories_sizes":[],"default_left":[0,0,0,0,0,0,0],"id":101,"left_children":[1,3,5,-1,-1,-1,-1],"loss_changes":[9.496693E6,1.0517216E6,1.3261755E6,0E0,0E0,0E0,0E0],"parents":[2147483647,0,0,1,1,2,2],"right_children":[2,4,6,-1,-1,-1,-1],"split_conditions":[9.07E1,2.46E1,1.804E2,-1.6244957E-1,-1.7031014E-2,2.8250203E-1,6.420352E-1],"split_indices":[3,3,2,0,0,0,0],"split_type":[0,0,0,0,0,0,0],"sum_hessian":[2.5479E4,2.0199E4,5.28E3,1.1341E4,8.858E3,3.885E3,1.395E3],"tree_param":{"num_deleted":"0","num_feature":"5","num_nodes":"7","size_leaf_vector":"1"}},{"base_weights":[2.762524E-3,-7.739213E0,4.725752E1,-1.3193862E-1,6.450428E-2,4.0918922E-1,7.8744966E-1],"categories":[],"categories_nodes":[],"categories_segments":[],"categories_sizes":[],"default_left":[0,0,0,0,0,0,0],"id":102,"left_children":[1,3,5,-1,-1,-1,-1],"loss_changes":[9.322101E6,1.6946702E6,7.126935E5,0E0,0E0,0E0,0E0],"parents":[2147483647,0,0,1,1,2,2],"right_children":[2,4,6,-1,-1,-1,-1],"split_conditions":[1.1815E2,3.625E1,2.0995E2,-1.3193862E-1,6.450428E-2,4.0918922E-1,7.8744966E-1],"split_indices":[3,3,3,0,0,0,0],"split_type":[0,0,0,0,0,0,0],"sum_hessian":[2.5479E4,2.1893E4,3.586E3,1.5814E4,6.079E3,2.987E3,5.99E2],"tree_param":{"num_deleted":"0","num_feature":"5","num_nodes":"7","size_leaf_vector":"1"}},{"base_weights":[2.7793136E-3,-1.09458685E1,3.281609E1,-2.1841255E-1,-7.313055E-2,2.0727813E-1,5.431196E-1],"categories":[],"categories_nodes":[],"categories_segments":[],"categories_sizes":[],"default_left":[0,0,0,0,0,0,0],"id":103,"left_children":[1,3,5,-1,-1,-1,-1],"loss_changes":[9.154339E6,7.56073E5,1.655406E6,0E0,0E0,0E0,0E0],"parents":[2147483647,0,0,1,1,2,2],"right_children":[2,4,6,-1,-1,-1,-1],"split_conditions":[6.7E1,1.09E1,1.577E2,-2.1841255E-1,-7.313055E-2,2.0727813E-1,5.431196E-1],"split_indices":[0,2,3,0,0,0,0],"split_type":[0,0,0,0,0,0,0],"sum_hessian":[2.5479E4,1.9105E4,6.374E3,4.776E3,1.4329E4,4.081E3,2.293E3],"tree_param":{"num_deleted":"0","num_feature":"5","num_nodes":"7","size_leaf_vector":"1"}},{"base_weights":[2.7699186E-3,-8.550646E0,4.1175476E1,-1.5193148E-1,7.793544E-3,3.317878E-1,6.8265295E-1],"categories":[],"categories_nodes":[],"categories_segments":[],"categories_sizes":[],"default_left":[0,0,0,0,0,0,0],"id":104,"left_children":[1,3,5,-1,-1,-1,-1],"loss_changes":[8.973575E6,1.3075511E6,9.4722E5,0E0,0E0,0E0,0E0],"parents":[2147483647,0,0,1,1,2,2],"right_children":[2,4,6,-1,-1,-1,-1],"split_conditions":[1.014E2,2.845E1,1.957E2,-1.5193148E-1,7.793544E-3,3.317878E-1,6.8265295E-1],"split_indices":[3,3,3,0,0,0,0],"split_type":[0,0,0,0,0,0,0],"sum_hessian":[2.5479E4,2.1097E4,4.382E3,1.2323E4,8.774E3,3.385E3,9.97E2],"tree_param":{"num_deleted":"0","num_feature":"5","num_nodes":"7","size_leaf_vector":"1"}},{"base_weights":[2.7765753E-3,-1.0742402E1,3.219955E1,-2.1474199E-1,-7.165884E-2,1.8231101E-1,5.0135297E-1],"categories":[],"categories_nodes":[],"categories_segments":[],"categories_sizes":[],"default_left":[0,0,0,0,0,0,0],"id":105,"left_children":[1,3,5,-1,-1,-1,-1],"loss_changes":[8.815409E6,7.33143E5,1.5964935E6,0E0,0E0,0E0,0E0],"parents":[2147483647,0,0,1,1,2,2],"right_children":[2,4,6,-1,-1,-1,-1],"split_conditions":[6.825E1,1.115E1,1.4635E2,-2.1474199E-1,-7.165884E-2,1.8231101E-1,5.0135297E-1],"split_indices":[1,1,1,0,0,0,0],"split_type":[0,0,0,0,0,0,0],"sum_hessian":[2.5479E4,1.9104E4,6.375E3,4.774E3,1.433E4,3.585E3,2.79E3],"tree_param":{"num_deleted":"0","num_feature":"5","num_nodes":"7","size_leaf_vector":"1"}},{"base_weights":[2.764203E-3,-7.4518805E0,4.5503735E1,-1.3938935E-1,3.686269E-2,3.9316475E-1,7.6240444E-1],"categories":[],"categories_nodes":[],"categories_segments":[],"categories_sizes":[],"default_left":[0,0,0,0,0,0,0],"id":106,"left_children":[1,3,5,-1,-1,-1,-1],"loss_changes":[8.642992E6,1.5819758E6,6.791635E5,0E0,0E0,0E0,0E0],"parents":[2147483647,0,0,1,1,2,2],"right_children":[2,4,6,-1,-1,-1,-1],"split_conditions":[1.1815E2,3.235E1,2.076E2,-1.3938935E-1,3.686269E-2,3.9316475E-1,7.6240444E-1],"split_indices":[3,3,2,0,0,0,0],"split_type":[0,0,0,0,0,0,0],"sum_hessian":[2.5479E4,2.1893E4,3.586E3,1.3835E4,8.058E3,2.987E3,5.99E2],"tree_param":{"num_deleted":"0","num_feature":"5","num_nodes":"7","size_leaf_vector":"1"}},{"base_weights":[2.778035E-3,-1.0543194E1,3.160926E1,-2.1263677E-1,-7.064826E-2,2.2239314E-1,5.7467145E-1],"categories":[],"categories_nodes":[],"categories_segments":[],"categories_sizes":[],"default_left":[0,0,0,0,0,0,0],"id":107,"left_children":[1,3,5,-1,-1,-1,-1],"loss_changes":[8.493354E6,7.123085E5,1.543302E6,0E0,0E0,0E0,0E0],"parents":[2147483647,0,0,1,1,2,2],"right_children":[2,4,6,-1,-1,-1,-1],"split_conditions":[6.695E1,1E1,1.7435E2,-2.1263677E-1,-7.064826E-2,2.2239314E-1,5.7467145E-1],"split_indices":[3,3,3,0,0,0,0],"split_type":[0,0,0,0,0,0,0],"sum_hessian":[2.5479E4,1.9105E4,6.374E3,4.679E3,1.4426E4,4.68E3,1.694E3],"tree_param":{"num_deleted":"0","num_feature":"5","num_nodes":"7","size_leaf_vector":"1"}},{"base_weights":[2.7694257E-3,-7.3136935E0,4.466032E1,-1.4198425E-1,2.8122403E-2,3.8564277E-1,7.4883634E-1],"categories":[],"categories_nodes":[],"categories_segments":[],"categories_sizes":[],"default_left":[0,0,0,0,0,0,0],"id":108,"left_children":[1,3,5,-1,-1,-1,-1],"loss_changes":[8.3255425E6,1.5263655E6,6.5799E5,0E0,0E0,0E0,0E0],"parents":[2147483647,0,0,1,1,2,2],"right_children":[2,4,6,-1,-1,-1,-1],"split_conditions":[1.1815E2,3.1E1,2.125E2,-1.4198425E-1,2.8122403E-2,3.8564277E-1,7.4883634E-1],"split_indices":[3,3,1,0,0,0,0],"split_type":[0,0,0,0,0,0,0],"sum_hessian":[2.5479E4,2.1893E4,3.586E3,1.3032E4,8.861E3,2.986E3,6E2],"tree_param":{"num_deleted":"0","num_feature":"5","num_nodes":"7","size_leaf_vector":"1"}},{"base_weights":[2.7824102E-3,-1.0349998E1,3.103027E1,-2.0909129E-1,-6.9239855E-2,2.183983E-1,5.6372386E-1],"categories":[],"categories_nodes":[],"categories_segments":[],"categories_sizes":[],"default_left":[0,0,0,0,0,0,0],"id":109,"left_children":[1,3,5,-1,-1,-1,-1],"loss_changes":[8.1850275E6,6.910285E5,1.4835395E6,0E0,0E0,0E0,0E0],"parents":[2147483647,0,0,1,1,2,2],"right_children":[2,4,6,-1,-1,-1,-1],"split_conditions":[6.7E1,1E1,1.7575E2,-2.0909129E-1,-6.9239855E-2,2.183983E-1,5.6372386E-1],"split_indices":[0,3,1,0,0,0,0],"split_type":[0,0,0,0,0,0,0],"sum_hessian":[2.5479E4,1.9105E4,6.374E3,4.679E3,1.4426E4,4.679E3,1.695E3],"tree_param":{"num_deleted":"0","num_feature":"5","num_nodes":"7","size_leaf_vector":"1"}},{"base_weights":[2.7748116E-3,-1.0247657E1,3.0717094E1,-2.0153576E-1,-6.667809E-2,1.6510391E-1,4.6789703E-1],"categories":[],"categories_nodes":[],"categories_segments":[],"categories_sizes":[],"default_left":[0,0,0,0,0,0,0],"id":110,"left_children":[1,3,5,-1,-1,-1,-1],"loss_changes":[8.022312E6,6.773611E5,1.455115E6,0E0,0E0,0E0,0E0],"parents":[2147483647,0,0,1,1,2,2],"right_children":[2,4,6,-1,-1,-1,-1],"split_conditions":[6.825E1,1.235E1,1.406E2,-2.0153576E-1,-6.667809E-2,1.6510391E-1,4.6789703E-1],"split_indices":[1,1,3,0,0,0,0],"split_type":[0,0,0,0,0,0,0],"sum_hessian":[2.5479E4,1.9104E4,6.375E3,5.07E3,1.4034E4,3.385E3,2.99E3],"tree_param":{"num_deleted":"0","num_feature":"5","num_nodes":"7","size_leaf_vector":"1"}},{"base_weights":[2.7614536E-3,-7.225923E0,4.2718246E1,-1.3946126E-1,2.3970257E-2,3.6795798E-1,7.313779E-1],"categories":[],"categories_nodes":[],"categories_segments":[],"categories_sizes":[],"default_left":[0,0,0,0,0,0,0],"id":111,"left_children":[1,3,5,-1,-1,-1,-1],"loss_changes":[7.867941E6,1.4093466E6,6.61732E5,0E0,0E0,0E0,0E0],"parents":[2147483647,0,0,1,1,2,2],"right_children":[2,4,6,-1,-1,-1,-1],"split_conditions":[1.1335E2,3.04E1,2.076E2,-1.3946126E-1,2.3970257E-2,3.6795798E-1,7.313779E-1],"split_indices":[2,3,2,0,0,0,0],"split_type":[0,0,0,0,0,0,0],"sum_hessian":[2.5479E4,2.1792E4,3.687E3,1.2831E4,8.961E3,3.088E3,5.99E2],"tree_param":{"num_deleted":"0","num_feature":"5","num_nodes":"7","size_leaf_vector":"1"}},{"base_weights":[2.7724148E-3,-1.0058402E1,3.0156311E1,-2.0357831E-1,-6.715709E-2,2.1206155E-1,5.485573E-1],"categories":[],"categories_nodes":[],"categories_segments":[],"categories_sizes":[],"default_left":[0,0,0,0,0,0,0],"id":112,"left_children":[1,3,5,-1,-1,-1,-1],"loss_changes":[7.7304265E6,6.576416E5,1.4081175E6,0E0,0E0,0E0,0E0],"parents":[2147483647,0,0,1,1,2,2],"right_children":[2,4,6,-1,-1,-1,-1],"split_conditions":[6.53E1,1E1,1.7435E2,-2.0357831E-1,-6.715709E-2,2.1206155E-1,5.485573E-1],"split_indices":[2,0,3,0,0,0,0],"split_type":[0,0,0,0,0,0,0],"sum_hessian":[2.5479E4,1.9105E4,6.374E3,4.68E3,1.4425E4,4.68E3,1.694E3],"tree_param":{"num_deleted":"0","num_feature":"5","num_nodes":"7","size_leaf_vector":"1"}},{"base_weights":[2.7649743E-3,-8.290254E0,3.589005E1,-1.4429086E-1,-4.045862E-3,2.7783713E-1,6.012497E-1],"categories":[],"categories_nodes":[],"categories_segments":[],"categories_sizes":[],"default_left":[0,0,0,0,0,0,0],"id":113,"left_children":[1,3,5,-1,-1,-1,-1],"loss_changes":[7.5835005E6,1.0019594E6,9.37981E5,0E0,0E0,0E0,0E0],"parents":[2147483647,0,0,1,1,2,2],"right_children":[2,4,6,-1,-1,-1,-1],"split_conditions":[9.66E1,2.575E1,1.901E2,-1.4429086E-1,-4.045862E-3,2.7783713E-1,6.012497E-1],"split_indices":[3,3,3,0,0,0,0],"split_type":[0,0,0,0,0,0,0],"sum_hessian":[2.5479E4,2.0697E4,4.782E3,1.1637E4,9.06E3,3.585E3,1.197E3],"tree_param":{"num_deleted":"0","num_feature":"5","num_nodes":"7","size_leaf_vector":"1"}},{"base_weights":[2.766071E-3,-6.9155135E0,4.2229923E1,-1.1331606E-1,7.310626E-2,3.6968824E-1,7.463799E-1],"categories":[],"categories_nodes":[],"categories_segments":[],"categories_sizes":[],"default_left":[0,0,0,0,0,0,0],"id":114,"left_children":[1,3,5,-1,-1,-1,-1],"loss_changes":[7.444001E6,1.3755504E6,6.088315E5,0E0,0E0,0E0,0E0],"parents":[2147483647,0,0,1,1,2,2],"right_children":[2,4,6,-1,-1,-1,-1],"split_conditions":[1.1815E2,3.95E1,2.1485E2,-1.1331606E-1,7.310626E-2,3.6968824E-1,7.463799E-1],"split_indices":[3,3,3,0,0,0,0],"split_type":[0,0,0,0,0,0,0],"sum_hessian":[2.5479E4,2.1893E4,3.586E3,1.6707E4,5.186E3,3.087E3,4.99E2],"tree_param":{"num_deleted":"0","num_feature":"5","num_nodes":"7","size_leaf_vector":"1"}},{"base_weights":[2.7803306E-3,-9.778552E0,2.9317625E1,-1.9918586E-1,-6.50155E-2,2.0967126E-1,5.43298E-1],"categories":[],"categories_nodes":[],"categories_segments":[],"categories_sizes":[],"default_left":[0,0,0,0,0,0,0],"id":115,"left_children":[1,3,5,-1,-1,-1,-1],"loss_changes":[7.306378E6,6.347421E5,1.3303695E6,0E0,0E0,0E0,0E0],"parents":[2147483647,0,0,1,1,2,2],"right_children":[2,4,6,-1,-1,-1,-1],"split_conditions":[6.695E1,9.85E0,1.7855E2,-1.9918586E-1,-6.50155E-2,2.0967126E-1,5.43298E-1],"split_indices":[3,2,1,0,0,0,0],"split_type":[0,0,0,0,0,0,0],"sum_hessian":[2.5479E4,1.9105E4,6.374E3,4.665E3,1.444E4,4.78E3,1.594E3],"tree_param":{"num_deleted":"0","num_feature":"5","num_nodes":"7","size_leaf_vector":"1"}},{"base_weights":[2.7710153E-3,-6.7877393E0,4.145006E1,-1.2279676E-1,4.2590044E-2,3.6271346E-1,7.335088E-1],"categories":[],"categories_nodes":[],"categories_segments":[],"categories_sizes":[],"default_left":[0,0,0,0,0,0,0],"id":116,"left_children":[1,3,5,-1,-1,-1,-1],"loss_changes":[7.1715825E6,1.328318E6,5.899305E5,0E0,0E0,0E0,0E0],"parents":[2147483647,0,0,1,1,2,2],"right_children":[2,4,6,-1,-1,-1,-1],"split_conditions":[1.1815E2,3.35E1,2.1485E2,-1.2279676E-1,4.2590044E-2,3.6271346E-1,7.335088E-1],"split_indices":[3,3,3,0,0,0,0],"split_type":[0,0,0,0,0,0,0],"sum_hessian":[2.5479E4,2.1893E4,3.586E3,1.4623E4,7.27E3,3.087E3,4.99E2],"tree_param":{"num_deleted":"0","num_feature":"5","num_nodes":"7","size_leaf_vector":"1"}},{"base_weights":[2.7828543E-3,-9.698997E0,2.8474419E1,-1.9721101E-1,-6.5173976E-2,1.6839422E-1,4.589125E-1],"categories":[],"categories_nodes":[],"categories_segments":[],"categories_sizes":[],"default_left":[0,0,0,0,0,0,0],"id":117,"left_children":[1,3,5,-1,-1,-1,-1],"loss_changes":[7.0385025E6,6.058709E5,1.3115555E6,0E0,0E0,0E0,0E0],"parents":[2147483647,0,0,1,1,2,2],"right_children":[2,4,6,-1,-1,-1,-1],"split_conditions":[5.52E1,9.45E0,1.4945E2,-1.9721101E-1,-6.5173976E-2,1.6839422E-1,4.589125E-1],"split_indices":[3,3,0,0,0,0,0],"split_type":[0,0,0,0,0,0,0],"sum_hessian":[2.5479E4,1.9004E4,6.475E3,4.578E3,1.4426E4,3.883E3,2.592E3],"tree_param":{"num_deleted":"0","num_feature":"5","num_nodes":"7","size_leaf_vector":"1"}},{"base_weights":[2.769322E-3,-8.609675E0,3.145124E1,-1.5032388E-1,-2.634804E-2,2.3760207E-1,5.6225675E-1],"categories":[],"categories_nodes":[],"categories_segments":[],"categories_sizes":[],"default_left":[0,0,0,0,0,0,0],"id":118,"left_children":[1,3,5,-1,-1,-1,-1],"loss_changes":[6.9014835E6,7.67573E5,1.042448E6,0E0,0E0,0E0,0E0],"parents":[2147483647,0,0,1,1,2,2],"right_children":[2,4,6,-1,-1,-1,-1],"split_conditions":[8.96E1,2.17E1,1.846E2,-1.5032388E-1,-2.634804E-2,2.3760207E-1,5.6225675E-1],"split_indices":[1,1,2,0,0,0,0],"split_type":[0,0,0,0,0,0,0],"sum_hessian":[2.5479E4,2.0002E4,5.477E3,9.639E3,1.0363E4,4.181E3,1.296E3],"tree_param":{"num_deleted":"0","num_feature":"5","num_nodes":"7","size_leaf_vector":"1"}},{"base_weights":[2.7662658E-3,-6.599776E0,4.0302753E1,-1.303773E-1,2.3464886E-2,3.5222188E-1,7.159972E-1],"categories":[],"categories_nodes":[],"categories_segments":[],"categories_sizes":[],"default_left":[0,0,0,0,0,0,0],"id":119,"left_children":[1,3,5,-1,-1,-1,-1],"loss_changes":[6.7800445E6,1.2610295E6,5.67834E5,0E0,0E0,0E0,0E0],"parents":[2147483647,0,0,1,1,2,2],"right_children":[2,4,6,-1,-1,-1,-1],"split_conditions":[1.1815E2,3.005E1,2.1485E2,-1.303773E-1,2.3464886E-2,3.5222188E-1,7.159972E-1],"split_indices":[3,3,3,0,0,0,0],"split_type":[0,0,0,0,0,0,0],"sum_hessian":[2.5479E4,2.1893E4,3.586E3,1.2731E4,9.162E3,3.087E3,4.99E2],"tree_param":{"num_deleted":"0","num_feature":"5","num_nodes":"7","size_leaf_vector":"1"}},{"base_weights":[2.7763054E-3,-9.433204E0,2.7694376E1,-1.9243295E-1,-6.318914E-2,1.8452589E-1,4.8443243E-1],"categories":[],"categories_nodes":[],"categories_segments":[],"categories_sizes":[],"default_left":[0,0,0,0,0,0,0],"id":120,"left_children":[1,3,5,-1,-1,-1,-1],"loss_changes":[6.658118E6,5.8050875E5,1.240922E6,0E0,0E0,0E0,0E0],"parents":[2147483647,0,0,1,1,2,2],"right_children":[2,4,6,-1,-1,-1,-1],"split_conditions":[5.52E1,9.45E0,1.669E2,-1.9243295E-1,-6.318914E-2,1.8452589E-1,4.8443243E-1],"split_indices":[3,3,3,0,0,0,0],"split_type":[0,0,0,0,0,0,0],"sum_hessian":[2.5479E4,1.9004E4,6.475E3,4.578E3,1.4426E4,4.481E3,1.994E3],"tree_param":{"num_deleted":"0","num_feature":"5","num_nodes":"7","size_leaf_vector":"1"}},{"base_weights":[2.7648439E-3,-6.4762588E0,3.9548832E1,-1.2621424E-1,2.561928E-2,3.454042E-1,7.0401686E-1],"categories":[],"categories_nodes":[],"categories_segments":[],"categories_sizes":[],"default_left":[0,0,0,0,0,0,0],"id":121,"left_children":[1,3,5,-1,-1,-1,-1],"loss_changes":[6.5287395E6,1.2160502E6,5.51845E5,0E0,0E0,0E0,0E0],"parents":[2147483647,0,0,1,1,2,2],"right_children":[2,4,6,-1,-1,-1,-1],"split_conditions":[1.1815E2,3.1E1,2.1485E2,-1.2621424E-1,2.561928E-2,3.454042E-1,7.0401686E-1],"split_indices":[3,3,3,0,0,0,0],"split_type":[0,0,0,0,0,0,0],"sum_hessian":[2.5479E4,2.1893E4,3.586E3,1.3032E4,8.861E3,3.087E3,4.99E2],"tree_param":{"num_deleted":"0","num_feature":"5","num_nodes":"7","size_leaf_vector":"1"}},{"base_weights":[2.7750891E-3,-9.259509E0,2.719026E1,-1.8798755E-1,-6.1507557E-2,1.9419816E-1,5.093247E-1],"categories":[],"categories_nodes":[],"categories_segments":[],"categories_sizes":[],"default_left":[0,0,0,0,0,0,0],"id":122,"left_children":[1,3,5,-1,-1,-1,-1],"loss_changes":[6.41658E6,5.6351025E5,1.193567E6,0E0,0E0,0E0,0E0],"parents":[2147483647,0,0,1,1,2,2],"right_children":[2,4,6,-1,-1,-1,-1],"split_conditions":[5.615E1,1.005E1,1.769E2,-1.8798755E-1,-6.1507557E-2,1.9419816E-1,5.093247E-1],"split_indices":[1,1,3,0,0,0,0],"split_type":[0,0,0,0,0,0,0],"sum_hessian":[2.5479E4,1.9005E4,6.474E3,4.67E3,1.4335E4,4.879E3,1.595E3],"tree_param":{"num_deleted":"0","num_feature":"5","num_nodes":"7","size_leaf_vector":"1"}},{"base_weights":[2.7656793E-3,-6.962476E0,3.5456577E1,-1.3020904E-1,7.815751E-3,2.932432E-1,6.135935E-1],"categories":[],"categories_nodes":[],"categories_segments":[],"categories_sizes":[],"default_left":[0,0,0,0,0,0,0],"id":123,"left_children":[1,3,5,-1,-1,-1,-1],"loss_changes":[6.2923895E6,9.991968E5,6.62797E5,0E0,0E0,0E0,0E0],"parents":[2147483647,0,0,1,1,2,2],"right_children":[2,4,6,-1,-1,-1,-1],"split_conditions":[1.022E2,2.725E1,2.0005E2,-1.3020904E-1,7.815751E-3,2.932432E-1,6.135935E-1],"split_indices":[2,3,2,0,0,0,0],"split_type":[0,0,0,0,0,0,0],"sum_hessian":[2.5479E4,2.1296E4,4.183E3,1.1948E4,9.348E3,3.384E3,7.99E2],"tree_param":{"num_deleted":"0","num_feature":"5","num_nodes":"7","size_leaf_vector":"1"}},{"base_weights":[2.7690954E-3,-9.088954E0,2.6684084E1,-1.8617767E-1,-6.070922E-2,1.3529275E-1,4.0230533E-1],"categories":[],"categories_nodes":[],"categories_segments":[],"categories_sizes":[],"default_left":[0,0,0,0,0,0,0],"id":124,"left_children":[1,3,5,-1,-1,-1,-1],"loss_changes":[6.181159E6,5.4643775E5,1.153485E6,0E0,0E0,0E0,0E0],"parents":[2147483647,0,0,1,1,2,2],"right_children":[2,4,6,-1,-1,-1,-1],"split_conditions":[5.52E1,9.5E0,1.3865E2,-1.8617767E-1,-6.070922E-2,1.3529275E-1,4.0230533E-1],"split_indices":[3,1,1,0,0,0,0],"split_type":[0,0,0,0,0,0,0],"sum_hessian":[2.5479E4,1.9004E4,6.475E3,4.57E3,1.4434E4,3.286E3,3.189E3],"tree_param":{"num_deleted":"0","num_feature":"5","num_nodes":"7","size_leaf_vector":"1"}},{"base_weights":[2.7540587E-3,-8.99719E0,2.6420197E1,-1.7186384E-1,-5.549918E-2,1.9156303E-1,5.058314E-1],"categories":[],"categories_nodes":[],"categories_segments":[],"categories_sizes":[],"default_left":[0,0,0,0,0,0,0],"id":125,"left_children":[1,3,5,-1,-1,-1,-1],"loss_changes":[6.0582485E6,5.364514E5,1.1355035E6,0E0,0E0,0E0,0E0],"parents":[2147483647,0,0,1,1,2,2],"right_children":[2,4,6,-1,-1,-1,-1],"split_conditions":[5.615E1,1.355E1,1.796E2,-1.7186384E-1,-5.549918E-2,1.9156303E-1,5.058314E-1],"split_indices":[1,3,3,0,0,0,0],"split_type":[0,0,0,0,0,0,0],"sum_hessian":[2.5479E4,1.9005E4,6.474E3,5.629E3,1.3376E4,4.979E3,1.495E3],"tree_param":{"num_deleted":"0","num_feature":"5","num_nodes":"7","size_leaf_vector":"1"}},{"base_weights":[2.7450924E-3,-6.1832204E0,3.776007E1,-1.1109374E-1,4.14509E-2,3.2903698E-1,6.767752E-1],"categories":[],"categories_nodes":[],"categories_segments":[],"categories_sizes":[],"default_left":[0,0,0,0,0,0,0],"id":126,"left_children":[1,3,5,-1,-1,-1,-1],"loss_changes":[5.951483E6,1.1139875E6,5.18929E5,0E0,0E0,0E0,0E0],"parents":[2147483647,0,0,1,1,2,2],"right_children":[2,4,6,-1,-1,-1,-1],"split_conditions":[1.193E2,3.385E1,2.1695E2,-1.1109374E-1,4.14509E-2,3.2903698E-1,6.767752E-1],"split_indices":[1,3,1,0,0,0,0],"split_type":[0,0,0,0,0,0,0],"sum_hessian":[2.5479E4,2.1893E4,3.586E3,1.4823E4,7.07E3,3.087E3,4.99E2],"tree_param":{"num_deleted":"0","num_feature":"5","num_nodes":"7","size_leaf_vector":"1"}},{"base_weights":[2.7542126E-3,-8.465275E0,2.7047209E1,-1.4973494E-1,-3.939427E-2,1.9982511E-1,5.0716835E-1],"categories":[],"categories_nodes":[],"categories_segments":[],"categories_sizes":[],"default_left":[0,0,0,0,0,0,0],"id":127,"left_children":[1,3,5,-1,-1,-1,-1],"loss_changes":[5.8354865E6,5.715195E5,1.015008E6,0E0,0E0,0E0,0E0],"parents":[2147483647,0,0,1,1,2,2],"right_children":[2,4,6,-1,-1,-1,-1],"split_conditions":[8.02E1,1.945E1,1.8265E2,-1.4973494E-1,-3.939427E-2,1.9982511E-1,5.0716835E-1],"split_indices":[1,3,3,0,0,0,0],"split_type":[0,0,0,0,0,0,0],"sum_hessian":[2.5479E4,1.9404E4,6.075E3,7.958E3,1.1446E4,4.68E3,1.395E3],"tree_param":{"num_deleted":"0","num_feature":"5","num_nodes":"7","size_leaf_vector":"1"}},{"base_weights":[2.7470945E-3,-6.069123E0,3.7063667E1,-1.21202305E-1,2.0382507E-2,3.22856E-1,6.6498876E-1],"categories":[],"categories_nodes":[],"categories_segments":[],"categories_sizes":[],"default_left":[0,0,0,0,0,0,0],"id":128,"left_children":[1,3,5,-1,-1,-1,-1],"loss_changes":[5.733966E6,1.0741134E6,5.02341E5,0E0,0E0,0E0,0E0],"parents":[2147483647,0,0,1,1,2,2],"right_children":[2,4,6,-1,-1,-1,-1],"split_conditions":[1.1815E2,2.93E1,2.1485E2,-1.21202305E-1,2.0382507E-2,3.22856E-1,6.6498876E-1],"split_indices":[3,3,3,0,0,0,0],"split_type":[0,0,0,0,0,0,0],"sum_hessian":[2.5479E4,2.1893E4,3.586E3,1.2536E4,9.357E3,3.087E3,4.99E2],"tree_param":{"num_deleted":"0","num_feature":"5","num_nodes":"7","size_leaf_vector":"1"}},{"base_weights":[2.753997E-3,-8.672084E0,2.5460644E1,-1.8004866E-1,-5.7956617E-2,1.5683304E-1,4.2147502E-1],"categories":[],"categories_nodes":[],"categories_segments":[],"categories_sizes":[],"default_left":[0,0,0,0,0,0,0],"id":129,"left_children":[1,3,5,-1,-1,-1,-1],"loss_changes":[5.627302E6,5.1008538E5,1.055918E6,0E0,0E0,0E0,0E0],"parents":[2147483647,0,0,1,1,2,2],"right_children":[2,4,6,-1,-1,-1,-1],"split_conditions":[5.52E1,8.8E0,1.558E2,-1.8004866E-1,-5.7956617E-2,1.5683304E-1,4.2147502E-1],"split_indices":[3,3,3,0,0,0,0],"split_type":[0,0,0,0,0,0,0],"sum_hessian":[2.5479E4,1.9004E4,6.475E3,4.476E3,1.4528E4,4.084E3,2.391E3],