{"learner":{"attributes":{"best_iteration":"18","best_score":"1.731713851422341"},"feature_names":["open","high","low","close","value","open_before1","high_before1","low_before1","close_before1","value_before1"],"feature_types":["float","float","float","float","int","float","float","float","float","float"],"gradient_booster":{"model":{"gbtree_model_param":{"num_parallel_tree":"1","num_trees":"29"},"iteration_indptr":[0,1,2,3,4,5,6,7,8,9,10,11,12,13,14,15,16,17,18,19,20,21,22,23,24,25,26,27,28,29],"tree_info":[0,0,0,0,0,0,0,0,0,0,0,0,0,0,0,0,0,0,0,0,0,0,0,0,0,0,0,0,0],"trees":[{"base_weights":[3.7018089E-7,-2.7840212E1,9.4887924E1,-3.8896248E1,-1.1559971E1,6.0692627E1,1.4001343E2,-4.807426E1,-3.2589928E1,-1.495271E1,2.38589E1,4.7183224E1,8.7656105E1,1.23368645E2,1.6930064E2,-1.4642588E1,-1.2846558E1,-1.1138105E1,-8.862421E0,-5.7276354E0,-2.483737E0,4.9657536E0,8.811209E0,1.2172609E1,1.6514074E1,2.2044186E1,2.7214687E1,3.357218E1,4.0406834E1,4.689341E1,5.552237E1],"categories":[],"categories_nodes":[],"categories_segments":[],"categories_sizes":[],"default_left":[0,0,0,0,0,0,0,0,0,0,0,0,0,0,0,0,0,0,0,0,0,0,0,0,0,0,0,0,0,0,0],"id":0,"left_children":[1,3,5,7,9,11,13,15,17,19,21,23,25,27,29,-1,-1,-1,-1,-1,-1,-1,-1,-1,-1,-1,-1,-1,-1,-1,-1],"loss_changes":[6.731052E7,3.545449E6,8.9105E6,6.77476E5,9.579676E5,1.194282E6,1.193428E6,1.6332E4,9.5129E4,2.0075638E5,2.7582938E4,1.117715E5,4.0911E4,1.9149E5,1.55472E5,0E0,0E0,0E0,0E0,0E0,0E0,0E0,0E0,0E0,0E0,0E0,0E0,0E0,0E0,0E0,0E0],"parents":[2147483647,0,0,1,1,2,2,3,3,4,4,5,5,6,6,7,7,8,8,9,9,10,10,11,11,12,12,13,13,14,14],"right_children":[2,4,6,8,10,12,14,16,18,20,22,24,26,28,30,-1,-1,-1,-1,-1,-1,-1,-1,-1,-1,-1,-1,-1,-1,-1,-1],"split_conditions":[8.46E1,2.63E1,1.544E2,1.105E1,5.52E1,1.1815E2,1.9815E2,5.1E0,1.77E1,3.77E1,7.615E1,9.925E1,1.3265E2,1.7435E2,2.218E2,-1.4642588E1,-1.2846558E1,-1.1138105E1,-8.862421E0,-5.7276354E0,-2.483737E0,4.9657536E0,8.811209E0,1.2172609E1,1.6514074E1,2.2044186E1,2.7214687E1,3.357218E1,4.0406834E1,4.689341E1,5.552237E1],"split_indices":[3,3,1,3,3,3,3,7,2,3,1,3,3,3,3,0,0,0,0,0,0,0,0,0,0,0,0,0,0,0,0],"split_type":[0,0,0,0,0,0,0,0,0,0,0,0,0,0,0,0,0,0,0,0,0,0,0,0,0,0,0,0,0,0,0],"sum_hessian":[2.5478E4,1.9699E4,5.779E3,1.1731E4,7.968E3,3.289E3,2.49E3,4.775E3,6.956E3,7.272E3,6.96E2,2.193E3,1.096E3,1.591E3,8.99E2,4.182E3,5.93E2,2.791E3,4.165E3,4.487E3,2.785E3,3.01E2,3.95E2,1.195E3,9.98E2,1.99E2,8.97E2,7.96E2,7.95E2,4.99E2,4E2],"tree_param":{"num_deleted":"0","num_feature":"10","num_nodes":"31","size_leaf_vector":"1"}},{"base_weights":[8.3364565E-3,-1.8848488E1,6.879687E1,-2.654311E1,-5.6266093E0,4.6027893E1,1.00419136E2,-3.3251022E1,-2.1887598E1,-9.45384E0,1.8857937E1,3.520475E1,6.4082306E1,9.041548E1,1.2297669E2,-1.0240692E1,-8.694164E0,-7.5005765E0,-5.877981E0,-3.4515786E0,-1.0015626E0,2.803902E0,6.3717113E0,9.409778E0,1.3238004E1,1.7655073E1,2.0759535E1,2.479932E1,3.0093483E1,3.4492535E1,3.9976395E1],"categories":[],"categories_nodes":[],"categories_segments":[],"categories_sizes":[],"default_left":[0,0,0,0,0,0,0,0,0,0,0,0,0,0,0,0,0,0,0,0,0,0,0,0,0,0,0,0,0,0,0],"id":1,"left_children":[1,3,5,7,9,11,13,15,17,19,21,23,25,27,29,-1,-1,-1,-1,-1,-1,-1,-1,-1,-1,-1,-1,-1,-1,-1,-1],"loss_changes":[3.3050954E7,2.034394E6,3.942456E6,3.94035E5,6.896819E5,6.208915E5,5.06542E5,1.8568E4,5.284975E4,7.979831E4,2.2336281E4,6.69785E4,2.78885E4,1.139E5,4.2411E4,0E0,0E0,0E0,0E0,0E0,0E0,0E0,0E0,0E0,0E0,0E0,0E0,0E0,0E0,0E0,0E0],"parents":[2147483647,0,0,1,1,2,2,3,3,4,4,5,5,6,6,7,7,8,8,9,9,10,10,11,11,12,12,13,13,14,14],"right_children":[2,4,6,8,10,12,14,16,18,20,22,24,26,28,30,-1,-1,-1,-1,-1,-1,-1,-1,-1,-1,-1,-1,-1,-1,-1,-1],"split_conditions":[8.88E1,2.98E1,1.577E2,1.25E1,5.52E1,1.2285E2,2.0475E2,6.6E0,2.025E1,4.165E1,7.19E1,1.0545E2,1.426E2,1.8265E2,2.2645E2,-1.0240692E1,-8.694164E0,-7.5005765E0,-5.877981E0,-3.4515786E0,-1.0015626E0,2.803902E0,6.3717113E0,9.409778E0,1.3238004E1,1.7655073E1,2.0759535E1,2.479932E1,3.0093483E1,3.4492535E1,3.9976395E1],"split_indices":[3,3,3,3,5,2,3,3,3,3,3,3,3,3,2,0,0,0,0,0,0,0,0,0,0,0,0,0,0,0,0],"split_type":[0,0,0,0,0,0,0,0,0,0,0,0,0,0,0,0,0,0,0,0,0,0,0,0,0,0,0,0,0,0,0],"sum_hessian":[2.5478E4,1.9997E4,5.481E3,1.264E4,7.357E3,3.188E3,2.293E3,5.176E3,7.464E3,6.363E3,9.94E2,1.995E3,1.193E3,1.592E3,7.01E2,4.282E3,8.94E2,3.162E3,4.302E3,4.764E3,1.599E3,2E2,7.94E2,1.398E3,5.97E2,5.96E2,5.97E2,8.98E2,6.94E2,4.01E2,3E2],"tree_param":{"num_deleted":"0","num_feature":"10","num_nodes":"31","size_leaf_vector":"1"}},{"base_weights":[1.2227054E-2,-1.2745961E1,4.998631E1,-1.7882988E1,-1.5597334E0,3.4842228E1,7.232038E1,-2.2320738E1,-1.3806825E1,-5.3935847E0,1.5125568E1,2.5939852E1,4.5640495E1,6.589493E1,8.819924E1,-7.159351E0,-5.8037925E0,-4.701109E0,-3.501826E0,-1.9594514E0,2.5746444E-1,3.1842697E0,4.9862547E0,7.0327554E0,9.5549345E0,1.2506992E1,1.485769E1,1.8173155E1,2.1561752E1,2.5117613E1,2.8942022E1],"categories":[],"categories_nodes":[],"categories_segments":[],"categories_sizes":[],"default_left":[0,0,0,0,0,0,0,0,0,0,0,0,0,0,0,0,0,0,0,0,0,0,0,0,0,0,0,0,0,0,0],"id":2,"left_children":[1,3,5,7,9,11,13,15,17,19,21,23,25,27,29,-1,-1,-1,-1,-1,-1,-1,-1,-1,-1,-1,-1,-1,-1,-1,-1],"loss_changes":[1.6245505E7,1.1663758E6,1.750183E6,2.513095E5,4.0877928E5,2.9585825E5,2.07734E5,3.011425E4,2.8661625E4,3.6970203E4,7.8779375E3,2.428475E4,1.934625E4,4.31365E4,1.4133E4,0E0,0E0,0E0,0E0,0E0,0E0,0E0,0E0,0E0,0E0,0E0,0E0,0E0,0E0,0E0,0E0],"parents":[2147483647,0,0,1,1,2,2,3,3,4,4,5,5,6,6,7,7,8,8,9,9,10,10,11,11,12,12,13,13,14,14],"right_children":[2,4,6,8,10,12,14,16,18,20,22,24,26,28,30,-1,-1,-1,-1,-1,-1,-1,-1,-1,-1,-1,-1,-1,-1,-1,-1],"split_conditions":[9.16E1,3.245E1,1.6205E2,1.475E1,6.695E1,1.267E2,2.0995E2,8.15E0,2.305E1,4.505E1,7.935E1,1.08E2,1.4495E2,1.872E2,2.392E2,-7.159351E0,-5.8037925E0,-4.701109E0,-3.501826E0,-1.9594514E0,2.5746444E-1,3.1842697E0,4.9862547E0,7.0327554E0,9.5549345E0,1.2506992E1,1.485769E1,1.8173155E1,2.1561752E1,2.5117613E1,2.8942022E1],"split_indices":[3,3,3,3,3,1,3,3,3,3,3,3,3,3,1,0,0,0,0,0,0,0,0,0,0,0,0,0,0,0,0],"split_type":[0,0,0,0,0,0,0,0,0,0,0,0,0,0,0,0,0,0,0,0,0,0,0,0,0,0,0,0,0,0,0],"sum_hessian":[2.5478E4,2.0297E4,5.181E3,1.3909E4,6.388E3,3.089E3,2.092E3,6.657E3,7.252E3,5.195E3,1.193E3,1.695E3,1.394E3,1.493E3,5.99E2,4.378E3,2.279E3,3.868E3,3.384E3,4.395E3,8E2,2.99E2,8.94E2,1.195E3,5E2,6.97E2,6.97E2,7.96E2,6.97E2,3.96E2,2.03E2],"tree_param":{"num_deleted":"0","num_feature":"10","num_nodes":"31","size_leaf_vector":"1"}},{"base_weights":[1.3388526E-2,-8.712168E0,3.5913918E1,-1.203097E1,8.5067385E-1,2.557497E1,5.1381012E1,-1.5461451E1,-9.054446E0,-2.7547631E0,1.0898766E1,1.9313484E1,3.2730576E1,4.682385E1,6.1873295E1,-5.003989E0,-4.002543E0,-3.18592E0,-2.270672E0,-1.0450183E0,6.670956E-1,2.3711607E0,3.6284401E0,5.2794933E0,7.3193574E0,9.0369835E0,1.0587275E1,1.3067692E1,1.53307085E1,1.7607641E1,2.0359898E1],"categories":[],"categories_nodes":[],"categories_segments":[],"categories_sizes":[],"default_left":[0,0,0,0,0,0,0,0,0,0,0,0,0,0,0,0,0,0,0,0,0,0,0,0,0,0,0,0,0,0,0],"id":3,"left_children":[1,3,5,7,9,11,13,15,17,19,21,23,25,27,29,-1,-1,-1,-1,-1,-1,-1,-1,-1,-1,-1,-1,-1,-1,-1,-1],"loss_changes":[7.9816625E6,6.505589E5,7.953745E5,1.552395E5,1.9138505E5,1.332445E5,9.2494E4,1.803275E4,1.887075E4,1.4111193E4,4.9012812E3,1.34886875E4,8.236E3,1.726075E4,7.47475E3,0E0,0E0,0E0,0E0,0E0,0E0,0E0,0E0,0E0,0E0,0E0,0E0,0E0,0E0,0E0,0E0],"parents":[2147483647,0,0,1,1,2,2,3,3,4,4,5,5,6,6,7,7,8,8,9,9,10,10,11,11,12,12,13,13,14,14],"right_children":[2,4,6,8,10,12,14,16,18,20,22,24,26,28,30,-1,-1,-1,-1,-1,-1,-1,-1,-1,-1,-1,-1,-1,-1,-1,-1],"split_conditions":[9.41E1,3.47E1,1.669E2,1.595E1,6.825E1,1.3405E2,2.125E2,8.85E0,2.4E1,4.75E1,8.155E1,1.1235E2,1.4725E2,1.901E2,2.376E2,-5.003989E0,-4.002543E0,-3.18592E0,-2.270672E0,-1.0450183E0,6.670956E-1,2.3711607E0,3.6284401E0,5.2794933E0,7.3193574E0,9.0369835E0,1.0587275E1,1.3067692E1,1.53307085E1,1.7607641E1,2.0359898E1],"split_indices":[3,3,3,3,1,6,1,3,3,3,3,3,3,3,3,0,0,0,0,0,0,0,0,0,0,0,0,0,0,0,0],"split_type":[0,0,0,0,0,0,0,0,0,0,0,0,0,0,0,0,0,0,0,0,0,0,0,0,0,0,0,0,0,0,0],"sum_hessian":[2.5478E4,2.0497E4,4.981E3,1.5216E4,5.281E3,2.987E3,1.994E3,7.067E3,8.149E3,3.887E3,1.394E3,1.595E3,1.392E3,1.394E3,6E2,4.483E3,2.584E3,3.965E3,4.184E3,3.391E3,4.96E2,4E2,9.94E2,1.196E3,3.99E2,6.96E2,6.96E2,7.97E2,5.97E2,3.99E2,2.01E2],"tree_param":{"num_deleted":"0","num_feature":"10","num_nodes":"31","size_leaf_vector":"1"}},{"base_weights":[1.2894453E-2,-6.627363E0,2.3170761E1,-9.284967E0,-2.3336782E0,1.6214094E1,3.601537E1,-1.1325229E1,-7.544256E0,-3.5422158E0,4.8105106E0,1.1290291E1,2.2000818E1,3.312097E1,4.4597595E1,-3.683439E0,-3.1212752E0,-2.478449E0,-1.9295635E0,-1.4289476E0,-6.358161E-1,6.221355E-1,1.9085637E0,2.7591598E0,3.8964097E0,5.5052476E0,7.1855445E0,9.228046E0,1.0980297E1,1.28613E1,1.527432E1],"categories":[],"categories_nodes":[],"categories_segments":[],"categories_sizes":[],"default_left":[0,0,0,0,0,0,0,0,0,0,0,0,0,0,0,0,0,0,0,0,0,0,0,0,0,0,0,0,0,0,0],"id":4,"left_children":[1,3,5,7,9,11,13,15,17,19,21,23,25,27,29,-1,-1,-1,-1,-1,-1,-1,-1,-1,-1,-1,-1,-1,-1,-1,-1],"loss_changes":[3.9181665E6,2.2593719E5,5.067775E5,4.3353125E4,6.539385E4,1.0474719E5,4.80545E4,4.81225E3,5.2150312E3,1.1241703E4,4.6400605E3,6.9627188E3,1.16165625E4,1.1156625E4,3.2705E3,0E0,0E0,0E0,0E0,0E0,0E0,0E0,0E0,0E0,0E0,0E0,0E0,0E0,0E0,0E0,0E0],"parents":[2147483647,0,0,1,1,2,2,3,3,4,4,5,5,6,6,7,7,8,8,9,9,10,10,11,11,12,12,13,13,14,14],"right_children":[2,4,6,8,10,12,14,16,18,20,22,24,26,28,30,-1,-1,-1,-1,-1,-1,-1,-1,-1,-1,-1,-1,-1,-1,-1,-1],"split_conditions":[8.665E1,2.82E1,1.6835E2,1.355E1,4.905E1,1.134E2,2.1485E2,3.05E0,2.17E1,3.595E1,6.825E1,9.66E1,1.3905E2,1.925E2,2.4295E2,-3.683439E0,-3.1212752E0,-2.478449E0,-1.9295635E0,-1.4289476E0,-6.358161E-1,6.221355E-1,1.9085637E0,2.7591598E0,3.8964097E0,5.5052476E0,7.1855445E0,9.228046E0,1.0980297E1,1.28613E1,1.527432E1],"split_indices":[3,3,1,3,3,2,3,3,1,3,6,3,3,3,3,0,0,0,0,0,0,0,0,0,0,0,0,0,0,0,0],"split_type":[0,0,0,0,0,0,0,0,0,0,0,0,0,0,0,0,0,0,0,0,0,0,0,0,0,0,0,0,0,0,0],"sum_hessian":[2.5478E4,1.9801E4,5.677E3,1.223E4,7.571E3,3.684E3,1.993E3,5.628E3,6.602E3,6.476E3,1.095E3,1.992E3,1.692E3,1.494E3,4.99E2,2.76E3,2.868E3,4.01E3,2.592E3,3.484E3,2.992E3,3.97E2,6.98E2,8.95E2,1.097E3,5.93E2,1.099E3,8.96E2,5.98E2,3.98E2,1.01E2],"tree_param":{"num_deleted":"0","num_feature":"10","num_nodes":"31","size_leaf_vector":"1"}},{"base_weights":[1.1260823E-2,-4.3263016E0,1.7425533E1,-6.0401692E0,1.2666362E-2,1.2565347E1,2.5583303E1,-7.642493E0,-4.583845E0,-1.7243186E0,4.568024E0,9.458031E0,1.6547958E1,2.3522032E1,3.1291332E1,-2.5290709E0,-2.0301087E0,-1.620961E0,-1.2103221E0,-7.380884E-1,-2.2628637E-1,7.577071E-1,1.7381278E0,2.3170285E0,3.3563643E0,4.5085163E0,5.301773E0,6.5747976E0,7.687513E0,9.011259E0,1.0766743E1],"categories":[],"categories_nodes":[],"categories_segments":[],"categories_sizes":[],"default_left":[0,0,0,0,0,0,0,0,0,0,0,0,0,0,0,0,0,0,0,0,0,0,0,0,0,0,0,0,0,0,0],"id":5,"left_children":[1,3,5,7,9,11,13,15,17,19,21,23,25,27,29,-1,-1,-1,-1,-1,-1,-1,-1,-1,-1,-1,-1,-1,-1,-1,-1],"loss_changes":[1.9246444E6,1.516956E5,2.0113138E5,3.408775E4,4.5718902E4,3.927097E4,2.1572E4,4.7435E3,3.4279688E3,2.9844697E3,3.9782266E3,5.2906562E3,2.118375E3,4.15675E3,1.804375E3,0E0,0E0,0E0,0E0,0E0,0E0,0E0,0E0,0E0,0E0,0E0,0E0,0E0,0E0,0E0,0E0],"parents":[2147483647,0,0,1,1,2,2,3,3,4,4,5,5,6,6,7,7,8,8,9,9,10,10,11,11,12,12,13,13,14,14],"right_children":[2,4,6,8,10,12,14,16,18,20,22,24,26,28,30,-1,-1,-1,-1,-1,-1,-1,-1,-1,-1,-1,-1,-1,-1,-1,-1],"split_conditions":[9.275E1,3.35E1,1.6955E2,1.56E1,5.04E1,1.358E2,2.1695E2,3.65E0,2.23E1,4.035E1,8.02E1,1.0305E2,1.486E2,1.925E2,2.446E2,-2.5290709E0,-2.0301087E0,-1.620961E0,-1.2103221E0,-7.380884E-1,-2.2628637E-1,7.577071E-1,1.7381278E0,2.3170285E0,3.3563643E0,4.5085163E0,5.301773E0,6.5747976E0,7.687513E0,9.011259E0,1.0766743E1],"split_indices":[3,3,3,3,3,3,1,3,1,3,6,3,1,3,1,0,0,0,0,0,0,0,0,0,0,0,0,0,0,0,0],"split_type":[0,0,0,0,0,0,0,0,0,0,0,0,0,0,0,0,0,0,0,0,0,0,0,0,0,0,0,0,0,0,0],"sum_hessian":[2.5478E4,2.0398E4,5.08E3,1.4622E4,5.776E3,3.185E3,1.895E3,6.96E3,7.662E3,4.182E3,1.594E3,1.791E3,1.394E3,1.396E3,4.99E2,3.659E3,3.301E3,3.072E3,4.59E3,2.377E3,1.805E3,5.99E2,9.95E2,8.97E2,8.94E2,5.99E2,7.95E2,7.98E2,5.98E2,3.98E2,1.01E2],"tree_param":{"num_deleted":"0","num_feature":"10","num_nodes":"31","size_leaf_vector":"1"}},{"base_weights":[9.596195E-3,-2.9568942E0,1.2519388E1,-3.7539418E0,2.1397212E0,9.079988E0,1.7944273E1,-5.2158403E0,-2.602646E0,2.2203116E-1,3.80277E0,7.0022497E0,1.1777258E1,1.5861775E1,2.0766129E1,-1.728537E0,-1.3235056E0,-9.958653E-1,-5.2898145E-1,-2.9417729E-2,2.8310612E-1,8.467463E-1,1.2873175E0,1.7667837E0,2.5759463E0,3.273237E0,3.7513077E0,4.2735543E0,5.029722E0,5.7331333E0,7.035884E0],"categories":[],"categories_nodes":[],"categories_segments":[],"categories_sizes":[],"default_left":[0,0,0,0,0,0,0,0,0,0,0,0,0,0,0,0,0,0,0,0,0,0,0,0,0,0,0,0,0,0,0],"id":6,"left_children":[1,3,5,7,9,11,13,15,17,19,21,23,25,27,29,-1,-1,-1,-1,-1,-1,-1,-1,-1,-1,-1,-1,-1,-1,-1,-1],"loss_changes":[9.4556725E5,8.3674016E4,9.096444E4,2.996375E4,8.884299E3,1.667975E4,1.080075E4,3.4191875E3,5.991203E3,2.9923108E2,7.020488E2,2.932789E3,6.825781E2,1.359875E3,3.1150625E3,0E0,0E0,0E0,0E0,0E0,0E0,0E0,0E0,0E0,0E0,0E0,0E0,0E0,0E0,0E0,0E0],"parents":[2147483647,0,0,1,1,2,2,3,3,4,4,5,5,6,6,7,7,8,8,9,9,10,10,11,11,12,12,13,13,14,14],"right_children":[2,4,6,8,10,12,14,16,18,20,22,24,26,28,30,-1,-1,-1,-1,-1,-1,-1,-1,-1,-1,-1,-1,-1,-1,-1,-1],"split_conditions":[9.535E1,4.315E1,1.711E2,1.925E1,6.7E1,1.3735E2,2.0185E2,1.005E1,3.13E1,4.975E1,8.26E1,1.1055E2,1.4945E2,1.796E2,2.3195E2,-1.728537E0,-1.3235056E0,-9.958653E-1,-5.2898145E-1,-2.9417729E-2,2.8310612E-1,8.467463E-1,1.2873175E0,1.7667837E0,2.5759463E0,3.273237E0,3.7513077E0,4.2735543E0,5.029722E0,5.7331333E0,7.035884E0],"split_indices":[3,3,1,3,5,3,3,1,3,1,3,3,3,3,1,0,0,0,0,0,0,0,0,0,0,0,0,0,0,0,0],"split_type":[0,0,0,0,0,0,0,0,0,0,0,0,0,0,0,0,0,0,0,0,0,0,0,0,0,0,0,0,0,0,0],"sum_hessian":[2.5478E4,2.0595E4,4.883E3,1.781E4,2.785E3,2.99E3,1.893E3,7.845E3,9.965E3,1.294E3,1.491E3,1.691E3,1.299E3,1.093E3,8E2,4.669E3,3.176E3,5.373E3,4.592E3,8.97E2,3.97E2,4.98E2,9.93E2,9.96E2,6.95E2,6E2,6.99E2,3.98E2,6.95E2,5E2,3E2],"tree_param":{"num_deleted":"0","num_feature":"10","num_nodes":"31","size_leaf_vector":"1"}},{"base_weights":[7.943137E-3,-2.0964475E0,8.661952E0,-2.7476292E0,8.828768E-1,6.2628884E0,1.257264E1,-3.729427E0,-2.0020092E0,-1.7147787E-1,2.6137474E0,4.501653E0,7.9141226E0,1.1526796E1,1.5465398E1,-1.3592241E0,-1.0181983E0,-7.393361E-1,-4.559051E-1,-1.6641289E-1,9.789541E-2,4.9313515E-1,8.632757E-1,1.2105584E0,1.7277197E0,2.0131807E0,2.5355036E0,2.9821424E0,3.645025E0,4.4080057E0,5.5001516E0],"categories":[],"categories_nodes":[],"categories_segments":[],"categories_sizes":[],"default_left":[0,0,0,0,0,0,0,0,0,0,0,0,0,0,0,0,0,0,0,0,0,0,0,0,0,0,0,0,0,0,0],"id":7,"left_children":[1,3,5,7,9,11,13,15,17,19,21,23,25,27,29,-1,-1,-1,-1,-1,-1,-1,-1,-1,-1,-1,-1,-1,-1,-1,-1],"loss_changes":[4.6402678E5,3.9766344E4,4.6681094E4,1.2305586E4,6.710794E3,8.953648E3,5.5518125E3,1.9357578E3,2.129043E3,4.36284E2,3.5150293E2,8.5538477E2,9.7453906E2,1.2585E3,8.3790625E2,0E0,0E0,0E0,0E0,0E0,0E0,0E0,0E0,0E0,0E0,0E0,0E0,0E0,0E0,0E0,0E0],"parents":[2147483647,0,0,1,1,2,2,3,3,4,4,5,5,6,6,7,7,8,8,9,9,10,10,11,11,12,12,13,13,14,14],"right_children":[2,4,6,8,10,12,14,16,18,20,22,24,26,28,30,-1,-1,-1,-1,-1,-1,-1,-1,-1,-1,-1,-1,-1,-1,-1,-1],"split_conditions":[9.495E1,3.98E1,1.711E2,1.65E1,6.7E1,1.2485E2,2.1485E2,2.45E0,2.795E1,4.41E1,7.935E1,1.1055E2,1.406E2,1.7965E2,2.4295E2,-1.3592241E0,-1.0181983E0,-7.393361E-1,-4.559051E-1,-1.6641289E-1,9.789541E-2,4.9313515E-1,8.632757E-1,1.2105584E0,1.7277197E0,2.0131807E0,2.5355036E0,2.9821424E0,3.645025E0,4.4080057E0,5.5001516E0],"split_indices":[1,3,1,3,0,5,0,3,3,3,8,5,3,5,3,0,0,0,0,0,0,0,0,0,0,0,0,0,0,0,0],"split_type":[0,0,0,0,0,0,0,0,0,0,0,0,0,0,0,0,0,0,0,0,0,0,0,0,0,0,0,0,0,0,0],"sum_hessian":[2.5478E4,2.0495E4,4.983E3,1.6819E4,3.676E3,3.09E3,1.893E3,7.258E3,9.561E3,2.285E3,1.391E3,1.497E3,1.593E3,1.394E3,4.99E2,2.138E3,5.12E3,4.879E3,4.682E3,1.291E3,9.94E2,2.99E2,1.092E3,1.095E3,4.02E2,4.96E2,1.097E3,3.98E2,9.96E2,3.98E2,1.01E2],"tree_param":{"num_deleted":"0","num_feature":"10","num_nodes":"31","size_leaf_vector":"1"}},{"base_weights":[6.413475E-3,-1.5953113E0,5.5924206E0,-2.1756737E0,-3.7233004E-1,3.7551172E0,8.510453E0,-2.7495725E0,-1.7172163E0,-6.7369914E-1,1.2517519E0,2.6924336E0,5.1702266E0,7.263031E0,9.996833E0,-9.931006E-1,-7.6513207E-1,-5.9431845E-1,-4.464272E-1,-2.8183505E-1,-7.746876E-2,-6.7354965E-1,4.02067E-1,6.8841374E-1,1.0281117E0,1.3154982E0,1.6657737E0,2.011154E0,2.3433018E0,2.7710967E0,3.5176952E0],"categories":[],"categories_nodes":[],"categories_segments":[],"categories_sizes":[],"default_left":[0,0,0,0,0,0,0,0,0,0,0,0,0,0,0,0,0,0,0,0,0,0,0,0,0,0,0,0,0,0,0],"id":8,"left_children":[1,3,5,7,9,11,13,15,17,19,21,23,25,27,29,-1,-1,-1,-1,-1,-1,-1,-1,-1,-1,-1,-1,-1,-1,-1,-1],"loss_changes":[2.279758E5,1.4054102E4,3.0409578E4,3.5285586E3,3.1205854E3,5.228371E3,3.9935312E3,6.573086E2,4.4852148E2,5.934404E2,3.1176758E2,5.744287E2,4.2420703E2,3.1410938E2,1.2026875E3,0E0,0E0,0E0,0E0,0E0,0E0,0E0,0E0,0E0,0E0,0E0,0E0,0E0,0E0,0E0,0E0],"parents":[2147483647,0,0,1,1,2,2,3,3,4,4,5,5,6,6,7,7,8,8,9,9,10,10,11,11,12,12,13,13,14,14],"right_children":[2,4,6,8,10,12,14,16,18,20,22,24,26,28,30,-1,-1,-1,-1,-1,-1,-1,-1,-1,-1,-1,-1,-1,-1,-1,-1],"split_conditions":[8.665E1,3.165E1,1.6135E2,1.385E1,5.04E1,1.145E2,1.9355E2,2.15E0,2.125E1,3.95E1,9E0,1.014E2,1.3735E2,1.7855E2,2.3195E2,-9.931006E-1,-7.6513207E-1,-5.9431845E-1,-4.464272E-1,-2.8183505E-1,-7.746876E-2,-6.7354965E-1,4.02067E-1,6.8841374E-1,1.0281117E0,1.3154982E0,1.6657737E0,2.011154E0,2.3433018E0,2.7710967E0,3.5176952E0],"split_indices":[3,3,1,3,0,3,2,3,3,3,9,3,3,6,6,0,0,0,0,0,0,0,0,0,0,0,0,0,0,0,0],"split_type":[0,0,0,0,0,0,0,0,0,0,0,0,0,0,0,0,0,0,0,0,0,0,0,0,0,0,0,0,0,0,0],"sum_hessian":[2.5478E4,1.9801E4,5.677E3,1.3428E4,6.373E3,3.485E3,2.192E3,5.961E3,7.467E3,5.376E3,9.97E2,1.992E3,1.493E3,1.195E3,9.97E2,1.558E3,4.403E3,3.467E3,4E3,3.278E3,2.098E3,2.4E1,9.73E2,1.295E3,6.97E2,4.93E2,1E3,5.98E2,5.97E2,6.97E2,3E2],"tree_param":{"num_deleted":"0","num_feature":"10","num_nodes":"31","size_leaf_vector":"1"}},{"base_weights":[4.9561798E-3,-1.0166035E0,4.312908E0,-1.4585942E0,1.4293607E-1,3.0175076E0,6.038874E0,-2.006549E0,-1.1842221E0,-3.0733505E-1,1.2057256E0,2.15037E0,3.6678717E0,5.281696E0,7.253596E0,-7.4042755E-1,-5.6754524E-1,-4.202667E-1,-2.929364E-1,-1.3077681E-1,2.4671286E-2,1.9656356E-1,4.3063247E-1,5.440035E-1,7.454791E-1,1.0138795E0,1.2881051E0,1.4412951E0,1.7052809E0,2.0768917E0,2.8354397E0],"categories":[],"categories_nodes":[],"categories_segments":[],"categories_sizes":[],"default_left":[0,0,0,0,0,0,0,0,0,0,0,0,0,0,0,0,0,0,0,0,0,0,0,0,0,0,0,0,0,0,0],"id":9,"left_children":[1,3,5,7,9,11,13,15,17,19,21,23,25,27,29,-1,-1,-1,-1,-1,-1,-1,-1,-1,-1,-1,-1,-1,-1,-1,-1],"loss_changes":[1.1213313E5,1.0555777E4,1.0901516E4,2.239543E3,2.72089E3,1.5666758E3,1.8867422E3,2.587207E2,4.4604883E2,2.0011224E2,2.1303296E2,1.3068799E2,2.7305664E2,2.2117969E2,5.16625E2,0E0,0E0,0E0,0E0,0E0,0E0,0E0,0E0,0E0,0E0,0E0,0E0,0E0,0E0,0E0,0E0],"parents":[2147483647,0,0,1,1,2,2,3,3,4,4,5,5,6,6,7,7,8,8,9,9,10,10,11,11,12,12,13,13,14,14],"right_children":[2,4,6,8,10,12,14,16,18,20,22,24,26,28,30,-1,-1,-1,-1,-1,-1,-1,-1,-1,-1,-1,-1,-1,-1,-1,-1],"split_conditions":[9.535E1,3.4E1,1.643E2,1.19E1,5.225E1,1.154E2,2.0185E2,1.9E0,2.185E1,4.35E1,7.855E1,1.0205E2,1.509E2,1.796E2,2.4295E2,-7.4042755E-1,-5.6754524E-1,-4.202667E-1,-2.929364E-1,-1.3077681E-1,2.4671286E-2,1.9656356E-1,4.3063247E-1,5.440035E-1,7.454791E-1,1.0138795E0,1.2881051E0,1.4412951E0,1.7052809E0,2.0768917E0,2.8354397E0],"split_indices":[3,3,1,3,3,1,3,3,3,3,7,3,1,3,0,0,0,0,0,0,0,0,0,0,0,0,0,0,0,0,0],"split_type":[0,0,0,0,0,0,0,0,0,0,0,0,0,0,0,0,0,0,0,0,0,0,0,0,0,0,0,0,0,0,0],"sum_hessian":[2.5478E4,2.0595E4,4.883E3,1.4911E4,5.684E3,2.791E3,2.092E3,4.973E3,9.938E3,3.993E3,1.691E3,1.198E3,1.593E3,1.292E3,8E2,9.86E2,3.987E3,4.862E3,5.076E3,3.002E3,9.91E2,4.99E2,1.192E3,6E2,5.98E2,1.095E3,4.98E2,5.97E2,6.95E2,6.99E2,1.01E2],"tree_param":{"num_deleted":"0","num_feature":"10","num_nodes":"31","size_leaf_vector":"1"}},{"base_weights":[3.867777E-3,-7.4761754E-1,2.878181E0,-1.0291392E0,6.6437046E-3,1.7971387E0,3.9981365E0,-1.4055893E0,-8.3706015E-1,-2.2615069E-1,7.611081E-1,1.3255161E0,2.3037922E0,3.4106941E0,4.9335675E0,-4.7670618E-1,-3.7096775E-1,-3.0049458E-1,-2.1140951E-1,-9.4162814E-2,1.7277852E-2,6.0451484E-1,1.9668815E-1,3.6266592E-1,4.8439172E-1,6.1241835E-1,7.8101933E-1,9.5063156E-1,1.1427414E0,1.3503541E0,1.7759566E0],"categories":[],"categories_nodes":[],"categories_segments":[],"categories_sizes":[],"default_left":[0,0,0,0,0,0,0,0,0,0,0,0,0,0,0,0,0,0,0,0,0,0,0,0,0,0,0,0,0,0,0],"id":10,"left_children":[1,3,5,7,9,11,13,15,17,19,21,23,25,27,29,-1,-1,-1,-1,-1,-1,-1,-1,-1,-1,-1,-1,-1,-1,-1,-1],"loss_changes":[5.5036895E4,4.289079E3,6.386625E3,1.0624053E3,9.6458435E2,6.3948047E2,1.4080547E3,1.5207031E2,2.1152539E2,1.044877E2,1.6996454E2,4.508789E1,9.6493164E1,1.4177148E2,3.9896094E2,0E0,0E0,0E0,0E0,0E0,0E0,0E0,0E0,0E0,0E0,0E0,0E0,0E0,0E0,0E0,0E0],"parents":[2147483647,0,0,1,1,2,2,3,3,4,4,5,5,6,6,7,7,8,8,9,9,10,10,11,11,12,12,13,13,14,14],"right_children":[2,4,6,8,10,12,14,16,18,20,22,24,26,28,30,-1,-1,-1,-1,-1,-1,-1,-1,-1,-1,-1,-1,-1,-1,-1,-1],"split_conditions":[9.07E1,3.395E1,1.4945E2,1.2E1,5.225E1,1.094E2,1.957E2,2.65E0,2.115E1,4.35E1,5.52E1,1.0205E2,1.3735E2,1.7855E2,2.2935E2,-4.7670618E-1,-3.7096775E-1,-3.0049458E-1,-2.1140951E-1,-9.4162814E-2,1.7277852E-2,6.0451484E-1,1.9668815E-1,3.6266592E-1,4.8439172E-1,6.1241835E-1,7.8101933E-1,9.5063156E-1,1.1427414E0,1.3503541E0,1.7759566E0],"split_indices":[3,1,3,1,3,2,3,3,3,3,3,3,3,1,3,0,0,0,0,0,0,0,0,0,0,0,0,0,0,0,0],"split_type":[0,0,0,0,0,0,0,0,0,0,0,0,0,0,0,0,0,0,0,0,0,0,0,0,0,0,0,0,0,0,0],"sum_hessian":[2.5478E4,2.0198E4,5.28E3,1.4708E4,5.49E3,2.688E3,2.592E3,4.967E3,9.741E3,4.196E3,1.294E3,1.394E3,1.294E3,1.595E3,9.97E2,2.378E3,2.589E3,4.339E3,5.402E3,3.205E3,9.91E2,9.9E1,1.195E3,9.97E2,3.97E2,6.94E2,6E2,9.98E2,5.97E2,6.97E2,3E2],"tree_param":{"num_deleted":"0","num_feature":"10","num_nodes":"31","size_leaf_vector":"1"}},{"base_weights":[2.9750115E-3,-5.7025784E-1,1.8738469E0,-8.0561304E-1,-2.4324484E-1,1.1630858E0,2.8007045E0,-1.0714482E0,-6.9675475E-1,-3.712798E-1,2.834226E-3,8.8223445E-1,1.6143229E0,2.346681E0,3.4157763E0,-3.9986378E-1,-3.0071944E-1,-2.4122222E-1,-1.9115753E-1,-9.335886E-2,-2.8990638E-1,-6.2708163E-1,6.5151714E-3,2.4413873E-1,3.3928582E-1,4.6562383E-1,7.4507505E-1,2.215599E0,6.97445E-1,9.7703195E-1,1.4814082E0],"categories":[],"categories_nodes":[],"categories_segments":[],"categories_sizes":[],"default_left":[0,0,0,0,0,0,0,0,0,0,0,0,0,0,0,0,0,0,0,0,0,0,0,0,0,0,0,0,0,0,0],"id":11,"left_children":[1,3,5,7,9,11,13,15,17,19,21,23,25,27,29,-1,-1,-1,-1,-1,-1,-1,-1,-1,-1,-1,-1,-1,-1,-1,-1],"loss_changes":[2.7325902E4,1.5009146E3,3.9335762E3,3.2744336E2,2.57222E2,4.2743164E2,7.160996E2,5.81084E1,5.093921E1,1.9169965E2,1.1051538E2,3.4621582E1,6.63208E1,1.475332E2,2.4992285E2,0E0,0E0,0E0,0E0,0E0,0E0,0E0,0E0,0E0,0E0,0E0,0E0,0E0,0E0,0E0,0E0],"parents":[2147483647,0,0,1,1,2,2,3,3,4,4,5,5,6,6,7,7,8,8,9,9,10,10,11,11,12,12,13,13,14,14],"right_children":[2,4,6,8,10,12,14,16,18,20,22,24,26,28,30,-1,-1,-1,-1,-1,-1,-1,-1,-1,-1,-1,-1,-1,-1,-1,-1],"split_conditions":[8.21E1,2.46E1,1.4945E2,3.4E0,3.91E1,1.1055E2,1.9245E2,1.7E0,1.41E1,3.77E1,9E0,4E1,7.4E1,1.458E2,2.412E2,-3.9986378E-1,-3.0071944E-1,-2.4122222E-1,-1.9115753E-1,-9.335886E-2,-2.8990638E-1,-6.2708163E-1,6.5151714E-3,2.4413873E-1,3.3928582E-1,4.6562383E-1,7.4507505E-1,2.215599E0,6.97445E-1,9.7703195E-1,1.4814082E0],"split_indices":[6,3,3,3,2,5,5,3,3,3,9,4,9,2,2,0,0,0,0,0,0,0,0,0,0,0,0,0,0,0,0],"split_type":[0,0,0,0,0,0,0,0,0,0,0,0,0,0,0,0,0,0,0,0,0,0,0,0,0,0,0,0,0,0,0],"sum_hessian":[2.5478E4,1.9503E4,5.975E3,1.134E4,8.163E3,3.383E3,2.592E3,3.292E3,8.048E3,5.369E3,2.794E3,2.087E3,1.296E3,1.494E3,1.098E3,6.84E2,2.608E3,2.868E3,5.18E3,4.878E3,4.91E2,2.4E1,2.77E3,1.64E3,4.47E2,1.212E3,8.4E1,5E0,1.489E3,9.97E2,1.01E2],"tree_param":{"num_deleted":"0","num_feature":"10","num_nodes":"31","size_leaf_vector":"1"}},{"base_weights":[2.279402E-3,-4.03878E-1,1.2993623E0,-5.4117167E-1,-1.2306596E-1,8.74949E-1,2.1066072E0,-7.275455E-1,-4.5929426E-1,-1.7572525E-1,1.9694223E-1,6.2088907E-1,1.2176759E0,1.8357165E0,2.6972082E0,-2.7669367E-1,-2.0391695E-1,-1.3222004E-1,-2.6053476E-1,-4.7449533E-2,-1.9137247E-1,-4.464818E-1,7.342706E-2,1.6532849E-1,2.453674E-1,2.93225E-1,4.0422562E-1,5.552312E-1,-6.1971056E-1,7.0145506E-1,9.5399874E-1],"categories":[],"categories_nodes":[],"categories_segments":[],"categories_sizes":[],"default_left":[0,0,0,0,0,0,0,0,0,0,0,0,0,0,0,0,0,0,0,0,0,0,0,0,0,0,0,0,0,0,0],"id":12,"left_children":[1,3,5,7,9,11,13,15,17,19,21,23,25,27,29,-1,-1,-1,-1,-1,-1,-1,-1,-1,-1,-1,-1,-1,-1,-1,-1],"loss_changes":[1.3423367E4,7.480298E2,2.0798271E3,1.985315E2,1.07428635E2,3.4614355E2,3.299043E2,3.6406494E1,6.839844E1,4.431801E1,7.296497E1,3.1035828E1,5.1519287E1,8.828125E1,1.06270996E2,0E0,0E0,0E0,0E0,0E0,0E0,0E0,0E0,0E0,0E0,0E0,0E0,0E0,0E0,0E0,0E0],"parents":[2147483647,0,0,1,1,2,2,3,3,4,4,5,5,6,6,7,7,8,8,9,9,10,10,11,11,12,12,13,13,14,14],"right_children":[2,4,6,8,10,12,14,16,18,20,22,24,26,28,30,-1,-1,-1,-1,-1,-1,-1,-1,-1,-1,-1,-1,-1,-1,-1,-1],"split_conditions":[8.02E1,3.1E1,1.643E2,4E0,4.59E1,1.11E2,7.1E1,1.75E0,2.98E1,4.505E1,9E0,1.014E2,1.3865E2,2.392E2,2.3195E2,-2.7669367E-1,-2.0391695E-1,-1.3222004E-1,-2.6053476E-1,-4.7449533E-2,-1.9137247E-1,-4.464818E-1,7.342706E-2,1.6532849E-1,2.453674E-1,2.93225E-1,4.0422562E-1,5.552312E-1,-6.1971056E-1,7.0145506E-1,9.5399874E-1],"split_indices":[1,3,6,3,2,2,4,3,3,3,9,3,1,6,6,0,0,0,0,0,0,0,0,0,0,0,0,0,0,0,0],"split_type":[0,0,0,0,0,0,0,0,0,0,0,0,0,0,0,0,0,0,0,0,0,0,0,0,0,0,0,0,0,0,0],"sum_hessian":[2.5478E4,1.9403E4,6.075E3,1.3031E4,6.372E3,3.983E3,2.092E3,3.975E3,9.056E3,5.472E3,9E2,2.289E3,1.694E3,1.437E3,6.55E2,7.8E2,3.195E3,8.665E3,3.91E2,5.273E3,1.99E2,2.4E1,8.76E2,1.693E3,5.96E2,5.97E2,1.097E3,1.432E3,5E0,3.79E2,2.76E2],"tree_param":{"num_deleted":"0","num_feature":"10","num_nodes":"31","size_leaf_vector":"1"}},{"base_weights":[1.64311E-3,-2.7681127E-1,9.3044007E-1,-3.6293378E-1,-9.591625E-3,6.380836E-1,1.4990064E0,-4.770403E-1,-2.8378925E-1,-4.475438E-2,2.920944E-1,4.9930146E-1,9.483354E-1,1.0633478E0,1.7111654E0,-1.840185E-1,-1.3258278E-1,-7.931347E-2,-1.345899E-1,-3.0771177E-3,-4.374088E-1,2.4394527E-1,4.7839757E-2,1.3249104E-1,2.3166966E-1,3.4382305E-1,2.0001744E-1,5.510683E-1,2.1379454E-1,4.7347465E-1,6.5484124E-1],"categories":[],"categories_nodes":[],"categories_segments":[],"categories_sizes":[],"default_left":[0,0,0,0,0,0,0,0,0,0,0,0,0,0,0,0,0,0,0,0,0,0,0,0,0,0,0,0,0,0,0],"id":13,"left_children":[1,3,5,7,9,11,13,15,17,19,21,23,25,27,29,-1,-1,-1,-1,-1,-1,-1,-1,-1,-1,-1,-1,-1,-1,-1,-1],"loss_changes":[6.58983E3,4.511327E2,9.759424E2,1.3374768E2,5.070924E1,1.6671826E2,1.8257568E2,2.8778442E1,2.7898743E1,2.0870177E2,3.435471E1,4.1916748E1,6.600354E1,1.7665216E2,8.0558105E1,0E0,0E0,0E0,0E0,0E0,0E0,0E0,0E0,0E0,0E0,0E0,0E0,0E0,0E0,0E0,0E0],"parents":[2147483647,0,0,1,1,2,2,3,3,4,4,5,5,6,6,7,7,8,8,9,9,10,10,11,11,12,12,13,13,14,14],"right_children":[2,4,6,8,10,12,14,16,18,20,22,24,26,28,30,-1,-1,-1,-1,-1,-1,-1,-1,-1,-1,-1,-1,-1,-1,-1,-1],"split_conditions":[8.26E1,3.415E1,1.669E2,1.4E1,6.7E1,1.3735E2,3.2E1,2E0,3.245E1,5.52E1,7.19E1,5.1E1,1.544E2,1.7435E2,2.3195E2,-1.840185E-1,-1.3258278E-1,-7.931347E-2,-1.345899E-1,-3.0771177E-3,-4.374088E-1,2.4394527E-1,4.7839757E-2,1.3249104E-1,2.3166966E-1,3.4382305E-1,2.0001744E-1,5.510683E-1,2.1379454E-1,4.7347465E-1,6.5484124E-1],"split_indices":[3,1,3,3,5,3,4,3,3,3,3,4,1,3,6,0,0,0,0,0,0,0,0,0,0,0,0,0,0,0,0],"split_type":[0,0,0,0,0,0,0,0,0,0,0,0,0,0,0,0,0,0,0,0,0,0,0,0,0,0,0,0,0,0,0],"sum_hessian":[2.5478E4,1.9602E4,5.876E3,1.4824E4,4.778E3,3.882E3,1.994E3,6.069E3,8.755E3,4.28E3,4.98E2,2.684E3,1.198E3,6.55E2,1.339E3,1.239E3,4.83E3,7.835E3,9.2E2,4.179E3,1.01E2,1E2,3.98E2,2.218E3,4.66E2,7.02E2,4.96E2,2.03E2,4.52E2,1.048E3,2.91E2],"tree_param":{"num_deleted":"0","num_feature":"10","num_nodes":"31","size_leaf_vector":"1"}},{"base_weights":[1.2333968E-3,-1.7342573E-1,7.377769E-1,-2.50058E-1,6.0806163E-2,5.4082155E-1,1.1435732E0,-3.1229192E-1,-1.6074362E-1,4.3522894E-1,8.401553E-4,5.9694666E-1,-1.1506814E0,1.1855423E0,5.010452E-2,-8.548077E-2,-1.783751E-1,-2.5103461E-2,-6.4005926E-2,2.737963E-2,2.668106E-1,-2.845768E-1,2.1500565E-2,1.5808776E-1,8.3197606E-1,4.7127515E-1,-4.0769568E-1,3.366207E-1,6.767612E-1,9.055533E-1,-1.1967066E-1],"categories":[],"categories_nodes":[],"categories_segments":[],"categories_sizes":[],"default_left":[0,0,0,0,0,0,0,0,0,0,0,0,0,0,0,0,0,0,0,0,0,0,0,0,0,0,0,0,0,0,0],"id":14,"left_children":[1,3,5,7,9,11,13,15,17,19,21,23,25,27,29,-1,-1,-1,-1,-1,-1,-1,-1,-1,-1,-1,-1,-1,-1,-1,-1],"loss_changes":[3.2778494E3,3.6970764E2,3.8972925E2,8.621033E1,1.14014145E2,3.130257E2,7.313818E1,7.045166E1,2.582875E1,1.0942026E2,2.9447342E2,4.836593E2,6.2228394E1,1.018208E2,8.117415E1,0E0,0E0,0E0,0E0,0E0,0E0,0E0,0E0,0E0,0E0,0E0,0E0,0E0,0E0,0E0,0E0],"parents":[2147483647,0,0,1,1,2,2,3,3,4,4,5,5,6,6,7,7,8,8,9,9,10,10,11,11,12,12,13,13,14,14],"right_children":[2,4,6,8,10,12,14,16,18,20,22,24,26,28,30,-1,-1,-1,-1,-1,-1,-1,-1,-1,-1,-1,-1,-1,-1,-1,-1],"split_conditions":[9.535E1,3.535E1,1.7855E2,2.1E1,3.77E1,1.7435E2,7.8E1,2.025E1,2.63E1,3.66E1,3.885E1,1.719E2,1.734E2,2.446E2,1.847E2,-8.548077E-2,-1.783751E-1,-2.5103461E-2,-6.4005926E-2,2.737963E-2,2.668106E-1,-2.845768E-1,2.1500565E-2,1.5808776E-1,8.3197606E-1,4.7127515E-1,-4.0769568E-1,3.366207E-1,6.767612E-1,9.055533E-1,-1.1967066E-1],"split_indices":[3,3,1,3,3,3,4,3,3,3,3,3,6,1,1,0,0,0,0,0,0,0,0,0,0,0,0,0,0,0,0],"split_type":[0,0,0,0,0,0,0,0,0,0,0,0,0,0,0,0,0,0,0,0,0,0,0,0,0,0,0,0,0,0,0],"sum_hessian":[2.5478E4,2.0595E4,4.883E3,1.5518E4,5.077E3,3.289E3,1.594E3,9.144E3,6.374E3,7E2,4.377E3,3.184E3,1.05E2,1.535E3,5.9E1,8.338E3,8.06E2,2.587E3,3.787E3,3.99E2,3.01E2,3.03E2,4.074E3,3.086E3,9.8E1,7E0,9.8E1,1.451E3,8.4E1,7E0,5.2E1],"tree_param":{"num_deleted":"0","num_feature":"10","num_nodes":"31","size_leaf_vector":"1"}},{"base_weights":[9.631998E-4,-1.4386493E-1,4.5374152E-1,-2.0786937E-1,-5.2713886E-2,2.5794616E-1,6.9104487E-1,-2.9585907E-1,-1.7398031E-1,5.266021E-1,-8.269001E-2,2.764949E-1,-3.4790114E-1,6.0688156E-1,9.973698E-1,-1.402591E-1,-8.219169E-2,-4.2258684E-2,-6.934119E-2,7.80401E-2,4.0365103E-1,-3.1961757E-1,-1.6109165E-2,7.379217E-2,3.7086812E-1,-4.3628775E-2,-4.4971344E-1,2.0534901E-1,3.5099618E-2,2.938377E-1,1.7588974E0],"categories":[],"categories_nodes":[],"categories_segments":[],"categories_sizes":[],"default_left":[0,0,0,0,0,0,0,0,0,0,0,0,0,0,0,0,0,0,0,0,0,0,0,0,0,0,0,0,0,0,0],"id":15,"left_children":[1,3,5,7,9,11,13,15,17,19,21,23,25,27,29,-1,-1,-1,-1,-1,-1,-1,-1,-1,-1,-1,-1,-1,-1,-1,-1],"loss_changes":[1.6708518E3,1.1261578E2,2.867301E2,3.3766083E1,1.383609E2,3.8135834E1,7.1350464E1,1.1714996E1,1.5470505E1,8.518881E1,2.1573569E2,9.5920135E1,2.332249E1,8.326483E1,4.654602E1,0E0,0E0,0E0,0E0,0E0,0E0,0E0,0E0,0E0,0E0,0E0,0E0,0E0,0E0,0E0,0E0],"parents":[2147483647,0,0,1,1,2,2,3,3,4,4,5,5,6,6,7,7,8,8,9,9,10,10,11,11,12,12,13,13,14,14],"right_children":[2,4,6,8,10,12,14,16,18,20,22,24,26,28,30,-1,-1,-1,-1,-1,-1,-1,-1,-1,-1,-1,-1,-1,-1,-1,-1],"split_conditions":[7.405E1,2.46E1,1.4635E2,3.3E0,2.63E1,1.426E2,2.076E2,1.55E0,2.025E1,2.575E1,2.725E1,1.406E2,1.4635E2,1.9815E2,2.599E2,-1.402591E-1,-8.219169E-2,-4.2258684E-2,-6.934119E-2,7.80401E-2,4.0365103E-1,-3.1961757E-1,-1.6109165E-2,7.379217E-2,3.7086812E-1,-4.3628775E-2,-4.4971344E-1,2.0534901E-1,3.5099618E-2,2.938377E-1,1.7588974E0],"split_indices":[2,3,1,3,3,3,7,3,3,3,3,3,6,3,6,0,0,0,0,0,0,0,0,0,0,0,0,0,0,0,0],"split_type":[0,0,0,0,0,0,0,0,0,0,0,0,0,0,0,0,0,0,0,0,0,0,0,0,0,0,0,0,0,0,0],"sum_hessian":[2.5478E4,1.9304E4,6.174E3,1.134E4,7.964E3,3.384E3,2.79E3,3.151E3,8.189E3,3.91E2,7.573E3,3.284E3,1E2,2.191E3,5.99E2,3.54E2,2.797E3,5.187E3,3.002E3,2.96E2,9.5E1,2.16E2,7.357E3,3.184E3,1E2,8.6E1,1.4E1,1.891E3,3E2,5.98E2,1E0],"tree_param":{"num_deleted":"0","num_feature":"10","num_nodes":"31","size_leaf_vector":"1"}},{"base_weights":[7.5489946E-4,-8.104204E-2,4.0546244E-1,-1.1505994E-1,1.1122136E-1,3.023677E-1,6.426572E-1,-1.03169404E-1,-4.552178E-1,1.8740717E-1,-6.172007E-1,2.7478504E-1,9.82907E-1,9.746001E-1,4.951507E-1,-3.416391E-2,1.581094E-1,-2.976228E-1,-5.2683752E-2,4.0722523E-2,4.921488E-1,-4.6306756E-1,-4.32114E-2,9.505459E-2,-3.4538829E-3,4.5768166E-1,-3.1606182E-1,1.6042243E-1,6.946949E-1,-3.5491478E-1,2.112137E-1],"categories":[],"categories_nodes":[],"categories_segments":[],"categories_sizes":[],"default_left":[0,0,0,0,0,0,0,0,0,0,0,0,0,0,0,0,0,0,0,0,0,0,0,0,0,0,0,0,0,0,0],"id":16,"left_children":[1,3,5,7,9,11,13,15,17,19,21,23,25,27,29,-1,-1,-1,-1,-1,-1,-1,-1,-1,-1,-1,-1,-1,-1,-1,-1],"loss_changes":[8.434856E2,1.3864304E2,1.0456464E2,7.279738E1,1.7697955E2,5.581787E1,6.3023376E1,1.17523895E2,9.109168E1,2.1644215E2,1.3214969E2,3.4602356E1,1.2980774E2,2.3353079E2,3.1634363E2,0E0,0E0,0E0,0E0,0E0,0E0,0E0,0E0,0E0,0E0,0E0,0E0,0E0,0E0,0E0,0E0],"parents":[2147483647,0,0,1,1,2,2,3,3,4,4,5,5,6,6,7,7,8,8,9,9,10,10,11,11,12,12,13,13,14,14],"right_children":[2,4,6,8,10,12,14,16,18,20,22,24,26,28,30,-1,-1,-1,-1,-1,-1,-1,-1,-1,-1,-1,-1,-1,-1,-1,-1],"split_conditions":[1.0205E2,4.425E1,1.846E2,4.165E1,9.925E1,7.9E1,1.9815E2,4.065E1,4.245E1,9.79E1,1.005E2,1.7435E2,1.7775E2,1.957E2,2.0185E2,-3.416391E-2,1.581094E-1,-2.976228E-1,-5.2683752E-2,4.0722523E-2,4.921488E-1,-4.6306756E-1,-4.32114E-2,9.505459E-2,-3.4538829E-3,4.5768166E-1,-3.1606182E-1,1.6042243E-1,6.946949E-1,-3.5491478E-1,2.112137E-1],"split_indices":[3,1,2,3,3,9,3,3,3,3,3,3,2,3,3,0,0,0,0,0,0,0,0,0,0,0,0,0,0,0,0],"split_type":[0,0,0,0,0,0,0,0,0,0,0,0,0,0,0,0,0,0,0,0,0,0,0,0,0,0,0,0,0,0,0],"sum_hessian":[2.5478E4,2.1195E4,4.283E3,1.8009E4,3.186E3,2.987E3,1.296E3,1.7402E4,6.07E2,2.885E3,3.01E2,2.872E3,1.15E2,3.97E2,8.99E2,1.7112E4,2.9E2,2.07E2,4E2,2.787E3,9.8E1,1.01E2,2E2,2.504E3,3.68E2,9.1E1,2.4E1,3E2,9.7E1,9.9E1,8E2],"tree_param":{"num_deleted":"0","num_feature":"10","num_nodes":"31","size_leaf_vector":"1"}},{"base_weights":[5.581985E-4,-7.829638E-2,2.0968042E-1,-1.4692739E-1,-4.3200955E-2,1.3895586E-1,4.4804502E-1,-2.7630955E-1,-1.3601369E-1,-3.57533E-2,-4.938103E-1,1.6751915E-1,-1.3714322E0,-1.0019696E0,4.596604E-1,-1.07367E-1,-7.04384E-2,-3.791083E-2,-6.4288616E-2,-1.284581E-2,2.4785E-1,-2.226112E-1,-6.912381E-2,4.1485522E-2,4.9532485E-1,3.9610356E-1,-4.671882E-1,8.5131687E-1,1.3466242E-1],"categories":[],"categories_nodes":[],"categories_segments":[],"categories_sizes":[],"default_left":[0,0,0,0,0,0,0,0,0,0,0,0,0,0,0,0,0,0,0,0,0,0,0,0,0,0,0,0,0],"id":17,"left_children":[1,3,5,7,9,11,13,15,17,19,21,23,25,-1,27,-1,-1,-1,-1,-1,-1,-1,-1,-1,-1,-1,-1,-1,-1],"loss_changes":[4.201714E2,4.4560616E1,1.1755762E2,8.801788E0,4.1073E1,2.3241806E2,7.175662E1,1.5619545E0,4.332863E0,7.340011E1,1.2840126E1,2.288987E2,5.2086044E1,0E0,3.955951E1,0E0,0E0,0E0,0E0,0E0,0E0,0E0,0E0,0E0,0E0,0E0,0E0,0E0,0E0],"parents":[2147483647,0,0,1,1,2,2,3,3,4,4,5,5,6,6,7,7,8,8,9,9,10,10,11,11,12,12,14,14],"right_children":[2,4,6,8,10,12,14,16,18,20,22,24,26,-1,28,-1,-1,-1,-1,-1,-1,-1,-1,-1,-1,-1,-1,-1,-1],"split_conditions":[4.66E1,1.42E1,1.769E2,1.6E0,4.505E1,1.7435E2,1.703E2,1.45E0,1.355E1,4.455E1,4.58E1,1.719E2,1.734E2,-1.0019696E0,1.7435E2,-1.07367E-1,-7.04384E-2,-3.791083E-2,-6.4288616E-2,-1.284581E-2,2.4785E-1,-2.226112E-1,-6.912381E-2,4.1485522E-2,4.9532485E-1,3.9610356E-1,-4.671882E-1,8.5131687E-1,1.3466242E-1],"split_indices":[3,3,3,3,3,3,2,3,3,3,3,3,6,0,0,0,0,0,0,0,0,0,0,0,0,0,0,0,0],"split_type":[0,0,0,0,0,0,0,0,0,0,0,0,0,0,0,0,0,0,0,0,0,0,0,0,0,0,0,0,0],"sum_hessian":[2.5478E4,1.8502E4,6.976E3,6.259E3,1.2243E4,5.381E3,1.595E3,4.85E2,5.774E3,1.2045E4,1.98E2,5.282E3,9.9E1,4E0,1.591E3,1.61E2,3.24E2,5.143E3,6.31E2,1.1948E4,9.7E1,1.01E2,9.7E1,5.181E3,1.01E2,6E0,9.3E1,6E0,1.585E3],"tree_param":{"num_deleted":"0","num_feature":"10","num_nodes":"29","size_leaf_vector":"1"}},{"base_weights":[3.9459975E-4,-3.8957033E-2,2.2581172E-1,-8.14548E-2,8.442377E-3,1.5065593E-1,3.8420627E-1,-1.3831139E-1,-6.574736E-2,5.8588845E-1,-8.658109E-3,1.8313275E-1,-1.0291655E0,3.7661627E-1,1.4431825E0,-7.069538E-2,-3.8383834E-2,-1.202397E-2,-3.4286197E-2,4.5847468E-2,2.3535381E-1,-1.809726E-1,2.9407174E-3,5.1506653E-2,1.0002065E0,-7.789709E-2,-1.2971995E0,1.108978E-1,1.325441E0],"categories":[],"categories_nodes":[],"categories_segments":[],"categories_sizes":[],"default_left":[0,0,0,0,0,0,0,0,0,0,0,0,0,0,0,0,0,0,0,0,0,0,0,0,0,0,0,0,0],"id":18,"left_children":[1,3,5,7,9,11,13,15,17,19,21,23,25,27,-1,-1,-1,-1,-1,-1,-1,-1,-1,-1,-1,-1,-1,-1,-1],"loss_changes":[2.2602109E2,4.3698387E1,4.5023575E1,1.0205856E1,1.0127906E2,9.8662796E1,3.910855E1,2.4670143E0,1.1163647E1,2.5255096E1,1.0935197E2,8.9645996E1,1.7381998E2,3.2584793E1,0E0,0E0,0E0,0E0,0E0,0E0,0E0,0E0,0E0,0E0,0E0,0E0,0E0,0E0,0E0],"parents":[2147483647,0,0,1,1,2,2,3,3,4,4,5,5,6,6,7,7,8,8,9,9,10,10,11,11,12,12,13,13],"right_children":[2,4,6,8,10,12,14,16,18,20,22,24,26,28,-1,-1,-1,-1,-1,-1,-1,-1,-1,-1,-1,-1,-1,-1,-1],"split_conditions":[1.11E2,2.51E1,5.5E1,2.8E0,2.63E1,2.218E2,2.599E2,1.5E0,2.025E1,2.52E1,2.76E1,2.1945E2,5E1,2.599E2,1.4431825E0,-7.069538E-2,-3.8383834E-2,-1.202397E-2,-3.4286197E-2,4.5847468E-2,2.3535381E-1,-1.809726E-1,2.9407174E-3,5.1506653E-2,1.0002065E0,-7.789709E-2,-1.2971995E0,1.108978E-1,1.325441E0],"split_indices":[2,1,4,3,3,3,6,3,3,3,3,2,9,1,0,0,0,0,0,0,0,0,0,0,0,0,0,0,0],"split_type":[0,0,0,0,0,0,0,0,0,0,0,0,0,0,0,0,0,0,0,0,0,0,0,0,0,0,0,0,0],"sum_hessian":[2.5478E4,2.1692E4,3.786E3,1.1437E4,1.0255E4,2.569E3,1.217E3,2.474E3,8.963E3,2.94E2,9.961E3,2.501E3,6.8E1,1.216E3,1E0,2.36E2,2.238E3,5.864E3,3.099E3,9.3E1,2.01E2,2.99E2,9.662E3,2.493E3,8E0,5.6E1,1.2E1,1.215E3,1E0],"tree_param":{"num_deleted":"0","num_feature":"10","num_nodes":"29","size_leaf_vector":"1"}},{"base_weights":[3.7399295E-4,-4.0818203E-2,1.09637186E-1,-3.725366E-2,-3.6685908E-1,6.492222E-2,2.6955914E-1,-4.056272E-2,5.7793605E-1,2.4756756E-1,-4.2163295E-1,7.522837E-2,-7.4034625E-1,1.3449081E0,2.3292388E-1,-9.758787E-3,-6.432599E-2,1.214565E-1,4.3190196E-1,-1.1033658E-2,3.5426646E-1,-2.8198096E-1,-1.0897295E-1,1.7822003E-2,2.9246858E-1,-5.4938227E-2,-9.379761E-1,4.244346E-1,5.6298926E-2,6.826011E-2,1.226706E0],"categories":[],"categories_nodes":[],"categories_segments":[],"categories_sizes":[],"default_left":[0,0,0,0,0,0,0,0,0,0,0,0,0,0,0,0,0,0,0,0,0,0,0,0,0,0,0,0,0,0,0],"id":19,"left_children":[1,3,5,7,9,11,13,15,17,19,21,23,25,27,29,-1,-1,-1,-1,-1,-1,-1,-1,-1,-1,-1,-1,-1,-1,-1,-1],"loss_changes":[1.1468014E2,2.1491446E1,4.9867195E1,3.728691E1,6.835287E0,4.5311317E1,5.9725777E1,2.5423578E1,1.4033882E1,4.5550003E0,5.227085E0,7.659356E1,9.117387E1,3.7775497E0,2.9727516E1,0E0,0E0,0E0,0E0,0E0,0E0,0E0,0E0,0E0,0E0,0E0,0E0,0E0,0E0,0E0,0E0],"parents":[2147483647,0,0,1,1,2,2,3,3,4,4,5,5,6,6,7,7,8,8,9,9,10,10,11,11,12,12,13,13,14,14],"right_children":[2,4,6,8,10,12,14,16,18,20,22,24,26,28,30,-1,-1,-1,-1,-1,-1,-1,-1,-1,-1,-1,-1,-1,-1,-1,-1],"split_conditions":[4.59E1,4.505E1,6.9E1,4.455E1,1.1E1,2.218E2,6.53E1,4.165E1,4.57E1,4.72E1,1.3E1,2.1695E2,5E1,6.53E1,2.599E2,-9.758787E-3,-6.432599E-2,1.214565E-1,4.3190196E-1,-1.1033658E-2,3.5426646E-1,-2.8198096E-1,-1.0897295E-1,1.7822003E-2,2.9246858E-1,-5.4938227E-2,-9.379761E-1,4.244346E-1,5.6298926E-2,6.826011E-2,1.226706E0],"split_indices":[2,3,4,3,4,3,2,3,1,1,9,6,9,7,6,0,0,0,0,0,0,0,0,0,0,0,0,0,0,0,0],"split_type":[0,0,0,0,0,0,0,0,0,0,0,0,0,0,0,0,0,0,0,0,0,0,0,0,0,0,0,0,0,0,0],"sum_hessian":[2.5478E4,1.8503E4,6.975E3,1.8304E4,1.99E2,5.452E3,1.523E3,1.8207E4,9.7E1,1.6E1,1.83E2,5.384E3,6.8E1,4.9E1,1.474E3,1.7404E4,8.03E2,8.2E1,1.5E1,1.3E1,3E0,1.7E1,1.66E2,5.292E3,9.2E1,5.6E1,1.2E1,4.6E1,3E0,1.473E3,1E0],"tree_param":{"num_deleted":"0","num_feature":"10","num_nodes":"31","size_leaf_vector":"1"}},{"base_weights":[3.2163676E-4,-1.3379202E-2,2.0549043E-1,-1.0470702E-2,-6.3064086E-1,1.6176735E0,1.8578853E-1,-1.4854583E-2,9.971574E-1,-7.316954E-1,3.284907E0,2.1760845E-1,-6.8973595E-1,-1.7834758E-2,3.807371E-3,1.6879007E0,2.6898396E-1,-2.3971312E-1,9.913903E-1,1.4699204E0,8.287812E-3,1.1606977E-1,2.6943658E-2,-9.1082656E-1,-3.4097224E-2],"categories":[],"categories_nodes":[],"categories_segments":[],"categories_sizes":[],"default_left":[0,0,0,0,0,0,0,0,0,0,0,0,0,0,0,0,0,0,0,0,0,0,0,0,0],"id":20,"left_children":[1,3,5,7,9,-1,11,13,15,17,19,21,23,-1,-1,-1,-1,-1,-1,-1,-1,-1,-1,-1,-1],"loss_changes":[7.162383E1,4.2874268E1,1.619895E2,1.0503222E2,4.672016E1,0E0,4.44461E1,2.9079323E1,4.289538E1,3.254294E1,1.5644482E1,3.317456E1,7.53492E1,0E0,0E0,0E0,0E0,0E0,0E0,0E0,0E0,0E0,0E0,0E0,0E0],"parents":[2147483647,0,0,1,1,2,2,3,3,4,4,6,6,7,7,8,8,9,9,10,10,11,11,12,12],"right_children":[2,4,6,8,10,-1,12,14,16,18,20,22,24,-1,-1,-1,-1,-1,-1,-1,-1,-1,-1,-1,-1],"split_conditions":[1.7855E2,1.7435E2,1.679E2,1.703E2,1.8265E2,1.6176735E0,7.8E1,2.09E1,1.669E2,8E1,1.7435E2,1.9815E2,8E1,-1.7834758E-2,3.807371E-3,1.6879007E0,2.6898396E-1,-2.3971312E-1,9.913903E-1,1.4699204E0,8.287812E-3,1.1606977E-1,2.6943658E-2,-9.1082656E-1,-3.4097224E-2],"split_indices":[6,3,2,2,3,0,4,3,5,4,0,3,4,0,0,0,0,0,0,0,0,0,0,0,0],"split_type":[0,0,0,0,0,0,0,0,0,0,0,0,0,0,0,0,0,0,0,0,0,0,0,0,0],"sum_hessian":[2.5478E4,2.3884E4,1.594E3,2.3773E4,1.11E2,5E0,1.589E3,2.3671E4,1.02E2,1.09E2,2E0,1.534E3,5.5E1,9.038E3,1.4633E4,1E0,1.01E2,1.08E2,1E0,1E0,1E0,6.59E2,8.75E2,1E1,4.5E1],"tree_param":{"num_deleted":"0","num_feature":"10","num_nodes":"25","size_leaf_vector":"1"}},{"base_weights":[4.204696E-4,-1.763415E-2,8.7323934E-2,-1.0269907E-2,-7.7555645E-1,8.565157E-2,1.1123452E0,-1.794111E-2,7.835975E-1,-1.0929356E0,-6.996099E-1,-2.7505094E-1,1.0143714E-1,-3.834946E-3,-4.964452E-2,1.459364E-1,3.3013055E-1,-3.0863848E-1,-1.1100498E-1,-3.4923604E-1,-8.368078E-3,1.2515809E-1,2.1865357E-2],"categories":[],"categories_nodes":[],"categories_segments":[],"categories_sizes":[],"default_left":[0,0,0,0,0,0,0,0,0,0,0,0,0,0,0,0,0,0,0,0,0,0,0],"id":21,"left_children":[1,3,5,7,9,11,-1,13,15,-1,17,19,21,-1,-1,-1,-1,-1,-1,-1,-1,-1,-1],"loss_changes":[3.997832E1,1.1774545E2,2.622057E1,1.272629E2,4.166088E1,2.497855E1,0E0,1.5747709E1,1.8293884E1,0E0,2.1210266E1,4.039968E1,3.78264E1,0E0,0E0,0E0,0E0,0E0,0E0,0E0,0E0,0E0,0E0],"parents":[2147483647,0,0,1,1,2,2,3,3,4,4,5,5,7,7,8,8,10,10,11,11,12,12],"right_children":[2,4,6,8,10,12,-1,14,16,-1,18,20,22,-1,-1,-1,-1,-1,-1,-1,-1,-1,-1],"split_conditions":[1.014E2,9.925E1,2.599E2,9.575E1,9.66E1,2E1,1.1123452E0,8.88E1,9.79E1,-1.0929356E0,1.005E2,1.3265E2,2.3E1,-3.834946E-3,-4.964452E-2,1.459364E-1,3.3013055E-1,-3.0863848E-1,-1.1100498E-1,-3.4923604E-1,-8.368078E-3,1.2515809E-1,2.1865357E-2],"split_indices":[3,3,1,2,5,4,0,3,3,0,3,0,9,0,0,0,0,0,0,0,0,0,0],"split_type":[0,0,0,0,0,0,0,0,0,0,0,0,0,0,0,0,0,0,0,0,0,0,0],"sum_hessian":[2.5478E4,2.1096E4,4.382E3,2.0894E4,2.02E2,4.381E3,1E0,2.0695E4,1.99E2,4E0,1.98E2,1.83E2,4.198E3,1.9997E4,6.98E2,1.04E2,9.5E1,9.8E1,1E2,3.9E1,1.44E2,3.47E2,3.851E3],"tree_param":{"num_deleted":"0","num_feature":"10","num_nodes":"23","size_leaf_vector":"1"}},{"base_weights":[2.869335E-4,-5.7481173E-3,1.864679E-1,-1.0316058E-3,-1.1535313E0,-1.6909853E0,2.5675246E-1,-5.8495947E-3,1.1904334E0,-1.4842527E0,1.7703828E-1,-2.7012417E-2,-2.1238906E0,8.285798E-1,1.385965E-1,-1.5228292E-3,-3.5649204E-1,-5.832077E-1,3.8253087E-1,-6.223124E-1,-1.9481887E-1,4.3170664E-1,-1.6702227E-1,-4.1334E-1,1.2832566E-1,-1.3328911E0,-2.4948235E-1,2.9212007E-1,-3.1190094E-1,-5.440819E-2,8.3052E-2],"categories":[],"categories_nodes":[],"categories_segments":[],"categories_sizes":[],"default_left":[0,0,0,0,0,0,0,0,0,0,0,0,0,0,0,0,0,0,0,0,0,0,0,0,0,0,0,0,0,0,0],"id":22,"left_children":[1,3,5,7,9,11,13,15,17,19,21,23,25,27,29,-1,-1,-1,-1,-1,-1,-1,-1,-1,-1,-1,-1,-1,-1,-1,-1],"loss_changes":[2.8629572E1,1.336048E2,1.0599893E2,1.411076E2,4.4707596E1,2.0832573E1,5.204518E1,2.2385885E1,2.8752747E1,3.855896E1,2.024753E1,4.8893895E0,6.523404E1,3.6808586E1,2.8402914E1,0E0,0E0,0E0,0E0,0E0,0E0,0E0,0E0,0E0,0E0,0E0,0E0,0E0,0E0,0E0,0E0],"parents":[2147483647,0,0,1,1,2,2,3,3,4,4,5,5,6,6,7,7,8,8,9,9,10,10,11,11,12,12,13,13,14,14],"right_children":[2,4,6,8,10,12,14,16,18,20,22,24,26,28,30,-1,-1,-1,-1,-1,-1,-1,-1,-1,-1,-1,-1,-1,-1,-1,-1],"split_conditions":[2.0005E2,1.9815E2,3.2E1,1.957E2,2.038E2,2.0475E2,3.7E1,1.9815E2,1.7E1,6.7E1,3.7E1,2.038E2,2.1485E2,2.2645E2,7.1E1,-1.5228292E-3,-3.5649204E-1,-5.832077E-1,3.8253087E-1,-6.223124E-1,-1.9481887E-1,4.3170664E-1,-1.6702227E-1,-4.1334E-1,1.2832566E-1,-1.3328911E0,-2.4948235E-1,2.9212007E-1,-3.1190094E-1,-5.440819E-2,8.3052E-2],"split_indices":[2,3,4,3,1,3,9,5,9,4,4,6,5,2,4,0,0,0,0,0,0,0,0,0,0,0,0,0,0,0,0],"split_type":[0,0,0,0,0,0,0,0,0,0,0,0,0,0,0,0,0,0,0,0,0,0,0,0,0,0,0,0,0,0,0],"sum_hessian":[2.5478E4,2.4679E4,7.99E2,2.4579E4,1E2,2.8E1,7.71E2,2.4481E4,9.8E1,8E1,2E1,6E0,2.2E1,1.31E2,6.4E2,2.4466E4,1.5E1,2E0,9.6E1,4.6E1,3.4E1,7E0,1.3E1,1E0,5E0,7E0,1.5E1,1.22E2,9E0,1.93E2,4.47E2],"tree_param":{"num_deleted":"0","num_feature":"10","num_nodes":"31","size_leaf_vector":"1"}},{"base_weights":[8.461821E-5,-2.4438553E-2,3.8240787E-2,-1.950576E-2,-2.7112767E-1,3.745742E-1,1.2487773E-2,-2.4601238E-2,3.427762E-1,-4.3300948E-1,-7.326256E-2,1.9606893E-1,8.407842E-1,-7.558844E-1,2.9271225E-2,-4.150106E-3,-4.8593573E-2,6.23571E-2,1.5761587E-1,-1.5189774E-1,-9.480751E-2,-1.1194894E-1,-1.0918032E-2,5.1947564E-2,7.4811447E-1,2.0913553E-1,2.847173E-1,-2.854136E-1,-1.676139E-1,8.556601E-3,1.0229211E0],"categories":[],"categories_nodes":[],"categories_segments":[],"categories_sizes":[],"default_left":[0,0,0,0,0,0,0,0,0,0,0,0,0,0,0,0,0,0,0,0,0,0,0,0,0,0,0,0,0,0,0],"id":23,"left_children":[1,3,5,7,9,11,13,15,17,19,21,23,25,27,29,-1,-1,-1,-1,-1,-1,-1,-1,-1,-1,-1,-1,-1,-1,-1,-1],"loss_changes":[2.3841896E1,1.886953E1,8.6342804E1,2.8082401E1,9.705629E0,5.8838806E1,1.194514E2,2.2183067E1,5.089329E0,1.2723255E0,1.5122948E0,2.6625135E1,2.387207E0,7.1005325E0,2.2859324E1,0E0,0E0,0E0,0E0,0E0,0E0,0E0,0E0,0E0,0E0,0E0,0E0,0E0,0E0,0E0,0E0],"parents":[2147483647,0,0,1,1,2,2,3,3,4,4,5,5,6,6,7,7,8,8,9,9,10,10,11,11,12,12,13,13,14,14],"right_children":[2,4,6,8,10,12,14,16,18,20,22,24,26,28,30,-1,-1,-1,-1,-1,-1,-1,-1,-1,-1,-1,-1,-1,-1,-1,-1],"split_conditions":[3.57E1,3.47E1,3.77E1,3.415E1,3.51E1,3.695E1,3.85E1,3.245E1,3.445E1,3.49E1,3.525E1,3.92E1,3.725E1,3.815E1,2.599E2,-4.150106E-3,-4.8593573E-2,6.23571E-2,1.5761587E-1,-1.5189774E-1,-9.480751E-2,-1.1194894E-1,-1.0918032E-2,5.1947564E-2,7.4811447E-1,2.0913553E-1,2.847173E-1,-2.854136E-1,-1.676139E-1,8.556601E-3,1.0229211E0],"split_indices":[1,3,3,3,3,3,3,3,3,3,1,5,3,3,6,0,0,0,0,0,0,0,0,0,0,0,0,0,0,0,0],"split_type":[0,0,0,0,0,0,0,0,0,0,0,0,0,0,0,0,0,0,0,0,0,0,0,0,0,0,0,0,0,0,0],"sum_hessian":[2.5478E4,1.551E4,9.968E3,1.5207E4,3.03E2,7.08E2,9.26E3,1.4997E4,2.1E2,1.66E2,1.37E2,5.13E2,1.95E2,1.97E2,9.063E3,1.3908E4,1.089E3,1.22E2,8.8E1,1E2,6.6E1,1.4E1,1.23E2,5.09E2,4E0,8.7E1,1.08E2,9.7E1,1E2,9.062E3,1E0],"tree_param":{"num_deleted":"0","num_feature":"10","num_nodes":"31","size_leaf_vector":"1"}},{"base_weights":[1.2405241E-4,-1.19747965E-4,9.3175054E-1,-3.4806432E-4,8.725045E-1,-5.75608E-4,8.6948323E-1,-1.2917637E-2,3.8924362E-3],"categories":[],"categories_nodes":[],"categories_segments":[],"categories_sizes":[],"default_left":[0,0,0,0,0,0,0,0,0],"id":24,"left_children":[1,3,-1,5,-1,7,-1,-1,-1],"loss_changes":[1.9292395E1,1.6919697E1,0E0,1.6805376E1,0E0,1.466617E1,0E0,0E0,0E0],"parents":[2147483647,0,0,1,1,3,3,5,5],"right_children":[2,4,-1,6,-1,8,-1,-1,-1],"split_conditions":[2.599E2,2.5615E2,9.3175054E-1,2.599E2,8.725045E-1,1.41E1,8.6948323E-1,-1.2917637E-2,3.8924362E-3],"split_indices":[1,2,0,6,0,3,0,0,0],"split_type":[0,0,0,0,0,0,0,0,0],"sum_hessian":[2.5478E4,2.5477E4,1E0,2.5476E4,1E0,2.5475E4,1E0,6.16E3,1.9315E4],"tree_param":{"num_deleted":"0","num_feature":"10","num_nodes":"9","size_leaf_vector":"1"}},{"base_weights":[1.9191479E-4,-1.3220398E-3,3.7686786E-1,1.2562703E-3,-6.340215E-1,1.9076862E0,-1.3850464E0,-1.6152859E-3,7.3902833E-1,-1.0501099E0,-5.426051E-1,-8.127925E-1,2.6062784E0,-1.8686193E0,-4.7527906E-1,-9.130284E-5,-6.6024995E-1,-2.224835E-1,3.2443276E-1,-1.1825633E-1,-3.919307E-1,-1.6392518E-2,-9.2070925E-1,-6.1616975E-1,8.6312824E-1,1.2513703E-1,-6.6680914E-1,2.2804414E-1,-1.7779973E-1],"categories":[],"categories_nodes":[],"categories_segments":[],"categories_sizes":[],"default_left":[0,0,0,0,0,0,0,0,0,0,0,0,0,0,0,0,0,0,0,0,0,0,0,0,0,0,0,0,0],"id":25,"left_children":[1,3,5,7,9,11,13,15,17,-1,19,21,23,25,27,-1,-1,-1,-1,-1,-1,-1,-1,-1,-1,-1,-1,-1,-1],"loss_changes":[1.4530414E1,4.139981E1,2.7775366E2,5.3549767E1,2.5089863E1,1.06646164E2,2.022895E1,7.259164E1,5.0487225E1,0E0,1.0934954E1,2.0359127E1,6.1439423E1,2.601638E1,3.0609193E0,0E0,0E0,0E0,0E0,0E0,0E0,0E0,0E0,0E0,0E0,0E0,0E0,0E0,0E0],"parents":[2147483647,0,0,1,1,2,2,3,3,4,4,5,5,6,6,7,7,8,8,10,10,11,11,12,12,13,13,14,14],"right_children":[2,4,6,8,10,12,14,16,18,-1,20,22,24,26,28,-1,-1,-1,-1,-1,-1,-1,-1,-1,-1,-1,-1,-1,-1],"split_conditions":[2.4295E2,2.392E2,7.4E1,2.2935E2,3.2E1,2.412E2,7.8E1,2.2645E2,2.3195E2,-1.0501099E0,2.446E2,2.4295E2,2.4295E2,2.412E2,7.6E1,-9.130284E-5,-6.6024995E-1,-2.224835E-1,3.2443276E-1,-1.1825633E-1,-3.919307E-1,-1.6392518E-2,-9.2070925E-1,-6.1616975E-1,8.6312824E-1,1.2513703E-1,-6.6680914E-1,2.2804414E-1,-1.7779973E-1],"split_indices":[3,1,9,3,4,7,4,2,6,0,6,5,0,2,9,0,0,0,0,0,0,0,0,0,0,0,0,0,0],"split_type":[0,0,0,0,0,0,0,0,0,0,0,0,0,0,0,0,0,0,0,0,0,0,0,0,0,0,0,0,0],"sum_hessian":[2.5478E4,2.5377E4,1.01E2,2.5275E4,1.02E2,5.4E1,4.7E1,2.5178E4,9.7E1,2E0,1E2,1.1E1,4.3E1,3E1,1.7E1,2.5164E4,1.4E1,1.8E1,7.9E1,8.5E1,1.5E1,9E0,2E0,2E0,4.1E1,4E0,2.6E1,1E0,1.6E1],"tree_param":{"num_deleted":"0","num_feature":"10","num_nodes":"29","size_leaf_vector":"1"}},{"base_weights":[5.015759E-6,1.2333144E-1,-4.20447E-3,2.70891E-2,2.815316E-1,-3.4794697E-1,-5.669604E-4,3.2146132E-1,-1.0318842E-1,5.299804E-1,-1.5568082E-1,-6.840339E-2,-1.0041676E0,-2.1858944E-2,2.3059122E-2,4.8186425E-2,2.0902772E-1,-2.064021E-1,-1.628759E-2,6.634705E-2,4.7376034E-1,-7.8003854E-1,7.8429624E-2,-1.6198082E-2,-2.730568E-1,-5.464652E-1,8.024498E-2,-3.5065718E-3,-1.1434794E-1,5.8442693E-2,3.0240752E-3],"categories":[],"categories_nodes":[],"categories_segments":[],"categories_sizes":[],"default_left":[0,0,0,0,0,0,0,0,0,0,0,0,0,0,0,0,0,0,0,0,0,0,0,0,0,0,0,0,0,0,0],"id":26,"left_children":[1,3,5,7,9,11,13,15,17,19,21,23,25,27,29,-1,-1,-1,-1,-1,-1,-1,-1,-1,-1,-1,-1,-1,-1,-1,-1],"loss_changes":[1.3227709E1,1.2797066E1,3.0807589E1,2.0128616E1,3.4625233E1,4.725941E1,1.2265776E1,9.606504E0,1.0371429E1,6.542766E1,1.1895458E2,2.158507E0,8.052303E1,4.686096E1,2.5762197E1,0E0,0E0,0E0,0E0,0E0,0E0,0E0,0E0,0E0,0E0,0E0,0E0,0E0,0E0,0E0,0E0],"parents":[2147483647,0,0,1,1,2,2,3,3,4,4,5,5,6,6,7,7,8,8,9,9,10,10,11,11,12,12,13,13,14,14],"right_children":[2,4,6,8,10,12,14,16,18,20,22,24,26,28,30,-1,-1,-1,-1,-1,-1,-1,-1,-1,-1,-1,-1,-1,-1,-1,-1],"split_conditions":[1.2E1,4.02E1,1.3E1,2.98E1,5.52E1,5.13E1,3.1E1,2.88E1,3.04E1,5.225E1,9E0,5.04E1,6.825E1,2.98E1,3.245E1,4.8186425E-2,2.0902772E-1,-2.064021E-1,-1.628759E-2,6.634705E-2,4.7376034E-1,-7.8003854E-1,7.8429624E-2,-1.6198082E-2,-2.730568E-1,-5.464652E-1,8.024498E-2,-3.5065718E-3,-1.1434794E-1,5.8442693E-2,3.0240752E-3],"split_indices":[4,1,9,3,3,6,8,3,3,3,4,0,6,3,3,0,0,0,0,0,0,0,0,0,0,0,0,0,0,0,0],"split_type":[0,0,0,0,0,0,0,0,0,0,0,0,0,0,0,0,0,0,0,0,0,0,0,0,0,0,0,0,0,0,0],"sum_hessian":[2.5478E4,8.4E2,2.4638E4,5.23E2,3.17E2,2.57E2,2.4381E4,1.6E2,3.63E2,2.02E2,1.15E2,1.81E2,7.6E1,1.2824E4,1.1557E4,1.13E2,4.7E1,2.7E1,3.36E2,1.57E2,4.5E1,1.6E1,9.9E1,1.79E2,2E0,4.6E1,3E1,1.2472E4,3.52E2,8.11E2,1.0746E4],"tree_param":{"num_deleted":"0","num_feature":"10","num_nodes":"31","size_leaf_vector":"1"}},{"base_weights":[-3.298351E-5,-5.3031375E-3,7.883443E-2,-1.4282898E-3,-9.268826E-1,-2.1015663E0,8.976229E-2,-2.7157047E-3,2.5492744E0,-9.926305E-1,8.37323E-1,-7.499451E-1,-6.0454303E-1,1.3187096E0,7.884583E-2,-1.6898877E-3,2.1734308E-1,1.2043244E0,2.7877742E-1,5.2302706E-1,-3.2010525E-1,9.254151E-2,-3.6458588E-1,1.5844627E-1,4.9746893E-3],"categories":[],"categories_nodes":[],"categories_segments":[],"categories_sizes":[],"default_left":[0,0,0,0,0,0,0,0,0,0,0,0,0,0,0,0,0,0,0,0,0,0,0,0,0],"id":27,"left_children":[1,3,5,7,9,11,13,15,17,19,-1,-1,21,-1,23,-1,-1,-1,-1,-1,-1,-1,-1,-1,-1],"loss_changes":[1.0590596E1,8.5287964E1,3.821672E1,7.811241E1,2.7215286E1,3.258274E0,7.434529E1,5.0438377E1,2.475219E1,2.20094E1,0E0,0E0,2.0477343E0,0E0,4.4360428E1,0E0,0E0,0E0,0E0,0E0,0E0,0E0,0E0,0E0,0E0],"parents":[2147483647,0,0,1,1,2,2,3,3,4,4,5,5,6,6,7,7,8,8,9,9,12,12,14,14],"right_children":[2,4,6,8,10,12,14,16,18,20,-1,-1,22,-1,24,-1,-1,-1,-1,-1,-1,-1,-1,-1,-1],"split_conditions":[1.769E2,1.7435E2,1.7275E2,1.7855E2,5.5E1,1.7965E2,1.7435E2,1.719E2,1.679E2,1.703E2,8.37323E-1,-7.499451E-1,1.7435E2,1.3187096E0,1.8265E2,-1.6898877E-3,2.1734308E-1,1.2043244E0,2.7877742E-1,5.2302706E-1,-3.2010525E-1,9.254151E-2,-3.6458588E-1,1.5844627E-1,4.9746893E-3],"split_indices":[3,3,2,6,4,5,0,3,2,2,0,0,0,0,3,0,0,0,0,0,0,0,0,0,0],"split_type":[0,0,0,0,0,0,0,0,0,0,0,0,0,0,0,0,0,0,0,0,0,0,0,0,0],"sum_hessian":[2.5478E4,2.3883E4,1.595E3,2.3784E4,9.9E1,7E0,1.588E3,2.3773E4,1.1E1,9.8E1,1E0,5E0,2E0,3E0,1.585E3,2.3679E4,9.4E1,5E0,6E0,2E0,9.6E1,1E0,1E0,1.92E2,1.393E3],"tree_param":{"num_deleted":"0","num_feature":"10","num_nodes":"25","size_leaf_vector":"1"}},{"base_weights":[1.0227902E-4,-7.076031E-5,6.6131973E-1,-2.3063569E-4,6.109612E-1,-3.898516E-4,6.0839313E-1,-1.6161194E-4,5.6875306E-1],"categories":[],"categories_nodes":[],"categories_segments":[],"categories_sizes":[],"default_left":[0,0,0,0,0,0,0,0,0],"id":28,"left_children":[1,3,-1,5,-1,7,-1,-1,-1],"loss_changes":[9.718613E0,8.296195E0,0E0,8.227898E0,0E0,7.191966E0,0E0,0E0,0E0],"parents":[2147483647,0,0,1,1,3,3,5,5],"right_children":[2,4,-1,6,-1,8,-1,-1,-1],"split_conditions":[2.599E2,2.5615E2,6.6131973E-1,2.599E2,6.109612E-1,2.5845E2,6.0839313E-1,-1.6161194E-4,5.6875306E-1],"split_indices":[1,2,0,6,0,5,0,0,0],"split_type":[0,0,0,0,0,0,0,0,0],"sum_hessian":[2.5478E4,2.5477E4,1E0,2.5476E4,1E0,2.5475E4,1E0,2.5474E4,1E0],"tree_param":{"num_deleted":"0","num_feature":"10","num_nodes":"9","size_leaf_vector":"1"}}]},"name":"gbtree"},"learner_model_param":{"base_score":"5.140014E1","boost_from_average":"1","num_class":"0","num_feature":"10","num_target":"1"},"objective":{"name":"reg:squarederror","reg_loss_param":{"scale_pos_weight":"1"}}},"version":[2,1,3]}