{"learner":{"attributes":{"best_iteration":"772","best_score":"1.5076648348382826"},"feature_names":["open","high","low","close","open_before1","high_before1","low_before1","close_before1","open_before2","high_before2","low_before2","close_before2","open_before3","high_before3","low_before3","close_before3","open_before4","high_before4","low_before4","close_before4","open_before5","high_before5","low_before5","close_before5","open_before6","high_before6","low_before6","close_before6","open_before7","high_before7","low_before7","close_before7","open_before8","high_before8","low_before8","close_before8","open_before9","high_before9","low_before9","close_before9","open_before10","high_before10","low_before10","close_before10","open_before11","high_before11","low_before11","close_before11","open_before12","high_before12","low_before12","close_before12","open_before13","high_before13","low_before13","close_before13","open_before14","high_before14","low_before14","close_before14","open_before15","high_before15","low_before15","close_before15","open_before16","high_before16","low_before16","close_before16","open_before17","high_before17","low_before17","close_before17","open_before18","high_before18","low_before18","close_before18","open_before19","high_before19","low_before19","close_before19","open_before20","high_before20","low_before20","close_before20","open_before21","high_before21","low_before21","close_before21","open_before22","high_before22","low_before22","close_before22","open_before23","high_before23","low_before23","close_before23","open_before24","high_before24","low_before24","close_before24","open_before25","high_before25","low_before25","close_before25","open_before26","high_before26","low_before26","close_before26","open_before27","high_before27","low_before27","close_before27","open_before28","high_before28","low_before28","close_before28","open_before29","high_before29","low_before29","close_before29","open_before30","high_before30","low_before30","close_before30","open_before31","high_before31","low_before31","close_before31","open_before32","high_before32","low_before32","close_before32","open_before33","high_before33","low_before33","close_before33","open_before34","high_before34","low_before34","close_before34","open_before35","high_before35","low_before35","close_before35","open_before36","high_before36","low_before36","close_before36","open_before37","high_before37","low_before37","close_before37","open_before38","high_before38","low_before38","close_before38","open_before39","high_before39","low_before39","close_before39","open_before40","high_before40","low_before40","close_before40","open_before41","high_before41","low_before41","close_before41","open_before42","high_before42","low_before42","close_before42","open_before43","high_before43","low_before43","close_before43","open_before44","high_before44","low_before44","close_before44","open_before45","high_before45","low_before45","close_before45","open_before46","high_before46","low_before46","close_before46","open_before47","high_before47","low_before47","close_before47","open_before48","high_before48","low_before48","close_before48","open_before49","high_before49","low_before49","close_before49"],"feature_types":["float","float","float","float","float","float","float","float","float","float","float","float","float","float","float","float","float","float","float","float","float","float","float","float","float","float","float","float","float","float","float","float","float","float","float","float","float","float","float","float","float","float","float","float","float","float","float","float","float","float","float","float","float","float","float","float","float","float","float","float","float","float","float","float","float","float","float","float","float","float","float","float","float","float","float","float","float","float","float","float","float","float","float","float","float","float","float","float","float","float","float","float","float","float","float","float","float","float","float","float","float","float","float","float","float","float","float","float","float","float","float","float","float","float","float","float","float","float","float","float","float","float","float","float","float","float","float","float","float","float","float","float","float","float","float","float","float","float","float","float","float","float","float","float","float","float","float","float","float","float","float","float","float","float","float","float","float","float","float","float","float","float","float","float","float","float","float","float","float","float","float","float","float","float","float","float","float","float","float","float","float","float","float","float","float","float","float","float","float","float","float","float","float","float","float","float","float","float","float","float"],"gradient_booster":{"model":{"gbtree_model_param":{"num_parallel_tree":"1","num_trees":"872"},"iteration_indptr":[0,1,2,3,4,5,6,7,8,9,10,11,12,13,14,15,16,17,18,19,20,21,22,23,24,25,26,27,28,29,30,31,32,33,34,35,36,37,38,39,40,41,42,43,44,45,46,47,48,49,50,51,52,53,54,55,56,57,58,59,60,61,62,63,64,65,66,67,68,69,70,71,72,73,74,75,76,77,78,79,80,81,82,83,84,85,86,87,88,89,90,91,92,93,94,95,96,97,98,99,100,101,102,103,104,105,106,107,108,109,110,111,112,113,114,115,116,117,118,119,120,121,122,123,124,125,126,127,128,129,130,131,132,133,134,135,136,137,138,139,140,141,142,143,144,145,146,147,148,149,150,151,152,153,154,155,156,157,158,159,160,161,162,163,164,165,166,167,168,169,170,171,172,173,174,175,176,177,178,179,180,181,182,183,184,185,186,187,188,189,190,191,192,193,194,195,196,197,198,199,200,201,202,203,204,205,206,207,208,209,210,211,212,213,214,215,216,217,218,219,220,221,222,223,224,225,226,227,228,229,230,231,232,233,234,235,236,237,238,239,240,241,242,243,244,245,246,247,248,249,250,251,252,253,254,255,256,257,258,259,260,261,262,263,264,265,266,267,268,269,270,271,272,273,274,275,276,277,278,279,280,281,282,283,284,285,286,287,288,289,290,291,292,293,294,295,296,297,298,299,300,301,302,303,304,305,306,307,308,309,310,311,312,313,314,315,316,317,318,319,320,321,322,323,324,325,326,327,328,329,330,331,332,333,334,335,336,337,338,339,340,341,342,343,344,345,346,347,348,349,350,351,352,353,354,355,356,357,358,359,360,361,362,363,364,365,366,367,368,369,370,371,372,373,374,375,376,377,378,379,380,381,382,383,384,385,386,387,388,389,390,391,392,393,394,395,396,397,398,399,400,401,402,403,404,405,406,407,408,409,410,411,412,413,414,415,416,417,418,419,420,421,422,423,424,425,426,427,428,429,430,431,432,433,434,435,436,437,438,439,440,441,442,443,444,445,446,447,448,449,450,451,452,453,454,455,456,457,458,459,460,461,462,463,464,465,466,467,468,469,470,471,472,473,474,475,476,477,478,479,480,481,482,483,484,485,486,487,488,489,490,491,492,493,494,495,496,497,498,499,500,501,502,503,504,505,506,507,508,509,510,511,512,513,514,515,516,517,518,519,520,521,522,523,524,525,526,527,528,529,530,531,532,533,534,535,536,537,538,539,540,541,542,543,544,545,546,547,548,549,550,551,552,553,554,555,556,557,558,559,560,561,562,563,564,565,566,567,568,569,570,571,572,573,574,575,576,577,578,579,580,581,582,583,584,585,586,587,588,589,590,591,592,593,594,595,596,597,598,599,600,601,602,603,604,605,606,607,608,609,610,611,612,613,614,615,616,617,618,619,620,621,622,623,624,625,626,627,628,629,630,631,632,633,634,635,636,637,638,639,640,641,642,643,644,645,646,647,648,649,650,651,652,653,654,655,656,657,658,659,660,661,662,663,664,665,666,667,668,669,670,671,672,673,674,675,676,677,678,679,680,681,682,683,684,685,686,687,688,689,690,691,692,693,694,695,696,697,698,699,700,701,702,703,704,705,706,707,708,709,710,711,712,713,714,715,716,717,718,719,720,721,722,723,724,725,726,727,728,729,730,731,732,733,734,735,736,737,738,739,740,741,742,743,744,745,746,747,748,749,750,751,752,753,754,755,756,757,758,759,760,761,762,763,764,765,766,767,768,769,770,771,772,773,774,775,776,777,778,779,780,781,782,783,784,785,786,787,788,789,790,791,792,793,794,795,796,797,798,799,800,801,802,803,804,805,806,807,808,809,810,811,812,813,814,815,816,817,818,819,820,821,822,823,824,825,826,827,828,829,830,831,832,833,834,835,836,837,838,839,840,841,842,843,844,845,846,847,848,849,850,851,852,853,854,855,856,857,858,859,860,861,862,863,864,865,866,867,868,869,870,871,872],"tree_info":[0,0,0,0,0,0,0,0,0,0,0,0,0,0,0,0,0,0,0,0,0,0,0,0,0,0,0,0,0,0,0,0,0,0,0,0,0,0,0,0,0,0,0,0,0,0,0,0,0,0,0,0,0,0,0,0,0,0,0,0,0,0,0,0,0,0,0,0,0,0,0,0,0,0,0,0,0,0,0,0,0,0,0,0,0,0,0,0,0,0,0,0,0,0,0,0,0,0,0,0,0,0,0,0,0,0,0,0,0,0,0,0,0,0,0,0,0,0,0,0,0,0,0,0,0,0,0,0,0,0,0,0,0,0,0,0,0,0,0,0,0,0,0,0,0,0,0,0,0,0,0,0,0,0,0,0,0,0,0,0,0,0,0,0,0,0,0,0,0,0,0,0,0,0,0,0,0,0,0,0,0,0,0,0,0,0,0,0,0,0,0,0,0,0,0,0,0,0,0,0,0,0,0,0,0,0,0,0,0,0,0,0,0,0,0,0,0,0,0,0,0,0,0,0,0,0,0,0,0,0,0,0,0,0,0,0,0,0,0,0,0,0,0,0,0,0,0,0,0,0,0,0,0,0,0,0,0,0,0,0,0,0,0,0,0,0,0,0,0,0,0,0,0,0,0,0,0,0,0,0,0,0,0,0,0,0,0,0,0,0,0,0,0,0,0,0,0,0,0,0,0,0,0,0,0,0,0,0,0,0,0,0,0,0,0,0,0,0,0,0,0,0,0,0,0,0,0,0,0,0,0,0,0,0,0,0,0,0,0,0,0,0,0,0,0,0,0,0,0,0,0,0,0,0,0,0,0,0,0,0,0,0,0,0,0,0,0,0,0,0,0,0,0,0,0,0,0,0,0,0,0,0,0,0,0,0,0,0,0,0,0,0,0,0,0,0,0,0,0,0,0,0,0,0,0,0,0,0,0,0,0,0,0,0,0,0,0,0,0,0,0,0,0,0,0,0,0,0,0,0,0,0,0,0,0,0,0,0,0,0,0,0,0,0,0,0,0,0,0,0,0,0,0,0,0,0,0,0,0,0,0,0,0,0,0,0,0,0,0,0,0,0,0,0,0,0,0,0,0,0,0,0,0,0,0,0,0,0,0,0,0,0,0,0,0,0,0,0,0,0,0,0,0,0,0,0,0,0,0,0,0,0,0,0,0,0,0,0,0,0,0,0,0,0,0,0,0,0,0,0,0,0,0,0,0,0,0,0,0,0,0,0,0,0,0,0,0,0,0,0,0,0,0,0,0,0,0,0,0,0,0,0,0,0,0,0,0,0,0,0,0,0,0,0,0,0,0,0,0,0,0,0,0,0,0,0,0,0,0,0,0,0,0,0,0,0,0,0,0,0,0,0,0,0,0,0,0,0,0,0,0,0,0,0,0,0,0,0,0,0,0,0,0,0,0,0,0,0,0,0,0,0,0,0,0,0,0,0,0,0,0,0,0,0,0,0,0,0,0,0,0,0,0,0,0,0,0,0,0,0,0,0,0,0,0,0,0,0,0,0,0,0,0,0,0,0,0,0,0,0,0,0,0,0,0,0,0,0,0,0,0,0,0,0,0,0,0,0,0,0,0,0,0,0,0,0,0,0,0,0,0,0,0,0,0,0,0,0,0,0,0,0,0,0,0,0,0,0,0,0,0,0,0,0,0,0,0,0,0,0,0,0,0,0,0,0,0,0,0,0,0,0,0,0,0,0,0,0,0,0,0,0,0,0,0,0,0,0,0,0,0,0,0,0,0,0,0,0,0,0,0,0,0,0,0,0,0,0,0,0,0,0,0,0,0,0,0,0,0,0,0,0,0,0,0,0,0,0,0,0,0,0,0,0,0,0,0,0,0,0,0,0,0,0,0,0,0,0,0,0,0,0,0,0,0,0,0,0,0,0,0,0,0,0,0,0,0,0,0,0,0,0,0,0,0,0,0,0,0,0,0,0,0,0,0,0,0,0,0,0,0,0],"trees":[{"base_weights":[1.3067954E-6,-2.7831608E1,9.4933334E1,-3.9012936E1,-1.1706173E1,6.072503E1,1.3995676E2,-4.808338E1,-3.2694202E1,-1.5107807E1,2.4244953E1,4.722623E1,8.769177E1,1.2335162E2,1.6930861E2,-4.886667E-1,-4.2495653E-1,-3.7109178E-1,-2.9663622E-1,-1.9258234E-1,-8.282337E-2,1.7112514E-1,2.9498008E-1,4.0610567E-1,5.508846E-1,7.376456E-1,9.070939E-1,1.1187491E0,1.3468796E0,1.5633036E0,1.8504325E0],"categories":[],"categories_nodes":[],"categories_segments":[],"categories_sizes":[],"default_left":[0,0,0,0,0,0,0,0,0,0,0,0,0,0,0,0,0,0,0,0,0,0,0,0,0,0,0,0,0,0,0],"id":0,"left_children":[1,3,5,7,9,11,13,15,17,19,21,23,25,27,29,-1,-1,-1,-1,-1,-1,-1,-1,-1,-1,-1,-1,-1,-1,-1,-1],"loss_changes":[6.723472E7,3.547561E6,8.876772E6,6.64414E5,9.859221E5,1.18984E6,1.192724E6,1.8796E4,9.0579E4,2.08424E5,2.5609812E4,1.11569E5,3.9244E4,1.92318E5,1.54246E5,0E0,0E0,0E0,0E0,0E0,0E0,0E0,0E0,0E0,0E0,0E0,0E0,0E0,0E0,0E0,0E0],"parents":[2147483647,0,0,1,1,2,2,3,3,4,4,5,5,6,6,7,7,8,8,9,9,10,10,11,11,12,12,13,13,14,14],"right_children":[2,4,6,8,10,12,14,16,18,20,22,24,26,28,30,-1,-1,-1,-1,-1,-1,-1,-1,-1,-1,-1,-1,-1,-1,-1,-1],"split_conditions":[8.49E1,2.585E1,1.5445E2,1.125E1,5.56E1,1.1845E2,1.982E2,5.85E0,1.795E1,3.775E1,7.535E1,9.825E1,1.3415E2,1.744E2,2.2205E2,-4.886667E-1,-4.2495653E-1,-3.7109178E-1,-2.9663622E-1,-1.9258234E-1,-8.282337E-2,1.7112514E-1,2.9498008E-1,4.0610567E-1,5.508846E-1,7.376456E-1,9.070939E-1,1.1187491E0,1.3468796E0,1.5633036E0,1.8504325E0],"split_indices":[3,3,1,3,3,3,3,3,2,3,3,2,1,3,3,0,0,0,0,0,0,0,0,0,0,0,0,0,0,0,0],"split_type":[0,0,0,0,0,0,0,0,0,0,0,0,0,0,0,0,0,0,0,0,0,0,0,0,0,0,0,0,0,0,0],"sum_hessian":[2.5445E4,1.9677E4,5.768E3,1.1619E4,8.058E3,3.279E3,2.489E3,4.768E3,6.851E3,7.362E3,6.96E2,2.187E3,1.092E3,1.593E3,8.96E2,4.175E3,5.93E2,2.784E3,4.067E3,4.577E3,2.785E3,2.97E2,3.99E2,1.191E3,9.96E2,1.99E2,8.93E2,7.97E2,7.96E2,4.97E2,3.99E2],"tree_param":{"num_deleted":"0","num_feature":"200","num_nodes":"31","size_leaf_vector":"1"}},{"base_weights":[2.7924863E-4,-2.7553364E1,9.398547E1,-3.849701E1,-1.1404235E1,6.0118572E1,1.3855954E2,-4.760274E1,-3.2253117E1,-1.4804781E1,2.4003174E1,4.6754406E1,8.681636E1,1.2211965E2,1.6761932E2,-4.8381191E-1,-4.2092186E-1,-3.6738223E-1,-2.9254967E-1,-1.8919212E-1,-8.199542E-2,1.6941965E-1,2.9203767E-1,4.0204802E-1,5.4538125E-1,7.303061E-1,8.98033E-1,1.1075757E0,1.3334277E0,1.5477018E0,1.8319746E0],"categories":[],"categories_nodes":[],"categories_segments":[],"categories_sizes":[],"default_left":[0,0,0,0,0,0,0,0,0,0,0,0,0,0,0,0,0,0,0,0,0,0,0,0,0,0,0,0,0,0,0],"id":1,"left_children":[1,3,5,7,9,11,13,15,17,19,21,23,25,27,29,-1,-1,-1,-1,-1,-1,-1,-1,-1,-1,-1,-1,-1,-1,-1,-1],"loss_changes":[6.589843E7,3.477259E6,8.700468E6,6.6532E5,9.5757125E5,1.166223E6,1.1691E6,1.8422E4,9.253E4,1.969855E5,2.5100812E4,1.093525E5,3.84485E4,1.88494E5,1.51196E5,0E0,0E0,0E0,0E0,0E0,0E0,0E0,0E0,0E0,0E0,0E0,0E0,0E0,0E0,0E0,0E0],"parents":[2147483647,0,0,1,1,2,2,3,3,4,4,5,5,6,6,7,7,8,8,9,9,10,10,11,11,12,12,13,13,14,14],"right_children":[2,4,6,8,10,12,14,16,18,20,22,24,26,28,30,-1,-1,-1,-1,-1,-1,-1,-1,-1,-1,-1,-1,-1,-1,-1,-1],"split_conditions":[8.49E1,2.64E1,1.5445E2,1.125E1,5.56E1,1.1845E2,1.982E2,5.15E0,1.795E1,3.775E1,7.535E1,9.825E1,1.3415E2,1.744E2,2.2205E2,-4.8381191E-1,-4.2092186E-1,-3.6738223E-1,-2.9254967E-1,-1.8919212E-1,-8.199542E-2,1.6941965E-1,2.9203767E-1,4.0204802E-1,5.4538125E-1,7.303061E-1,8.98033E-1,1.1075757E0,1.3334277E0,1.5477018E0,1.8319746E0],"split_indices":[3,3,1,3,3,3,3,156,2,3,3,2,1,3,3,0,0,0,0,0,0,0,0,0,0,0,0,0,0,0,0],"split_type":[0,0,0,0,0,0,0,0,0,0,0,0,0,0,0,0,0,0,0,0,0,0,0,0,0,0,0,0,0,0,0],"sum_hessian":[2.5445E4,1.9677E4,5.768E3,1.1728E4,7.949E3,3.279E3,2.489E3,4.768E3,6.96E3,7.253E3,6.96E2,2.187E3,1.092E3,1.593E3,8.96E2,4.171E3,5.97E2,2.784E3,4.176E3,4.468E3,2.785E3,2.97E2,3.99E2,1.191E3,9.96E2,1.99E2,8.93E2,7.97E2,7.96E2,4.97E2,3.99E2],"tree_param":{"num_deleted":"0","num_feature":"200","num_nodes":"31","size_leaf_vector":"1"}},{"base_weights":[5.524444E-4,-2.7277899E1,9.304707E1,-3.811217E1,-1.1290167E1,5.834032E1,1.3568379E2,-4.7126904E1,-3.1930681E1,-1.4656769E1,2.3763805E1,4.6287296E1,8.4786224E1,1.1810161E2,1.6357716E2,-4.789604E-1,-4.166128E-1,-3.6363116E-1,-2.8957087E-1,-1.8730061E-1,-8.1175745E-2,1.6773115E-1,2.891246E-1,3.9789358E-1,5.3981245E-1,7.230395E-1,8.781595E-1,1.0695695E0,1.290979E0,1.5142235E0,1.8137006E0],"categories":[],"categories_nodes":[],"categories_segments":[],"categories_sizes":[],"default_left":[0,0,0,0,0,0,0,0,0,0,0,0,0,0,0,0,0,0,0,0,0,0,0,0,0,0,0,0,0,0,0],"id":2,"left_children":[1,3,5,7,9,11,13,15,17,19,21,23,25,27,29,-1,-1,-1,-1,-1,-1,-1,-1,-1,-1,-1,-1,-1,-1,-1,-1],"loss_changes":[6.4588684E7,3.408103E6,8.528948E6,6.5209E5,9.385498E5,1.010348E6,1.249904E6,1.8053E4,9.06945E4,1.9306575E5,2.4601875E4,1.07241E5,3.12795E4,1.8117E5,1.88374E5,0E0,0E0,0E0,0E0,0E0,0E0,0E0,0E0,0E0,0E0,0E0,0E0,0E0,0E0,0E0,0E0],"parents":[2147483647,0,0,1,1,2,2,3,3,4,4,5,5,6,6,7,7,8,8,9,9,10,10,11,11,12,12,13,13,14,14],"right_children":[2,4,6,8,10,12,14,16,18,20,22,24,26,28,30,-1,-1,-1,-1,-1,-1,-1,-1,-1,-1,-1,-1,-1,-1,-1,-1],"split_conditions":[8.49E1,2.64E1,1.4955E2,1.125E1,5.56E1,1.1845E2,1.957E2,5.75E0,1.82E1,3.775E1,7.535E1,9.93E1,1.3415E2,1.7195E2,2.2205E2,-4.789604E-1,-4.166128E-1,-3.6363116E-1,-2.8957087E-1,-1.8730061E-1,-8.1175745E-2,1.6773115E-1,2.891246E-1,3.9789358E-1,5.3981245E-1,7.230395E-1,8.781595E-1,1.0695695E0,1.290979E0,1.5142235E0,1.8137006E0],"split_indices":[3,3,3,3,3,3,3,2,3,3,3,3,1,3,3,0,0,0,0,0,0,0,0,0,0,0,0,0,0,0,0],"split_type":[0,0,0,0,0,0,0,0,0,0,0,0,0,0,0,0,0,0,0,0,0,0,0,0,0,0,0,0,0,0,0],"sum_hessian":[2.5445E4,1.9677E4,5.768E3,1.1728E4,7.949E3,3.181E3,2.587E3,4.768E3,6.96E3,7.253E3,6.96E2,2.187E3,9.94E2,1.59E3,9.97E2,4.173E3,5.95E2,2.79E3,4.17E3,4.468E3,2.785E3,2.97E2,3.99E2,1.189E3,9.98E2,1.99E2,7.95E2,7.95E2,7.95E2,5.98E2,3.99E2],"tree_param":{"num_deleted":"0","num_feature":"200","num_nodes":"31","size_leaf_vector":"1"}},{"base_weights":[8.175722E-4,-2.7005188E1,9.211803E1,-3.7855396E1,-1.1357291E1,5.892102E1,1.3581042E2,-4.665589E1,-3.1724714E1,-1.4657966E1,2.3526823E1,4.5824852E1,8.508341E1,1.1969249E2,1.6430116E2,-4.74195E-1,-4.1260794E-1,-3.600756E-1,-2.878483E-1,-1.8684384E-1,-8.0364265E-2,1.6605945E-1,2.8624058E-1,3.996375E-1,5.4199976E-1,7.462861E-1,8.8908446E-1,1.0983378E0,1.3219044E0,1.5171441E0,1.795609E0],"categories":[],"categories_nodes":[],"categories_segments":[],"categories_sizes":[],"default_left":[0,0,0,0,0,0,0,0,0,0,0,0,0,0,0,0,0,0,0,0,0,0,0,0,0,0,0,0,0,0,0],"id":3,"left_children":[1,3,5,7,9,11,13,15,17,19,21,23,25,27,29,-1,-1,-1,-1,-1,-1,-1,-1,-1,-1,-1,-1,-1,-1,-1,-1],"loss_changes":[6.330496E7,3.340559E6,8.359684E6,6.25453E5,9.282671E5,1.119918E6,1.123776E6,1.769E4,8.5237E4,1.961555E5,2.4113E4,1.052375E5,3.7074E4,1.81882E5,1.45044E5,0E0,0E0,0E0,0E0,0E0,0E0,0E0,0E0,0E0,0E0,0E0,0E0,0E0,0E0,0E0,0E0],"parents":[2147483647,0,0,1,1,2,2,3,3,4,4,5,5,6,6,7,7,8,8,9,9,10,10,11,11,12,12,13,13,14,14],"right_children":[2,4,6,8,10,12,14,16,18,20,22,24,26,28,30,-1,-1,-1,-1,-1,-1,-1,-1,-1,-1,-1,-1,-1,-1,-1,-1],"split_conditions":[8.49E1,2.585E1,1.5445E2,1.135E1,5.56E1,1.1845E2,1.982E2,5.15E0,1.795E1,3.775E1,7.535E1,1.0055E2,1.3585E2,1.7695E2,2.2205E2,-4.74195E-1,-4.1260794E-1,-3.600756E-1,-2.878483E-1,-1.8684384E-1,-8.0364265E-2,1.6605945E-1,2.8624058E-1,3.996375E-1,5.4199976E-1,7.462861E-1,8.8908446E-1,1.0983378E0,1.3219044E0,1.5171441E0,1.795609E0],"split_indices":[3,3,1,1,3,3,3,138,2,3,3,3,3,3,3,0,0,0,0,0,0,0,0,0,0,0,0,0,0,0,0],"split_type":[0,0,0,0,0,0,0,0,0,0,0,0,0,0,0,0,0,0,0,0,0,0,0,0,0,0,0,0,0,0,0],"sum_hessian":[2.5445E4,1.9677E4,5.768E3,1.1619E4,8.058E3,3.279E3,2.489E3,4.768E3,6.851E3,7.362E3,6.96E2,2.187E3,1.092E3,1.593E3,8.96E2,4.17E3,5.98E2,2.784E3,4.067E3,4.577E3,2.785E3,2.97E2,3.99E2,1.29E3,8.97E2,2.98E2,7.94E2,8.96E2,6.97E2,4.97E2,3.99E2],"tree_param":{"num_deleted":"0","num_feature":"200","num_nodes":"31","size_leaf_vector":"1"}},{"base_weights":[1.082998E-3,-2.6735205E1,9.119829E1,-3.725301E1,-1.0912937E1,5.717855E1,1.3299103E2,-4.6191223E1,-3.120528E1,-1.4239766E1,2.3292204E1,4.5367035E1,8.309455E1,1.1433851E2,1.5827864E2,-4.6942562E-1,-4.0832573E-1,-3.5640776E-1,-2.82923E-1,-1.8127996E-1,-7.7714264E-2,1.6418037E-1,2.832546E-1,3.9003018E-1,5.293026E-1,7.08016E-1,8.6059666E-1,1.0335661E0,1.2377342E0,1.4684001E0,1.777375E0],"categories":[],"categories_nodes":[],"categories_segments":[],"categories_sizes":[],"default_left":[0,0,0,0,0,0,0,0,0,0,0,0,0,0,0,0,0,0,0,0,0,0,0,0,0,0,0,0,0,0,0],"id":4,"left_children":[1,3,5,7,9,11,13,15,17,19,21,23,25,27,29,-1,-1,-1,-1,-1,-1,-1,-1,-1,-1,-1,-1,-1,-1,-1,-1],"loss_changes":[6.2046776E7,3.274317E6,8.19464E6,6.37499E5,8.946436E5,9.70263E5,1.2026E6,1.728E4,9.01205E4,1.8001138E5,2.365075E4,1.0325E5,3.01745E4,1.419E5,2.17852E5,0E0,0E0,0E0,0E0,0E0,0E0,0E0,0E0,0E0,0E0,0E0,0E0,0E0,0E0,0E0,0E0],"parents":[2147483647,0,0,1,1,2,2,3,3,4,4,5,5,6,6,7,7,8,8,9,9,10,10,11,11,12,12,13,13,14,14],"right_children":[2,4,6,8,10,12,14,16,18,20,22,24,26,28,30,-1,-1,-1,-1,-1,-1,-1,-1,-1,-1,-1,-1,-1,-1,-1,-1],"split_conditions":[8.49E1,2.68E1,1.4955E2,1.115E1,5.56E1,1.1845E2,1.9255E2,5.15E0,1.82E1,3.82E1,7.65E1,9.825E1,1.328E2,1.696E2,2.24E2,-4.6942562E-1,-4.0832573E-1,-3.5640776E-1,-2.82923E-1,-1.8127996E-1,-7.7714264E-2,1.6418037E-1,2.832546E-1,3.9003018E-1,5.293026E-1,7.08016E-1,8.6059666E-1,1.0335661E0,1.2377342E0,1.4684001E0,1.777375E0],"split_indices":[3,3,3,2,3,3,3,154,3,3,1,2,3,3,1,0,0,0,0,0,0,0,0,0,0,0,0,0,0,0,0],"split_type":[0,0,0,0,0,0,0,0,0,0,0,0,0,0,0,0,0,0,0,0,0,0,0,0,0,0,0,0,0,0,0],"sum_hessian":[2.5445E4,1.9677E4,5.768E3,1.1819E4,7.858E3,3.181E3,2.587E3,4.767E3,7.052E3,7.162E3,6.96E2,2.187E3,9.94E2,1.492E3,1.095E3,4.174E3,5.93E2,2.791E3,4.261E3,4.472E3,2.69E3,2.96E2,4E2,1.191E3,9.96E2,1.98E2,7.96E2,6.95E2,7.97E2,6.95E2,4E2],"tree_param":{"num_deleted":"0","num_feature":"200","num_nodes":"31","size_leaf_vector":"1"}},{"base_weights":[1.3344113E-3,-2.646792E1,9.02877E1,-3.710303E1,-1.113023E1,5.7747772E1,1.3311526E2,-4.572657E1,-3.1093487E1,-1.4365245E1,2.3059925E1,4.4913784E1,8.33864E1,1.1730779E2,1.610573E2,-4.6472603E-1,-4.0413696E-1,-3.5289928E-1,-2.8213942E-1,-1.8432966E-1,-8.063047E-2,1.6272819E-1,2.805867E-1,3.916347E-1,5.3130645E-1,7.506E-1,8.8046604E-1,1.076362E0,1.2956871E0,1.4872928E0,1.7600302E0],"categories":[],"categories_nodes":[],"categories_segments":[],"categories_sizes":[],"default_left":[0,0,0,0,0,0,0,0,0,0,0,0,0,0,0,0,0,0,0,0,0,0,0,0,0,0,0,0,0,0,0],"id":5,"left_children":[1,3,5,7,9,11,13,15,17,19,21,23,25,27,29,-1,-1,-1,-1,-1,-1,-1,-1,-1,-1,-1,-1,-1,-1,-1,-1],"loss_changes":[6.081357E7,3.209424E6,8.032024E6,6.00767E5,8.917021E5,1.075525E6,1.08092E6,1.7028E4,8.1791E4,1.8860625E5,2.3190531E4,1.01301E5,3.5803E4,1.75072E5,1.39098E5,0E0,0E0,0E0,0E0,0E0,0E0,0E0,0E0,0E0,0E0,0E0,0E0,0E0,0E0,0E0,0E0],"parents":[2147483647,0,0,1,1,2,2,3,3,4,4,5,5,6,6,7,7,8,8,9,9,10,10,11,11,12,12,13,13,14,14],"right_children":[2,4,6,8,10,12,14,16,18,20,22,24,26,28,30,-1,-1,-1,-1,-1,-1,-1,-1,-1,-1,-1,-1,-1,-1,-1,-1],"split_conditions":[8.49E1,2.585E1,1.5445E2,1.135E1,5.56E1,1.1845E2,1.982E2,5.85E0,1.795E1,3.73E1,7.535E1,1.0055E2,1.3745E2,1.7695E2,2.2205E2,-4.6472603E-1,-4.0413696E-1,-3.5289928E-1,-2.8213942E-1,-1.8432966E-1,-8.063047E-2,1.6272819E-1,2.805867E-1,3.916347E-1,5.3130645E-1,7.506E-1,8.8046604E-1,1.076362E0,1.2956871E0,1.4872928E0,1.7600302E0],"split_indices":[3,3,1,5,3,3,3,3,2,3,3,3,3,3,3,0,0,0,0,0,0,0,0,0,0,0,0,0,0,0,0],"split_type":[0,0,0,0,0,0,0,0,0,0,0,0,0,0,0,0,0,0,0,0,0,0,0,0,0,0,0,0,0,0,0],"sum_hessian":[2.5445E4,1.9677E4,5.768E3,1.1619E4,8.058E3,3.279E3,2.489E3,4.769E3,6.85E3,7.362E3,6.96E2,2.187E3,1.092E3,1.593E3,8.96E2,4.175E3,5.94E2,2.783E3,4.067E3,4.473E3,2.889E3,2.97E2,3.99E2,1.29E3,8.97E2,3.98E2,6.94E2,8.96E2,6.97E2,4.97E2,3.99E2],"tree_param":{"num_deleted":"0","num_feature":"200","num_nodes":"31","size_leaf_vector":"1"}},{"base_weights":[1.5898331E-3,-2.620331E1,8.938623E1,-3.6512867E1,-1.0694318E1,5.6040203E1,1.3035133E2,-4.511691E1,-3.0477356E1,-1.396014E1,2.2778133E1,4.446507E1,8.1437546E1,1.120607E2,1.5514838E2,-4.6005878E-1,-3.9691043E-1,-3.4704658E-1,-2.765759E-1,-1.7767084E-1,-7.622311E-2,1.3599496E-1,2.6455456E-1,3.8209152E-1,5.187255E-1,6.9383794E-1,8.436382E-1,9.974304E-1,1.2015657E0,1.4394021E0,1.7421504E0],"categories":[],"categories_nodes":[],"categories_segments":[],"categories_sizes":[],"default_left":[0,0,0,0,0,0,0,0,0,0,0,0,0,0,0,0,0,0,0,0,0,0,0,0,0,0,0,0,0,0,0],"id":6,"left_children":[1,3,5,7,9,11,13,15,17,19,21,23,25,27,29,-1,-1,-1,-1,-1,-1,-1,-1,-1,-1,-1,-1,-1,-1,-1,-1],"loss_changes":[5.9604908E7,3.145942E6,7.87328E6,6.12435E5,8.5942506E5,9.31816E5,1.156412E6,2.1669E4,8.1884E4,1.726435E5,2.3233469E4,9.94115E4,2.92425E4,1.369E5,2.0914E5,0E0,0E0,0E0,0E0,0E0,0E0,0E0,0E0,0E0,0E0,0E0,0E0,0E0,0E0,0E0,0E0],"parents":[2147483647,0,0,1,1,2,2,3,3,4,4,5,5,6,6,7,7,8,8,9,9,10,10,11,11,12,12,13,13,14,14],"right_children":[2,4,6,8,10,12,14,16,18,20,22,24,26,28,30,-1,-1,-1,-1,-1,-1,-1,-1,-1,-1,-1,-1,-1,-1,-1,-1],"split_conditions":[8.49E1,2.68E1,1.4955E2,1.17E1,5.485E1,1.1845E2,1.9255E2,5.25E0,1.87E1,3.82E1,7.21E1,9.93E1,1.3415E2,1.6705E2,2.24E2,-4.6005878E-1,-3.9691043E-1,-3.4704658E-1,-2.765759E-1,-1.7767084E-1,-7.622311E-2,1.3599496E-1,2.6455456E-1,3.8209152E-1,5.187255E-1,6.9383794E-1,8.436382E-1,9.974304E-1,1.2015657E0,1.4394021E0,1.7421504E0],"split_indices":[3,3,3,3,2,3,3,116,3,3,3,3,1,3,1,0,0,0,0,0,0,0,0,0,0,0,0,0,0,0,0],"split_type":[0,0,0,0,0,0,0,0,0,0,0,0,0,0,0,0,0,0,0,0,0,0,0,0,0,0,0,0,0,0,0],"sum_hessian":[2.5445E4,1.9677E4,5.768E3,1.1819E4,7.858E3,3.181E3,2.587E3,4.87E3,6.949E3,7.16E3,6.98E2,2.187E3,9.94E2,1.492E3,1.095E3,4.178E3,6.92E2,2.776E3,4.173E3,4.472E3,2.688E3,2.01E2,4.97E2,1.189E3,9.98E2,1.99E2,7.95E2,5.97E2,8.95E2,6.95E2,4E2],"tree_param":{"num_deleted":"0","num_feature":"200","num_nodes":"31","size_leaf_vector":"1"}},{"base_weights":[1.8286892E-3,-2.5941345E1,8.849373E1,-3.6247757E1,-1.0735767E1,5.6609463E1,1.30488E2,-4.482042E1,-3.0370625E1,-1.3937391E1,2.2605001E1,4.402083E1,8.1734985E1,1.14983376E2,1.5787753E2,-4.5551795E-1,-3.9644194E-1,-3.4590536E-1,-2.7548054E-1,-1.770683E-1,-7.5377546E-2,1.5917017E-1,2.7502072E-1,3.8379654E-1,5.2081776E-1,7.354447E-1,8.6312973E-1,1.0548825E0,1.2700721E0,1.4580299E0,1.7251565E0],"categories":[],"categories_nodes":[],"categories_segments":[],"categories_sizes":[],"default_left":[0,0,0,0,0,0,0,0,0,0,0,0,0,0,0,0,0,0,0,0,0,0,0,0,0,0,0,0,0,0,0],"id":7,"left_children":[1,3,5,7,9,11,13,15,17,19,21,23,25,27,29,-1,-1,-1,-1,-1,-1,-1,-1,-1,-1,-1,-1,-1,-1,-1,-1],"loss_changes":[5.842022E7,3.083447E6,7.717056E6,5.89527E5,8.490412E5,1.034169E6,1.03884E6,1.6245E4,8.19595E4,1.7487938E5,2.2390062E4,9.7497E4,3.46735E4,1.6847E5,1.3339E5,0E0,0E0,0E0,0E0,0E0,0E0,0E0,0E0,0E0,0E0,0E0,0E0,0E0,0E0,0E0,0E0],"parents":[2147483647,0,0,1,1,2,2,3,3,4,4,5,5,6,6,7,7,8,8,9,9,10,10,11,11,12,12,13,13,14,14],"right_children":[2,4,6,8,10,12,14,16,18,20,22,24,26,28,30,-1,-1,-1,-1,-1,-1,-1,-1,-1,-1,-1,-1,-1,-1,-1,-1],"split_conditions":[8.49E1,2.675E1,1.5285E2,1.115E1,5.56E1,1.1845E2,1.982E2,5.15E0,1.795E1,3.82E1,7.65E1,1.0055E2,1.3745E2,1.7695E2,2.2205E2,-4.5551795E-1,-3.9644194E-1,-3.4590536E-1,-2.7548054E-1,-1.770683E-1,-7.5377546E-2,1.5917017E-1,2.7502072E-1,3.8379654E-1,5.2081776E-1,7.354447E-1,8.6312973E-1,1.0548825E0,1.2700721E0,1.4580299E0,1.7251565E0],"split_indices":[3,1,3,2,0,3,3,138,2,3,1,3,3,3,3,0,0,0,0,0,0,0,0,0,0,0,0,0,0,0,0],"split_type":[0,0,0,0,0,0,0,0,0,0,0,0,0,0,0,0,0,0,0,0,0,0,0,0,0,0,0,0,0,0,0],"sum_hessian":[2.5445E4,1.9677E4,5.768E3,1.1727E4,7.95E3,3.28E3,2.488E3,4.767E3,6.96E3,7.254E3,6.96E2,2.187E3,1.093E3,1.592E3,8.96E2,4.17E3,5.97E2,2.785E3,4.175E3,4.564E3,2.69E3,2.96E2,4E2,1.29E3,8.97E2,3.98E2,6.95E2,8.95E2,6.97E2,4.97E2,3.99E2],"tree_param":{"num_deleted":"0","num_feature":"200","num_nodes":"31","size_leaf_vector":"1"}},{"base_weights":[2.0744877E-3,-2.5681997E1,8.7610176E1,-3.6002495E1,-1.079803E1,5.49245E1,1.27764046E2,-4.451131E1,-3.0268412E1,-1.3937449E1,2.238181E1,4.358103E1,7.981353E1,1.0982833E2,1.5207997E2,-4.510201E-1,-3.9640522E-1,-3.4465128E-1,-2.7458966E-1,-1.8003798E-1,-7.990922E-2,1.5781389E-1,2.7243164E-1,3.6876777E-1,5.0239366E-1,6.792219E-1,8.2682484E-1,9.922646E-1,1.1893744E0,1.410976E0,1.7076237E0],"categories":[],"categories_nodes":[],"categories_segments":[],"categories_sizes":[],"default_left":[0,0,0,0,0,0,0,0,0,0,0,0,0,0,0,0,0,0,0,0,0,0,0,0,0,0,0,0,0,0,0],"id":8,"left_children":[1,3,5,7,9,11,13,15,17,19,21,23,25,27,29,-1,-1,-1,-1,-1,-1,-1,-1,-1,-1,-1,-1,-1,-1,-1,-1],"loss_changes":[5.725913E7,3.02235E6,7.564544E6,5.65594E5,8.3978125E5,8.94889E5,1.111984E6,1.1666E4,8.0938E4,1.7789838E5,2.1934719E4,9.581725E4,2.83295E4,1.32382E5,2.0078E5,0E0,0E0,0E0,0E0,0E0,0E0,0E0,0E0,0E0,0E0,0E0,0E0,0E0,0E0,0E0,0E0],"parents":[2147483647,0,0,1,1,2,2,3,3,4,4,5,5,6,6,7,7,8,8,9,9,10,10,11,11,12,12,13,13,14,14],"right_children":[2,4,6,8,10,12,14,16,18,20,22,24,26,28,30,-1,-1,-1,-1,-1,-1,-1,-1,-1,-1,-1,-1,-1,-1,-1,-1],"split_conditions":[8.49E1,2.585E1,1.4955E2,1.035E1,5.68E1,1.1845E2,1.9255E2,5.15E0,1.745E1,3.695E1,7.535E1,9.795E1,1.328E2,1.696E2,2.24E2,-4.510201E-1,-3.9640522E-1,-3.4465128E-1,-2.7458966E-1,-1.8003798E-1,-7.990922E-2,1.5781389E-1,2.7243164E-1,3.6876777E-1,5.0239366E-1,6.792219E-1,8.2682484E-1,9.922646E-1,1.1893744E0,1.410976E0,1.7076237E0],"split_indices":[3,3,3,3,1,3,3,106,3,3,3,3,3,3,1,0,0,0,0,0,0,0,0,0,0,0,0,0,0,0,0],"split_type":[0,0,0,0,0,0,0,0,0,0,0,0,0,0,0,0,0,0,0,0,0,0,0,0,0,0,0,0,0,0,0],"sum_hessian":[2.5445E4,1.9677E4,5.768E3,1.1619E4,8.058E3,3.181E3,2.587E3,4.675E3,6.944E3,7.362E3,6.96E2,2.187E3,9.94E2,1.492E3,1.095E3,4.162E3,5.13E2,2.78E3,4.164E3,4.371E3,2.991E3,2.97E2,3.99E2,1.093E3,1.094E3,1.98E2,7.96E2,6.95E2,7.97E2,6.95E2,4E2],"tree_param":{"num_deleted":"0","num_feature":"200","num_nodes":"31","size_leaf_vector":"1"}},{"base_weights":[2.3044567E-3,-2.5148832E1,8.768985E1,-3.5328987E1,-9.715469E0,5.621884E1,1.2788443E2,-4.3779144E1,-2.9481428E1,-1.3415177E1,2.3230696E1,4.3712513E1,8.0093056E1,1.1268002E2,1.5476062E2,-4.46408E-1,-3.852873E-1,-3.367464E-1,-2.674682E-1,-1.6910213E-1,-6.998497E-2,1.5605797E-1,2.7731428E-1,3.9615265E-1,5.3875685E-1,7.017964E-1,8.372075E-1,1.02136E0,1.2309589E0,1.4293438E0,1.6909738E0],"categories":[],"categories_nodes":[],"categories_segments":[],"categories_sizes":[],"default_left":[0,0,0,0,0,0,0,0,0,0,0,0,0,0,0,0,0,0,0,0,0,0,0,0,0,0,0,0,0,0,0],"id":9,"left_children":[1,3,5,7,9,11,13,15,17,19,21,23,25,27,29,-1,-1,-1,-1,-1,-1,-1,-1,-1,-1,-1,-1,-1,-1,-1,-1],"loss_changes":[5.6121868E7,3.106587E6,7.167684E6,5.87463E5,9.584985E5,9.46875E5,1.000068E6,2.0317E4,7.98825E4,1.5839225E5,2.6815438E4,8.4937E4,3.34325E4,1.62488E5,1.27916E5,0E0,0E0,0E0,0E0,0E0,0E0,0E0,0E0,0E0,0E0,0E0,0E0,0E0,0E0,0E0,0E0],"parents":[2147483647,0,0,1,1,2,2,3,3,4,4,5,5,6,6,7,7,8,8,9,9,10,10,11,11,12,12,13,13,14,14],"right_children":[2,4,6,8,10,12,14,16,18,20,22,24,26,28,30,-1,-1,-1,-1,-1,-1,-1,-1,-1,-1,-1,-1,-1,-1,-1,-1],"split_conditions":[8.675E1,2.725E1,1.5445E2,1.17E1,5.56E1,1.1845E2,1.982E2,5.3E0,1.87E1,3.885E1,7.65E1,1.031E2,1.3585E2,1.744E2,2.2205E2,-4.46408E-1,-3.852873E-1,-3.367464E-1,-2.674682E-1,-1.6910213E-1,-6.998497E-2,1.5605797E-1,2.7731428E-1,3.9615265E-1,5.3875685E-1,7.017964E-1,8.372075E-1,1.02136E0,1.2309589E0,1.4293438E0,1.6909738E0],"split_indices":[3,3,1,3,3,3,3,121,3,3,1,3,3,3,3,0,0,0,0,0,0,0,0,0,0,0,0,0,0,0,0],"split_type":[0,0,0,0,0,0,0,0,0,0,0,0,0,0,0,0,0,0,0,0,0,0,0,0,0,0,0,0,0,0,0],"sum_hessian":[2.5445E4,1.9774E4,5.671E3,1.1914E4,7.86E3,3.182E3,2.489E3,4.87E3,7.044E3,7.067E3,7.93E2,2.09E3,1.092E3,1.593E3,8.96E2,4.177E3,6.93E2,2.776E3,4.268E3,4.574E3,2.493E3,2.96E2,4.97E2,1.493E3,5.97E2,2.98E2,7.94E2,7.97E2,7.96E2,4.97E2,3.99E2],"tree_param":{"num_deleted":"0","num_feature":"200","num_nodes":"31","size_leaf_vector":"1"}},{"base_weights":[2.5407858E-3,-2.517688E1,8.585079E1,-3.507624E1,-1.0281166E1,5.3805798E1,1.2521478E2,-4.3348743E1,-2.9283417E1,-1.3408428E1,2.186318E1,4.2704933E1,7.82093E1,1.0762727E2,1.4907475E2,-4.4193852E-1,-3.8152456E-1,-3.334336E-1,-2.6570418E-1,-1.695559E-1,-7.1150236E-2,1.3030478E-1,2.541629E-1,3.6112994E-1,4.9263892E-1,6.6580904E-1,8.10363E-1,9.573615E-1,1.1545668E0,1.3831509E0,1.6737813E0],"categories":[],"categories_nodes":[],"categories_segments":[],"categories_sizes":[],"default_left":[0,0,0,0,0,0,0,0,0,0,0,0,0,0,0,0,0,0,0,0,0,0,0,0,0,0,0,0,0,0,0],"id":10,"left_children":[1,3,5,7,9,11,13,15,17,19,21,23,25,27,29,-1,-1,-1,-1,-1,-1,-1,-1,-1,-1,-1,-1,-1,-1,-1,-1],"loss_changes":[5.5006468E7,2.901024E6,7.272912E6,5.65159E5,7.901087E5,8.58935E5,1.070396E6,1.9683E4,7.5721E4,1.597395E5,2.1543156E4,9.290825E4,2.7281E4,1.2804E5,1.92694E5,0E0,0E0,0E0,0E0,0E0,0E0,0E0,0E0,0E0,0E0,0E0,0E0,0E0,0E0,0E0,0E0],"parents":[2147483647,0,0,1,1,2,2,3,3,4,4,5,5,6,6,7,7,8,8,9,9,10,10,11,11,12,12,13,13,14,14],"right_children":[2,4,6,8,10,12,14,16,18,20,22,24,26,28,30,-1,-1,-1,-1,-1,-1,-1,-1,-1,-1,-1,-1,-1,-1,-1,-1],"split_conditions":[8.585E1,2.68E1,1.5095E2,1.18E1,5.485E1,1.1845E2,1.9255E2,5.4E0,1.87E1,3.855E1,7.21E1,9.795E1,1.3415E2,1.6705E2,2.24E2,-4.4193852E-1,-3.8152456E-1,-3.334336E-1,-2.6570418E-1,-1.695559E-1,-7.1150236E-2,1.3030478E-1,2.541629E-1,3.6112994E-1,4.9263892E-1,6.6580904E-1,8.10363E-1,9.573615E-1,1.1545668E0,1.3831509E0,1.6737813E0],"split_indices":[1,3,1,1,6,3,3,85,3,3,3,3,1,3,1,0,0,0,0,0,0,0,0,0,0,0,0,0,0,0,0],"split_type":[0,0,0,0,0,0,0,0,0,0,0,0,0,0,0,0,0,0,0,0,0,0,0,0,0,0,0,0,0,0,0],"sum_hessian":[2.5445E4,1.9675E4,5.77E3,1.1819E4,7.856E3,3.182E3,2.588E3,4.865E3,6.954E3,7.16E3,6.96E2,2.189E3,9.93E2,1.493E3,1.095E3,4.178E3,6.87E2,2.781E3,4.173E3,4.578E3,2.582E3,2.01E2,4.95E2,1.095E3,1.094E3,1.99E2,7.94E2,5.98E2,8.95E2,6.95E2,4E2],"tree_param":{"num_deleted":"0","num_feature":"200","num_nodes":"31","size_leaf_vector":"1"}},{"base_weights":[2.760642E-3,-2.4648771E1,8.594846E1,-3.4508E1,-9.34012E0,5.5112293E1,1.2536045E2,-4.2908325E1,-2.8786776E1,-1.3004083E1,2.2765917E1,4.2846073E1,7.850677E1,1.0911038E2,1.4952852E2,-4.3752092E-1,-3.775823E-1,-3.3004665E-1,-2.6107207E-1,-1.6333048E-1,-6.667097E-2,1.5305124E-1,2.7193585E-1,3.881474E-1,5.2846014E-1,7.058915E-1,8.2932943E-1,9.880513E-1,1.1799687E0,1.3844862E0,1.6574686E0],"categories":[],"categories_nodes":[],"categories_segments":[],"categories_sizes":[],"default_left":[0,0,0,0,0,0,0,0,0,0,0,0,0,0,0,0,0,0,0,0,0,0,0,0,0,0,0,0,0,0,0],"id":11,"left_children":[1,3,5,7,9,11,13,15,17,19,21,23,25,27,29,-1,-1,-1,-1,-1,-1,-1,-1,-1,-1,-1,-1,-1,-1,-1,-1],"loss_changes":[5.3914388E7,2.984348E6,6.886356E6,5.76832E5,9.117344E5,9.10322E5,9.61196E5,1.9515E4,8.00385E4,1.46611E5,2.5812719E4,8.224325E4,3.2485E4,1.24976E5,1.5639E5,0E0,0E0,0E0,0E0,0E0,0E0,0E0,0E0,0E0,0E0,0E0,0E0,0E0,0E0,0E0,0E0],"parents":[2147483647,0,0,1,1,2,2,3,3,4,4,5,5,6,6,7,7,8,8,9,9,10,10,11,11,12,12,13,13,14,14],"right_children":[2,4,6,8,10,12,14,16,18,20,22,24,26,28,30,-1,-1,-1,-1,-1,-1,-1,-1,-1,-1,-1,-1,-1,-1,-1,-1],"split_conditions":[8.675E1,2.77E1,1.5285E2,1.17E1,5.56E1,1.1845E2,1.957E2,5.85E0,1.87E1,3.92E1,7.535E1,1.031E2,1.3745E2,1.7195E2,2.2205E2,-4.3752092E-1,-3.775823E-1,-3.3004665E-1,-2.6107207E-1,-1.6333048E-1,-6.667097E-2,1.5305124E-1,2.7193585E-1,3.881474E-1,5.2846014E-1,7.058915E-1,8.2932943E-1,9.880513E-1,1.1799687E0,1.3844862E0,1.6574686E0],"split_indices":[3,3,3,3,4,3,3,8,3,3,3,3,3,3,3,0,0,0,0,0,0,0,0,0,0,0,0,0,0,0,0],"split_type":[0,0,0,0,0,0,0,0,0,0,0,0,0,0,0,0,0,0,0,0,0,0,0,0,0,0,0,0,0,0,0],"sum_hessian":[2.5445E4,1.9774E4,5.671E3,1.2027E4,7.747E3,3.183E3,2.488E3,4.87E3,7.157E3,6.954E3,7.93E2,2.09E3,1.093E3,1.491E3,9.97E2,4.178E3,6.92E2,2.776E3,4.381E3,4.558E3,2.396E3,2.97E2,4.96E2,1.493E3,5.97E2,3.98E2,6.95E2,6.96E2,7.95E2,5.98E2,3.99E2],"tree_param":{"num_deleted":"0","num_feature":"200","num_nodes":"31","size_leaf_vector":"1"}},{"base_weights":[2.9857366E-3,-2.4402346E1,8.509033E1,-3.428086E1,-9.426273E0,5.4550846E1,1.24095184E2,-4.2479412E1,-2.8607414E1,-1.3016189E1,2.2542171E1,4.2418053E1,7.771198E1,1.0932672E2,1.5020091E2,-4.3314815E-1,-3.738037E-1,-3.2783535E-1,-2.602348E-1,-1.6407879E-1,-6.789245E-2,1.5141173E-1,2.6910755E-1,3.8426852E-1,5.2318436E-1,6.5177494E-1,8.0412155E-1,1.0025125E0,1.2083298E0,1.3874059E0,1.6409352E0],"categories":[],"categories_nodes":[],"categories_segments":[],"categories_sizes":[],"default_left":[0,0,0,0,0,0,0,0,0,0,0,0,0,0,0,0,0,0,0,0,0,0,0,0,0,0,0,0,0,0,0],"id":12,"left_children":[1,3,5,7,9,11,13,15,17,19,21,23,25,27,29,-1,-1,-1,-1,-1,-1,-1,-1,-1,-1,-1,-1,-1,-1,-1,-1],"loss_changes":[5.2842856E7,2.925216E6,6.749648E6,5.53E5,9.024531E5,8.91157E5,9.43584E5,1.913E4,7.5168E4,1.4916375E5,2.5264062E4,8.0614E4,3.17515E4,1.54338E5,1.20048E5,0E0,0E0,0E0,0E0,0E0,0E0,0E0,0E0,0E0,0E0,0E0,0E0,0E0,0E0,0E0,0E0],"parents":[2147483647,0,0,1,1,2,2,3,3,4,4,5,5,6,6,7,7,8,8,9,9,10,10,11,11,12,12,13,13,14,14],"right_children":[2,4,6,8,10,12,14,16,18,20,22,24,26,28,30,-1,-1,-1,-1,-1,-1,-1,-1,-1,-1,-1,-1,-1,-1,-1,-1],"split_conditions":[8.675E1,2.725E1,1.5445E2,1.17E1,5.68E1,1.1845E2,1.982E2,5.35E0,1.82E1,3.885E1,7.65E1,1.031E2,1.328E2,1.7695E2,2.2205E2,-4.3314815E-1,-3.738037E-1,-3.2783535E-1,-2.602348E-1,-1.6407879E-1,-6.789245E-2,1.5141173E-1,2.6910755E-1,3.8426852E-1,5.2318436E-1,6.5177494E-1,8.0412155E-1,1.0025125E0,1.2083298E0,1.3874059E0,1.6409352E0],"split_indices":[3,3,1,3,1,3,3,113,3,3,1,3,3,3,3,0,0,0,0,0,0,0,0,0,0,0,0,0,0,0,0],"split_type":[0,0,0,0,0,0,0,0,0,0,0,0,0,0,0,0,0,0,0,0,0,0,0,0,0,0,0,0,0,0,0],"sum_hessian":[2.5445E4,1.9774E4,5.671E3,1.1914E4,7.86E3,3.182E3,2.489E3,4.87E3,7.044E3,7.067E3,7.93E2,2.09E3,1.092E3,1.593E3,8.96E2,4.178E3,6.92E2,2.688E3,4.356E3,4.574E3,2.493E3,2.96E2,4.97E2,1.493E3,5.97E2,1.98E2,8.94E2,8.96E2,6.97E2,4.97E2,3.99E2],"tree_param":{"num_deleted":"0","num_feature":"200","num_nodes":"31","size_leaf_vector":"1"}},{"base_weights":[3.2069765E-3,-2.4424162E1,8.3324715E1,-3.424246E1,-1.0264463E1,5.2232185E1,1.2152142E2,-4.233335E1,-2.8790007E1,-1.325424E1,2.1234833E1,4.145188E1,7.588553E1,1.0444202E2,1.4467656E2,-4.2892608E-1,-3.7721443E-1,-3.2779768E-1,-2.61191E-1,-1.7231683E-1,-7.7171676E-2,1.2619486E-1,2.4686769E-1,3.5012272E-1,4.7847754E-1,6.456069E-1,7.8635633E-1,9.286605E-1,1.1205138E0,1.3423997E0,1.6243014E0],"categories":[],"categories_nodes":[],"categories_segments":[],"categories_sizes":[],"default_left":[0,0,0,0,0,0,0,0,0,0,0,0,0,0,0,0,0,0,0,0,0,0,0,0,0,0,0,0,0,0,0],"id":13,"left_children":[1,3,5,7,9,11,13,15,17,19,21,23,25,27,29,-1,-1,-1,-1,-1,-1,-1,-1,-1,-1,-1,-1,-1,-1,-1,-1],"loss_changes":[5.179292E7,2.735364E6,6.8451E6,5.114E5,7.5924475E5,8.08233E5,1.008384E6,1.04425E4,7.3152E4,1.6198112E5,2.0476469E4,8.8442E4,2.59115E4,1.21106E5,1.8127E5,0E0,0E0,0E0,0E0,0E0,0E0,0E0,0E0,0E0,0E0,0E0,0E0,0E0,0E0,0E0,0E0],"parents":[2147483647,0,0,1,1,2,2,3,3,4,4,5,5,6,6,7,7,8,8,9,9,10,10,11,11,12,12,13,13,14,14],"right_children":[2,4,6,8,10,12,14,16,18,20,22,24,26,28,30,-1,-1,-1,-1,-1,-1,-1,-1,-1,-1,-1,-1,-1,-1,-1,-1],"split_conditions":[8.49E1,2.585E1,1.4955E2,1.035E1,5.485E1,1.1845E2,1.9255E2,5.15E0,1.745E1,3.665E1,7.21E1,9.795E1,1.3415E2,1.6705E2,2.24E2,-4.2892608E-1,-3.7721443E-1,-3.2779768E-1,-2.61191E-1,-1.7231683E-1,-7.7171676E-2,1.2619486E-1,2.4686769E-1,3.5012272E-1,4.7847754E-1,6.456069E-1,7.8635633E-1,9.286605E-1,1.1205138E0,1.3423997E0,1.6243014E0],"split_indices":[3,3,3,3,2,3,3,106,3,3,3,3,1,3,1,0,0,0,0,0,0,0,0,0,0,0,0,0,0,0,0],"split_type":[0,0,0,0,0,0,0,0,0,0,0,0,0,0,0,0,0,0,0,0,0,0,0,0,0,0,0,0,0,0,0],"sum_hessian":[2.5445E4,1.9677E4,5.768E3,1.1619E4,8.058E3,3.181E3,2.587E3,4.675E3,6.944E3,7.36E3,6.98E2,2.187E3,9.94E2,1.492E3,1.095E3,4.162E3,5.13E2,2.78E3,4.164E3,4.282E3,3.078E3,2.01E2,4.97E2,1.093E3,1.094E3,1.99E2,7.95E2,5.97E2,8.95E2,6.95E2,4E2],"tree_param":{"num_deleted":"0","num_feature":"200","num_nodes":"31","size_leaf_vector":"1"}},{"base_weights":[3.410747E-3,-2.3917122E1,8.340054E1,-3.3485485E1,-9.060102E0,5.3476974E1,1.2164612E2,-4.163544E1,-2.7934782E1,-1.261513E1,2.2091383E1,4.1577194E1,7.6172554E1,1.08378716E2,1.4962456E2,-4.2453253E-1,-3.6643687E-1,-3.191882E-1,-2.5262335E-1,-1.5849753E-1,-6.457743E-2,1.4849353E-1,2.6389235E-1,3.765025E-1,5.131845E-1,6.8444335E-1,8.0493516E-1,9.936683E-1,1.2106988E0,1.4044838E0,1.6430932E0],"categories":[],"categories_nodes":[],"categories_segments":[],"categories_sizes":[],"default_left":[0,0,0,0,0,0,0,0,0,0,0,0,0,0,0,0,0,0,0,0,0,0,0,0,0,0,0,0,0,0,0],"id":14,"left_children":[1,3,5,7,9,11,13,15,17,19,21,23,25,27,29,-1,-1,-1,-1,-1,-1,-1,-1,-1,-1,-1,-1,-1,-1,-1,-1],"loss_changes":[5.0764316E7,2.810859E6,6.48478E6,5.42959E5,8.583263E5,8.56744E5,9.07704E5,1.8329E4,7.5406E4,1.3841912E5,2.43215E4,7.80555E4,3.10235E4,1.81486E5,8.4454E4,0E0,0E0,0E0,0E0,0E0,0E0,0E0,0E0,0E0,0E0,0E0,0E0,0E0,0E0,0E0,0E0],"parents":[2147483647,0,0,1,1,2,2,3,3,4,4,5,5,6,6,7,7,8,8,9,9,10,10,11,11,12,12,13,13,14,14],"right_children":[2,4,6,8,10,12,14,16,18,20,22,24,26,28,30,-1,-1,-1,-1,-1,-1,-1,-1,-1,-1,-1,-1,-1,-1,-1,-1],"split_conditions":[8.675E1,2.77E1,1.5285E2,1.17E1,5.56E1,1.1845E2,2.019E2,5.3E0,1.91E1,3.92E1,7.535E1,1.031E2,1.3745E2,1.7965E2,2.2645E2,-4.2453253E-1,-3.6643687E-1,-3.191882E-1,-2.5262335E-1,-1.5849753E-1,-6.457743E-2,1.4849353E-1,2.6389235E-1,3.765025E-1,5.131845E-1,6.8444335E-1,8.0493516E-1,9.936683E-1,1.2106988E0,1.4044838E0,1.6430932E0],"split_indices":[3,3,3,3,4,3,3,125,3,3,3,3,3,3,2,0,0,0,0,0,0,0,0,0,0,0,0,0,0,0,0],"split_type":[0,0,0,0,0,0,0,0,0,0,0,0,0,0,0,0,0,0,0,0,0,0,0,0,0,0,0,0,0,0,0],"sum_hessian":[2.5445E4,1.9774E4,5.671E3,1.2027E4,7.747E3,3.183E3,2.488E3,4.87E3,7.157E3,6.954E3,7.93E2,2.09E3,1.093E3,1.691E3,7.97E2,4.178E3,6.92E2,2.869E3,4.288E3,4.558E3,2.396E3,2.97E2,4.96E2,1.493E3,5.97E2,3.98E2,6.95E2,9.94E2,6.97E2,4.97E2,3E2],"tree_param":{"num_deleted":"0","num_feature":"200","num_nodes":"31","size_leaf_vector":"1"}},{"base_weights":[3.6306453E-3,-2.3678009E1,8.256788E1,-3.315074E1,-8.969477E0,5.2932236E1,1.2041836E2,-4.108868E1,-2.756488E1,-1.2489297E1,2.1873493E1,4.1161846E1,7.540155E1,1.0728427E2,1.4813213E2,-4.1961336E-1,-3.5629088E-1,-3.150409E-1,-2.500977E-1,-1.558147E-1,-6.175154E-2,1.46884E-1,2.6114655E-1,3.6320388E-1,4.8897898E-1,6.77616E-1,7.967915E-1,9.83628E-1,1.1986091E0,1.390467E0,1.6267169E0],"categories":[],"categories_nodes":[],"categories_segments":[],"categories_sizes":[],"default_left":[0,0,0,0,0,0,0,0,0,0,0,0,0,0,0,0,0,0,0,0,0,0,0,0,0,0,0,0,0,0,0],"id":15,"left_children":[1,3,5,7,9,11,13,15,17,19,21,23,25,27,29,-1,-1,-1,-1,-1,-1,-1,-1,-1,-1,-1,-1,-1,-1,-1,-1],"loss_changes":[4.975542E7,2.754953E6,6.356044E6,5.32192E5,8.414094E5,8.38713E5,8.90456E5,2.21645E4,7.0302E4,1.3569625E5,2.3812094E4,7.653975E4,3.03205E4,1.78168E5,8.2796E4,0E0,0E0,0E0,0E0,0E0,0E0,0E0,0E0,0E0,0E0,0E0,0E0,0E0,0E0,0E0,0E0],"parents":[2147483647,0,0,1,1,2,2,3,3,4,4,5,5,6,6,7,7,8,8,9,9,10,10,11,11,12,12,13,13,14,14],"right_children":[2,4,6,8,10,12,14,16,18,20,22,24,26,28,30,-1,-1,-1,-1,-1,-1,-1,-1,-1,-1,-1,-1,-1,-1,-1,-1],"split_conditions":[8.675E1,2.77E1,1.5445E2,1.215E1,5.68E1,1.1845E2,2.019E2,7.3E0,1.91E1,3.955E1,7.65E1,1.014E2,1.3745E2,1.7965E2,2.2645E2,-4.1961336E-1,-3.5629088E-1,-3.150409E-1,-2.500977E-1,-1.558147E-1,-6.175154E-2,1.46884E-1,2.6114655E-1,3.6320388E-1,4.8897898E-1,6.77616E-1,7.967915E-1,9.83628E-1,1.1986091E0,1.390467E0,1.6267169E0],"split_indices":[3,3,1,1,1,3,3,6,3,3,1,3,3,3,2,0,0,0,0,0,0,0,0,0,0,0,0,0,0,0,0],"split_type":[0,0,0,0,0,0,0,0,0,0,0,0,0,0,0,0,0,0,0,0,0,0,0,0,0,0,0,0,0,0,0],"sum_hessian":[2.5445E4,1.9774E4,5.671E3,1.2027E4,7.747E3,3.182E3,2.489E3,4.965E3,7.062E3,6.954E3,7.93E2,2.09E3,1.092E3,1.692E3,7.97E2,4.275E3,6.9E2,2.774E3,4.288E3,4.667E3,2.287E3,2.96E2,4.97E2,1.289E3,8.01E2,3.98E2,6.94E2,9.95E2,6.97E2,4.97E2,3E2],"tree_param":{"num_deleted":"0","num_feature":"200","num_nodes":"31","size_leaf_vector":"1"}},{"base_weights":[3.8452644E-3,-2.3704563E1,8.083674E1,-3.3320305E1,-1.0095876E1,5.06566E1,1.1790995E2,-4.1077816E1,-2.8023039E1,-1.3188993E1,1.8409899E1,4.0205856E1,7.359732E1,9.997238E1,1.3871854E2,-4.161991E-1,-3.660734E-1,-3.1810477E-1,-2.5430775E-1,-1.6942538E-1,-7.990122E-2,5.7463583E-2,2.269226E-1,3.3933252E-1,4.6453178E-1,6.2505513E-1,7.6291746E-1,9.001823E-1,1.073374E0,1.2704633E0,1.5471213E0],"categories":[],"categories_nodes":[],"categories_segments":[],"categories_sizes":[],"default_left":[0,0,0,0,0,0,0,0,0,0,0,0,0,0,0,0,0,0,0,0,0,0,0,0,0,0,0,0,0,0,0],"id":16,"left_children":[1,3,5,7,9,11,13,15,17,19,21,23,25,27,29,-1,-1,-1,-1,-1,-1,-1,-1,-1,-1,-1,-1,-1,-1,-1,-1],"loss_changes":[4.876712E7,2.574418E6,6.451052E6,4.72617E5,7.18666E5,7.60158E5,9.52492E5,9.8085E3,6.64845E4,1.4331362E5,4.3145062E4,8.420375E4,2.49675E4,9.2534E4,2.03614E5,0E0,0E0,0E0,0E0,0E0,0E0,0E0,0E0,0E0,0E0,0E0,0E0,0E0,0E0,0E0,0E0],"parents":[2147483647,0,0,1,1,2,2,3,3,4,4,5,5,6,6,7,7,8,8,9,9,10,10,11,11,12,12,13,13,14,14],"right_children":[2,4,6,8,10,12,14,16,18,20,22,24,26,28,30,-1,-1,-1,-1,-1,-1,-1,-1,-1,-1,-1,-1,-1,-1,-1,-1],"split_conditions":[8.585E1,2.53E1,1.5095E2,1.035E1,5.245E1,1.1695E2,1.902E2,5.15E0,1.745E1,3.63E1,6.745E1,9.795E1,1.328E2,1.6705E2,2.1485E2,-4.161991E-1,-3.660734E-1,-3.1810477E-1,-2.5430775E-1,-1.6942538E-1,-7.990122E-2,5.7463583E-2,2.269226E-1,3.3933252E-1,4.6453178E-1,6.2505513E-1,7.6291746E-1,9.001823E-1,1.073374E0,1.2704633E0,1.5471213E0],"split_indices":[1,3,1,3,3,2,3,106,3,3,3,3,3,3,3,0,0,0,0,0,0,0,0,0,0,0,0,0,0,0,0],"split_type":[0,0,0,0,0,0,0,0,0,0,0,0,0,0,0,0,0,0,0,0,0,0,0,0,0,0,0,0,0,0,0],"sum_hessian":[2.5445E4,1.9675E4,5.77E3,1.1528E4,8.147E3,3.182E3,2.588E3,4.675E3,6.853E3,7.35E3,7.97E2,2.188E3,9.94E2,1.393E3,1.195E3,4.162E3,5.13E2,2.78E3,4.073E3,4.267E3,3.083E3,2.02E2,5.95E2,1.095E3,1.093E3,1.99E2,7.95E2,5.98E2,7.95E2,6.96E2,4.99E2],"tree_param":{"num_deleted":"0","num_feature":"200","num_nodes":"31","size_leaf_vector":"1"}},{"base_weights":[4.029572E-3,-2.3207193E1,8.092821E1,-3.2400143E1,-8.641752E0,5.189025E1,1.1804188E2,-4.027274E1,-2.693385E1,-1.2121921E1,2.1437088E1,4.034511E1,7.390945E1,1.0396784E2,1.4290463E2,-4.1127047E-1,-3.49279E-1,-3.0777386E-1,-2.4364623E-1,-1.5061885E-1,-5.8289375E-2,1.439123E-1,2.5618634E-1,3.651311E-1,4.9851233E-1,6.6397154E-1,7.8109866E-1,9.4154036E-1,1.136512E0,1.3197503E0,1.5615474E0],"categories":[],"categories_nodes":[],"categories_segments":[],"categories_sizes":[],"default_left":[0,0,0,0,0,0,0,0,0,0,0,0,0,0,0,0,0,0,0,0,0,0,0,0,0,0,0,0,0,0,0],"id":17,"left_children":[1,3,5,7,9,11,13,15,17,19,21,23,25,27,29,-1,-1,-1,-1,-1,-1,-1,-1,-1,-1,-1,-1,-1,-1,-1,-1],"loss_changes":[4.779835E7,2.64758E6,6.10662E6,5.20615E5,8.013717E5,8.06438E5,8.56092E5,2.1239E4,6.9935E4,1.26830125E5,2.3024625E4,7.43495E4,2.9335E4,1.40682E5,1.09292E5,0E0,0E0,0E0,0E0,0E0,0E0,0E0,0E0,0E0,0E0,0E0,0E0,0E0,0E0,0E0,0E0],"parents":[2147483647,0,0,1,1,2,2,3,3,4,4,5,5,6,6,7,7,8,8,9,9,10,10,11,11,12,12,13,13,14,14],"right_children":[2,4,6,8,10,12,14,16,18,20,22,24,26,28,30,-1,-1,-1,-1,-1,-1,-1,-1,-1,-1,-1,-1,-1,-1,-1,-1],"split_conditions":[8.675E1,2.8E1,1.5285E2,1.215E1,5.56E1,1.1845E2,1.982E2,7.3E0,1.93E1,3.985E1,7.43E1,1.031E2,1.3745E2,1.744E2,2.2205E2,-4.1127047E-1,-3.49279E-1,-3.0777386E-1,-2.4364623E-1,-1.5061885E-1,-5.8289375E-2,1.439123E-1,2.5618634E-1,3.651311E-1,4.9851233E-1,6.6397154E-1,7.8109866E-1,9.4154036E-1,1.136512E0,1.3197503E0,1.5615474E0],"split_indices":[3,3,3,1,3,0,3,6,3,3,2,3,3,3,3,0,0,0,0,0,0,0,0,0,0,0,0,0,0,0,0],"split_type":[0,0,0,0,0,0,0,0,0,0,0,0,0,0,0,0,0,0,0,0,0,0,0,0,0,0,0,0,0,0,0],"sum_hessian":[2.5445E4,1.9774E4,5.671E3,1.2122E4,7.652E3,3.183E3,2.488E3,4.965E3,7.157E3,6.859E3,7.93E2,2.09E3,1.093E3,1.592E3,8.96E2,4.275E3,6.9E2,2.863E3,4.294E3,4.674E3,2.185E3,2.97E2,4.96E2,1.493E3,5.97E2,3.98E2,6.95E2,7.96E2,7.96E2,4.97E2,3.99E2],"tree_param":{"num_deleted":"0","num_feature":"200","num_nodes":"31","size_leaf_vector":"1"}},{"base_weights":[4.2304294E-3,-2.3227943E1,7.924894E1,-3.265919E1,-9.883639E0,4.967257E1,1.15583084E2,-4.0261326E1,-2.7468027E1,-1.2925171E1,1.8076591E1,3.942537E1,7.215618E1,9.930914E1,1.3764641E2,-4.0792072E-1,-3.5874808E-1,-3.1180495E-1,-2.4927072E-1,-1.6705142E-1,-7.948205E-2,5.6485675E-2,2.226524E-1,3.3777598E-1,4.613822E-1,6.12898E-1,7.479578E-1,8.821886E-1,1.0660007E0,1.2769746E0,1.5457118E0],"categories":[],"categories_nodes":[],"categories_segments":[],"categories_sizes":[],"default_left":[0,0,0,0,0,0,0,0,0,0,0,0,0,0,0,0,0,0,0,0,0,0,0,0,0,0,0,0,0,0,0],"id":18,"left_children":[1,3,5,7,9,11,13,15,17,19,21,23,25,27,29,-1,-1,-1,-1,-1,-1,-1,-1,-1,-1,-1,-1,-1,-1,-1,-1],"loss_changes":[4.6848612E7,2.476222E6,6.193808E6,4.53874E5,6.9332544E5,7.3027E5,9.15572E5,9.4225E3,6.3878E4,1.3816012E5,4.1519547E4,8.13945E4,2.39555E4,1.11318E5,1.64812E5,0E0,0E0,0E0,0E0,0E0,0E0,0E0,0E0,0E0,0E0,0E0,0E0,0E0,0E0,0E0,0E0],"parents":[2147483647,0,0,1,1,2,2,3,3,4,4,5,5,6,6,7,7,8,8,9,9,10,10,11,11,12,12,13,13,14,14],"right_children":[2,4,6,8,10,12,14,16,18,20,22,24,26,28,30,-1,-1,-1,-1,-1,-1,-1,-1,-1,-1,-1,-1,-1,-1,-1,-1],"split_conditions":[8.49E1,2.53E1,1.4955E2,1.035E1,5.245E1,1.1845E2,1.9255E2,5.15E0,1.745E1,3.6E1,6.745E1,9.825E1,1.3415E2,1.6705E2,2.24E2,-4.0792072E-1,-3.5874808E-1,-3.1180495E-1,-2.4927072E-1,-1.6705142E-1,-7.948205E-2,5.6485675E-2,2.226524E-1,3.3777598E-1,4.613822E-1,6.12898E-1,7.479578E-1,8.821886E-1,1.0660007E0,1.2769746E0,1.5457118E0],"split_indices":[3,3,3,3,3,3,3,110,3,3,3,2,1,3,1,0,0,0,0,0,0,0,0,0,0,0,0,0,0,0,0],"split_type":[0,0,0,0,0,0,0,0,0,0,0,0,0,0,0,0,0,0,0,0,0,0,0,0,0,0,0,0,0,0,0],"sum_hessian":[2.5445E4,1.9677E4,5.768E3,1.1528E4,8.149E3,3.181E3,2.587E3,4.675E3,6.853E3,7.35E3,7.99E2,2.187E3,9.94E2,1.492E3,1.095E3,4.163E3,5.12E2,2.78E3,4.073E3,4.176E3,3.174E3,2.02E2,5.97E2,1.191E3,9.96E2,1.99E2,7.95E2,5.97E2,8.95E2,6.95E2,4E2],"tree_param":{"num_deleted":"0","num_feature":"200","num_nodes":"31","size_leaf_vector":"1"}},{"base_weights":[4.4101416E-3,-2.274576E1,7.932116E1,-3.1669546E1,-8.326136E0,5.084902E1,1.1568562E2,-3.947301E1,-2.6320074E1,-1.1766652E1,2.1011074E1,3.9536762E1,7.2413704E1,1.0304254E2,1.4236365E2,-4.0309334E-1,-3.4240597E-1,-3.0044252E-1,-2.3718406E-1,-1.4658266E-1,-5.6989323E-2,1.4088255E-1,2.5119704E-1,3.5777664E-1,4.8877725E-1,6.3318264E-1,7.575486E-1,9.336573E-1,1.1380421E0,1.3358221E0,1.5641942E0],"categories":[],"categories_nodes":[],"categories_segments":[],"categories_sizes":[],"default_left":[0,0,0,0,0,0,0,0,0,0,0,0,0,0,0,0,0,0,0,0,0,0,0,0,0,0,0,0,0,0,0],"id":19,"left_children":[1,3,5,7,9,11,13,15,17,19,21,23,25,27,29,-1,-1,-1,-1,-1,-1,-1,-1,-1,-1,-1,-1,-1,-1,-1,-1],"loss_changes":[4.591834E7,2.544337E6,5.86676E6,5.08869E5,7.63418E5,7.73615E5,8.2519E5,2.03505E4,6.9533E4,1.18664375E5,2.2230062E4,7.1639E4,2.8449E4,1.65682E5,7.7602E4,0E0,0E0,0E0,0E0,0E0,0E0,0E0,0E0,0E0,0E0,0E0,0E0,0E0,0E0,0E0,0E0],"parents":[2147483647,0,0,1,1,2,2,3,3,4,4,5,5,6,6,7,7,8,8,9,9,10,10,11,11,12,12,13,13,14,14],"right_children":[2,4,6,8,10,12,14,16,18,20,22,24,26,28,30,-1,-1,-1,-1,-1,-1,-1,-1,-1,-1,-1,-1,-1,-1,-1,-1],"split_conditions":[8.675E1,2.825E1,1.5445E2,1.215E1,5.56E1,1.1695E2,2.019E2,7.3E0,1.95E1,3.985E1,7.535E1,1.031E2,1.3585E2,1.7695E2,2.3195E2,-4.0309334E-1,-3.4240597E-1,-3.0044252E-1,-2.3718406E-1,-1.4658266E-1,-5.6989323E-2,1.4088255E-1,2.5119704E-1,3.5777664E-1,4.8877725E-1,6.3318264E-1,7.575486E-1,9.336573E-1,1.1380421E0,1.3358221E0,1.5641942E0],"split_indices":[3,3,1,1,4,2,3,6,3,3,3,3,3,3,1,0,0,0,0,0,0,0,0,0,0,0,0,0,0,0,0],"split_type":[0,0,0,0,0,0,0,0,0,0,0,0,0,0,0,0,0,0,0,0,0,0,0,0,0,0,0,0,0,0,0],"sum_hessian":[2.5445E4,1.9774E4,5.671E3,1.2214E4,7.56E3,3.182E3,2.489E3,4.965E3,7.249E3,6.767E3,7.93E2,2.089E3,1.093E3,1.692E3,7.97E2,4.275E3,6.9E2,2.977E3,4.272E3,4.582E3,2.185E3,2.97E2,4.96E2,1.493E3,5.96E2,2.99E2,7.94E2,8.96E2,7.96E2,4.97E2,3E2],"tree_param":{"num_deleted":"0","num_feature":"200","num_nodes":"31","size_leaf_vector":"1"}},{"base_weights":[4.6059466E-3,-2.2518358E1,7.852922E1,-3.1440393E1,-8.38216E0,5.035078E1,1.1454434E2,-3.9085056E1,-2.614141E1,-1.1763567E1,2.0761147E1,3.9149086E1,7.171494E1,9.9644684E1,1.367044E2,-3.9905655E-1,-3.390434E-1,-2.9968983E-1,-2.370829E-1,-1.47151E-1,-5.8540624E-2,1.3867031E-1,2.4858695E-1,3.5837194E-1,4.958834E-1,6.440079E-1,7.580493E-1,9.011465E-1,1.0786426E0,1.2653393E0,1.5153046E0],"categories":[],"categories_nodes":[],"categories_segments":[],"categories_sizes":[],"default_left":[0,0,0,0,0,0,0,0,0,0,0,0,0,0,0,0,0,0,0,0,0,0,0,0,0,0,0,0,0,0,0],"id":20,"left_children":[1,3,5,7,9,11,13,15,17,19,21,23,25,27,29,-1,-1,-1,-1,-1,-1,-1,-1,-1,-1,-1,-1,-1,-1,-1,-1],"loss_changes":[4.5005744E7,2.493831E6,5.750464E6,4.90067E5,7.544121E5,7.59171E5,8.08192E5,1.9738E4,6.5998E4,1.1953175E5,2.21415E4,7.051675E4,2.78445E4,1.07152E5,1.31312E5,0E0,0E0,0E0,0E0,0E0,0E0,0E0,0E0,0E0,0E0,0E0,0E0,0E0,0E0,0E0,0E0],"parents":[2147483647,0,0,1,1,2,2,3,3,4,4,5,5,6,6,7,7,8,8,9,9,10,10,11,11,12,12,13,13,14,14],"right_children":[2,4,6,8,10,12,14,16,18,20,22,24,26,28,30,-1,-1,-1,-1,-1,-1,-1,-1,-1,-1,-1,-1,-1,-1,-1,-1],"split_conditions":[8.675E1,2.8E1,1.5285E2,1.205E1,5.485E1,1.1845E2,1.957E2,7.05E0,1.91E1,3.955E1,7.65E1,1.055E2,1.3745E2,1.7195E2,2.1945E2,-3.9905655E-1,-3.390434E-1,-2.9968983E-1,-2.370829E-1,-1.47151E-1,-5.8540624E-2,1.3867031E-1,2.4858695E-1,3.5837194E-1,4.958834E-1,6.440079E-1,7.580493E-1,9.011465E-1,1.0786426E0,1.2653393E0,1.5153046E0],"split_indices":[3,3,3,3,10,0,3,22,3,3,1,3,3,3,2,0,0,0,0,0,0,0,0,0,0,0,0,0,0,0,0],"split_type":[0,0,0,0,0,0,0,0,0,0,0,0,0,0,0,0,0,0,0,0,0,0,0,0,0,0,0,0,0,0,0],"sum_hessian":[2.5445E4,1.9774E4,5.671E3,1.2122E4,7.652E3,3.183E3,2.488E3,4.96E3,7.162E3,6.857E3,7.95E2,2.09E3,1.093E3,1.491E3,9.97E2,4.276E3,6.84E2,2.779E3,4.383E3,4.572E3,2.285E3,2.98E2,4.97E2,1.59E3,5E2,3.98E2,6.95E2,6.96E2,7.95E2,5.97E2,4E2],"tree_param":{"num_deleted":"0","num_feature":"200","num_nodes":"31","size_leaf_vector":"1"}},{"base_weights":[4.7926577E-3,-2.2543615E1,7.6882706E1,-3.1693125E1,-9.594764E0,4.8174007E1,1.12148415E2,-3.9067215E1,-2.6657679E1,-1.2538371E1,1.7533121E1,3.7508926E1,6.850476E1,9.504557E1,1.319889E2,-3.9582887E-1,-3.4814638E-1,-3.0380222E-1,-2.4269052E-1,-1.6216797E-1,-7.6951206E-2,5.4764513E-2,2.158323E-1,3.1615657E-1,4.281467E-1,5.747666E-1,7.256116E-1,8.5551167E-1,1.0207082E0,1.2086211E0,1.4723567E0],"categories":[],"categories_nodes":[],"categories_segments":[],"categories_sizes":[],"default_left":[0,0,0,0,0,0,0,0,0,0,0,0,0,0,0,0,0,0,0,0,0,0,0,0,0,0,0,0,0,0,0],"id":21,"left_children":[1,3,5,7,9,11,13,15,17,19,21,23,25,27,29,-1,-1,-1,-1,-1,-1,-1,-1,-1,-1,-1,-1,-1,-1,-1,-1],"loss_changes":[4.411173E7,2.330823E6,5.837344E6,4.27051E5,6.5086894E5,6.87598E5,8.65978E5,8.8765E3,6.0207E4,1.3083725E5,3.884878E4,6.3997E4,4.4769E4,8.4247E4,1.85104E5,0E0,0E0,0E0,0E0,0E0,0E0,0E0,0E0,0E0,0E0,0E0,0E0,0E0,0E0,0E0,0E0],"parents":[2147483647,0,0,1,1,2,2,3,3,4,4,5,5,6,6,7,7,8,8,9,9,10,10,11,11,12,12,13,13,14,14],"right_children":[2,4,6,8,10,12,14,16,18,20,22,24,26,28,30,-1,-1,-1,-1,-1,-1,-1,-1,-1,-1,-1,-1,-1,-1,-1,-1],"split_conditions":[8.395E1,2.53E1,1.5095E2,1.035E1,5.245E1,1.1355E2,1.902E2,5.15E0,1.7E1,3.6E1,6.85E1,9.675E1,1.328E2,1.6705E2,2.1485E2,-3.9582887E-1,-3.4814638E-1,-3.0380222E-1,-2.4269052E-1,-1.6216797E-1,-7.6951206E-2,5.4764513E-2,2.158323E-1,3.1615657E-1,4.281467E-1,5.747666E-1,7.256116E-1,8.5551167E-1,1.0207082E0,1.2086211E0,1.4723567E0],"split_indices":[2,3,1,3,3,2,3,106,3,3,1,3,3,3,3,0,0,0,0,0,0,0,0,0,0,0,0,0,0,0,0],"split_type":[0,0,0,0,0,0,0,0,0,0,0,0,0,0,0,0,0,0,0,0,0,0,0,0,0,0,0,0,0,0,0],"sum_hessian":[2.5445E4,1.9675E4,5.77E3,1.1528E4,8.147E3,3.182E3,2.588E3,4.675E3,6.853E3,7.35E3,7.97E2,2.089E3,1.093E3,1.393E3,1.195E3,4.162E3,5.13E2,2.674E3,4.179E3,4.176E3,3.174E3,2.01E2,5.96E2,9.93E2,1.096E3,2.98E2,7.95E2,5.98E2,7.95E2,6.96E2,4.99E2],"tree_param":{"num_deleted":"0","num_feature":"200","num_nodes":"31","size_leaf_vector":"1"}},{"base_weights":[4.9543893E-3,-2.2070576E1,7.696962E1,-3.0643183E1,-7.9299927E0,4.935003E1,1.1227047E2,-3.8177532E1,-2.5373123E1,-1.1298982E1,2.0389687E1,3.8370354E1,7.029075E1,9.998316E1,1.3818257E2,-3.9112228E-1,-3.3062366E-1,-2.89695E-1,-2.2868982E-1,-1.3937837E-1,-5.1099915E-2,1.3653821E-1,2.438747E-1,3.4700176E-1,4.747549E-1,6.527302E-1,7.612126E-1,9.161342E-1,1.11771E0,1.2962289E0,1.5188534E0],"categories":[],"categories_nodes":[],"categories_segments":[],"categories_sizes":[],"default_left":[0,0,0,0,0,0,0,0,0,0,0,0,0,0,0,0,0,0,0,0,0,0,0,0,0,0,0,0,0,0,0],"id":22,"left_children":[1,3,5,7,9,11,13,15,17,19,21,23,25,27,29,-1,-1,-1,-1,-1,-1,-1,-1,-1,-1,-1,-1,-1,-1,-1,-1],"loss_changes":[4.323536E7,2.396915E6,5.524632E6,4.87858E5,7.124563E5,7.293765E5,7.78656E5,2.29235E4,6.4603E4,1.0889481E5,2.1048281E4,6.822875E4,2.7037E4,1.56696E5,7.391E4,0E0,0E0,0E0,0E0,0E0,0E0,0E0,0E0,0E0,0E0,0E0,0E0,0E0,0E0,0E0,0E0],"parents":[2147483647,0,0,1,1,2,2,3,3,4,4,5,5,6,6,7,7,8,8,9,9,10,10,11,11,12,12,13,13,14,14],"right_children":[2,4,6,8,10,12,14,16,18,20,22,24,26,28,30,-1,-1,-1,-1,-1,-1,-1,-1,-1,-1,-1,-1,-1,-1,-1,-1],"split_conditions":[8.675E1,2.85E1,1.5285E2,1.235E1,5.68E1,1.1845E2,2.019E2,7.05E0,1.97E1,4.04E1,7.43E1,1.0225E2,1.4065E2,1.7965E2,2.2645E2,-3.9112228E-1,-3.3062366E-1,-2.89695E-1,-2.2868982E-1,-1.3937837E-1,-5.1099915E-2,1.3653821E-1,2.438747E-1,3.4700176E-1,4.747549E-1,6.527302E-1,7.612126E-1,9.161342E-1,1.11771E0,1.2962289E0,1.5188534E0],"split_indices":[3,3,3,3,1,3,3,22,3,3,2,2,3,3,2,0,0,0,0,0,0,0,0,0,0,0,0,0,0,0,0],"split_type":[0,0,0,0,0,0,0,0,0,0,0,0,0,0,0,0,0,0,0,0,0,0,0,0,0,0,0,0,0,0,0],"sum_hessian":[2.5445E4,1.9774E4,5.671E3,1.231E4,7.464E3,3.183E3,2.488E3,5.064E3,7.246E3,6.671E3,7.93E2,2.09E3,1.093E3,1.691E3,7.97E2,4.276E3,7.88E2,2.97E3,4.276E3,4.676E3,1.995E3,2.97E2,4.96E2,1.493E3,5.97E2,5.94E2,4.99E2,9.94E2,6.97E2,4.97E2,3E2],"tree_param":{"num_deleted":"0","num_feature":"200","num_nodes":"31","size_leaf_vector":"1"}},{"base_weights":[5.1420894E-3,-2.20953E1,7.535574E1,-3.1064707E1,-9.401341E0,4.6236214E1,1.0876042E2,-3.8290825E1,-2.6130304E1,-1.2286908E1,1.7191643E1,3.676231E1,6.606977E1,9.215896E1,1.2937968E2,-3.8844508E-1,-3.4472016E-1,-2.9780993E-1,-2.3787785E-1,-1.6011405E-1,-7.674582E-2,5.416988E-2,2.1173292E-1,3.0973753E-1,4.1993946E-1,5.631279E-1,7.015468E-1,8.300266E-1,1.0006069E0,1.184628E0,1.4433905E0],"categories":[],"categories_nodes":[],"categories_segments":[],"categories_sizes":[],"default_left":[0,0,0,0,0,0,0,0,0,0,0,0,0,0,0,0,0,0,0,0,0,0,0,0,0,0,0,0,0,0,0],"id":23,"left_children":[1,3,5,7,9,11,13,15,17,19,21,23,25,27,29,-1,-1,-1,-1,-1,-1,-1,-1,-1,-1,-1,-1,-1,-1,-1,-1],"loss_changes":[4.237642E7,2.239964E6,5.608588E6,4.10084E5,6.2545475E5,5.77246E5,9.07864E5,8.5475E3,5.79055E4,1.26157E5,3.7297562E4,6.199225E4,3.5746E4,9.9642E4,1.78218E5,0E0,0E0,0E0,0E0,0E0,0E0,0E0,0E0,0E0,0E0,0E0,0E0,0E0,0E0,0E0,0E0],"parents":[2147483647,0,0,1,1,2,2,3,3,4,4,5,5,6,6,7,7,8,8,9,9,10,10,11,11,12,12,13,13,14,14],"right_children":[2,4,6,8,10,12,14,16,18,20,22,24,26,28,30,-1,-1,-1,-1,-1,-1,-1,-1,-1,-1,-1,-1,-1,-1,-1,-1],"split_conditions":[8.585E1,2.53E1,1.4735E2,1.035E1,5.245E1,1.1355E2,1.902E2,4.45E0,1.7E1,3.565E1,6.745E1,9.585E1,1.328E2,1.6705E2,2.1485E2,-3.8844508E-1,-3.4472016E-1,-2.9780993E-1,-2.3787785E-1,-1.6011405E-1,-7.674582E-2,5.416988E-2,2.1173292E-1,3.0973753E-1,4.1993946E-1,5.631279E-1,7.015468E-1,8.300266E-1,1.0006069E0,1.184628E0,1.4433905E0],"split_indices":[1,3,3,3,3,2,3,2,3,3,3,2,3,3,3,0,0,0,0,0,0,0,0,0,0,0,0,0,0,0,0],"split_type":[0,0,0,0,0,0,0,0,0,0,0,0,0,0,0,0,0,0,0,0,0,0,0,0,0,0,0,0,0,0,0],"sum_hessian":[2.5445E4,1.9675E4,5.77E3,1.1528E4,8.147E3,3.084E3,2.686E3,4.675E3,6.853E3,7.35E3,7.97E2,2.089E3,9.95E2,1.491E3,1.195E3,4.075E3,6E2,2.674E3,4.179E3,4.065E3,3.285E3,2.02E2,5.95E2,9.95E2,1.094E3,2.98E2,6.97E2,6.96E2,7.95E2,6.96E2,4.99E2],"tree_param":{"num_deleted":"0","num_feature":"200","num_nodes":"31","size_leaf_vector":"1"}},{"base_weights":[5.295187E-3,-2.163169E1,7.544101E1,-3.003587E1,-7.76893E0,4.9303135E1,1.1128754E2,-3.7419674E1,-2.4871113E1,-1.1070392E1,1.9983116E1,3.836429E1,7.120581E1,9.911666E1,1.3545932E2,-3.8335615E-1,-3.2414612E-1,-2.839601E-1,-2.241674E-1,-1.366324E-1,-4.9893193E-2,1.3359144E-1,2.3914626E-1,3.4401897E-1,4.878991E-1,6.6709715E-1,7.643466E-1,9.187269E-1,1.1106032E0,1.2703847E0,1.4894147E0],"categories":[],"categories_nodes":[],"categories_segments":[],"categories_sizes":[],"default_left":[0,0,0,0,0,0,0,0,0,0,0,0,0,0,0,0,0,0,0,0,0,0,0,0,0,0,0,0,0,0,0],"id":24,"left_children":[1,3,5,7,9,11,13,15,17,19,21,23,25,27,29,-1,-1,-1,-1,-1,-1,-1,-1,-1,-1,-1,-1,-1,-1,-1,-1],"loss_changes":[4.1534628E7,2.303657E6,5.308904E6,4.68556E5,6.8418194E5,7.83603E5,6.89988E5,2.1977E4,6.206E4,1.0513125E5,2.0358031E4,8.883275E4,2.05735E4,1.27708E5,7.1677E4,0E0,0E0,0E0,0E0,0E0,0E0,0E0,0E0,0E0,0E0,0E0,0E0,0E0,0E0,0E0,0E0],"parents":[2147483647,0,0,1,1,2,2,3,3,4,4,5,5,6,6,7,7,8,8,9,9,10,10,11,11,12,12,13,13,14,14],"right_children":[2,4,6,8,10,12,14,16,18,20,22,24,26,28,30,-1,-1,-1,-1,-1,-1,-1,-1,-1,-1,-1,-1,-1,-1,-1,-1],"split_conditions":[8.675E1,2.85E1,1.5715E2,1.235E1,5.56E1,1.2695E2,2.019E2,7.3E0,1.97E1,4.04E1,7.535E1,1.055E2,1.4265E2,1.827E2,2.3195E2,-3.8335615E-1,-3.2414612E-1,-2.839601E-1,-2.241674E-1,-1.366324E-1,-4.9893193E-2,1.3359144E-1,2.3914626E-1,3.4401897E-1,4.878991E-1,6.6709715E-1,7.643466E-1,9.187269E-1,1.1106032E0,1.2703847E0,1.4894147E0],"split_indices":[3,3,1,3,0,1,3,6,3,3,3,3,3,3,1,0,0,0,0,0,0,0,0,0,0,0,0,0,0,0,0],"split_type":[0,0,0,0,0,0,0,0,0,0,0,0,0,0,0,0,0,0,0,0,0,0,0,0,0,0,0,0,0,0,0],"sum_hessian":[2.5445E4,1.9774E4,5.671E3,1.231E4,7.464E3,3.281E3,2.39E3,5.064E3,7.246E3,6.671E3,7.93E2,2.19E3,1.091E3,1.593E3,7.97E2,4.275E3,7.89E2,2.97E3,4.276E3,4.676E3,1.995E3,2.97E2,4.96E2,1.59E3,6E2,5.94E2,4.97E2,9.97E2,5.96E2,4.97E2,3E2],"tree_param":{"num_deleted":"0","num_feature":"200","num_nodes":"31","size_leaf_vector":"1"}},{"base_weights":[5.4786587E-3,-2.1415497E1,7.4688095E1,-3.0094587E1,-8.257783E0,4.881123E1,1.1017667E2,-3.7282272E1,-2.5117208E1,-1.1411243E1,1.974549E1,3.722965E1,6.9086624E1,9.812677E1,1.3410818E2,-3.801831E-1,-3.283271E-1,-2.879236E-1,-2.2853124E-1,-1.4803E-1,-6.499343E-2,1.3153572E-1,2.3663637E-1,3.277055E-1,4.4355595E-1,6.333281E-1,7.4696046E-1,9.095489E-1,1.0995158E0,1.2576946E0,1.4745893E0],"categories":[],"categories_nodes":[],"categories_segments":[],"categories_sizes":[],"default_left":[0,0,0,0,0,0,0,0,0,0,0,0,0,0,0,0,0,0,0,0,0,0,0,0,0,0,0,0,0,0,0],"id":25,"left_children":[1,3,5,7,9,11,13,15,17,19,21,23,25,27,29,-1,-1,-1,-1,-1,-1,-1,-1,-1,-1,-1,-1,-1,-1,-1,-1],"loss_changes":[4.0709456E7,2.257997E6,5.20341E6,4.25333E5,6.944082E5,7.68111E5,6.76338E5,1.4711E4,5.7946E4,1.1762319E5,2.0247906E4,6.49885E4,3.3742E4,1.2518E5,7.0293E4,0E0,0E0,0E0,0E0,0E0,0E0,0E0,0E0,0E0,0E0,0E0,0E0,0E0,0E0,0E0,0E0],"parents":[2147483647,0,0,1,1,2,2,3,3,4,4,5,5,6,6,7,7,8,8,9,9,10,10,11,11,12,12,13,13,14,14],"right_children":[2,4,6,8,10,12,14,16,18,20,22,24,26,28,30,-1,-1,-1,-1,-1,-1,-1,-1,-1,-1,-1,-1,-1,-1,-1,-1],"split_conditions":[8.755E1,2.725E1,1.5715E2,1.17E1,5.485E1,1.1845E2,2.019E2,5.2E0,1.795E1,3.73E1,7.65E1,1.014E2,1.4065E2,1.827E2,2.2935E2,-3.801831E-1,-3.283271E-1,-2.879236E-1,-2.2853124E-1,-1.4803E-1,-6.499343E-2,1.3153572E-1,2.3663637E-1,3.277055E-1,4.4355595E-1,6.333281E-1,7.4696046E-1,9.095489E-1,1.0995158E0,1.2576946E0,1.4745893E0],"split_indices":[1,3,1,0,10,0,3,136,2,3,1,3,3,3,3,0,0,0,0,0,0,0,0,0,0,0,0,0,0,0,0],"split_type":[0,0,0,0,0,0,0,0,0,0,0,0,0,0,0,0,0,0,0,0,0,0,0,0,0,0,0,0,0,0,0],"sum_hessian":[2.5445E4,1.9774E4,5.671E3,1.1914E4,7.86E3,3.281E3,2.39E3,4.872E3,7.042E3,7.065E3,7.95E2,2.09E3,1.191E3,1.593E3,7.97E2,4.174E3,6.98E2,2.68E3,4.362E3,4.178E3,2.887E3,2.98E2,4.97E2,1.289E3,8.01E2,5.94E2,5.97E2,9.97E2,5.96E2,4.97E2,3E2],"tree_param":{"num_deleted":"0","num_feature":"200","num_nodes":"31","size_leaf_vector":"1"}},{"base_weights":[5.652514E-3,-2.0970495E1,7.475763E1,-2.9334553E1,-6.9976087E0,4.8978565E1,1.0907688E2,-3.6550613E1,-2.4194212E1,-1.0710043E1,2.0344612E1,3.81021E1,6.9800186E1,9.714677E1,1.3277052E2,-3.757281E-1,-3.1613895E-1,-2.7639627E-1,-2.1803594E-1,-1.3262302E-1,-4.87642E-2,1.3102801E-1,2.3949525E-1,3.4166566E-1,4.782843E-1,6.539237E-1,7.492639E-1,9.0046257E-1,1.088539E0,1.2450836E0,1.4599905E0],"categories":[],"categories_nodes":[],"categories_segments":[],"categories_sizes":[],"default_left":[0,0,0,0,0,0,0,0,0,0,0,0,0,0,0,0,0,0,0,0,0,0,0,0,0,0,0,0,0,0,0],"id":26,"left_children":[1,3,5,7,9,11,13,15,17,19,21,23,25,27,29,-1,-1,-1,-1,-1,-1,-1,-1,-1,-1,-1,-1,-1,-1,-1,-1],"loss_changes":[3.990111E7,2.322118E6,4.92785E6,4.60182E5,7.556269E5,7.1886E5,6.6296E5,2.48965E4,5.9212E4,9.750244E4,2.2920625E4,7.85585E4,1.9775E4,1.22702E5,6.904E4,0E0,0E0,0E0,0E0,0E0,0E0,0E0,0E0,0E0,0E0,0E0,0E0,0E0,0E0,0E0,0E0],"parents":[2147483647,0,0,1,1,2,2,3,3,4,4,5,5,6,6,7,7,8,8,9,9,10,10,11,11,12,12,13,13,14,14],"right_children":[2,4,6,8,10,12,14,16,18,20,22,24,26,28,30,-1,-1,-1,-1,-1,-1,-1,-1,-1,-1,-1,-1,-1,-1,-1,-1],"split_conditions":[8.79E1,2.895E1,1.5715E2,1.29E1,5.68E1,1.2695E2,2.019E2,7.05E0,2E1,4.04E1,7.43E1,1.055E2,1.4265E2,1.827E2,2.2645E2,-3.757281E-1,-3.1613895E-1,-2.7639627E-1,-2.1803594E-1,-1.3262302E-1,-4.87642E-2,1.3102801E-1,2.3949525E-1,3.4166566E-1,4.782843E-1,6.539237E-1,7.492639E-1,9.0046257E-1,1.088539E0,1.2450836E0,1.4599905E0],"split_indices":[3,3,1,1,1,1,3,22,3,3,2,3,3,3,2,0,0,0,0,0,0,0,0,0,0,0,0,0,0,0,0],"split_type":[0,0,0,0,0,0,0,0,0,0,0,0,0,0,0,0,0,0,0,0,0,0,0,0,0,0,0,0,0,0,0],"sum_hessian":[2.5445E4,1.987E4,5.575E3,1.2429E4,7.441E3,3.185E3,2.39E3,5.168E3,7.261E3,6.552E3,8.89E2,2.094E3,1.091E3,1.593E3,7.97E2,4.276E3,8.92E2,2.97E3,4.291E3,4.557E3,1.995E3,2.97E2,5.92E2,1.494E3,6E2,5.94E2,4.97E2,9.97E2,5.96E2,4.97E2,3E2],"tree_param":{"num_deleted":"0","num_feature":"200","num_nodes":"31","size_leaf_vector":"1"}},{"base_weights":[5.8286027E-3,-2.1225416E1,7.239293E1,-2.9846355E1,-9.024627E0,4.4413754E1,1.0448946E2,-3.678475E1,-2.5108423E1,-1.1798346E1,1.6537563E1,3.5308655E1,6.347524E1,8.852894E1,1.2431271E2,-3.731876E-1,-3.312284E-1,-2.861919E-1,-2.2855692E-1,-1.5390746E-1,-7.349622E-2,5.2173655E-2,2.0340145E-1,2.9128358E-1,3.9922068E-1,5.412583E-1,6.740831E-1,7.964783E-1,9.6194273E-1,1.1378306E0,1.3874242E0],"categories":[],"categories_nodes":[],"categories_segments":[],"categories_sizes":[],"default_left":[0,0,0,0,0,0,0,0,0,0,0,0,0,0,0,0,0,0,0,0,0,0,0,0,0,0,0,0,0,0,0],"id":27,"left_children":[1,3,5,7,9,11,13,15,17,19,21,23,25,27,29,-1,-1,-1,-1,-1,-1,-1,-1,-1,-1,-1,-1,-1,-1,-1,-1],"loss_changes":[3.910869E7,2.069298E6,5.177918E6,3.78076E5,5.779071E5,5.33181E5,8.39136E5,7.9075E3,5.3553E4,1.17367625E5,3.4244594E4,5.842775E4,3.2976E4,9.3908E4,1.65934E5,0E0,0E0,0E0,0E0,0E0,0E0,0E0,0E0,0E0,0E0,0E0,0E0,0E0,0E0,0E0,0E0],"parents":[2147483647,0,0,1,1,2,2,3,3,4,4,5,5,6,6,7,7,8,8,9,9,10,10,11,11,12,12,13,13,14,14],"right_children":[2,4,6,8,10,12,14,16,18,20,22,24,26,28,30,-1,-1,-1,-1,-1,-1,-1,-1,-1,-1,-1,-1,-1,-1,-1,-1],"split_conditions":[8.395E1,2.53E1,1.4735E2,1.035E1,5.245E1,1.1355E2,1.902E2,4.55E0,1.7E1,3.565E1,6.85E1,9.545E1,1.3415E2,1.6705E2,2.1485E2,-3.731876E-1,-3.312284E-1,-2.861919E-1,-2.2855692E-1,-1.5390746E-1,-7.349622E-2,5.2173655E-2,2.0340145E-1,2.9128358E-1,3.9922068E-1,5.412583E-1,6.740831E-1,7.964783E-1,9.6194273E-1,1.1378306E0,1.3874242E0],"split_indices":[2,3,3,3,3,2,3,1,3,3,1,3,1,3,3,0,0,0,0,0,0,0,0,0,0,0,0,0,0,0,0],"split_type":[0,0,0,0,0,0,0,0,0,0,0,0,0,0,0,0,0,0,0,0,0,0,0,0,0,0,0,0,0,0,0],"sum_hessian":[2.5445E4,1.9675E4,5.77E3,1.1528E4,8.147E3,3.084E3,2.686E3,4.675E3,6.853E3,7.35E3,7.97E2,2.089E3,9.95E2,1.491E3,1.195E3,4.072E3,6.03E2,2.674E3,4.179E3,4.065E3,3.285E3,2.01E2,5.96E2,8.96E2,1.193E3,2.99E2,6.96E2,6.96E2,7.95E2,6.96E2,4.99E2],"tree_param":{"num_deleted":"0","num_feature":"200","num_nodes":"31","size_leaf_vector":"1"}},{"base_weights":[5.9671053E-3,-2.0553587E1,7.327334E1,-2.867609E1,-6.724641E0,4.8003845E1,1.0691422E2,-3.5825317E1,-2.3644384E1,-1.0393974E1,1.9937117E1,3.7344997E1,6.840887E1,9.5212814E1,1.3015373E2,-3.6826754E-1,-3.099537E-1,-2.701317E-1,-2.1243246E-1,-1.2727897E-1,-4.3147825E-2,1.2820785E-1,2.3479663E-1,3.3476782E-1,4.6905112E-1,6.4088696E-1,7.343315E-1,8.7274086E-1,1.0527847E0,1.220285E0,1.431644E0],"categories":[],"categories_nodes":[],"categories_segments":[],"categories_sizes":[],"default_left":[0,0,0,0,0,0,0,0,0,0,0,0,0,0,0,0,0,0,0,0,0,0,0,0,0,0,0,0,0,0,0],"id":28,"left_children":[1,3,5,7,9,11,13,15,17,19,21,23,25,27,29,-1,-1,-1,-1,-1,-1,-1,-1,-1,-1,-1,-1,-1,-1,-1,-1],"loss_changes":[3.8331948E7,2.231831E6,4.734958E6,4.49461E5,7.196555E5,6.903815E5,6.37806E5,2.38605E4,5.88795E4,9.167281E4,2.2135812E4,7.590425E4,1.89965E4,1.18185E5,6.6891E4,0E0,0E0,0E0,0E0,0E0,0E0,0E0,0E0,0E0,0E0,0E0,0E0,0E0,0E0,0E0,0E0],"parents":[2147483647,0,0,1,1,2,2,3,3,4,4,5,5,6,6,7,7,8,8,9,9,10,10,11,11,12,12,13,13,14,14],"right_children":[2,4,6,8,10,12,14,16,18,20,22,24,26,28,30,-1,-1,-1,-1,-1,-1,-1,-1,-1,-1,-1,-1,-1,-1,-1,-1],"split_conditions":[8.79E1,2.935E1,1.5715E2,1.29E1,5.56E1,1.2695E2,2.019E2,7.3E0,2.015E1,4.1E1,7.535E1,1.055E2,1.4265E2,1.7965E2,2.3195E2,-3.6826754E-1,-3.099537E-1,-2.701317E-1,-2.1243246E-1,-1.2727897E-1,-4.3147825E-2,1.2820785E-1,2.3479663E-1,3.3476782E-1,4.6905112E-1,6.4088696E-1,7.343315E-1,8.7274086E-1,1.0527847E0,1.220285E0,1.431644E0],"split_indices":[3,3,1,1,4,1,3,6,3,3,3,3,3,3,1,0,0,0,0,0,0,0,0,0,0,0,0,0,0,0,0],"split_type":[0,0,0,0,0,0,0,0,0,0,0,0,0,0,0,0,0,0,0,0,0,0,0,0,0,0,0,0,0,0,0],"sum_hessian":[2.5445E4,1.987E4,5.575E3,1.2517E4,7.353E3,3.185E3,2.39E3,5.168E3,7.349E3,6.464E3,8.89E2,2.094E3,1.091E3,1.593E3,7.97E2,4.275E3,8.93E2,3.054E3,4.295E3,4.67E3,1.794E3,2.97E2,5.92E2,1.494E3,6E2,5.94E2,4.97E2,8.96E2,6.97E2,4.97E2,3E2],"tree_param":{"num_deleted":"0","num_feature":"200","num_nodes":"31","size_leaf_vector":"1"}},{"base_weights":[6.134584E-3,-2.079873E1,7.097131E1,-2.9347828E1,-8.962744E0,4.4473244E1,1.0352383E2,-3.605264E1,-2.4697102E1,-1.1665591E1,1.623562E1,3.4614243E1,6.3232254E1,8.999881E1,1.2498152E2,-3.6575976E-1,-3.2449356E-1,-2.8054875E-1,-2.2488223E-1,-1.5187785E-1,-7.192306E-2,5.1588606E-2,1.9968642E-1,2.9072645E-1,3.9593866E-1,5.3038377E-1,6.6977215E-1,8.005491E-1,9.762264E-1,1.1563132E0,1.3867098E0],"categories":[],"categories_nodes":[],"categories_segments":[],"categories_sizes":[],"default_left":[0,0,0,0,0,0,0,0,0,0,0,0,0,0,0,0,0,0,0,0,0,0,0,0,0,0,0,0,0,0,0],"id":29,"left_children":[1,3,5,7,9,11,13,15,17,19,21,23,25,27,29,-1,-1,-1,-1,-1,-1,-1,-1,-1,-1,-1,-1,-1,-1,-1,-1],"loss_changes":[3.757049E7,1.990895E6,4.971612E6,3.55367E5,5.623474E5,5.86307E5,7.39832E5,7.633E3,4.94255E4,1.1735006E5,3.2976812E4,5.64675E4,3.82495E4,1.128E5,1.11708E5,0E0,0E0,0E0,0E0,0E0,0E0,0E0,0E0,0E0,0E0,0E0,0E0,0E0,0E0,0E0,0E0],"parents":[2147483647,0,0,1,1,2,2,3,3,4,4,5,5,6,6,7,7,8,8,9,9,10,10,11,11,12,12,13,13,14,14],"right_children":[2,4,6,8,10,12,14,16,18,20,22,24,26,28,30,-1,-1,-1,-1,-1,-1,-1,-1,-1,-1,-1,-1,-1,-1,-1,-1],"split_conditions":[8.49E1,2.49E1,1.4955E2,1.05E1,5.245E1,1.1355E2,1.957E2,4.45E0,1.7E1,3.565E1,6.745E1,9.675E1,1.328E2,1.696E2,2.2205E2,-3.6575976E-1,-3.2449356E-1,-2.8054875E-1,-2.2488223E-1,-1.5187785E-1,-7.192306E-2,5.1588606E-2,1.9968642E-1,2.9072645E-1,3.9593866E-1,5.3038377E-1,6.6977215E-1,8.005491E-1,9.762264E-1,1.1563132E0,1.3867098E0],"split_indices":[3,3,3,1,3,2,3,2,3,3,3,3,3,3,3,0,0,0,0,0,0,0,0,0,0,0,0,0,0,0,0],"split_type":[0,0,0,0,0,0,0,0,0,0,0,0,0,0,0,0,0,0,0,0,0,0,0,0,0,0,0,0,0,0,0],"sum_hessian":[2.5445E4,1.9677E4,5.768E3,1.1424E4,8.253E3,3.181E3,2.587E3,4.676E3,6.748E3,7.454E3,7.99E2,2.087E3,1.094E3,1.59E3,9.97E2,4.075E3,6.01E2,2.673E3,4.075E3,4.169E3,3.285E3,2.02E2,5.97E2,9.91E2,1.096E3,2.98E2,7.96E2,6.95E2,8.95E2,5.98E2,3.99E2],"tree_param":{"num_deleted":"0","num_feature":"200","num_nodes":"31","size_leaf_vector":"1"}},{"base_weights":[6.271777E-3,-1.9901966E1,7.2696266E1,-2.8029837E1,-5.992878E0,4.776316E1,1.0479422E2,-3.5108692E1,-2.3099905E1,-1.008466E1,2.022933E1,3.714944E1,6.703391E1,9.3318565E1,1.2758546E2,-3.6094195E-1,-3.0375832E-1,-2.6372397E-1,-2.0673439E-1,-1.2295034E-1,-3.9596684E-2,1.4049055E-1,2.4308795E-1,3.330949E-1,4.598341E-1,6.278852E-1,7.198013E-1,8.6474365E-1,1.0460365E0,1.1960692E0,1.4036195E0],"categories":[],"categories_nodes":[],"categories_segments":[],"categories_sizes":[],"default_left":[0,0,0,0,0,0,0,0,0,0,0,0,0,0,0,0,0,0,0,0,0,0,0,0,0,0,0,0,0,0,0],"id":30,"left_children":[1,3,5,7,9,11,13,15,17,19,21,23,25,27,29,-1,-1,-1,-1,-1,-1,-1,-1,-1,-1,-1,-1,-1,-1,-1,-1],"loss_changes":[3.682511E7,2.258144E6,4.373444E6,4.39187E5,7.908649E5,6.276805E5,6.13448E5,2.3036E4,5.8493E4,8.625944E4,2.4744625E4,6.593925E4,1.8432E4,1.14071E5,6.4558E4,0E0,0E0,0E0,0E0,0E0,0E0,0E0,0E0,0E0,0E0,0E0,0E0,0E0,0E0,0E0,0E0],"parents":[2147483647,0,0,1,1,2,2,3,3,4,4,5,5,6,6,7,7,8,8,9,9,10,10,11,11,12,12,13,13,14,14],"right_children":[2,4,6,8,10,12,14,16,18,20,22,24,26,28,30,-1,-1,-1,-1,-1,-1,-1,-1,-1,-1,-1,-1,-1,-1,-1,-1],"split_conditions":[8.89E1,2.98E1,1.5715E2,1.28E1,5.56E1,1.232E2,2.019E2,7.05E0,2.03E1,4.135E1,7.975E1,1.055E2,1.4265E2,1.827E2,2.2645E2,-3.6094195E-1,-3.0375832E-1,-2.6372397E-1,-2.0673439E-1,-1.2295034E-1,-3.9596684E-2,1.4049055E-1,2.4308795E-1,3.330949E-1,4.598341E-1,6.278852E-1,7.198013E-1,8.6474365E-1,1.0460365E0,1.1960692E0,1.4036195E0],"split_indices":[3,3,1,3,3,2,3,22,3,3,3,3,3,3,2,0,0,0,0,0,0,0,0,0,0,0,0,0,0,0,0],"split_type":[0,0,0,0,0,0,0,0,0,0,0,0,0,0,0,0,0,0,0,0,0,0,0,0,0,0,0,0,0,0,0],"sum_hessian":[2.5445E4,1.9975E4,5.47E3,1.2607E4,7.368E3,3.08E3,2.39E3,5.173E3,7.434E3,6.374E3,9.94E2,1.988E3,1.092E3,1.593E3,7.97E2,4.276E3,8.97E2,3.161E3,4.273E3,4.683E3,1.691E3,3.97E2,5.97E2,1.389E3,5.99E2,5.95E2,4.97E2,9.97E2,5.96E2,4.97E2,3E2],"tree_param":{"num_deleted":"0","num_feature":"200","num_nodes":"31","size_leaf_vector":"1"}},{"base_weights":[6.4349067E-3,-1.9702993E1,7.197052E1,-2.7749628E1,-5.9329185E0,4.8205505E1,1.0498585E2,-3.476349E1,-2.2872961E1,-9.989126E0,2.0001028E1,3.6785526E1,6.719843E1,9.4556335E1,1.286231E2,-3.5733348E-1,-3.0079442E-1,-2.604159E-1,-2.0411664E-1,-1.217211E-1,-3.932865E-2,1.3871795E-1,2.4067403E-1,3.2976633E-1,4.5533568E-1,6.2918675E-1,7.303312E-1,8.6707586E-1,1.0451031E0,1.204763E0,1.3896791E0],"categories":[],"categories_nodes":[],"categories_segments":[],"categories_sizes":[],"default_left":[0,0,0,0,0,0,0,0,0,0,0,0,0,0,0,0,0,0,0,0,0,0,0,0,0,0,0,0,0,0,0],"id":31,"left_children":[1,3,5,7,9,11,13,15,17,19,21,23,25,27,29,-1,-1,-1,-1,-1,-1,-1,-1,-1,-1,-1,-1,-1,-1,-1,-1],"loss_changes":[3.609329E7,2.213231E6,4.28754E6,4.30451E5,7.753705E5,6.87917E5,5.52134E5,2.2408E4,5.749275E4,8.420775E4,2.4515125E4,6.4806E4,2.52205E4,1.15315E5,4.2083E4,0E0,0E0,0E0,0E0,0E0,0E0,0E0,0E0,0E0,0E0,0E0,0E0,0E0,0E0,0E0,0E0],"parents":[2147483647,0,0,1,1,2,2,3,3,4,4,5,5,6,6,7,7,8,8,9,9,10,10,11,11,12,12,13,13,14,14],"right_children":[2,4,6,8,10,12,14,16,18,20,22,24,26,28,30,-1,-1,-1,-1,-1,-1,-1,-1,-1,-1,-1,-1,-1,-1,-1,-1],"split_conditions":[8.89E1,2.98E1,1.5775E2,1.29E1,5.485E1,1.2695E2,2.0485E2,7.4E0,2.04E1,4.135E1,8.05E1,1.055E2,1.4505E2,1.827E2,2.2935E2,-3.5733348E-1,-3.0079442E-1,-2.604159E-1,-2.0411664E-1,-1.217211E-1,-3.932865E-2,1.3871795E-1,2.4067403E-1,3.2976633E-1,4.5533568E-1,6.2918675E-1,7.303312E-1,8.6707586E-1,1.0451031E0,1.204763E0,1.3896791E0],"split_indices":[3,3,3,1,30,1,3,2,3,3,1,3,3,3,3,0,0,0,0,0,0,0,0,0,0,0,0,0,0,0,0],"split_type":[0,0,0,0,0,0,0,0,0,0,0,0,0,0,0,0,0,0,0,0,0,0,0,0,0,0,0,0,0,0,0],"sum_hessian":[2.5445E4,1.9975E4,5.47E3,1.2607E4,7.368E3,3.182E3,2.288E3,5.168E3,7.439E3,6.372E3,9.96E2,1.989E3,1.193E3,1.591E3,6.97E2,4.276E3,8.92E2,3.248E3,4.191E3,4.683E3,1.689E3,3.99E2,5.97E2,1.389E3,6E2,6.95E2,4.98E2,8.95E2,6.96E2,3.97E2,3E2],"tree_param":{"num_deleted":"0","num_feature":"200","num_nodes":"31","size_leaf_vector":"1"}},{"base_weights":[6.595995E-3,-1.9744408E1,7.039257E1,-2.7624569E1,-6.579914E0,4.6114315E1,1.0271382E2,-3.453458E1,-2.2869366E1,-1.0073752E1,1.9152336E1,3.5868195E1,6.5701935E1,9.146223E1,1.250601E2,-3.537614E-1,-2.9928908E-1,-2.6217458E-1,-2.0601383E-1,-1.2493001E-1,-4.54419E-2,1.22721985E-1,2.2560163E-1,3.2161275E-1,4.508791E-1,6.153793E-1,7.055342E-1,8.381037E-1,1.011646E0,1.1723777E0,1.3758653E0],"categories":[],"categories_nodes":[],"categories_segments":[],"categories_sizes":[],"default_left":[0,0,0,0,0,0,0,0,0,0,0,0,0,0,0,0,0,0,0,0,0,0,0,0,0,0,0,0,0,0,0],"id":32,"left_children":[1,3,5,7,9,11,13,15,17,19,21,23,25,27,29,-1,-1,-1,-1,-1,-1,-1,-1,-1,-1,-1,-1,-1,-1,-1,-1],"loss_changes":[3.5376256E7,2.0612025E6,4.370772E6,4.07641E5,6.69261E5,6.370645E5,5.89734E5,1.8573E4,5.5393E4,8.760525E4,2.0590406E4,7.011625E4,1.77385E4,1.09863E5,6.2062E4,0E0,0E0,0E0,0E0,0E0,0E0,0E0,0E0,0E0,0E0,0E0,0E0,0E0,0E0,0E0,0E0],"parents":[2147483647,0,0,1,1,2,2,3,3,4,4,5,5,6,6,7,7,8,8,9,9,10,10,11,11,12,12,13,13,14,14],"right_children":[2,4,6,8,10,12,14,16,18,20,22,24,26,28,30,-1,-1,-1,-1,-1,-1,-1,-1,-1,-1,-1,-1,-1,-1,-1,-1],"split_conditions":[8.79E1,2.895E1,1.5715E2,1.235E1,5.68E1,1.232E2,2.019E2,7.05E0,1.97E1,4.04E1,7.65E1,1.0445E2,1.4265E2,1.7965E2,2.2645E2,-3.537614E-1,-2.9928908E-1,-2.6217458E-1,-2.0601383E-1,-1.2493001E-1,-4.54419E-2,1.22721985E-1,2.2560163E-1,3.2161275E-1,4.508791E-1,6.153793E-1,7.055342E-1,8.381037E-1,1.011646E0,1.1723777E0,1.3758653E0],"split_indices":[3,3,1,3,1,2,3,22,3,3,1,2,3,3,2,0,0,0,0,0,0,0,0,0,0,0,0,0,0,0,0],"split_type":[0,0,0,0,0,0,0,0,0,0,0,0,0,0,0,0,0,0,0,0,0,0,0,0,0,0,0,0,0,0,0],"sum_hessian":[2.5445E4,1.987E4,5.575E3,1.2429E4,7.441E3,3.185E3,2.39E3,5.064E3,7.365E3,6.552E3,8.89E2,2.093E3,1.092E3,1.593E3,7.97E2,4.276E3,7.88E2,2.97E3,4.395E3,4.557E3,1.995E3,2.96E2,5.93E2,1.496E3,5.97E2,5.95E2,4.97E2,8.96E2,6.97E2,4.97E2,3E2],"tree_param":{"num_deleted":"0","num_feature":"200","num_nodes":"31","size_leaf_vector":"1"}},{"base_weights":[6.747609E-3,-1.931134E1,7.0541954E1,-2.7198202E1,-5.8146853E0,4.7246956E1,1.0290432E2,-3.406692E1,-2.2414616E1,-9.785453E0,1.9632004E1,3.605653E1,6.585809E1,9.267742E1,1.2608241E2,-3.502247E-1,-2.9477888E-1,-2.511698E-1,-1.9636948E-1,-1.1849616E-1,-3.607507E-2,1.364306E-1,2.3585124E-1,3.2324794E-1,4.462733E-1,6.166612E-1,7.1573037E-1,8.498475E-1,1.0243345E0,1.1809609E0,1.3622352E0],"categories":[],"categories_nodes":[],"categories_segments":[],"categories_sizes":[],"default_left":[0,0,0,0,0,0,0,0,0,0,0,0,0,0,0,0,0,0,0,0,0,0,0,0,0,0,0,0,0,0,0],"id":33,"left_children":[1,3,5,7,9,11,13,15,17,19,21,23,25,27,29,-1,-1,-1,-1,-1,-1,-1,-1,-1,-1,-1,-1,-1,-1,-1,-1],"loss_changes":[3.467422E7,2.126212E6,4.11962E6,4.13499E5,7.4477706E5,6.605375E5,5.309E5,2.16555E4,5.5316E4,8.1253125E4,2.3234875E4,6.220525E4,2.41915E4,1.10774E5,4.0443E4,0E0,0E0,0E0,0E0,0E0,0E0,0E0,0E0,0E0,0E0,0E0,0E0,0E0,0E0,0E0,0E0],"parents":[2147483647,0,0,1,1,2,2,3,3,4,4,5,5,6,6,7,7,8,8,9,9,10,10,11,11,12,12,13,13,14,14],"right_children":[2,4,6,8,10,12,14,16,18,20,22,24,26,28,30,-1,-1,-1,-1,-1,-1,-1,-1,-1,-1,-1,-1,-1,-1,-1,-1],"split_conditions":[8.89E1,2.98E1,1.5775E2,1.28E1,5.56E1,1.2695E2,2.0485E2,7.4E0,2.085E1,4.17E1,7.975E1,1.055E2,1.4505E2,1.827E2,2.3195E2,-3.502247E-1,-2.9477888E-1,-2.511698E-1,-1.9636948E-1,-1.1849616E-1,-3.607507E-2,1.364306E-1,2.3585124E-1,3.2324794E-1,4.462733E-1,6.166612E-1,7.1573037E-1,8.498475E-1,1.0243345E0,1.1809609E0,1.3622352E0],"split_indices":[3,3,3,3,24,1,3,2,3,3,3,3,3,3,1,0,0,0,0,0,0,0,0,0,0,0,0,0,0,0,0],"split_type":[0,0,0,0,0,0,0,0,0,0,0,0,0,0,0,0,0,0,0,0,0,0,0,0,0,0,0,0,0,0,0],"sum_hessian":[2.5445E4,1.9975E4,5.47E3,1.2607E4,7.368E3,3.182E3,2.288E3,5.173E3,7.434E3,6.374E3,9.94E2,1.989E3,1.193E3,1.591E3,6.97E2,4.276E3,8.97E2,3.764E3,3.67E3,4.777E3,1.597E3,3.97E2,5.97E2,1.389E3,6E2,6.95E2,4.98E2,8.95E2,6.96E2,3.97E2,3E2],"tree_param":{"num_deleted":"0","num_feature":"200","num_nodes":"31","size_leaf_vector":"1"}},{"base_weights":[6.9018486E-3,-1.9784906E1,6.74863E1,-2.7919601E1,-8.519919E0,4.2275146E1,9.845564E1,-3.4291805E1,-2.3502777E1,-1.1260947E1,1.3939751E1,3.2903595E1,6.0140102E1,8.3381744E1,1.15942726E2,-3.4789956E-1,-3.0870157E-1,-2.6821557E-1,-2.1458921E-1,-1.464518E-1,-7.28752E-2,3.9275788E-2,1.8981184E-1,2.7039868E-1,3.7281194E-1,5.049865E-1,6.370274E-1,7.480986E-1,8.9727443E-1,1.0607656E0,1.2946426E0],"categories":[],"categories_nodes":[],"categories_segments":[],"categories_sizes":[],"default_left":[0,0,0,0,0,0,0,0,0,0,0,0,0,0,0,0,0,0,0,0,0,0,0,0,0,0,0,0,0,0,0],"id":34,"left_children":[1,3,5,7,9,11,13,15,17,19,21,23,25,27,29,-1,-1,-1,-1,-1,-1,-1,-1,-1,-1,-1,-1,-1,-1,-1,-1],"loss_changes":[3.398547E7,1.802817E6,4.501676E6,3.20749E5,5.081715E5,5.309265E5,6.7279E5,6.8945E3,4.521725E4,9.8796E4,4.5252625E4,5.264025E4,3.4361E4,6.9114E4,1.4582E5,0E0,0E0,0E0,0E0,0E0,0E0,0E0,0E0,0E0,0E0,0E0,0E0,0E0,0E0,0E0,0E0],"parents":[2147483647,0,0,1,1,2,2,3,3,4,4,5,5,6,6,7,7,8,8,9,9,10,10,11,11,12,12,13,13,14,14],"right_children":[2,4,6,8,10,12,14,16,18,20,22,24,26,28,30,-1,-1,-1,-1,-1,-1,-1,-1,-1,-1,-1,-1,-1,-1,-1,-1],"split_conditions":[8.585E1,2.49E1,1.5095E2,1.01E1,5.05E1,1.1355E2,1.902E2,4.55E0,1.665E1,3.515E1,6.85E1,9.545E1,1.3415E2,1.6705E2,2.1485E2,-3.4789956E-1,-3.0870157E-1,-2.6821557E-1,-2.1458921E-1,-1.464518E-1,-7.28752E-2,3.9275788E-2,1.8981184E-1,2.7039868E-1,3.7281194E-1,5.049865E-1,6.370274E-1,7.480986E-1,8.9727443E-1,1.0607656E0,1.2946426E0],"split_indices":[1,3,1,2,3,2,3,1,3,3,1,3,1,3,3,0,0,0,0,0,0,0,0,0,0,0,0,0,0,0,0],"split_type":[0,0,0,0,0,0,0,0,0,0,0,0,0,0,0,0,0,0,0,0,0,0,0,0,0,0,0,0,0,0,0],"sum_hessian":[2.5445E4,1.9675E4,5.77E3,1.1424E4,8.251E3,3.182E3,2.588E3,4.674E3,6.75E3,7.354E3,8.97E2,2.089E3,1.093E3,1.393E3,1.195E3,4.072E3,6.02E2,2.568E3,4.182E3,3.97E3,3.384E3,3.01E2,5.96E2,8.96E2,1.193E3,2.99E2,7.94E2,5.98E2,7.95E2,6.96E2,4.99E2],"tree_param":{"num_deleted":"0","num_feature":"200","num_nodes":"31","size_leaf_vector":"1"}},{"base_weights":[7.015566E-3,-1.8927511E1,6.914175E1,-2.6734688E1,-5.8226476E0,4.6307934E1,1.008634E2,-3.33963E1,-2.204617E1,-9.67891E0,1.9239222E1,3.533296E1,6.4536316E1,9.0831894E1,1.2359879E2,-3.4326434E-1,-2.8904057E-1,-2.5269243E-1,-1.9854893E-1,-1.1949212E-1,-4.177014E-2,1.335846E-1,2.3121002E-1,3.1681257E-1,4.3774146E-1,6.042013E-1,7.015643E-1,8.328919E-1,1.0039779E0,1.1574175E0,1.3357719E0],"categories":[],"categories_nodes":[],"categories_segments":[],"categories_sizes":[],"default_left":[0,0,0,0,0,0,0,0,0,0,0,0,0,0,0,0,0,0,0,0,0,0,0,0,0,0,0,0,0,0,0],"id":35,"left_children":[1,3,5,7,9,11,13,15,17,19,21,23,25,27,29,-1,-1,-1,-1,-1,-1,-1,-1,-1,-1,-1,-1,-1,-1,-1,-1],"loss_changes":[3.331097E7,2.0436285E6,3.95812E6,3.9024E5,7.210624E5,6.344975E5,5.10824E5,2.0606E4,5.140875E4,8.070419E4,2.2404844E4,5.99235E4,2.3406E4,1.06506E5,3.9263E4,0E0,0E0,0E0,0E0,0E0,0E0,0E0,0E0,0E0,0E0,0E0,0E0,0E0,0E0,0E0,0E0],"parents":[2147483647,0,0,1,1,2,2,3,3,4,4,5,5,6,6,7,7,8,8,9,9,10,10,11,11,12,12,13,13,14,14],"right_children":[2,4,6,8,10,12,14,16,18,20,22,24,26,28,30,-1,-1,-1,-1,-1,-1,-1,-1,-1,-1,-1,-1,-1,-1,-1,-1],"split_conditions":[8.89E1,2.935E1,1.5775E2,1.29E1,5.68E1,1.232E2,2.0485E2,6.9E0,2E1,4.07E1,8.05E1,1.0445E2,1.4505E2,1.827E2,2.2935E2,-3.4326434E-1,-2.8904057E-1,-2.5269243E-1,-1.9854893E-1,-1.1949212E-1,-4.177014E-2,1.335846E-1,2.3121002E-1,3.1681257E-1,4.3774146E-1,6.042013E-1,7.015643E-1,8.328919E-1,1.0039779E0,1.1574175E0,1.3357719E0],"split_indices":[3,3,3,1,1,2,3,30,3,3,1,2,3,3,3,0,0,0,0,0,0,0,0,0,0,0,0,0,0,0,0],"split_type":[0,0,0,0,0,0,0,0,0,0,0,0,0,0,0,0,0,0,0,0,0,0,0,0,0,0,0,0,0,0,0],"sum_hessian":[2.5445E4,1.9975E4,5.47E3,1.2517E4,7.458E3,3.182E3,2.288E3,5.168E3,7.349E3,6.464E3,9.94E2,1.988E3,1.194E3,1.591E3,6.97E2,4.276E3,8.92E2,2.97E3,4.379E3,4.575E3,1.889E3,3.97E2,5.97E2,1.391E3,5.97E2,6.96E2,4.98E2,8.95E2,6.96E2,3.97E2,3E2],"tree_param":{"num_deleted":"0","num_feature":"200","num_nodes":"31","size_leaf_vector":"1"}},{"base_weights":[7.162044E-3,-1.873828E1,6.845149E1,-2.639345E1,-5.638113E0,4.58455E1,9.985666E1,-3.30571E1,-2.1752684E1,-9.490805E0,1.9051886E1,3.4986866E1,6.3904827E1,8.992473E1,1.2236638E2,-3.3983874E-1,-2.8612202E-1,-2.4270971E-1,-1.8932775E-1,-1.15006514E-1,-3.4754485E-2,1.1788822E-1,2.2125438E-1,3.136793E-1,4.3358415E-1,5.983287E-1,6.945628E-1,8.2457227E-1,9.939525E-1,1.1458216E0,1.3225259E0],"categories":[],"categories_nodes":[],"categories_segments":[],"categories_sizes":[],"default_left":[0,0,0,0,0,0,0,0,0,0,0,0,0,0,0,0,0,0,0,0,0,0,0,0,0,0,0,0,0,0,0],"id":36,"left_children":[1,3,5,7,9,11,13,15,17,19,21,23,25,27,29,-1,-1,-1,-1,-1,-1,-1,-1,-1,-1,-1,-1,-1,-1,-1,-1],"loss_changes":[3.264899E7,2.003124E6,3.87953E6,3.89177E5,7.011419E5,6.219495E5,5.00738E5,2.0342E4,5.233875E4,7.7033375E4,2.1950938E4,5.892925E4,2.28345E4,1.04393E5,3.8562E4,0E0,0E0,0E0,0E0,0E0,0E0,0E0,0E0,0E0,0E0,0E0,0E0,0E0,0E0,0E0,0E0],"parents":[2147483647,0,0,1,1,2,2,3,3,4,4,5,5,6,6,7,7,8,8,9,9,10,10,11,11,12,12,13,13,14,14],"right_children":[2,4,6,8,10,12,14,16,18,20,22,24,26,28,30,-1,-1,-1,-1,-1,-1,-1,-1,-1,-1,-1,-1,-1,-1,-1,-1],"split_conditions":[8.89E1,2.98E1,1.5775E2,1.28E1,5.56E1,1.2695E2,2.0485E2,7.3E0,2.1E1,4.17E1,7.43E1,1.064E2,1.4505E2,1.827E2,2.2645E2,-3.3983874E-1,-2.8612202E-1,-2.4270971E-1,-1.8932775E-1,-1.15006514E-1,-3.4754485E-2,1.1788822E-1,2.2125438E-1,3.136793E-1,4.3358415E-1,5.983287E-1,6.945628E-1,8.2457227E-1,9.939525E-1,1.1458216E0,1.3225259E0],"split_indices":[3,3,3,3,20,1,3,6,3,3,2,1,3,3,2,0,0,0,0,0,0,0,0,0,0,0,0,0,0,0,0],"split_type":[0,0,0,0,0,0,0,0,0,0,0,0,0,0,0,0,0,0,0,0,0,0,0,0,0,0,0,0,0,0,0],"sum_hessian":[2.5445E4,1.9975E4,5.47E3,1.2607E4,7.368E3,3.182E3,2.288E3,5.173E3,7.434E3,6.374E3,9.94E2,1.989E3,1.193E3,1.591E3,6.97E2,4.275E3,8.98E2,3.923E3,3.511E3,4.777E3,1.597E3,2.97E2,6.97E2,1.392E3,5.97E2,6.95E2,4.98E2,8.95E2,6.96E2,3.97E2,3E2],"tree_param":{"num_deleted":"0","num_feature":"200","num_nodes":"31","size_leaf_vector":"1"}},{"base_weights":[7.3048645E-3,-1.9197922E1,6.548678E1,-2.7175621E1,-8.3714075E0,4.01695E1,9.45297E1,-3.327527E1,-2.2886017E1,-1.1011458E1,1.3546222E1,3.19112E1,5.740713E1,8.004354E1,1.1252202E2,-3.376067E-1,-2.996034E-1,-2.6042816E-1,-2.0895635E-1,-1.438363E-1,-7.145918E-2,3.8834743E-2,1.843593E-1,2.6199922E-1,3.618226E-1,4.8975703E-1,6.096078E-1,7.187998E-1,8.709123E-1,1.0293382E0,1.2566293E0],"categories":[],"categories_nodes":[],"categories_segments":[],"categories_sizes":[],"default_left":[0,0,0,0,0,0,0,0,0,0,0,0,0,0,0,0,0,0,0,0,0,0,0,0,0,0,0,0,0,0,0],"id":37,"left_children":[1,3,5,7,9,11,13,15,17,19,21,23,25,27,29,-1,-1,-1,-1,-1,-1,-1,-1,-1,-1,-1,-1,-1,-1,-1,-1],"loss_changes":[3.2000826E7,1.699202E6,4.23955E6,2.956365E5,4.8325288E5,4.373285E5,6.91334E5,6.511E3,4.126425E4,9.703606E4,4.2357125E4,4.9985E4,2.691675E4,7.9581E4,1.37758E5,0E0,0E0,0E0,0E0,0E0,0E0,0E0,0E0,0E0,0E0,0E0,0E0,0E0,0E0,0E0,0E0],"parents":[2147483647,0,0,1,1,2,2,3,3,4,4,5,5,6,6,7,7,8,8,9,9,10,10,11,11,12,12,13,13,14,14],"right_children":[2,4,6,8,10,12,14,16,18,20,22,24,26,28,30,-1,-1,-1,-1,-1,-1,-1,-1,-1,-1,-1,-1,-1,-1,-1,-1],"split_conditions":[8.395E1,2.465E1,1.4735E2,1.01E1,5.05E1,1.1455E2,1.902E2,4.5E0,1.665E1,3.495E1,6.745E1,9.545E1,1.328E2,1.6705E2,2.1695E2,-3.376067E-1,-2.996034E-1,-2.6042816E-1,-2.0895635E-1,-1.438363E-1,-7.145918E-2,3.8834743E-2,1.843593E-1,2.6199922E-1,3.618226E-1,4.8975703E-1,6.096078E-1,7.187998E-1,8.709123E-1,1.0293382E0,1.2566293E0],"split_indices":[2,3,3,2,3,3,3,3,3,3,3,3,3,3,1,0,0,0,0,0,0,0,0,0,0,0,0,0,0,0,0],"split_type":[0,0,0,0,0,0,0,0,0,0,0,0,0,0,0,0,0,0,0,0,0,0,0,0,0,0,0,0,0,0,0],"sum_hessian":[2.5445E4,1.9675E4,5.77E3,1.1327E4,8.348E3,3.084E3,2.686E3,4.674E3,6.653E3,7.451E3,8.97E2,2.087E3,9.97E2,1.491E3,1.195E3,4.069E3,6.05E2,2.568E3,4.085E3,3.978E3,3.473E3,3.02E2,5.95E2,8.96E2,1.191E3,3E2,6.97E2,6.96E2,7.95E2,6.96E2,4.99E2],"tree_param":{"num_deleted":"0","num_feature":"200","num_nodes":"31","size_leaf_vector":"1"}},{"base_weights":[7.4093957E-3,-1.8365833E1,6.709275E1,-2.5870916E1,-5.522508E0,4.492477E1,9.786629E1,-3.231666E1,-2.126292E1,-9.30199E0,1.8642141E1,3.4284737E1,6.2611626E1,8.8125916E1,1.19955894E2,-3.330785E-1,-2.7948952E-1,-2.3462217E-1,-1.8221422E-1,-1.13512665E-1,-3.6167134E-2,1.1475104E-1,2.16812E-1,3.07227E-1,4.2479643E-1,5.863116E-1,6.805695E-1,8.0805945E-1,9.7419876E-1,1.1229585E0,1.2968593E0],"categories":[],"categories_nodes":[],"categories_segments":[],"categories_sizes":[],"default_left":[0,0,0,0,0,0,0,0,0,0,0,0,0,0,0,0,0,0,0,0,0,0,0,0,0,0,0,0,0,0,0],"id":38,"left_children":[1,3,5,7,9,11,13,15,17,19,21,23,25,27,29,-1,-1,-1,-1,-1,-1,-1,-1,-1,-1,-1,-1,-1,-1,-1,-1],"loss_changes":[3.1365338E7,1.925348E6,3.72785E6,3.73795E5,6.73183E5,5.9667E5,4.82148E5,2.1815E4,4.87715E4,7.4208875E4,2.1466906E4,5.6755E4,2.18895E4,1.00501E5,3.7461E4,0E0,0E0,0E0,0E0,0E0,0E0,0E0,0E0,0E0,0E0,0E0,0E0,0E0,0E0,0E0,0E0],"parents":[2147483647,0,0,1,1,2,2,3,3,4,4,5,5,6,6,7,7,8,8,9,9,10,10,11,11,12,12,13,13,14,14],"right_children":[2,4,6,8,10,12,14,16,18,20,22,24,26,28,30,-1,-1,-1,-1,-1,-1,-1,-1,-1,-1,-1,-1,-1,-1,-1,-1],"split_conditions":[8.89E1,2.98E1,1.5945E2,1.305E1,5.485E1,1.232E2,2.0485E2,6.9E0,2.14E1,4.135E1,7.65E1,1.055E2,1.4505E2,1.827E2,2.3195E2,-3.330785E-1,-2.7948952E-1,-2.3462217E-1,-1.8221422E-1,-1.13512665E-1,-3.6167134E-2,1.1475104E-1,2.16812E-1,3.07227E-1,4.2479643E-1,5.863116E-1,6.805695E-1,8.0805945E-1,9.7419876E-1,1.1229585E0,1.2968593E0],"split_indices":[3,3,1,3,30,2,3,30,3,3,5,3,3,3,1,0,0,0,0,0,0,0,0,0,0,0,0,0,0,0,0],"split_type":[0,0,0,0,0,0,0,0,0,0,0,0,0,0,0,0,0,0,0,0,0,0,0,0,0,0,0,0,0,0,0],"sum_hessian":[2.5445E4,1.9975E4,5.47E3,1.2607E4,7.368E3,3.181E3,2.289E3,5.253E3,7.354E3,6.372E3,9.96E2,1.988E3,1.193E3,1.592E3,6.97E2,4.276E3,9.77E2,4.264E3,3.09E3,4.683E3,1.689E3,2.98E2,6.98E2,1.389E3,5.99E2,6.96E2,4.97E2,8.96E2,6.96E2,3.97E2,3E2],"tree_param":{"num_deleted":"0","num_feature":"200","num_nodes":"31","size_leaf_vector":"1"}},{"base_weights":[7.5462074E-3,-1.8816305E1,6.418674E1,-2.66367E1,-8.203269E0,4.020581E1,9.364486E1,-3.2612076E1,-2.2431427E1,-1.0791598E1,1.32849655E1,3.1288431E1,5.720501E1,8.136189E1,1.131447E2,-3.3090144E-1,-2.93582E-1,-2.553621E-1,-2.047538E-1,-1.4025885E-1,-6.901533E-2,3.8073726E-2,1.805707E-1,2.6170033E-1,3.5915497E-1,4.8054102E-1,6.058622E-1,7.22293E-1,8.837534E-1,1.0461267E0,1.255861E0],"categories":[],"categories_nodes":[],"categories_segments":[],"categories_sizes":[],"default_left":[0,0,0,0,0,0,0,0,0,0,0,0,0,0,0,0,0,0,0,0,0,0,0,0,0,0,0,0,0,0,0],"id":39,"left_children":[1,3,5,7,9,11,13,15,17,19,21,23,25,27,29,-1,-1,-1,-1,-1,-1,-1,-1,-1,-1,-1,-1,-1,-1,-1,-1],"loss_changes":[3.0742508E7,1.6328525E6,4.07306E6,2.839195E5,4.645033E5,4.807155E5,6.109E5,6.304E3,3.98755E4,9.366119E4,4.0546062E4,4.855775E4,3.093825E4,9.5586E4,9.28E4,0E0,0E0,0E0,0E0,0E0,0E0,0E0,0E0,0E0,0E0,0E0,0E0,0E0,0E0,0E0,0E0],"parents":[2147483647,0,0,1,1,2,2,3,3,4,4,5,5,6,6,7,7,8,8,9,9,10,10,11,11,12,12,13,13,14,14],"right_children":[2,4,6,8,10,12,14,16,18,20,22,24,26,28,30,-1,-1,-1,-1,-1,-1,-1,-1,-1,-1,-1,-1,-1,-1,-1,-1],"split_conditions":[8.585E1,2.465E1,1.5095E2,1.05E1,5.05E1,1.1355E2,1.957E2,4.5E0,1.665E1,3.515E1,6.85E1,9.585E1,1.3415E2,1.696E2,2.24E2,-3.3090144E-1,-2.93582E-1,-2.553621E-1,-2.047538E-1,-1.4025885E-1,-6.901533E-2,3.8073726E-2,1.805707E-1,2.6170033E-1,3.5915497E-1,4.8054102E-1,6.058622E-1,7.22293E-1,8.837534E-1,1.0461267E0,1.255861E0],"split_indices":[1,3,1,1,3,2,3,3,3,3,1,2,1,3,5,0,0,0,0,0,0,0,0,0,0,0,0,0,0,0,0],"split_type":[0,0,0,0,0,0,0,0,0,0,0,0,0,0,0,0,0,0,0,0,0,0,0,0,0,0,0,0,0,0,0],"sum_hessian":[2.5445E4,1.9675E4,5.77E3,1.1327E4,8.348E3,3.182E3,2.588E3,4.676E3,6.651E3,7.451E3,8.97E2,2.089E3,1.093E3,1.591E3,9.97E2,4.069E3,6.07E2,2.566E3,4.085E3,4.067E3,3.384E3,3.01E2,5.96E2,9.95E2,1.094E3,2.99E2,7.94E2,6.96E2,8.95E2,5.97E2,4E2],"tree_param":{"num_deleted":"0","num_feature":"200","num_nodes":"31","size_leaf_vector":"1"}},{"base_weights":[7.649474E-3,-1.8000862E1,6.576127E1,-2.535881E1,-5.4093313E0,4.4039043E1,9.593867E1,-3.1675379E1,-2.0843159E1,-9.108458E0,1.8296535E1,3.361176E1,6.1380966E1,8.638336E1,1.17594986E2,-3.264585E-1,-2.7398917E-1,-2.3050636E-1,-1.7929678E-1,-1.1050829E-1,-3.295089E-2,1.2672396E-1,2.2009094E-1,3.0113012E-1,4.1686293E-1,5.747399E-1,6.670736E-1,7.9199225E-1,9.5494705E-1,1.1007632E0,1.2714593E0],"categories":[],"categories_nodes":[],"categories_segments":[],"categories_sizes":[],"default_left":[0,0,0,0,0,0,0,0,0,0,0,0,0,0,0,0,0,0,0,0,0,0,0,0,0,0,0,0,0,0,0],"id":40,"left_children":[1,3,5,7,9,11,13,15,17,19,21,23,25,27,29,-1,-1,-1,-1,-1,-1,-1,-1,-1,-1,-1,-1,-1,-1,-1,-1],"loss_changes":[3.0132424E7,1.850596E6,3.582126E6,3.58963E5,6.463615E5,5.73516E5,4.6351E5,2.0911E4,4.689E4,7.194825E4,2.0496625E4,5.496375E4,2.1013E4,9.6644E4,3.6128E4,0E0,0E0,0E0,0E0,0E0,0E0,0E0,0E0,0E0,0E0,0E0,0E0,0E0,0E0,0E0,0E0],"parents":[2147483647,0,0,1,1,2,2,3,3,4,4,5,5,6,6,7,7,8,8,9,9,10,10,11,11,12,12,13,13,14,14],"right_children":[2,4,6,8,10,12,14,16,18,20,22,24,26,28,30,-1,-1,-1,-1,-1,-1,-1,-1,-1,-1,-1,-1,-1,-1,-1,-1],"split_conditions":[8.89E1,2.98E1,1.5775E2,1.305E1,5.56E1,1.2695E2,2.0485E2,7.4E0,2.13E1,4.17E1,7.975E1,1.0445E2,1.4505E2,1.827E2,2.3195E2,-3.264585E-1,-2.7398917E-1,-2.3050636E-1,-1.7929678E-1,-1.1050829E-1,-3.295089E-2,1.2672396E-1,2.2009094E-1,3.0113012E-1,4.1686293E-1,5.747399E-1,6.670736E-1,7.9199225E-1,9.5494705E-1,1.1007632E0,1.2714593E0],"split_indices":[3,3,3,3,3,1,3,2,3,3,3,2,3,3,5,0,0,0,0,0,0,0,0,0,0,0,0,0,0,0,0],"split_type":[0,0,0,0,0,0,0,0,0,0,0,0,0,0,0,0,0,0,0,0,0,0,0,0,0,0,0,0,0,0,0],"sum_hessian":[2.5445E4,1.9975E4,5.47E3,1.2607E4,7.368E3,3.182E3,2.288E3,5.253E3,7.354E3,6.374E3,9.94E2,1.989E3,1.193E3,1.591E3,6.97E2,4.276E3,9.77E2,4.18E3,3.174E3,4.777E3,1.597E3,3.97E2,5.97E2,1.391E3,5.98E2,6.95E2,4.98E2,8.95E2,6.96E2,3.97E2,3E2],"tree_param":{"num_deleted":"0","num_feature":"200","num_nodes":"31","size_leaf_vector":"1"}},{"base_weights":[7.7802152E-3,-1.7619581E1,6.584961E1,-2.4938711E1,-4.682046E0,4.5000427E1,9.609464E1,-3.125158E1,-2.040019E1,-8.810816E0,1.8624083E1,3.3751804E1,6.1438034E1,8.653946E1,1.1642259E2,-3.2318872E-1,-2.7006748E-1,-2.2624938E-1,-1.7420968E-1,-1.0668496E-1,-3.0134847E-2,1.2548707E-1,2.2076419E-1,3.0661726E-1,4.2316565E-1,5.688799E-1,6.665606E-1,7.94511E-1,9.4540966E-1,1.0897136E0,1.2588825E0],"categories":[],"categories_nodes":[],"categories_segments":[],"categories_sizes":[],"default_left":[0,0,0,0,0,0,0,0,0,0,0,0,0,0,0,0,0,0,0,0,0,0,0,0,0,0,0,0,0,0,0],"id":41,"left_children":[1,3,5,7,9,11,13,15,17,19,21,23,25,27,29,-1,-1,-1,-1,-1,-1,-1,-1,-1,-1,-1,-1,-1,-1,-1,-1],"loss_changes":[2.9534238E7,1.900626E6,3.384438E6,3.666695E5,6.9818494E5,5.864645E5,4.15692E5,2.3411E4,4.90575E4,6.634081E4,2.2626844E4,4.877575E4,2.6883E4,7.7281E4,3.5512E4,0E0,0E0,0E0,0E0,0E0,0E0,0E0,0E0,0E0,0E0,0E0,0E0,0E0,0E0,0E0,0E0],"parents":[2147483647,0,0,1,1,2,2,3,3,4,4,5,5,6,6,7,7,8,8,9,9,10,10,11,11,12,12,13,13,14,14],"right_children":[2,4,6,8,10,12,14,16,18,20,22,24,26,28,30,-1,-1,-1,-1,-1,-1,-1,-1,-1,-1,-1,-1,-1,-1,-1,-1],"split_conditions":[8.985E1,3.05E1,1.597E2,1.325E1,5.56E1,1.232E2,2.071E2,7.3E0,2.16E1,4.21E1,8.05E1,1.0815E2,1.4505E2,1.827E2,2.2645E2,-3.2318872E-1,-2.7006748E-1,-2.2624938E-1,-1.7420968E-1,-1.0668496E-1,-3.0134847E-2,1.2548707E-1,2.2076419E-1,3.0661726E-1,4.2316565E-1,5.688799E-1,6.665606E-1,7.94511E-1,9.4540966E-1,1.0897136E0,1.2588825E0],"split_indices":[3,3,3,3,20,2,1,20,3,3,1,3,3,3,2,0,0,0,0,0,0,0,0,0,0,0,0,0,0,0,0],"split_type":[0,0,0,0,0,0,0,0,0,0,0,0,0,0,0,0,0,0,0,0,0,0,0,0,0,0,0,0,0,0,0],"sum_hessian":[2.5445E4,2.0072E4,5.373E3,1.2819E4,7.253E3,3.182E3,2.191E3,5.359E3,7.46E3,6.162E3,1.091E3,1.891E3,1.291E3,1.494E3,6.97E2,4.277E3,1.082E3,4.267E3,3.193E3,4.666E3,1.496E3,3.97E2,6.94E2,1.393E3,4.98E2,6.96E2,5.95E2,7.98E2,6.96E2,3.97E2,3E2],"tree_param":{"num_deleted":"0","num_feature":"200","num_nodes":"31","size_leaf_vector":"1"}},{"base_weights":[7.9099145E-3,-1.7443424E1,6.5192245E1,-2.4774902E1,-4.784469E0,4.455104E1,9.513556E1,-3.0939173E1,-2.027745E1,-8.82742E0,1.8440966E1,3.3421253E1,6.08362E1,8.5663795E1,1.15243835E2,-3.199639E-1,-2.67393E-1,-2.2398742E-1,-1.7336139E-1,-1.114891E-1,-4.2100843E-2,1.24310754E-1,2.1856065E-1,3.035533E-1,4.1902193E-1,5.633495E-1,6.5990615E-1,7.8657585E-1,9.358375E-1,1.0786613E0,1.246407E0],"categories":[],"categories_nodes":[],"categories_segments":[],"categories_sizes":[],"default_left":[0,0,0,0,0,0,0,0,0,0,0,0,0,0,0,0,0,0,0,0,0,0,0,0,0,0,0,0,0,0,0],"id":42,"left_children":[1,3,5,7,9,11,13,15,17,19,21,23,25,27,29,-1,-1,-1,-1,-1,-1,-1,-1,-1,-1,-1,-1,-1,-1,-1,-1],"loss_changes":[2.8947322E7,1.8628335E6,3.317252E6,3.517665E5,6.915433E5,5.74887E5,4.07616E5,2.2944E4,4.54835E4,6.718331E4,2.2140938E4,4.79495E4,2.62355E4,7.554E4,3.5016E4,0E0,0E0,0E0,0E0,0E0,0E0,0E0,0E0,0E0,0E0,0E0,0E0,0E0,0E0,0E0,0E0],"parents":[2147483647,0,0,1,1,2,2,3,3,4,4,5,5,6,6,7,7,8,8,9,9,10,10,11,11,12,12,13,13,14,14],"right_children":[2,4,6,8,10,12,14,16,18,20,22,24,26,28,30,-1,-1,-1,-1,-1,-1,-1,-1,-1,-1,-1,-1,-1,-1,-1,-1],"split_conditions":[8.985E1,3.01E1,1.597E2,1.325E1,5.68E1,1.2695E2,2.031E2,7.4E0,2.16E1,4.01E1,7.975E1,1.0815E2,1.4505E2,1.827E2,2.2935E2,-3.199639E-1,-2.67393E-1,-2.2398742E-1,-1.7336139E-1,-1.114891E-1,-4.2100843E-2,1.24310754E-1,2.1856065E-1,3.035533E-1,4.1902193E-1,5.633495E-1,6.5990615E-1,7.8657585E-1,9.358375E-1,1.0786613E0,1.246407E0],"split_indices":[3,3,3,3,1,1,2,2,3,3,0,3,3,3,3,0,0,0,0,0,0,0,0,0,0,0,0,0,0,0,0],"split_type":[0,0,0,0,0,0,0,0,0,0,0,0,0,0,0,0,0,0,0,0,0,0,0,0,0,0,0,0,0,0,0],"sum_hessian":[2.5445E4,2.0072E4,5.373E3,1.271E4,7.362E3,3.182E3,2.191E3,5.359E3,7.351E3,6.271E3,1.091E3,1.892E3,1.29E3,1.493E3,6.98E2,4.276E3,1.083E3,4.267E3,3.084E3,4.172E3,2.099E3,3.97E2,6.94E2,1.393E3,4.99E2,6.95E2,5.95E2,7.98E2,6.95E2,3.98E2,3E2],"tree_param":{"num_deleted":"0","num_feature":"200","num_nodes":"31","size_leaf_vector":"1"}},{"base_weights":[8.035565E-3,-1.8276245E1,6.0987823E1,-2.5833267E1,-8.541034E0,3.731708E1,8.901412E1,-3.133231E1,-2.1778776E1,-1.0771017E1,1.0561657E1,2.9103004E1,5.296101E1,7.534411E1,1.0599293E2,-3.183046E-1,-2.845322E-1,-2.4660106E-1,-1.9933088E-1,-1.3994013E-1,-7.112416E-2,3.0815056E-2,1.651856E-1,2.3802945E-1,3.3060333E-1,4.3205827E-1,5.657105E-1,6.760619E-1,8.2024986E-1,9.693488E-1,1.1840785E0],"categories":[],"categories_nodes":[],"categories_segments":[],"categories_sizes":[],"default_left":[0,0,0,0,0,0,0,0,0,0,0,0,0,0,0,0,0,0,0,0,0,0,0,0,0,0,0,0,0,0,0],"id":43,"left_children":[1,3,5,7,9,11,13,15,17,19,21,23,25,27,29,-1,-1,-1,-1,-1,-1,-1,-1,-1,-1,-1,-1,-1,-1,-1,-1],"loss_changes":[2.8372682E7,1.4400435E6,3.890856E6,2.450405E5,3.6463075E5,4.07604E5,6.15666E5,5.7995E3,3.3262E4,9.025994E4,3.9829E4,4.3048875E4,3.611775E4,7.1586E4,1.23018E5,0E0,0E0,0E0,0E0,0E0,0E0,0E0,0E0,0E0,0E0,0E0,0E0,0E0,0E0,0E0,0E0],"parents":[2147483647,0,0,1,1,2,2,3,3,4,4,5,5,6,6,7,7,8,8,9,9,10,10,11,11,12,12,13,13,14,14],"right_children":[2,4,6,8,10,12,14,16,18,20,22,24,26,28,30,-1,-1,-1,-1,-1,-1,-1,-1,-1,-1,-1,-1,-1,-1,-1,-1],"split_conditions":[8.27E1,2.405E1,1.4735E2,1.01E1,4.915E1,1.125E2,1.902E2,4.2E0,1.63E1,3.445E1,6.85E1,9.415E1,1.2515E2,1.6705E2,2.1485E2,-3.183046E-1,-2.845322E-1,-2.4660106E-1,-1.9933088E-1,-1.3994013E-1,-7.112416E-2,3.0815056E-2,1.651856E-1,2.3802945E-1,3.3060333E-1,4.3205827E-1,5.657105E-1,6.760619E-1,8.2024986E-1,9.693488E-1,1.1840785E0],"split_indices":[3,3,3,2,3,3,3,1,3,3,1,3,3,3,3,0,0,0,0,0,0,0,0,0,0,0,0,0,0,0,0],"split_type":[0,0,0,0,0,0,0,0,0,0,0,0,0,0,0,0,0,0,0,0,0,0,0,0,0,0,0,0,0,0,0],"sum_hessian":[2.5445E4,1.9576E4,5.869E3,1.102E4,8.556E3,3.183E3,2.686E3,4.674E3,6.346E3,7.662E3,8.94E2,2.089E3,1.094E3,1.491E3,1.195E3,3.976E3,6.98E2,2.473E3,3.873E3,4.072E3,3.59E3,3.97E2,4.97E2,8.96E2,1.193E3,2.99E2,7.95E2,6.96E2,7.95E2,6.96E2,4.99E2],"tree_param":{"num_deleted":"0","num_feature":"200","num_nodes":"31","size_leaf_vector":"1"}},{"base_weights":[8.118014E-3,-1.7296286E1,6.316144E1,-2.4431992E1,-5.3153195E0,4.228428E1,9.216132E1,-3.0514326E1,-2.0151173E1,-8.833218E0,1.7540447E1,3.227576E1,5.8938107E1,8.297394E1,1.12997055E2,-3.142216E-1,-2.668868E-1,-2.3224607E-1,-1.8181571E-1,-1.13383576E-1,-4.5734055E-2,1.07912675E-1,2.0424375E-1,2.8912264E-1,4.0081123E-1,5.448524E-1,6.3270277E-1,7.6077205E-1,9.1730595E-1,1.057367E0,1.2222172E0],"categories":[],"categories_nodes":[],"categories_segments":[],"categories_sizes":[],"default_left":[0,0,0,0,0,0,0,0,0,0,0,0,0,0,0,0,0,0,0,0,0,0,0,0,0,0,0,0,0,0,0],"id":44,"left_children":[1,3,5,7,9,11,13,15,17,19,21,23,25,27,29,-1,-1,-1,-1,-1,-1,-1,-1,-1,-1,-1,-1,-1,-1,-1,-1],"loss_changes":[2.780926E7,1.7075005E6,3.30965E6,3.25321E5,5.9972944E5,5.288075E5,4.2899E5,1.71135E4,4.40705E4,6.891756E4,1.9146469E4,5.1111375E4,1.958575E4,8.9226E4,3.3825E4,0E0,0E0,0E0,0E0,0E0,0E0,0E0,0E0,0E0,0E0,0E0,0E0,0E0,0E0,0E0,0E0],"parents":[2147483647,0,0,1,1,2,2,3,3,4,4,5,5,6,6,7,7,8,8,9,9,10,10,11,11,12,12,13,13,14,14],"right_children":[2,4,6,8,10,12,14,16,18,20,22,24,26,28,30,-1,-1,-1,-1,-1,-1,-1,-1,-1,-1,-1,-1,-1,-1,-1,-1],"split_conditions":[8.97E1,2.935E1,1.5945E2,1.29E1,5.485E1,1.232E2,2.0485E2,5.2E0,1.97E1,3.92E1,7.535E1,1.064E2,1.4265E2,1.827E2,2.3195E2,-3.142216E-1,-2.668868E-1,-2.3224607E-1,-1.8181571E-1,-1.13383576E-1,-4.5734055E-2,1.07912675E-1,2.0424375E-1,2.8912264E-1,4.0081123E-1,5.448524E-1,6.3270277E-1,7.6077205E-1,9.1730595E-1,1.057367E0,1.2222172E0],"split_indices":[1,3,1,1,34,2,3,124,3,3,3,1,3,3,5,0,0,0,0,0,0,0,0,0,0,0,0,0,0,0,0],"split_type":[0,0,0,0,0,0,0,0,0,0,0,0,0,0,0,0,0,0,0,0,0,0,0,0,0,0,0,0,0,0,0],"sum_hessian":[2.5445E4,1.9973E4,5.472E3,1.2517E4,7.456E3,3.183E3,2.289E3,5.168E3,7.349E3,6.462E3,9.94E2,1.99E3,1.193E3,1.592E3,6.97E2,4.171E3,9.97E2,2.866E3,4.483E3,4.068E3,2.394E3,2.99E2,6.95E2,1.394E3,5.96E2,5.95E2,5.98E2,8.96E2,6.96E2,3.97E2,3E2],"tree_param":{"num_deleted":"0","num_feature":"200","num_nodes":"31","size_leaf_vector":"1"}},{"base_weights":[8.232681E-3,-1.6926075E1,6.3261368E1,-2.3960093E1,-4.492517E0,4.3235104E1,9.2335014E1,-2.9865784E1,-1.948464E1,-8.457805E0,1.789078E1,3.243456E1,5.902628E1,8.313614E1,1.11850876E2,-3.104709E-1,-2.5792462E-1,-2.1506622E-1,-1.6572124E-1,-1.01793125E-1,-2.6045399E-2,1.20559044E-1,2.1206447E-1,2.9451427E-1,4.068666E-1,5.465532E-1,6.402319E-1,7.6344275E-1,9.0803915E-1,1.0466062E0,1.2101054E0],"categories":[],"categories_nodes":[],"categories_segments":[],"categories_sizes":[],"default_left":[0,0,0,0,0,0,0,0,0,0,0,0,0,0,0,0,0,0,0,0,0,0,0,0,0,0,0,0,0,0,0],"id":45,"left_children":[1,3,5,7,9,11,13,15,17,19,21,23,25,27,29,-1,-1,-1,-1,-1,-1,-1,-1,-1,-1,-1,-1,-1,-1,-1,-1],"loss_changes":[2.7257504E7,1.7554345E6,3.124948E6,3.38259E5,6.439889E5,5.41127E5,3.84038E5,2.5785E4,4.261E4,6.2074562E4,2.087075E4,4.5401875E4,2.472E4,7.0821E4,3.3372E4,0E0,0E0,0E0,0E0,0E0,0E0,0E0,0E0,0E0,0E0,0E0,0E0,0E0,0E0,0E0,0E0],"parents":[2147483647,0,0,1,1,2,2,3,3,4,4,5,5,6,6,7,7,8,8,9,9,10,10,11,11,12,12,13,13,14,14],"right_children":[2,4,6,8,10,12,14,16,18,20,22,24,26,28,30,-1,-1,-1,-1,-1,-1,-1,-1,-1,-1,-1,-1,-1,-1,-1,-1],"split_conditions":[8.985E1,3.05E1,1.614E2,1.35E1,5.68E1,1.2695E2,2.031E2,7.3E0,2.205E1,4.245E1,7.975E1,1.0815E2,1.4505E2,1.827E2,2.2935E2,-3.104709E-1,-2.5792462E-1,-2.1506622E-1,-1.6572124E-1,-1.01793125E-1,-2.6045399E-2,1.20559044E-1,2.1206447E-1,2.9451427E-1,4.068666E-1,