{"learner":{"attributes":{"best_iteration":"1048","best_score":"1.4641254039415814"},"feature_names":["open","high","low","close","open_before1","high_before1","low_before1","close_before1","open_before2","high_before2","low_before2","close_before2","open_before3","high_before3","low_before3","close_before3","open_before4","high_before4","low_before4","close_before4","open_before5","high_before5","low_before5","close_before5","open_before6","high_before6","low_before6","close_before6","open_before7","high_before7","low_before7","close_before7"],"feature_types":["float","float","float","float","float","float","float","float","float","float","float","float","float","float","float","float","float","float","float","float","float","float","float","float","float","float","float","float","float","float","float","float"],"gradient_booster":{"model":{"gbtree_model_param":{"num_parallel_tree":"1","num_trees":"1148"},"iteration_indptr":[0,1,2,3,4,5,6,7,8,9,10,11,12,13,14,15,16,17,18,19,20,21,22,23,24,25,26,27,28,29,30,31,32,33,34,35,36,37,38,39,40,41,42,43,44,45,46,47,48,49,50,51,52,53,54,55,56,57,58,59,60,61,62,63,64,65,66,67,68,69,70,71,72,73,74,75,76,77,78,79,80,81,82,83,84,85,86,87,88,89,90,91,92,93,94,95,96,97,98,99,100,101,102,103,104,105,106,107,108,109,110,111,112,113,114,115,116,117,118,119,120,121,122,123,124,125,126,127,128,129,130,131,132,133,134,135,136,137,138,139,140,141,142,143,144,145,146,147,148,149,150,151,152,153,154,155,156,157,158,159,160,161,162,163,164,165,166,167,168,169,170,171,172,173,174,175,176,177,178,179,180,181,182,183,184,185,186,187,188,189,190,191,192,193,194,195,196,197,198,199,200,201,202,203,204,205,206,207,208,209,210,211,212,213,214,215,216,217,218,219,220,221,222,223,224,225,226,227,228,229,230,231,232,233,234,235,236,237,238,239,240,241,242,243,244,245,246,247,248,249,250,251,252,253,254,255,256,257,258,259,260,261,262,263,264,265,266,267,268,269,270,271,272,273,274,275,276,277,278,279,280,281,282,283,284,285,286,287,288,289,290,291,292,293,294,295,296,297,298,299,300,301,302,303,304,305,306,307,308,309,310,311,312,313,314,315,316,317,318,319,320,321,322,323,324,325,326,327,328,329,330,331,332,333,334,335,336,337,338,339,340,341,342,343,344,345,346,347,348,349,350,351,352,353,354,355,356,357,358,359,360,361,362,363,364,365,366,367,368,369,370,371,372,373,374,375,376,377,378,379,380,381,382,383,384,385,386,387,388,389,390,391,392,393,394,395,396,397,398,399,400,401,402,403,404,405,406,407,408,409,410,411,412,413,414,415,416,417,418,419,420,421,422,423,424,425,426,427,428,429,430,431,432,433,434,435,436,437,438,439,440,441,442,443,444,445,446,447,448,449,450,451,452,453,454,455,456,457,458,459,460,461,462,463,464,465,466,467,468,469,470,471,472,473,474,475,476,477,478,479,480,481,482,483,484,485,486,487,488,489,490,491,492,493,494,495,496,497,498,499,500,501,502,503,504,505,506,507,508,509,510,511,512,513,514,515,516,517,518,519,520,521,522,523,524,525,526,527,528,529,530,531,532,533,534,535,536,537,538,539,540,541,542,543,544,545,546,547,548,549,550,551,552,553,554,555,556,557,558,559,560,561,562,563,564,565,566,567,568,569,570,571,572,573,574,575,576,577,578,579,580,581,582,583,584,585,586,587,588,589,590,591,592,593,594,595,596,597,598,599,600,601,602,603,604,605,606,607,608,609,610,611,612,613,614,615,616,617,618,619,620,621,622,623,624,625,626,627,628,629,630,631,632,633,634,635,636,637,638,639,640,641,642,643,644,645,646,647,648,649,650,651,652,653,654,655,656,657,658,659,660,661,662,663,664,665,666,667,668,669,670,671,672,673,674,675,676,677,678,679,680,681,682,683,684,685,686,687,688,689,690,691,692,693,694,695,696,697,698,699,700,701,702,703,704,705,706,707,708,709,710,711,712,713,714,715,716,717,718,719,720,721,722,723,724,725,726,727,728,729,730,731,732,733,734,735,736,737,738,739,740,741,742,743,744,745,746,747,748,749,750,751,752,753,754,755,756,757,758,759,760,761,762,763,764,765,766,767,768,769,770,771,772,773,774,775,776,777,778,779,780,781,782,783,784,785,786,787,788,789,790,791,792,793,794,795,796,797,798,799,800,801,802,803,804,805,806,807,808,809,810,811,812,813,814,815,816,817,818,819,820,821,822,823,824,825,826,827,828,829,830,831,832,833,834,835,836,837,838,839,840,841,842,843,844,845,846,847,848,849,850,851,852,853,854,855,856,857,858,859,860,861,862,863,864,865,866,867,868,869,870,871,872,873,874,875,876,877,878,879,880,881,882,883,884,885,886,887,888,889,890,891,892,893,894,895,896,897,898,899,900,901,902,903,904,905,906,907,908,909,910,911,912,913,914,915,916,917,918,919,920,921,922,923,924,925,926,927,928,929,930,931,932,933,934,935,936,937,938,939,940,941,942,943,944,945,946,947,948,949,950,951,952,953,954,955,956,957,958,959,960,961,962,963,964,965,966,967,968,969,970,971,972,973,974,975,976,977,978,979,980,981,982,983,984,985,986,987,988,989,990,991,992,993,994,995,996,997,998,999,1000,1001,1002,1003,1004,1005,1006,1007,1008,1009,1010,1011,1012,1013,1014,1015,1016,1017,1018,1019,1020,1021,1022,1023,1024,1025,1026,1027,1028,1029,1030,1031,1032,1033,1034,1035,1036,1037,1038,1039,1040,1041,1042,1043,1044,1045,1046,1047,1048,1049,1050,1051,1052,1053,1054,1055,1056,1057,1058,1059,1060,1061,1062,1063,1064,1065,1066,1067,1068,1069,1070,1071,1072,1073,1074,1075,1076,1077,1078,1079,1080,1081,1082,1083,1084,1085,1086,1087,1088,1089,1090,1091,1092,1093,1094,1095,1096,1097,1098,1099,1100,1101,1102,1103,1104,1105,1106,1107,1108,1109,1110,1111,1112,1113,1114,1115,1116,1117,1118,1119,1120,1121,1122,1123,1124,1125,1126,1127,1128,1129,1130,1131,1132,1133,1134,1135,1136,1137,1138,1139,1140,1141,1142,1143,1144,1145,1146,1147,1148],"tree_info":[0,0,0,0,0,0,0,0,0,0,0,0,0,0,0,0,0,0,0,0,0,0,0,0,0,0,0,0,0,0,0,0,0,0,0,0,0,0,0,0,0,0,0,0,0,0,0,0,0,0,0,0,0,0,0,0,0,0,0,0,0,0,0,0,0,0,0,0,0,0,0,0,0,0,0,0,0,0,0,0,0,0,0,0,0,0,0,0,0,0,0,0,0,0,0,0,0,0,0,0,0,0,0,0,0,0,0,0,0,0,0,0,0,0,0,0,0,0,0,0,0,0,0,0,0,0,0,0,0,0,0,0,0,0,0,0,0,0,0,0,0,0,0,0,0,0,0,0,0,0,0,0,0,0,0,0,0,0,0,0,0,0,0,0,0,0,0,0,0,0,0,0,0,0,0,0,0,0,0,0,0,0,0,0,0,0,0,0,0,0,0,0,0,0,0,0,0,0,0,0,0,0,0,0,0,0,0,0,0,0,0,0,0,0,0,0,0,0,0,0,0,0,0,0,0,0,0,0,0,0,0,0,0,0,0,0,0,0,0,0,0,0,0,0,0,0,0,0,0,0,0,0,0,0,0,0,0,0,0,0,0,0,0,0,0,0,0,0,0,0,0,0,0,0,0,0,0,0,0,0,0,0,0,0,0,0,0,0,0,0,0,0,0,0,0,0,0,0,0,0,0,0,0,0,0,0,0,0,0,0,0,0,0,0,0,0,0,0,0,0,0,0,0,0,0,0,0,0,0,0,0,0,0,0,0,0,0,0,0,0,0,0,0,0,0,0,0,0,0,0,0,0,0,0,0,0,0,0,0,0,0,0,0,0,0,0,0,0,0,0,0,0,0,0,0,0,0,0,0,0,0,0,0,0,0,0,0,0,0,0,0,0,0,0,0,0,0,0,0,0,0,0,0,0,0,0,0,0,0,0,0,0,0,0,0,0,0,0,0,0,0,0,0,0,0,0,0,0,0,0,0,0,0,0,0,0,0,0,0,0,0,0,0,0,0,0,0,0,0,0,0,0,0,0,0,0,0,0,0,0,0,0,0,0,0,0,0,0,0,0,0,0,0,0,0,0,0,0,0,0,0,0,0,0,0,0,0,0,0,0,0,0,0,0,0,0,0,0,0,0,0,0,0,0,0,0,0,0,0,0,0,0,0,0,0,0,0,0,0,0,0,0,0,0,0,0,0,0,0,0,0,0,0,0,0,0,0,0,0,0,0,0,0,0,0,0,0,0,0,0,0,0,0,0,0,0,0,0,0,0,0,0,0,0,0,0,0,0,0,0,0,0,0,0,0,0,0,0,0,0,0,0,0,0,0,0,0,0,0,0,0,0,0,0,0,0,0,0,0,0,0,0,0,0,0,0,0,0,0,0,0,0,0,0,0,0,0,0,0,0,0,0,0,0,0,0,0,0,0,0,0,0,0,0,0,0,0,0,0,0,0,0,0,0,0,0,0,0,0,0,0,0,0,0,0,0,0,0,0,0,0,0,0,0,0,0,0,0,0,0,0,0,0,0,0,0,0,0,0,0,0,0,0,0,0,0,0,0,0,0,0,0,0,0,0,0,0,0,0,0,0,0,0,0,0,0,0,0,0,0,0,0,0,0,0,0,0,0,0,0,0,0,0,0,0,0,0,0,0,0,0,0,0,0,0,0,0,0,0,0,0,0,0,0,0,0,0,0,0,0,0,0,0,0,0,0,0,0,0,0,0,0,0,0,0,0,0,0,0,0,0,0,0,0,0,0,0,0,0,0,0,0,0,0,0,0,0,0,0,0,0,0,0,0,0,0,0,0,0,0,0,0,0,0,0,0,0,0,0,0,0,0,0,0,0,0,0,0,0,0,0,0,0,0,0,0,0,0,0,0,0,0,0,0,0,0,0,0,0,0,0,0,0,0,0,0,0,0,0,0,0,0,0,0,0,0,0,0,0,0,0,0,0,0,0,0,0,0,0,0,0,0,0,0,0,0,0,0,0,0,0,0,0,0,0,0,0,0,0,0,0,0,0,0,0,0,0,0,0,0,0,0,0,0,0,0,0,0,0,0,0,0,0,0,0,0,0,0,0,0,0,0,0,0,0,0,0,0,0,0,0,0,0,0,0,0,0,0,0,0,0,0,0,0,0,0,0,0,0,0,0,0,0,0,0,0,0,0,0,0,0,0,0,0,0,0,0,0,0,0,0,0,0,0,0,0,0,0,0,0,0,0,0,0,0,0,0,0,0,0,0,0,0,0,0,0,0,0,0,0,0,0,0,0,0,0,0,0,0,0,0,0,0,0,0,0,0,0,0,0,0,0,0,0,0,0,0,0,0,0,0,0,0,0,0,0,0,0,0,0,0,0,0,0,0,0,0,0,0,0,0,0,0,0,0,0,0,0,0,0,0,0,0,0,0,0,0,0,0,0,0,0,0,0,0,0,0,0,0,0,0,0,0,0,0,0,0,0,0,0,0,0,0,0,0,0,0,0,0,0,0,0,0,0,0,0,0,0,0,0,0,0,0,0,0,0,0,0,0,0,0,0,0,0,0,0,0,0,0,0,0,0,0,0,0,0,0,0,0,0,0,0,0,0,0,0,0,0],"trees":[{"base_weights":[-1.9384203E-7,-2.7831001E1,9.492222E1,-3.9009842E1,-1.1709126E1,6.071812E1,1.4000441E2,-4.807187E1,-3.2690998E1,-1.5095265E1,2.3898266E1,4.7210056E1,8.766653E1,1.2335962E2,1.6929163E2,-4.881437E-1,-4.2760918E-1,-3.7124118E-1,-2.9646227E-1,-1.9230011E-1,-8.288145E-2,1.6563308E-1,2.9408526E-1,4.059399E-1,5.504919E-1,7.350746E-1,9.0706605E-1,1.1189824E0,1.3468041E0,1.5630234E0,1.8506554E0],"categories":[],"categories_nodes":[],"categories_segments":[],"categories_sizes":[],"default_left":[0,0,0,0,0,0,0,0,0,0,0,0,0,0,0,0,0,0,0,0,0,0,0,0,0,0,0,0,0,0,0],"id":0,"left_children":[1,3,5,7,9,11,13,15,17,19,21,23,25,27,29,-1,-1,-1,-1,-1,-1,-1,-1,-1,-1,-1,-1,-1,-1,-1,-1],"loss_changes":[6.730199E7,3.549955E6,8.898068E6,6.64552E5,9.7313225E5,1.192035E6,1.193428E6,1.675E4,9.14545E4,2.0721825E5,2.7845594E4,1.113995E5,4.051E4,1.91494E5,1.55476E5,0E0,0E0,0E0,0E0,0E0,0E0,0E0,0E0,0E0,0E0,0E0,0E0,0E0,0E0,0E0,0E0],"parents":[2147483647,0,0,1,1,2,2,3,3,4,4,5,5,6,6,7,7,8,8,9,9,10,10,11,11,12,12,13,13,14,14],"right_children":[2,4,6,8,10,12,14,16,18,20,22,24,26,28,30,-1,-1,-1,-1,-1,-1,-1,-1,-1,-1,-1,-1,-1,-1,-1,-1],"split_conditions":[8.465E1,2.575E1,1.544E2,1.12E1,5.52E1,1.182E2,1.9815E2,5.2E0,1.775E1,3.77E1,7.62E1,9.925E1,1.3265E2,1.7435E2,2.218E2,-4.881437E-1,-4.2760918E-1,-3.7124118E-1,-2.9646227E-1,-1.9230011E-1,-8.288145E-2,1.6563308E-1,2.9408526E-1,4.059399E-1,5.504919E-1,7.350746E-1,9.0706605E-1,1.1189824E0,1.3468041E0,1.5630234E0,1.8506554E0],"split_indices":[3,3,1,1,3,3,3,4,2,3,1,3,3,3,3,0,0,0,0,0,0,0,0,0,0,0,0,0,0,0,0],"split_type":[0,0,0,0,0,0,0,0,0,0,0,0,0,0,0,0,0,0,0,0,0,0,0,0,0,0,0,0,0,0,0],"sum_hessian":[2.5474E4,1.9699E4,5.775E3,1.1632E4,8.067E3,3.285E3,2.49E3,4.776E3,6.856E3,7.367E3,7E2,2.19E3,1.095E3,1.591E3,8.99E2,4.183E3,5.93E2,2.787E3,4.069E3,4.582E3,2.785E3,3.02E2,3.98E2,1.191E3,9.99E2,1.98E2,8.97E2,7.96E2,7.95E2,4.99E2,4E2],"tree_param":{"num_deleted":"0","num_feature":"32","num_nodes":"31","size_leaf_vector":"1"}},{"base_weights":[2.7772412E-4,-2.7552763E1,9.3974464E1,-3.849196E1,-1.1403775E1,5.8876305E1,1.37036E2,-4.758819E1,-3.2246002E1,-1.4789231E1,2.3659939E1,4.673839E1,8.557177E1,1.19290054E2,1.6527797E2,-4.832712E-1,-4.2330974E-1,-3.675623E-1,-2.9240096E-1,-1.8887636E-1,-8.2052924E-2,1.639822E-1,2.911518E-1,4.0188387E-1,5.449925E-1,7.281538E-1,8.867328E-1,1.0798888E0,1.3042778E0,1.5297056E0,1.832195E0],"categories":[],"categories_nodes":[],"categories_segments":[],"categories_sizes":[],"default_left":[0,0,0,0,0,0,0,0,0,0,0,0,0,0,0,0,0,0,0,0,0,0,0,0,0,0,0,0,0,0,0],"id":1,"left_children":[1,3,5,7,9,11,13,15,17,19,21,23,25,27,29,-1,-1,-1,-1,-1,-1,-1,-1,-1,-1,-1,-1,-1,-1,-1,-1],"loss_changes":[6.5964356E7,3.479704E6,8.721668E6,6.65696E5,9.448991E5,1.027703E6,1.279848E6,1.6519E4,9.33655E4,1.9566525E5,2.7292219E4,1.09186E5,3.287E4,1.868E5,1.92344E5,0E0,0E0,0E0,0E0,0E0,0E0,0E0,0E0,0E0,0E0,0E0,0E0,0E0,0E0,0E0,0E0],"parents":[2147483647,0,0,1,1,2,2,3,3,4,4,5,5,6,6,7,7,8,8,9,9,10,10,11,11,12,12,13,13,14,14],"right_children":[2,4,6,8,10,12,14,16,18,20,22,24,26,28,30,-1,-1,-1,-1,-1,-1,-1,-1,-1,-1,-1,-1,-1,-1,-1,-1],"split_conditions":[8.465E1,2.635E1,1.4945E2,1.11E1,5.52E1,1.182E2,1.957E2,5.2E0,1.795E1,3.77E1,7.62E1,9.925E1,1.3405E2,1.719E2,2.218E2,-4.832712E-1,-4.2330974E-1,-3.675623E-1,-2.9240096E-1,-1.8887636E-1,-8.2052924E-2,1.639822E-1,2.911518E-1,4.0188387E-1,5.449925E-1,7.281538E-1,8.867328E-1,1.0798888E0,1.3042778E0,1.5297056E0,1.832195E0],"split_indices":[3,3,3,3,3,3,3,0,3,3,1,3,1,3,3,0,0,0,0,0,0,0,0,0,0,0,0,0,0,0,0],"split_type":[0,0,0,0,0,0,0,0,0,0,0,0,0,0,0,0,0,0,0,0,0,0,0,0,0,0,0,0,0,0,0],"sum_hessian":[2.5474E4,1.9699E4,5.775E3,1.1743E4,7.956E3,3.183E3,2.592E3,4.778E3,6.965E3,7.256E3,7E2,2.19E3,9.93E2,1.595E3,9.97E2,4.182E3,5.96E2,2.781E3,4.184E3,4.471E3,2.785E3,3.02E2,3.98E2,1.191E3,9.99E2,1.99E2,7.94E2,7.97E2,7.98E2,5.97E2,4E2],"tree_param":{"num_deleted":"0","num_feature":"32","num_nodes":"31","size_leaf_vector":"1"}},{"base_weights":[5.471911E-4,-2.7277304E1,9.3036156E1,-3.8107174E1,-1.1289713E1,5.9508053E1,1.3722737E2,-4.711249E1,-3.1923635E1,-1.4641376E1,2.3423988E1,4.627144E1,8.591491E1,1.2090912E2,1.6594006E2,-4.7844037E-1,-4.1907856E-1,-3.638359E-1,-2.894412E-1,-1.8698801E-1,-8.123268E-2,1.3604267E-1,2.7371842E-1,3.9784145E-1,5.3958017E-1,7.516426E-1,8.9798695E-1,1.1097438E0,1.3350685E0,1.532158E0,1.8139188E0],"categories":[],"categories_nodes":[],"categories_segments":[],"categories_sizes":[],"default_left":[0,0,0,0,0,0,0,0,0,0,0,0,0,0,0,0,0,0,0,0,0,0,0,0,0,0,0,0,0,0,0],"id":2,"left_children":[1,3,5,7,9,11,13,15,17,19,21,23,25,27,29,-1,-1,-1,-1,-1,-1,-1,-1,-1,-1,-1,-1,-1,-1,-1,-1],"loss_changes":[6.465329E7,3.410496E6,8.549832E6,6.5246E5,9.2612894E5,1.144605E6,1.147072E6,1.619E4,9.15145E4,1.91772E5,2.6803156E4,1.071075E5,3.9012E4,1.84432E5,1.49158E5,0E0,0E0,0E0,0E0,0E0,0E0,0E0,0E0,0E0,0E0,0E0,0E0,0E0,0E0,0E0,0E0],"parents":[2147483647,0,0,1,1,2,2,3,3,4,4,5,5,6,6,7,7,8,8,9,9,10,10,11,11,12,12,13,13,14,14],"right_children":[2,4,6,8,10,12,14,16,18,20,22,24,26,28,30,-1,-1,-1,-1,-1,-1,-1,-1,-1,-1,-1,-1,-1,-1,-1,-1],"split_conditions":[8.465E1,2.635E1,1.527E2,1.11E1,5.52E1,1.182E2,1.9815E2,5.1E0,1.775E1,3.77E1,7.2E1,9.82E1,1.358E2,1.769E2,2.218E2,-4.7844037E-1,-4.1907856E-1,-3.638359E-1,-2.894412E-1,-1.8698801E-1,-8.123268E-2,1.3604267E-1,2.7371842E-1,3.9784145E-1,5.3958017E-1,7.516426E-1,8.9798695E-1,1.1097438E0,1.3350685E0,1.532158E0,1.8139188E0],"split_indices":[3,3,3,3,3,3,3,30,2,3,3,2,3,3,3,0,0,0,0,0,0,0,0,0,0,0,0,0,0,0,0],"split_type":[0,0,0,0,0,0,0,0,0,0,0,0,0,0,0,0,0,0,0,0,0,0,0,0,0,0,0,0,0,0,0],"sum_hessian":[2.5474E4,1.9699E4,5.775E3,1.1743E4,7.956E3,3.285E3,2.49E3,4.778E3,6.965E3,7.256E3,7E2,2.19E3,1.095E3,1.591E3,8.99E2,4.182E3,5.96E2,2.785E3,4.18E3,4.471E3,2.785E3,2.02E2,4.98E2,1.191E3,9.99E2,2.96E2,7.99E2,8.95E2,6.96E2,4.99E2,4E2],"tree_param":{"num_deleted":"0","num_feature":"32","num_nodes":"31","size_leaf_vector":"1"}},{"base_weights":[8.1467035E-4,-2.7004604E1,9.210725E1,-3.78524E1,-1.1360153E1,5.8913563E1,1.3585768E2,-4.664476E1,-3.172159E1,-1.4645784E1,2.319033E1,4.580915E1,8.505668E1,1.1830061E2,1.6200436E2,-4.7365782E-1,-4.149741E-1,-3.602749E-1,-2.8771332E-1,-1.8656982E-1,-8.0420636E-2,1.6053747E-1,2.8551722E-1,3.9954996E-1,5.417802E-1,7.129654E-1,8.801125E-1,1.08568E0,1.2924415E0,1.4994427E0,1.7958522E0],"categories":[],"categories_nodes":[],"categories_segments":[],"categories_sizes":[],"default_left":[0,0,0,0,0,0,0,0,0,0,0,0,0,0,0,0,0,0,0,0,0,0,0,0,0,0,0,0,0,0,0],"id":3,"left_children":[1,3,5,7,9,11,13,15,17,19,21,23,25,27,29,-1,-1,-1,-1,-1,-1,-1,-1,-1,-1,-1,-1,-1,-1,-1,-1],"loss_changes":[6.336831E7,3.342814E6,8.38012E6,6.25589E5,9.1622E5,1.121855E6,1.124348E6,1.5764E4,8.60715E4,1.9501975E5,2.6363281E4,1.051785E5,3.82835E4,1.45092E5,1.84676E5,0E0,0E0,0E0,0E0,0E0,0E0,0E0,0E0,0E0,0E0,0E0,0E0,0E0,0E0,0E0,0E0],"parents":[2147483647,0,0,1,1,2,2,3,3,4,4,5,5,6,6,7,7,8,8,9,9,10,10,11,11,12,12,13,13,14,14],"right_children":[2,4,6,8,10,12,14,16,18,20,22,24,26,28,30,-1,-1,-1,-1,-1,-1,-1,-1,-1,-1,-1,-1,-1,-1,-1,-1],"split_conditions":[8.465E1,2.575E1,1.544E2,1.12E1,5.52E1,1.182E2,1.957E2,5.15E0,1.795E1,3.77E1,7.62E1,1.005E2,1.3265E2,1.7435E2,2.24E2,-4.7365782E-1,-4.149741E-1,-3.602749E-1,-2.8771332E-1,-1.8656982E-1,-8.0420636E-2,1.6053747E-1,2.8551722E-1,3.9954996E-1,5.417802E-1,7.129654E-1,8.801125E-1,1.08568E0,1.2924415E0,1.4994427E0,1.7958522E0],"split_indices":[3,3,1,1,3,3,3,18,3,3,1,3,3,3,1,0,0,0,0,0,0,0,0,0,0,0,0,0,0,0,0],"split_type":[0,0,0,0,0,0,0,0,0,0,0,0,0,0,0,0,0,0,0,0,0,0,0,0,0,0,0,0,0,0,0],"sum_hessian":[2.5474E4,1.9699E4,5.775E3,1.1632E4,8.067E3,3.285E3,2.49E3,4.776E3,6.856E3,7.367E3,7E2,2.19E3,1.095E3,1.493E3,9.97E2,4.182E3,5.94E2,2.783E3,4.073E3,4.582E3,2.785E3,3.02E2,3.98E2,1.292E3,8.98E2,1.98E2,8.97E2,7.96E2,6.97E2,5.97E2,4E2],"tree_param":{"num_deleted":"0","num_feature":"32","num_nodes":"31","size_leaf_vector":"1"}},{"base_weights":[1.0756116E-3,-2.6734627E1,9.118759E1,-3.7349655E1,-1.1064192E1,5.712476E1,1.329789E2,-4.6177055E1,-3.1290426E1,-1.4341583E1,2.3040295E1,4.535149E1,8.3018234E1,1.1431456E2,1.5828754E2,-4.6892345E-1,-4.107932E-1,-3.5543862E-1,-2.8288E-1,-1.8215357E-1,-7.761489E-2,1.6012086E-1,2.826692E-1,3.8986823E-1,5.2892816E-1,7.062522E-1,8.6031544E-1,1.0331321E0,1.2378217E0,1.4685217E0,1.7779777E0],"categories":[],"categories_nodes":[],"categories_segments":[],"categories_sizes":[],"default_left":[0,0,0,0,0,0,0,0,0,0,0,0,0,0,0,0,0,0,0,0,0,0,0,0,0,0,0,0,0,0,0],"id":4,"left_children":[1,3,5,7,9,11,13,15,17,19,21,23,25,27,29,-1,-1,-1,-1,-1,-1,-1,-1,-1,-1,-1,-1,-1,-1,-1,-1],"loss_changes":[6.210885E7,3.276527E6,8.214716E6,6.26709E5,8.8971456E5,9.6688E5,1.206756E6,1.5496E4,8.79675E4,1.849145E5,2.5187562E4,1.03102E5,3.1044E4,1.4303E5,2.18862E5,0E0,0E0,0E0,0E0,0E0,0E0,0E0,0E0,0E0,0E0,0E0,0E0,0E0,0E0,0E0,0E0],"parents":[2147483647,0,0,1,1,2,2,3,3,4,4,5,5,6,6,7,7,8,8,9,9,10,10,11,11,12,12,13,13,14,14],"right_children":[2,4,6,8,10,12,14,16,18,20,22,24,26,28,30,-1,-1,-1,-1,-1,-1,-1,-1,-1,-1,-1,-1,-1,-1,-1,-1],"split_conditions":[8.465E1,2.635E1,1.4945E2,1.12E1,5.445E1,1.182E2,1.925E2,5.2E0,1.855E1,3.815E1,7.62E1,9.82E1,1.3405E2,1.6955E2,2.218E2,-4.6892345E-1,-4.107932E-1,-3.5543862E-1,-2.8288E-1,-1.8215357E-1,-7.761489E-2,1.6012086E-1,2.826692E-1,3.8986823E-1,5.2892816E-1,7.062522E-1,8.6031544E-1,1.0331321E0,1.2378217E0,1.4685217E0,1.7779777E0],"split_indices":[3,3,3,5,2,3,3,0,3,3,1,2,1,3,3,0,0,0,0,0,0,0,0,0,0,0,0,0,0,0,0],"split_type":[0,0,0,0,0,0,0,0,0,0,0,0,0,0,0,0,0,0,0,0,0,0,0,0,0,0,0,0,0,0,0],"sum_hessian":[2.5474E4,1.9699E4,5.775E3,1.1743E4,7.956E3,3.183E3,2.592E3,4.777E3,6.966E3,7.259E3,6.97E2,2.19E3,9.93E2,1.495E3,1.097E3,4.182E3,5.95E2,2.878E3,4.088E3,4.568E3,2.691E3,2.99E2,3.98E2,1.191E3,9.99E2,1.99E2,7.94E2,6.97E2,7.98E2,6.97E2,4E2],"tree_param":{"num_deleted":"0","num_feature":"32","num_nodes":"31","size_leaf_vector":"1"}},{"base_weights":[1.3252249E-3,-2.6467348E1,9.02771E1,-3.6877285E1,-1.08047495E1,5.773994E1,1.3316222E2,-4.556203E1,-3.078043E1,-1.4075862E1,2.2812273E1,4.489839E1,8.3358635E1,1.1731263E2,1.6105043E2,-4.6354738E-1,-3.9831415E-1,-3.50753E-1,-2.7918038E-1,-1.7914186E-1,-7.684357E-2,1.583367E-1,2.7971748E-1,3.9154783E-1,5.3109276E-1,7.289523E-1,8.7138975E-1,1.0766034E0,1.2955242E0,1.4871691E0,1.7602725E0],"categories":[],"categories_nodes":[],"categories_segments":[],"categories_sizes":[],"default_left":[0,0,0,0,0,0,0,0,0,0,0,0,0,0,0,0,0,0,0,0,0,0,0,0,0,0,0,0,0,0,0],"id":5,"left_children":[1,3,5,7,9,11,13,15,17,19,21,23,25,27,29,-1,-1,-1,-1,-1,-1,-1,-1,-1,-1,-1,-1,-1,-1,-1,-1],"loss_changes":[6.0874396E7,3.211621E6,8.051908E6,6.25204E5,8.654163E5,1.077298E6,1.082172E6,2.0318E4,8.45345E4,1.7576162E5,2.468925E4,1.01248E5,3.70005E4,1.74134E5,1.40066E5,0E0,0E0,0E0,0E0,0E0,0E0,0E0,0E0,0E0,0E0,0E0,0E0,0E0,0E0,0E0,0E0],"parents":[2147483647,0,0,1,1,2,2,3,3,4,4,5,5,6,6,7,7,8,8,9,9,10,10,11,11,12,12,13,13,14,14],"right_children":[2,4,6,8,10,12,14,16,18,20,22,24,26,28,30,-1,-1,-1,-1,-1,-1,-1,-1,-1,-1,-1,-1,-1,-1,-1,-1],"split_conditions":[8.465E1,2.675E1,1.527E2,1.145E1,5.625E1,1.182E2,1.9815E2,6.55E0,1.855E1,3.815E1,7.405E1,1.005E2,1.358E2,1.769E2,2.24E2,-4.6354738E-1,-3.9831415E-1,-3.50753E-1,-2.7918038E-1,-1.7914186E-1,-7.684357E-2,1.583367E-1,2.7971748E-1,3.9154783E-1,5.3109276E-1,7.289523E-1,8.7138975E-1,1.0766034E0,1.2955242E0,1.4871691E0,1.7602725E0],"split_indices":[3,3,3,3,1,3,3,2,3,3,2,3,3,3,1,0,0,0,0,0,0,0,0,0,0,0,0,0,0,0,0],"split_type":[0,0,0,0,0,0,0,0,0,0,0,0,0,0,0,0,0,0,0,0,0,0,0,0,0,0,0,0,0,0,0],"sum_hessian":[2.5474E4,1.9699E4,5.775E3,1.1833E4,7.866E3,3.285E3,2.49E3,4.878E3,6.955E3,7.169E3,6.97E2,2.19E3,1.095E3,1.591E3,8.99E2,4.279E3,5.99E2,2.777E3,4.178E3,4.478E3,2.691E3,2.98E2,3.99E2,1.292E3,8.98E2,2.96E2,7.99E2,8.95E2,6.96E2,4.99E2,4E2],"tree_param":{"num_deleted":"0","num_feature":"32","num_nodes":"31","size_leaf_vector":"1"}},{"base_weights":[1.5802339E-3,-2.6202742E1,8.937574E1,-3.6729588E1,-1.1021163E1,5.5987106E1,1.3033989E2,-4.526038E1,-3.0781166E1,-1.4209779E1,2.2509136E1,4.444983E1,8.1361534E1,1.1203816E2,1.5515688E2,-4.595944E-1,-4.0260127E-1,-3.4954348E-1,-2.791492E-1,-1.822717E-1,-7.992763E-2,1.3015541E-1,2.6326153E-1,3.8203937E-1,5.185048E-1,6.9152206E-1,8.431165E-1,1.0123649E0,1.2133418E0,1.4395155E0,1.7427446E0],"categories":[],"categories_nodes":[],"categories_segments":[],"categories_sizes":[],"default_left":[0,0,0,0,0,0,0,0,0,0,0,0,0,0,0,0,0,0,0,0,0,0,0,0,0,0,0,0,0,0,0],"id":6,"left_children":[1,3,5,7,9,11,13,15,17,19,21,23,25,27,29,-1,-1,-1,-1,-1,-1,-1,-1,-1,-1,-1,-1,-1,-1,-1,-1],"loss_changes":[5.966452E7,3.147933E6,7.892756E6,5.8892E5,8.629119E5,9.28505E5,1.16034E6,1.4849E4,8.10435E4,1.8387888E5,2.5059625E4,9.9295E4,2.99725E4,1.37934E5,2.10126E5,0E0,0E0,0E0,0E0,0E0,0E0,0E0,0E0,0E0,0E0,0E0,0E0,0E0,0E0,0E0,0E0],"parents":[2147483647,0,0,1,1,2,2,3,3,4,4,5,5,6,6,7,7,8,8,9,9,10,10,11,11,12,12,13,13,14,14],"right_children":[2,4,6,8,10,12,14,16,18,20,22,24,26,28,30,-1,-1,-1,-1,-1,-1,-1,-1,-1,-1,-1,-1,-1,-1,-1,-1],"split_conditions":[8.465E1,2.575E1,1.4945E2,1.095E1,5.52E1,1.182E2,1.925E2,5.2E0,1.775E1,3.725E1,7.2E1,9.925E1,1.3265E2,1.6955E2,2.218E2,-4.595944E-1,-4.0260127E-1,-3.4954348E-1,-2.791492E-1,-1.822717E-1,-7.992763E-2,1.3015541E-1,2.6326153E-1,3.8203937E-1,5.185048E-1,6.9152206E-1,8.431165E-1,1.0123649E0,1.2133418E0,1.4395155E0,1.7427446E0],"split_indices":[3,3,3,2,3,3,3,15,2,3,3,3,3,3,3,0,0,0,0,0,0,0,0,0,0,0,0,0,0,0,0],"split_type":[0,0,0,0,0,0,0,0,0,0,0,0,0,0,0,0,0,0,0,0,0,0,0,0,0,0,0,0,0,0,0],"sum_hessian":[2.5474E4,1.9699E4,5.775E3,1.1632E4,8.067E3,3.183E3,2.592E3,4.776E3,6.856E3,7.367E3,7E2,2.19E3,9.93E2,1.495E3,1.097E3,4.183E3,5.93E2,2.787E3,4.069E3,4.474E3,2.893E3,2.02E2,4.98E2,1.191E3,9.99E2,1.98E2,7.95E2,6.97E2,7.98E2,6.97E2,4E2],"tree_param":{"num_deleted":"0","num_feature":"32","num_nodes":"31","size_leaf_vector":"1"}},{"base_weights":[1.8189582E-3,-2.5940784E1,8.8483345E1,-3.614461E1,-1.0588292E1,5.6589935E1,1.3051997E2,-4.4656315E1,-3.0169235E1,-1.3794554E1,2.2362263E1,4.4005745E1,8.1695206E1,1.1497581E2,1.5787085E2,-4.5433092E-1,-3.9040855E-1,-3.4377614E-1,-2.7364486E-1,-1.7447399E-1,-7.3361546E-2,1.5525433E-1,2.7446687E-1,3.7239143E-1,5.0707614E-1,7.331903E-1,8.6273474E-1,1.0550714E0,1.269829E0,1.4579064E0,1.7253976E0],"categories":[],"categories_nodes":[],"categories_segments":[],"categories_sizes":[],"default_left":[0,0,0,0,0,0,0,0,0,0,0,0,0,0,0,0,0,0,0,0,0,0,0,0,0,0,0,0,0,0,0],"id":7,"left_children":[1,3,5,7,9,11,13,15,17,19,21,23,25,27,29,-1,-1,-1,-1,-1,-1,-1,-1,-1,-1,-1,-1,-1,-1,-1,-1],"loss_changes":[5.8478656E7,3.085704E6,7.736448E6,6.00538E5,8.3144225E5,1.03455E6,1.040888E6,1.9509E4,8.1164E4,1.6902312E5,2.3837281E4,9.7471E4,3.57045E4,1.67598E5,1.34328E5,0E0,0E0,0E0,0E0,0E0,0E0,0E0,0E0,0E0,0E0,0E0,0E0,0E0,0E0,0E0,0E0],"parents":[2147483647,0,0,1,1,2,2,3,3,4,4,5,5,6,6,7,7,8,8,9,9,10,10,11,11,12,12,13,13,14,14],"right_children":[2,4,6,8,10,12,14,16,18,20,22,24,26,28,30,-1,-1,-1,-1,-1,-1,-1,-1,-1,-1,-1,-1,-1,-1,-1,-1],"split_conditions":[8.465E1,2.675E1,1.544E2,1.145E1,5.445E1,1.182E2,1.9815E2,6.55E0,1.855E1,3.85E1,7.62E1,9.79E1,1.3735E2,1.769E2,2.24E2,-4.5433092E-1,-3.9040855E-1,-3.4377614E-1,-2.7364486E-1,-1.7447399E-1,-7.3361546E-2,1.5525433E-1,2.7446687E-1,3.7239143E-1,5.0707614E-1,7.331903E-1,8.6273474E-1,1.0550714E0,1.269829E0,1.4579064E0,1.7253976E0],"split_indices":[3,3,1,3,2,3,3,2,3,3,1,3,3,3,1,0,0,0,0,0,0,0,0,0,0,0,0,0,0,0,0],"split_type":[0,0,0,0,0,0,0,0,0,0,0,0,0,0,0,0,0,0,0,0,0,0,0,0,0,0,0,0,0,0,0],"sum_hessian":[2.5474E4,1.9699E4,5.775E3,1.1833E4,7.866E3,3.285E3,2.49E3,4.878E3,6.955E3,7.169E3,6.97E2,2.19E3,1.095E3,1.591E3,8.99E2,4.279E3,5.99E2,2.777E3,4.178E3,4.578E3,2.591E3,2.99E2,3.98E2,1.093E3,1.097E3,3.93E2,7.02E2,8.95E2,6.96E2,4.99E2,4E2],"tree_param":{"num_deleted":"0","num_feature":"32","num_nodes":"31","size_leaf_vector":"1"}},{"base_weights":[2.0634665E-3,-2.5393877E1,8.859255E1,-3.5673607E1,-9.790031E0,5.6801807E1,1.292175E2,-4.4209923E1,-2.9767633E1,-1.3522781E1,2.3283735E1,4.4154793E1,8.087855E1,1.1382831E2,1.5629568E2,-4.497887E-1,-3.8651097E-1,-3.4033957E-1,-2.6992202E-1,-1.7028566E-1,-7.054344E-2,1.5353926E-1,2.7979195E-1,4.0038073E-1,5.434194E-1,7.0698804E-1,8.4556675E-1,1.0321363E0,1.2431332E0,1.4433382E0,1.7082098E0],"categories":[],"categories_nodes":[],"categories_segments":[],"categories_sizes":[],"default_left":[0,0,0,0,0,0,0,0,0,0,0,0,0,0,0,0,0,0,0,0,0,0,0,0,0,0,0,0,0,0,0],"id":8,"left_children":[1,3,5,7,9,11,13,15,17,19,21,23,25,27,29,-1,-1,-1,-1,-1,-1,-1,-1,-1,-1,-1,-1,-1,-1,-1,-1],"loss_changes":[5.73169E7,3.175636E6,7.323196E6,6.00442E5,9.71297E5,9.66562E5,1.02024E6,1.9116E4,8.2654E4,1.6016075E5,2.9283219E4,8.5516E4,3.5059E4,1.6435E5,1.31718E5,0E0,0E0,0E0,0E0,0E0,0E0,0E0,0E0,0E0,0E0,0E0,0E0,0E0,0E0,0E0,0E0],"parents":[2147483647,0,0,1,1,2,2,3,3,4,4,5,5,6,6,7,7,8,8,9,9,10,10,11,11,12,12,13,13,14,14],"right_children":[2,4,6,8,10,12,14,16,18,20,22,24,26,28,30,-1,-1,-1,-1,-1,-1,-1,-1,-1,-1,-1,-1,-1,-1,-1,-1],"split_conditions":[8.67E1,2.72E1,1.527E2,1.145E1,5.625E1,1.182E2,1.9815E2,6.55E0,1.855E1,3.885E1,7.405E1,1.0305E2,1.358E2,1.7435E2,2.218E2,-4.497887E-1,-3.8651097E-1,-3.4033957E-1,-2.6992202E-1,-1.7028566E-1,-7.054344E-2,1.5353926E-1,2.7979195E-1,4.0038073E-1,5.434194E-1,7.0698804E-1,8.4556675E-1,1.0321363E0,1.2431332E0,1.4433382E0,1.7082098E0],"split_indices":[3,3,3,3,1,3,3,2,3,3,2,3,3,3,3,0,0,0,0,0,0,0,0,0,0,0,0,0,0,0,0],"split_type":[0,0,0,0,0,0,0,0,0,0,0,0,0,0,0,0,0,0,0,0,0,0,0,0,0,0,0,0,0,0,0],"sum_hessian":[2.5474E4,1.9799E4,5.675E3,1.1935E4,7.864E3,3.185E3,2.49E3,4.878E3,7.057E3,7.067E3,7.97E2,2.09E3,1.095E3,1.591E3,8.99E2,4.279E3,5.99E2,2.777E3,4.28E3,4.582E3,2.485E3,2.98E2,4.99E2,1.492E3,5.98E2,2.96E2,7.99E2,7.96E2,7.95E2,4.99E2,4E2],"tree_param":{"num_deleted":"0","num_feature":"32","num_nodes":"31","size_leaf_vector":"1"}},{"base_weights":[2.3041454E-3,-2.5424858E1,8.672584E1,-3.564071E1,-1.0691788E1,5.43231E1,1.2648039E2,-4.3915886E1,-2.9868477E1,-1.3785747E1,2.184314E1,4.3132362E1,7.893536E1,1.087036E2,1.5058568E2,-4.4596827E-1,-3.906304E-1,-3.392174E-1,-2.709231E-1,-1.7788799E-1,-7.888673E-2,1.2601034E-1,2.5559178E-1,3.7587574E-1,5.105925E-1,6.7031217E-1,8.181223E-1,9.665948E-1,1.1661643E0,1.3972162E0,1.6912068E0],"categories":[],"categories_nodes":[],"categories_segments":[],"categories_sizes":[],"default_left":[0,0,0,0,0,0,0,0,0,0,0,0,0,0,0,0,0,0,0,0,0,0,0,0,0,0,0,0,0,0,0],"id":9,"left_children":[1,3,5,7,9,11,13,15,17,19,21,23,25,27,29,-1,-1,-1,-1,-1,-1,-1,-1,-1,-1,-1,-1,-1,-1,-1,-1],"loss_changes":[5.6177976E7,2.964683E6,7.433516E6,5.54353E5,8.1244E5,8.73563E5,1.094772E6,1.4048E4,7.6228E4,1.7379088E5,2.3753094E4,9.43815E4,2.8557E4,1.31302E5,1.9747E5,0E0,0E0,0E0,0E0,0E0,0E0,0E0,0E0,0E0,0E0,0E0,0E0,0E0,0E0,0E0,0E0],"parents":[2147483647,0,0,1,1,2,2,3,3,4,4,5,5,6,6,7,7,8,8,9,9,10,10,11,11,12,12,13,13,14,14],"right_children":[2,4,6,8,10,12,14,16,18,20,22,24,26,28,30,-1,-1,-1,-1,-1,-1,-1,-1,-1,-1,-1,-1,-1,-1,-1,-1],"split_conditions":[8.575E1,2.575E1,1.4945E2,1.12E1,5.52E1,1.182E2,1.925E2,5.1E0,1.795E1,3.695E1,7.2E1,1.005E2,1.3265E2,1.669E2,2.24E2,-4.4596827E-1,-3.906304E-1,-3.392174E-1,-2.709231E-1,-1.7788799E-1,-7.888673E-2,1.2601034E-1,2.5559178E-1,3.7587574E-1,5.105925E-1,6.7031217E-1,8.181223E-1,9.665948E-1,1.1661643E0,1.3972162E0,1.6912068E0],"split_indices":[1,3,3,5,3,3,3,30,3,3,3,3,3,3,1,0,0,0,0,0,0,0,0,0,0,0,0,0,0,0,0],"split_type":[0,0,0,0,0,0,0,0,0,0,0,0,0,0,0,0,0,0,0,0,0,0,0,0,0,0,0,0,0,0,0],"sum_hessian":[2.5474E4,1.9699E4,5.775E3,1.1632E4,8.067E3,3.183E3,2.592E3,4.777E3,6.855E3,7.367E3,7E2,2.19E3,9.93E2,1.495E3,1.097E3,4.182E3,5.95E2,2.782E3,4.073E3,4.387E3,2.98E3,2.02E2,4.98E2,1.292E3,8.98E2,1.98E2,7.95E2,5.98E2,8.97E2,6.97E2,4E2],"tree_param":{"num_deleted":"0","num_feature":"32","num_nodes":"31","size_leaf_vector":"1"}},{"base_weights":[2.527539E-3,-2.4889004E1,8.683345E1,-3.496524E1,-9.594047E0,5.5673096E1,1.2665282E2,-4.333109E1,-2.9177204E1,-1.3251827E1,2.2815464E1,4.3280144E1,7.926615E1,1.1155984E2,1.532099E2,-4.4084617E-1,-3.7883693E-1,-3.3356985E-1,-2.645807E-1,-1.6691229E-1,-6.9058776E-2,1.5054613E-1,2.7435583E-1,3.9235267E-1,5.3289694E-1,7.110662E-1,8.372645E-1,1.0234663E0,1.2324342E0,1.4149363E0,1.6743665E0],"categories":[],"categories_nodes":[],"categories_segments":[],"categories_sizes":[],"default_left":[0,0,0,0,0,0,0,0,0,0,0,0,0,0,0,0,0,0,0,0,0,0,0,0,0,0,0,0,0,0,0],"id":10,"left_children":[1,3,5,7,9,11,13,15,17,19,21,23,25,27,29,-1,-1,-1,-1,-1,-1,-1,-1,-1,-1,-1,-1,-1,-1,-1,-1],"loss_changes":[5.5062668E7,3.051154E6,7.035648E6,5.76699E5,9.326736E5,9.28116E5,9.81364E5,1.8357E4,7.93345E4,1.5415275E5,2.8200062E4,8.256825E4,3.39345E4,1.58754E5,1.26326E5,0E0,0E0,0E0,0E0,0E0,0E0,0E0,0E0,0E0,0E0,0E0,0E0,0E0,0E0,0E0,0E0],"parents":[2147483647,0,0,1,1,2,2,3,3,4,4,5,5,6,6,7,7,8,8,9,9,10,10,11,11,12,12,13,13,14,14],"right_children":[2,4,6,8,10,12,14,16,18,20,22,24,26,28,30,-1,-1,-1,-1,-1,-1,-1,-1,-1,-1,-1,-1,-1,-1,-1,-1],"split_conditions":[8.67E1,2.72E1,1.544E2,1.145E1,5.625E1,1.182E2,1.9815E2,6.65E0,1.855E1,3.885E1,7.62E1,1.0305E2,1.3735E2,1.769E2,2.218E2,-4.4084617E-1,-3.7883693E-1,-3.3356985E-1,-2.645807E-1,-1.6691229E-1,-6.9058776E-2,1.5054613E-1,2.7435583E-1,3.9235267E-1,5.3289694E-1,7.110662E-1,8.372645E-1,1.0234663E0,1.2324342E0,1.4149363E0,1.6743665E0],"split_indices":[3,3,1,3,1,3,3,7,3,3,1,3,3,3,3,0,0,0,0,0,0,0,0,0,0,0,0,0,0,0,0],"split_type":[0,0,0,0,0,0,0,0,0,0,0,0,0,0,0,0,0,0,0,0,0,0,0,0,0,0,0,0,0,0,0],"sum_hessian":[2.5474E4,1.9799E4,5.675E3,1.1935E4,7.864E3,3.185E3,2.49E3,4.878E3,7.057E3,7.067E3,7.97E2,2.09E3,1.095E3,1.591E3,8.99E2,4.279E3,5.99E2,2.777E3,4.28E3,4.582E3,2.485E3,2.99E2,4.98E2,1.492E3,5.98E2,3.93E2,7.02E2,8.95E2,6.96E2,4.99E2,4E2],"tree_param":{"num_deleted":"0","num_feature":"32","num_nodes":"31","size_leaf_vector":"1"}},{"base_weights":[2.760072E-3,-2.4640177E1,8.596649E1,-3.4520363E1,-9.351566E0,5.511674E1,1.2538895E2,-4.276263E1,-2.8703585E1,-1.3003526E1,2.2589626E1,4.2847786E1,7.847374E1,1.091494E2,1.495738E2,-4.3643874E-1,-3.7274143E-1,-3.2788786E-1,-2.601653E-1,-1.6413127E-1,-6.837421E-2,1.4888056E-1,2.7149984E-1,3.7883666E-1,5.0843674E-1,6.568672E-1,8.1237316E-1,9.8789173E-1,1.1803746E0,1.3846349E0,1.6576931E0],"categories":[],"categories_nodes":[],"categories_segments":[],"categories_sizes":[],"default_left":[0,0,0,0,0,0,0,0,0,0,0,0,0,0,0,0,0,0,0,0,0,0,0,0,0,0,0,0,0,0,0],"id":11,"left_children":[1,3,5,7,9,11,13,15,17,19,21,23,25,27,29,-1,-1,-1,-1,-1,-1,-1,-1,-1,-1,-1,-1,-1,-1,-1,-1],"loss_changes":[5.396833E7,2.990553E6,6.896088E6,5.75388E5,9.071149E5,9.09637E5,9.6202E5,2.2431E4,7.658E4,1.46572E5,2.7623094E4,8.1071E4,3.3394E4,1.2591E5,1.56624E5,0E0,0E0,0E0,0E0,0E0,0E0,0E0,0E0,0E0,0E0,0E0,0E0,0E0,0E0,0E0,0E0],"parents":[2147483647,0,0,1,1,2,2,3,3,4,4,5,5,6,6,7,7,8,8,9,9,10,10,11,11,12,12,13,13,14,14],"right_children":[2,4,6,8,10,12,14,16,18,20,22,24,26,28,30,-1,-1,-1,-1,-1,-1,-1,-1,-1,-1,-1,-1,-1,-1,-1,-1],"split_conditions":[8.67E1,2.76E1,1.527E2,1.205E1,5.445E1,1.182E2,1.957E2,6.65E0,1.905E1,3.885E1,7.405E1,1.014E2,1.3405E2,1.719E2,2.24E2,-4.3643874E-1,-3.7274143E-1,-3.2788786E-1,-2.601653E-1,-1.6413127E-1,-6.837421E-2,1.4888056E-1,2.7149984E-1,3.7883666E-1,5.0843674E-1,6.568672E-1,8.1237316E-1,9.8789173E-1,1.1803746E0,1.3846349E0,1.6576931E0],"split_indices":[3,3,3,1,6,3,3,7,3,3,2,3,1,3,1,0,0,0,0,0,0,0,0,0,0,0,0,0,0,0,0],"split_type":[0,0,0,0,0,0,0,0,0,0,0,0,0,0,0,0,0,0,0,0,0,0,0,0,0,0,0,0,0,0,0],"sum_hessian":[2.5474E4,1.9799E4,5.675E3,1.2026E4,7.773E3,3.185E3,2.49E3,4.973E3,7.053E3,6.976E3,7.97E2,2.09E3,1.095E3,1.493E3,9.97E2,4.279E3,6.94E2,2.794E3,4.259E3,4.491E3,2.485E3,2.98E2,4.99E2,1.293E3,7.97E2,1.99E2,8.96E2,6.95E2,7.98E2,5.97E2,4E2],"tree_param":{"num_deleted":"0","num_feature":"32","num_nodes":"31","size_leaf_vector":"1"}},{"base_weights":[2.982146E-3,-2.4670284E1,8.415523E1,-3.4584717E1,-1.0371914E1,5.2709614E1,1.2273551E2,-4.2611572E1,-2.8983706E1,-1.3373557E1,2.1192255E1,4.1855927E1,7.658056E1,1.0547327E2,1.4614314E2,-4.327529E-1,-3.7907696E-1,-3.291542E-1,-2.6291752E-1,-1.738429E-1,-7.805909E-2,1.22045755E-1,2.4806094E-1,3.5353777E-1,4.8296264E-1,6.499618E-1,7.938044E-1,9.374809E-1,1.1317694E0,1.3560666E0,1.6411902E0],"categories":[],"categories_nodes":[],"categories_segments":[],"categories_sizes":[],"default_left":[0,0,0,0,0,0,0,0,0,0,0,0,0,0,0,0,0,0,0,0,0,0,0,0,0,0,0,0,0,0,0],"id":12,"left_children":[1,3,5,7,9,11,13,15,17,19,21,23,25,27,29,-1,-1,-1,-1,-1,-1,-1,-1,-1,-1,-1,-1,-1,-1,-1,-1],"loss_changes":[5.2896092E7,2.792318E6,7.000864E6,5.21768E5,7.646812E5,8.21731E5,1.032336E6,1.328E4,7.1688E4,1.6439425E5,2.2465781E4,9.0043E4,2.7081E4,1.24519E5,1.85706E5,0E0,0E0,0E0,0E0,0E0,0E0,0E0,0E0,0E0,0E0,0E0,0E0,0E0,0E0,0E0,0E0],"parents":[2147483647,0,0,1,1,2,2,3,3,4,4,5,5,6,6,7,7,8,8,9,9,10,10,11,11,12,12,13,13,14,14],"right_children":[2,4,6,8,10,12,14,16,18,20,22,24,26,28,30,-1,-1,-1,-1,-1,-1,-1,-1,-1,-1,-1,-1,-1,-1,-1,-1],"split_conditions":[8.465E1,2.575E1,1.4945E2,1.11E1,5.52E1,1.182E2,1.925E2,5.2E0,1.795E1,3.66E1,7.2E1,9.79E1,1.3265E2,1.669E2,2.218E2,-4.327529E-1,-3.7907696E-1,-3.291542E-1,-2.6291752E-1,-1.738429E-1,-7.805909E-2,1.22045755E-1,2.4806094E-1,3.5353777E-1,4.8296264E-1,6.499618E-1,7.938044E-1,9.374809E-1,1.1317694E0,1.3560666E0,1.6411902E0],"split_indices":[3,3,3,3,3,3,3,3,3,3,3,3,3,3,3,0,0,0,0,0,0,0,0,0,0,0,0,0,0,0,0],"split_type":[0,0,0,0,0,0,0,0,0,0,0,0,0,0,0,0,0,0,0,0,0,0,0,0,0,0,0,0,0,0,0],"sum_hessian":[2.5474E4,1.9699E4,5.775E3,1.1632E4,8.067E3,3.183E3,2.592E3,4.778E3,6.854E3,7.367E3,7E2,2.19E3,9.93E2,1.495E3,1.097E3,4.18E3,5.98E2,2.781E3,4.073E3,4.281E3,3.086E3,2.02E2,4.98E2,1.093E3,1.097E3,1.98E2,7.95E2,5.98E2,8.97E2,6.97E2,4E2],"tree_param":{"num_deleted":"0","num_feature":"32","num_nodes":"31","size_leaf_vector":"1"}},{"base_weights":[3.1906972E-3,-2.4150229E1,8.42593E1,-3.383518E1,-9.163728E0,5.4021194E1,1.2290015E2,-4.192142E1,-2.8140238E1,-1.2742604E1,2.2138264E1,4.199846E1,7.690944E1,1.0946888E2,1.5110162E2,-4.277617E-1,-3.6550936E-1,-3.2142937E-1,-2.550181E-1,-1.5988688E-1,-6.501909E-2,1.4601827E-1,2.662482E-1,3.8050762E-1,5.176794E-1,6.894609E-1,8.1263137E-1,9.927356E-1,1.2080749E0,1.4185678E0,1.6598719E0],"categories":[],"categories_nodes":[],"categories_segments":[],"categories_sizes":[],"default_left":[0,0,0,0,0,0,0,0,0,0,0,0,0,0,0,0,0,0,0,0,0,0,0,0,0,0,0,0,0,0,0],"id":13,"left_children":[1,3,5,7,9,11,13,15,17,19,21,23,25,27,29,-1,-1,-1,-1,-1,-1,-1,-1,-1,-1,-1,-1,-1,-1,-1,-1],"loss_changes":[5.1845524E7,2.873531E6,6.625352E6,5.52672E5,8.711721E5,8.7349E5,9.27004E5,2.1241E4,7.37395E4,1.4123475E5,2.6593719E4,7.8674E4,3.23955E4,1.83486E5,8.6684E4,0E0,0E0,0E0,0E0,0E0,0E0,0E0,0E0,0E0,0E0,0E0,0E0,0E0,0E0,0E0,0E0],"parents":[2147483647,0,0,1,1,2,2,3,3,4,4,5,5,6,6,7,7,8,8,9,9,10,10,11,11,12,12,13,13,14,14],"right_children":[2,4,6,8,10,12,14,16,18,20,22,24,26,28,30,-1,-1,-1,-1,-1,-1,-1,-1,-1,-1,-1,-1,-1,-1,-1,-1],"split_conditions":[8.67E1,2.76E1,1.544E2,1.19E1,5.445E1,1.182E2,2.0185E2,6.55E0,1.905E1,3.92E1,7.62E1,1.0305E2,1.3735E2,1.769E2,2.2645E2,-4.277617E-1,-3.6550936E-1,-3.2142937E-1,-2.550181E-1,-1.5988688E-1,-6.501909E-2,1.4601827E-1,2.662482E-1,3.8050762E-1,5.176794E-1,6.894609E-1,8.1263137E-1,9.927356E-1,1.2080749E0,1.4185678E0,1.6598719E0],"split_indices":[3,3,1,3,2,3,3,2,3,3,1,3,3,3,2,0,0,0,0,0,0,0,0,0,0,0,0,0,0,0,0],"split_type":[0,0,0,0,0,0,0,0,0,0,0,0,0,0,0,0,0,0,0,0,0,0,0,0,0,0,0,0,0,0,0],"sum_hessian":[2.5474E4,1.9799E4,5.675E3,1.2026E4,7.773E3,3.185E3,2.49E3,4.967E3,7.059E3,6.976E3,7.97E2,2.09E3,1.095E3,1.69E3,8E2,4.279E3,6.88E2,2.8E3,4.259E3,4.588E3,2.388E3,2.99E2,4.98E2,1.492E3,5.98E2,3.93E2,7.02E2,8.95E2,7.95E2,5E2,3E2],"tree_param":{"num_deleted":"0","num_feature":"32","num_nodes":"31","size_leaf_vector":"1"}},{"base_weights":[3.4129252E-3,-2.3908787E1,8.341806E1,-3.3589737E1,-9.213845E0,5.3481323E1,1.216738E2,-4.1625423E1,-2.8030128E1,-1.2727718E1,2.192058E1,4.1578903E1,7.614051E1,1.08376274E2,1.4959444E2,-4.2349324E-1,-3.640213E-1,-3.2044762E-1,-2.541843E-1,-1.6252048E-1,-6.992682E-2,1.4442678E-1,2.6348522E-1,3.7670505E-1,5.125112E-1,6.8258375E-1,8.0449784E-1,9.940874E-1,1.210534E0,1.4044104E0,1.6433283E0],"categories":[],"categories_nodes":[],"categories_segments":[],"categories_sizes":[],"default_left":[0,0,0,0,0,0,0,0,0,0,0,0,0,0,0,0,0,0,0,0,0,0,0,0,0,0,0,0,0,0,0],"id":14,"left_children":[1,3,5,7,9,11,13,15,17,19,21,23,25,27,29,-1,-1,-1,-1,-1,-1,-1,-1,-1,-1,-1,-1,-1,-1,-1,-1],"loss_changes":[5.0815136E7,2.816457E6,6.493948E6,5.32078E5,8.607292E5,8.56095E5,9.08632E5,1.6907E4,7.31885E4,1.4274588E5,2.6042594E4,7.711525E4,3.17355E4,1.80204E5,8.498E4,0E0,0E0,0E0,0E0,0E0,0E0,0E0,0E0,0E0,0E0,0E0,0E0,0E0,0E0,0E0,0E0],"parents":[2147483647,0,0,1,1,2,2,3,3,4,4,5,5,6,6,7,7,8,8,9,9,10,10,11,11,12,12,13,13,14,14],"right_children":[2,4,6,8,10,12,14,16,18,20,22,24,26,28,30,-1,-1,-1,-1,-1,-1,-1,-1,-1,-1,-1,-1,-1,-1,-1,-1],"split_conditions":[8.67E1,2.72E1,1.527E2,1.145E1,5.445E1,1.182E2,2.0185E2,6.5E0,1.855E1,3.815E1,7.51E1,1.0305E2,1.3735E2,1.796E2,2.2645E2,-4.2349324E-1,-3.640213E-1,-3.2044762E-1,-2.541843E-1,-1.6252048E-1,-6.992682E-2,1.4442678E-1,2.6348522E-1,3.7670505E-1,5.125112E-1,6.8258375E-1,8.0449784E-1,9.940874E-1,1.210534E0,1.4044104E0,1.6433283E0],"split_indices":[3,3,3,3,10,3,3,14,3,3,3,3,3,3,2,0,0,0,0,0,0,0,0,0,0,0,0,0,0,0,0],"split_type":[0,0,0,0,0,0,0,0,0,0,0,0,0,0,0,0,0,0,0,0,0,0,0,0,0,0,0,0,0,0,0],"sum_hessian":[2.5474E4,1.9799E4,5.675E3,1.1935E4,7.864E3,3.185E3,2.49E3,4.878E3,7.057E3,7.067E3,7.97E2,2.09E3,1.095E3,1.69E3,8E2,4.278E3,6E2,2.777E3,4.28E3,4.376E3,2.691E3,2.98E2,4.99E2,1.492E3,5.98E2,3.93E2,7.02E2,9.95E2,6.95E2,5E2,3E2],"tree_param":{"num_deleted":"0","num_feature":"32","num_nodes":"31","size_leaf_vector":"1"}},{"base_weights":[3.6316738E-3,-2.393805E1,8.166068E1,-3.3560024E1,-1.0061451E1,5.11442E1,1.1910103E2,-4.134738E1,-2.8126133E1,-1.3187709E1,1.847582E1,4.0616474E1,7.4298225E1,1.0233036E2,1.4184221E2,-4.1990393E-1,-3.6772722E-1,-3.2068744E-1,-2.5596926E-1,-1.6984344E-1,-8.058296E-2,5.4082964E-2,2.2815333E-1,3.4264836E-1,4.6907976E-1,6.3017154E-1,7.7042776E-1,9.0891623E-1,1.0984647E0,1.3160385E0,1.5930985E0],"categories":[],"categories_nodes":[],"categories_segments":[],"categories_sizes":[],"default_left":[0,0,0,0,0,0,0,0,0,0,0,0,0,0,0,0,0,0,0,0,0,0,0,0,0,0,0,0,0,0,0],"id":15,"left_children":[1,3,5,7,9,11,13,15,17,19,21,23,25,27,29,-1,-1,-1,-1,-1,-1,-1,-1,-1,-1,-1,-1,-1,-1,-1,-1],"loss_changes":[4.980576E7,2.630012E6,6.593264E6,4.91095E5,7.200291E5,7.731115E5,9.74416E5,1.25135E4,6.75345E4,1.4148188E5,4.5071844E4,8.5948E4,2.5921E4,1.18634E5,1.75398E5,0E0,0E0,0E0,0E0,0E0,0E0,0E0,0E0,0E0,0E0,0E0,0E0,0E0,0E0,0E0,0E0],"parents":[2147483647,0,0,1,1,2,2,3,3,4,4,5,5,6,6,7,7,8,8,9,9,10,10,11,11,12,12,13,13,14,14],"right_children":[2,4,6,8,10,12,14,16,18,20,22,24,26,28,30,-1,-1,-1,-1,-1,-1,-1,-1,-1,-1,-1,-1,-1,-1,-1,-1],"split_conditions":[8.465E1,2.575E1,1.4945E2,1.12E1,5.23E1,1.194E2,1.925E2,5.15E0,1.725E1,3.625E1,6.7E1,9.79E1,1.3405E2,1.669E2,2.24E2,-4.1990393E-1,-3.6772722E-1,-3.2068744E-1,-2.5596926E-1,-1.6984344E-1,-8.058296E-2,5.4082964E-2,2.2815333E-1,3.4264836E-1,4.6907976E-1,6.3017154E-1,7.7042776E-1,9.0891623E-1,1.0984647E0,1.3160385E0,1.5930985E0],"split_indices":[3,3,3,9,3,1,3,18,3,3,3,3,1,3,1,0,0,0,0,0,0,0,0,0,0,0,0,0,0,0,0],"split_type":[0,0,0,0,0,0,0,0,0,0,0,0,0,0,0,0,0,0,0,0,0,0,0,0,0,0,0,0,0,0,0],"sum_hessian":[2.5474E4,1.9699E4,5.775E3,1.1632E4,8.067E3,3.183E3,2.592E3,4.778E3,6.854E3,7.271E3,7.96E2,2.19E3,9.93E2,1.495E3,1.097E3,4.182E3,5.96E2,2.674E3,4.18E3,4.177E3,3.094E3,1.99E2,5.97E2,1.093E3,1.097E3,1.99E2,7.94E2,5.98E2,8.97E2,6.97E2,4E2],"tree_param":{"num_deleted":"0","num_feature":"32","num_nodes":"31","size_leaf_vector":"1"}},{"base_weights":[3.8222012E-3,-2.3433386E1,8.176152E1,-3.272639E1,-8.722969E0,5.2418304E1,1.1925881E2,-4.0670258E1,-2.7204046E1,-1.2230426E1,2.1483744E1,4.0754112E1,7.462397E1,1.0621372E2,1.4664955E2,-4.1506636E-1,-3.5461104E-1,-3.110181E-1,-2.4595873E-1,-1.5209955E-1,-5.92411E-2,1.4153883E-1,2.584742E-1,3.6909378E-1,5.026902E-1,6.6883165E-1,7.885618E-1,9.6298766E-1,1.1724085E0,1.3766578E0,1.6111538E0],"categories":[],"categories_nodes":[],"categories_segments":[],"categories_sizes":[],"default_left":[0,0,0,0,0,0,0,0,0,0,0,0,0,0,0,0,0,0,0,0,0,0,0,0,0,0,0,0,0,0,0],"id":16,"left_children":[1,3,5,7,9,11,13,15,17,19,21,23,25,27,29,-1,-1,-1,-1,-1,-1,-1,-1,-1,-1,-1,-1,-1,-1,-1,-1],"loss_changes":[4.881641E7,2.706454E6,6.239E6,5.31196E5,8.125718E5,8.22168E5,8.74496E5,2.0199E4,7.20345E4,1.2899606E5,2.5158281E4,7.4638E4,3.06315E4,1.73592E5,8.1916E4,0E0,0E0,0E0,0E0,0E0,0E0,0E0,0E0,0E0,0E0,0E0,0E0,0E0,0E0,0E0,0E0],"parents":[2147483647,0,0,1,1,2,2,3,3,4,4,5,5,6,6,7,7,8,8,9,9,10,10,11,11,12,12,13,13,14,14],"right_children":[2,4,6,8,10,12,14,16,18,20,22,24,26,28,30,-1,-1,-1,-1,-1,-1,-1,-1,-1,-1,-1,-1,-1,-1,-1,-1],"split_conditions":[8.67E1,2.795E1,1.544E2,1.205E1,5.625E1,1.182E2,2.0185E2,6.55E0,1.925E1,3.975E1,7.62E1,1.0305E2,1.3735E2,1.769E2,2.3195E2,-4.1506636E-1,-3.5461104E-1,-3.110181E-1,-2.4595873E-1,-1.5209955E-1,-5.92411E-2,1.4153883E-1,2.584742E-1,3.6909378E-1,5.026902E-1,6.6883165E-1,7.885618E-1,9.6298766E-1,1.1724085E0,1.3766578E0,1.6111538E0],"split_indices":[3,3,1,1,1,3,3,2,3,3,1,3,3,3,1,0,0,0,0,0,0,0,0,0,0,0,0,0,0,0,0],"split_type":[0,0,0,0,0,0,0,0,0,0,0,0,0,0,0,0,0,0,0,0,0,0,0,0,0,0,0,0,0,0,0],"sum_hessian":[2.5474E4,1.9799E4,5.675E3,1.2133E4,7.666E3,3.185E3,2.49E3,4.973E3,7.16E3,6.869E3,7.97E2,2.09E3,1.095E3,1.69E3,8E2,4.279E3,6.94E2,2.866E3,4.294E3,4.664E3,2.205E3,2.99E2,4.98E2,1.492E3,5.98E2,3.93E2,7.02E2,8.95E2,7.95E2,5E2,3E2],"tree_param":{"num_deleted":"0","num_feature":"32","num_nodes":"31","size_leaf_vector":"1"}},{"base_weights":[4.03237E-3,-2.3462011E1,8.003884E1,-3.2983597E1,-9.986754E0,5.0147552E1,1.167635E2,-4.0528194E1,-2.7652796E1,-1.3027719E1,1.8115583E1,3.9810196E1,7.283732E1,9.897367E1,1.3736638E2,-4.115692E-1,-3.6057112E-1,-3.1435913E-1,-2.5170502E-1,-1.6856591E-1,-8.025964E-2,5.314041E-2,2.2366743E-1,3.356478E-1,4.5996597E-1,6.1695325E-1,7.5524557E-1,8.9073974E-1,1.062558E0,1.2580467E0,1.5325491E0],"categories":[],"categories_nodes":[],"categories_segments":[],"categories_sizes":[],"default_left":[0,0,0,0,0,0,0,0,0,0,0,0,0,0,0,0,0,0,0,0,0,0,0,0,0,0,0,0,0,0,0],"id":17,"left_children":[1,3,5,7,9,11,13,15,17,19,21,23,25,27,29,-1,-1,-1,-1,-1,-1,-1,-1,-1,-1,-1,-1,-1,-1,-1,-1],"loss_changes":[4.7846484E7,2.527295E6,6.334728E6,4.63124E5,6.97404E5,7.44384E5,9.36064E5,1.19445E4,6.27565E4,1.40855E5,4.3254984E4,8.310925E4,2.51615E4,9.103E4,2.00792E5,0E0,0E0,0E0,0E0,0E0,0E0,0E0,0E0,0E0,0E0,0E0,0E0,0E0,0E0,0E0,0E0],"parents":[2147483647,0,0,1,1,2,2,3,3,4,4,5,5,6,6,7,7,8,8,9,9,10,10,11,11,12,12,13,13,14,14],"right_children":[2,4,6,8,10,12,14,16,18,20,22,24,26,28,30,-1,-1,-1,-1,-1,-1,-1,-1,-1,-1,-1,-1,-1,-1,-1,-1],"split_conditions":[8.575E1,2.525E1,1.509E2,1.12E1,5.23E1,1.194E2,1.901E2,5.2E0,1.725E1,3.595E1,6.7E1,9.79E1,1.3265E2,1.669E2,2.1485E2,-4.115692E-1,-3.6057112E-1,-3.1435913E-1,-2.5170502E-1,-1.6856591E-1,-8.025964E-2,5.314041E-2,2.2366743E-1,3.356478E-1,4.5996597E-1,6.1695325E-1,7.5524557E-1,8.9073974E-1,1.062558E0,1.2580467E0,1.5325491E0],"split_indices":[1,3,1,1,3,1,3,3,3,3,3,3,3,3,3,0,0,0,0,0,0,0,0,0,0,0,0,0,0,0,0],"split_type":[0,0,0,0,0,0,0,0,0,0,0,0,0,0,0,0,0,0,0,0,0,0,0,0,0,0,0,0,0,0,0],"sum_hessian":[2.5474E4,1.9699E4,5.775E3,1.1542E4,8.157E3,3.185E3,2.59E3,4.776E3,6.766E3,7.361E3,7.96E2,2.19E3,9.95E2,1.393E3,1.197E3,4.18E3,5.96E2,2.676E3,4.09E3,4.168E3,3.193E3,1.99E2,5.97E2,1.093E3,1.097E3,1.98E2,7.97E2,5.96E2,7.97E2,6.98E2,4.99E2],"tree_param":{"num_deleted":"0","num_feature":"32","num_nodes":"31","size_leaf_vector":"1"}},{"base_weights":[4.211876E-3,-2.2967434E1,8.013786E1,-3.2077366E1,-8.546817E0,5.1376266E1,1.168919E2,-3.9862186E1,-2.6665583E1,-1.1984179E1,2.1056215E1,3.994568E1,7.31372E1,1.0291666E2,1.4148267E2,-4.0682152E-1,-3.476378E-1,-3.0485108E-1,-2.4109763E-1,-1.5003522E-1,-5.9822734E-2,1.3830824E-1,2.533489E-1,3.5260507E-1,4.7492874E-1,6.1113477E-1,7.573654E-1,9.3226874E-1,1.1248932E0,1.3064238E0,1.5464642E0],"categories":[],"categories_nodes":[],"categories_segments":[],"categories_sizes":[],"default_left":[0,0,0,0,0,0,0,0,0,0,0,0,0,0,0,0,0,0,0,0,0,0,0,0,0,0,0,0,0,0,0],"id":18,"left_children":[1,3,5,7,9,11,13,15,17,19,21,23,25,27,29,-1,-1,-1,-1,-1,-1,-1,-1,-1,-1,-1,-1,-1,-1,-1,-1],"loss_changes":[4.6896268E7,2.600869E6,5.99412E6,5.10139E5,7.804181E5,7.89565E5,8.415E5,1.938E4,6.9171E4,1.24407125E5,2.4319844E4,7.226275E4,2.96255E4,1.37182E5,1.08224E5,0E0,0E0,0E0,0E0,0E0,0E0,0E0,0E0,0E0,0E0,0E0,0E0,0E0,0E0,0E0,0E0],"parents":[2147483647,0,0,1,1,2,2,3,3,4,4,5,5,6,6,7,7,8,8,9,9,10,10,11,11,12,12,13,13,14,14],"right_children":[2,4,6,8,10,12,14,16,18,20,22,24,26,28,30,-1,-1,-1,-1,-1,-1,-1,-1,-1,-1,-1,-1,-1,-1,-1,-1],"split_conditions":[8.67E1,2.795E1,1.527E2,1.205E1,5.445E1,1.182E2,1.9815E2,6.5E0,1.925E1,3.95E1,7.405E1,1.014E2,1.3405E2,1.7435E2,2.218E2,-4.0682152E-1,-3.476378E-1,-3.0485108E-1,-2.4109763E-1,-1.5003522E-1,-5.9822734E-2,1.3830824E-1,2.533489E-1,3.5260507E-1,4.7492874E-1,6.1113477E-1,7.573654E-1,9.3226874E-1,1.1248932E0,1.3064238E0,1.5464642E0],"split_indices":[3,3,3,1,10,3,3,14,3,3,2,3,1,3,3,0,0,0,0,0,0,0,0,0,0,0,0,0,0,0,0],"split_type":[0,0,0,0,0,0,0,0,0,0,0,0,0,0,0,0,0,0,0,0,0,0,0,0,0,0,0,0,0,0,0],"sum_hessian":[2.5474E4,1.9799E4,5.675E3,1.2133E4,7.666E3,3.185E3,2.49E3,4.973E3,7.16E3,6.869E3,7.97E2,2.09E3,1.095E3,1.591E3,8.99E2,4.278E3,6.95E2,2.866E3,4.294E3,4.569E3,2.3E3,2.98E2,4.99E2,1.293E3,7.97E2,1.99E2,8.96E2,7.96E2,7.95E2,4.99E2,4E2],"tree_param":{"num_deleted":"0","num_feature":"32","num_nodes":"31","size_leaf_vector":"1"}},{"base_weights":[4.404979E-3,-2.2737818E1,7.933774E1,-3.1667902E1,-8.318634E0,5.086301E1,1.1572519E2,-3.9347164E1,-2.623526E1,-1.1758958E1,2.0786324E1,3.954638E1,7.2407005E1,1.0305228E2,1.4233464E2,-4.0272048E-1,-3.4223533E-1,-2.9855007E-1,-2.3623195E-1,-1.4653543E-1,-5.746339E-2,1.3604997E-1,2.5082272E-1,3.6226672E-1,5.0064915E-1,6.485506E-1,7.653653E-1,9.4486225E-1,1.1516252E0,1.3357396E0,1.5644349E0],"categories":[],"categories_nodes":[],"categories_segments":[],"categories_sizes":[],"default_left":[0,0,0,0,0,0,0,0,0,0,0,0,0,0,0,0,0,0,0,0,0,0,0,0,0,0,0,0,0,0,0],"id":19,"left_children":[1,3,5,7,9,11,13,15,17,19,21,23,25,27,29,-1,-1,-1,-1,-1,-1,-1,-1,-1,-1,-1,-1,-1,-1,-1,-1],"loss_changes":[4.5964212E7,2.549274E6,5.875144E6,5.09062E5,7.586327E5,7.739005E5,8.25348E5,2.26195E4,6.70305E4,1.1781075E5,2.4370094E4,7.120075E4,2.92165E4,1.64538E5,7.8108E4,0E0,0E0,0E0,0E0,0E0,0E0,0E0,0E0,0E0,0E0,0E0,0E0,0E0,0E0,0E0,0E0],"parents":[2147483647,0,0,1,1,2,2,3,3,4,4,5,5,6,6,7,7,8,8,9,9,10,10,11,11,12,12,13,13,14,14],"right_children":[2,4,6,8,10,12,14,16,18,20,22,24,26,28,30,-1,-1,-1,-1,-1,-1,-1,-1,-1,-1,-1,-1,-1,-1,-1,-1],"split_conditions":[8.67E1,2.82E1,1.544E2,1.235E1,5.52E1,1.194E2,2.0185E2,6.7E0,1.965E1,3.975E1,7.51E1,1.0545E2,1.3735E2,1.796E2,2.2645E2,-4.0272048E-1,-3.4223533E-1,-2.9855007E-1,-2.3623195E-1,-1.4653543E-1,-5.746339E-2,1.3604997E-1,2.5082272E-1,3.6226672E-1,5.0064915E-1,6.485506E-1,7.653653E-1,9.4486225E-1,1.1516252E0,1.3357396E0,1.5644349E0],"split_indices":[3,3,1,1,3,1,3,3,3,3,3,3,3,3,2,0,0,0,0,0,0,0,0,0,0,0,0,0,0,0,0],"split_type":[0,0,0,0,0,0,0,0,0,0,0,0,0,0,0,0,0,0,0,0,0,0,0,0,0,0,0,0,0,0,0],"sum_hessian":[2.5474E4,1.9799E4,5.675E3,1.2226E4,7.573E3,3.185E3,2.49E3,5.063E3,7.163E3,6.773E3,8E2,2.09E3,1.095E3,1.69E3,8E2,4.283E3,7.8E2,2.998E3,4.165E3,4.571E3,2.202E3,3.01E2,4.99E2,1.592E3,4.98E2,3.93E2,7.02E2,9.95E2,6.95E2,5E2,3E2],"tree_param":{"num_deleted":"0","num_feature":"32","num_nodes":"31","size_leaf_vector":"1"}},{"base_weights":[4.6033417E-3,-2.2765642E1,7.766628E1,-3.20078E1,-9.685843E0,4.863704E1,1.1328195E2,-3.9326195E1,-2.6836828E1,-1.2637858E1,1.7594488E1,3.8630817E1,7.064408E1,9.600153E1,1.3332384E2,-3.9934355E-1,-3.4976235E-1,-3.051052E-1,-2.4426338E-1,-1.6363941E-1,-7.770395E-2,5.1831044E-2,2.171603E-1,3.2534584E-1,4.4669658E-1,5.983043E-1,7.325874E-1,8.63544E-1,1.0312262E0,1.22092E0,1.4875929E0],"categories":[],"categories_nodes":[],"categories_segments":[],"categories_sizes":[],"default_left":[0,0,0,0,0,0,0,0,0,0,0,0,0,0,0,0,0,0,0,0,0,0,0,0,0,0,0,0,0,0,0],"id":20,"left_children":[1,3,5,7,9,11,13,15,17,19,21,23,25,27,29,-1,-1,-1,-1,-1,-1,-1,-1,-1,-1,-1,-1,-1,-1,-1,-1],"loss_changes":[4.5051136E7,2.381136E6,5.966272E6,4.3577E5,6.572022E5,6.984105E5,8.8524E5,1.12405E4,5.9179E4,1.3339412E5,4.0657234E4,7.9207E4,2.37215E4,8.6997E4,1.89532E5,0E0,0E0,0E0,0E0,0E0,0E0,0E0,0E0,0E0,0E0,0E0,0E0,0E0,0E0,0E0,0E0],"parents":[2147483647,0,0,1,1,2,2,3,3,4,4,5,5,6,6,7,7,8,8,9,9,10,10,11,11,12,12,13,13,14,14],"right_children":[2,4,6,8,10,12,14,16,18,20,22,24,26,28,30,-1,-1,-1,-1,-1,-1,-1,-1,-1,-1,-1,-1,-1,-1,-1,-1],"split_conditions":[8.465E1,2.525E1,1.4945E2,1.095E1,5.23E1,1.182E2,1.901E2,5.25E0,1.725E1,3.595E1,6.7E1,9.79E1,1.3265E2,1.669E2,2.1485E2,-3.9934355E-1,-3.4976235E-1,-3.051052E-1,-2.4426338E-1,-1.6363941E-1,-7.770395E-2,5.1831044E-2,2.171603E-1,3.2534584E-1,4.4669658E-1,5.983043E-1,7.325874E-1,8.63544E-1,1.0312262E0,1.22092E0,1.4875929E0],"split_indices":[3,3,3,2,3,3,3,9,3,3,3,3,3,3,3,0,0,0,0,0,0,0,0,0,0,0,0,0,0,0,0],"split_type":[0,0,0,0,0,0,0,0,0,0,0,0,0,0,0,0,0,0,0,0,0,0,0,0,0,0,0,0,0,0,0],"sum_hessian":[2.5474E4,1.9699E4,5.775E3,1.1542E4,8.157E3,3.183E3,2.592E3,4.776E3,6.766E3,7.361E3,7.96E2,2.19E3,9.93E2,1.395E3,1.197E3,4.183E3,5.93E2,2.676E3,4.09E3,4.168E3,3.193E3,1.99E2,5.97E2,1.093E3,1.097E3,1.98E2,7.95E2,5.98E2,7.97E2,6.98E2,4.99E2],"tree_param":{"num_deleted":"0","num_feature":"32","num_nodes":"31","size_leaf_vector":"1"}},{"base_weights":[4.771294E-3,-2.2285694E1,7.776221E1,-3.1040106E1,-8.1501665E0,4.9851875E1,1.1342843E2,-3.8549255E1,-2.5704489E1,-1.1514616E1,2.043257E1,3.87617E1,7.0964745E1,1.0099774E2,1.3952939E2,-3.9472732E-1,-3.353309E-1,-2.9366273E-1,-2.3235594E-1,-1.4255789E-1,-5.368989E-2,1.3421634E-1,2.4606612E-1,3.5493863E-1,4.911622E-1,6.3549024E-1,7.5019974E-1,9.259685E-1,1.1287459E0,1.309117E0,1.5340954E0],"categories":[],"categories_nodes":[],"categories_segments":[],"categories_sizes":[],"default_left":[0,0,0,0,0,0,0,0,0,0,0,0,0,0,0,0,0,0,0,0,0,0,0,0,0,0,0,0,0,0,0],"id":21,"left_children":[1,3,5,7,9,11,13,15,17,19,21,23,25,27,29,-1,-1,-1,-1,-1,-1,-1,-1,-1,-1,-1,-1,-1,-1,-1,-1],"loss_changes":[4.4156264E7,2.449962E6,5.644552E6,4.88896E5,7.2859025E5,7.43237E5,7.9412E5,2.2195E4,6.3967E4,1.14090375E5,2.3022375E4,6.900975E4,2.8192E4,1.58268E5,7.5728E4,0E0,0E0,0E0,0E0,0E0,0E0,0E0,0E0,0E0,0E0,0E0,0E0,0E0,0E0,0E0,0E0],"parents":[2147483647,0,0,1,1,2,2,3,3,4,4,5,5,6,6,7,7,8,8,9,9,10,10,11,11,12,12,13,13,14,14],"right_children":[2,4,6,8,10,12,14,16,18,20,22,24,26,28,30,-1,-1,-1,-1,-1,-1,-1,-1,-1,-1,-1,-1,-1,-1,-1,-1],"split_conditions":[8.67E1,2.82E1,1.527E2,1.23E1,5.445E1,1.168E2,2.0185E2,6.75E0,1.945E1,4.01E1,7.62E1,1.0545E2,1.3735E2,1.796E2,2.3195E2,-3.9472732E-1,-3.353309E-1,-2.9366273E-1,-2.3235594E-1,-1.4255789E-1,-5.368989E-2,1.3421634E-1,2.4606612E-1,3.5493863E-1,4.911622E-1,6.3549024E-1,7.5019974E-1,9.259685E-1,1.1287459E0,1.309117E0,1.5340954E0],"split_indices":[3,3,3,3,10,2,3,1,3,3,1,3,3,3,1,0,0,0,0,0,0,0,0,0,0,0,0,0,0,0,0],"split_type":[0,0,0,0,0,0,0,0,0,0,0,0,0,0,0,0,0,0,0,0,0,0,0,0,0,0,0,0,0,0,0],"sum_hessian":[2.5474E4,1.9799E4,5.675E3,1.2226E4,7.573E3,3.185E3,2.49E3,5.076E3,7.15E3,6.776E3,7.97E2,2.09E3,1.095E3,1.69E3,8E2,4.281E3,7.95E2,2.875E3,4.275E3,4.685E3,2.091E3,2.99E2,4.98E2,1.592E3,4.98E2,3.93E2,7.02E2,9.95E2,6.95E2,5E2,3E2],"tree_param":{"num_deleted":"0","num_feature":"32","num_nodes":"31","size_leaf_vector":"1"}},{"base_weights":[4.961211E-3,-2.2312916E1,7.6123764E1,-3.137292E1,-9.490912E0,4.7689358E1,1.11058495E2,-3.854213E1,-2.6303736E1,-1.2384778E1,1.725204E1,3.713517E1,6.778162E1,9.537896E1,1.322918E2,-3.9142317E-1,-3.4288487E-1,-2.9905263E-1,-2.3942357E-1,-1.6043083E-1,-7.605861E-2,5.0947588E-2,2.1289171E-1,3.12849E-1,4.239749E-1,5.6767637E-1,7.182347E-1,8.4617203E-1,1.0242728E0,1.227076E0,1.4864455E0],"categories":[],"categories_nodes":[],"categories_segments":[],"categories_sizes":[],"default_left":[0,0,0,0,0,0,0,0,0,0,0,0,0,0,0,0,0,0,0,0,0,0,0,0,0,0,0,0,0,0,0],"id":22,"left_children":[1,3,5,7,9,11,13,15,17,19,21,23,25,27,29,-1,-1,-1,-1,-1,-1,-1,-1,-1,-1,-1,-1,-1,-1,-1,-1],"loss_changes":[4.3278884E7,2.2882E6,5.732284E6,4.18483E5,6.315657E5,6.730975E5,8.49998E5,1.0858E4,5.68175E4,1.28585875E5,3.900872E4,6.30475E4,4.47135E4,1.04655E5,1.53848E5,0E0,0E0,0E0,0E0,0E0,0E0,0E0,0E0,0E0,0E0,0E0,0E0,0E0,0E0,0E0,0E0],"parents":[2147483647,0,0,1,1,2,2,3,3,4,4,5,5,6,6,7,7,8,8,9,9,10,10,11,11,12,12,13,13,14,14],"right_children":[2,4,6,8,10,12,14,16,18,20,22,24,26,28,30,-1,-1,-1,-1,-1,-1,-1,-1,-1,-1,-1,-1,-1,-1,-1,-1],"split_conditions":[8.575E1,2.525E1,1.509E2,1.12E1,5.23E1,1.134E2,1.925E2,5.2E0,1.725E1,3.595E1,6.7E1,9.66E1,1.3265E2,1.669E2,2.24E2,-3.9142317E-1,-3.4288487E-1,-2.9905263E-1,-2.3942357E-1,-1.6043083E-1,-7.605861E-2,5.0947588E-2,2.1289171E-1,3.12849E-1,4.239749E-1,5.6767637E-1,7.182347E-1,8.4617203E-1,1.0242728E0,1.227076E0,1.4864455E0],"split_indices":[1,3,1,9,3,2,3,3,3,3,3,3,3,3,1,0,0,0,0,0,0,0,0,0,0,0,0,0,0,0,0],"split_type":[0,0,0,0,0,0,0,0,0,0,0,0,0,0,0,0,0,0,0,0,0,0,0,0,0,0,0,0,0,0,0],"sum_hessian":[2.5474E4,1.9699E4,5.775E3,1.1542E4,8.157E3,3.185E3,2.59E3,4.778E3,6.764E3,7.361E3,7.96E2,2.09E3,1.095E3,1.493E3,1.097E3,4.18E3,5.98E2,2.674E3,4.09E3,4.168E3,3.193E3,1.99E2,5.97E2,9.93E2,1.097E3,2.98E2,7.97E2,5.96E2,8.97E2,6.97E2,4E2],"tree_param":{"num_deleted":"0","num_feature":"32","num_nodes":"31","size_leaf_vector":"1"}},{"base_weights":[5.122182E-3,-2.1842533E1,7.621787E1,-3.0321592E1,-7.8158016E0,4.982546E1,1.1245763E2,-3.7783703E1,-2.5101954E1,-1.1148732E1,2.0026888E1,3.8742645E1,7.190525E1,1.0014037E2,1.3678258E2,-3.868805E-1,-3.28714E-1,-2.8673306E-1,-2.2603902E-1,-1.3750507E-1,-5.022148E-2,1.3115875E-1,2.411962E-1,3.477773E-1,4.9239907E-1,6.7299604E-1,7.7249897E-1,9.284935E-1,1.1215668E0,1.2832696E0,1.5040208E0],"categories":[],"categories_nodes":[],"categories_segments":[],"categories_sizes":[],"default_left":[0,0,0,0,0,0,0,0,0,0,0,0,0,0,0,0,0,0,0,0,0,0,0,0,0,0,0,0,0,0,0],"id":23,"left_children":[1,3,5,7,9,11,13,15,17,19,21,23,25,27,29,-1,-1,-1,-1,-1,-1,-1,-1,-1,-1,-1,-1,-1,-1,-1,-1],"loss_changes":[4.241932E7,2.354646E6,5.42323E6,4.79688E5,6.925874E5,8.013195E5,7.02686E5,2.1282E4,6.4157E4,1.06155125E5,2.2255E4,8.943675E4,2.1804E4,1.28975E5,7.2944E4,0E0,0E0,0E0,0E0,0E0,0E0,0E0,0E0,0E0,0E0,0E0,0E0,0E0,0E0,0E0,0E0],"parents":[2147483647,0,0,1,1,2,2,3,3,4,4,5,5,6,6,7,7,8,8,9,9,10,10,11,11,12,12,13,13,14,14],"right_children":[2,4,6,8,10,12,14,16,18,20,22,24,26,28,30,-1,-1,-1,-1,-1,-1,-1,-1,-1,-1,-1,-1,-1,-1,-1,-1],"split_conditions":[8.67E1,2.85E1,1.5715E2,1.23E1,5.625E1,1.2285E2,2.0185E2,6.45E0,1.965E1,4.04E1,7.405E1,1.0545E2,1.426E2,1.8265E2,2.2935E2,-3.868805E-1,-3.28714E-1,-2.8673306E-1,-2.2603902E-1,-1.3750507E-1,-5.022148E-2,1.3115875E-1,2.411962E-1,3.477773E-1,4.9239907E-1,6.7299604E-1,7.7249897E-1,9.284935E-1,1.1215668E0,1.2832696E0,1.5040208E0],"split_indices":[3,3,1,3,1,2,3,30,3,3,2,3,3,3,3,0,0,0,0,0,0,0,0,0,0,0,0,0,0,0,0],"split_type":[0,0,0,0,0,0,0,0,0,0,0,0,0,0,0,0,0,0,0,0,0,0,0,0,0,0,0,0,0,0,0],"sum_hessian":[2.5474E4,1.9799E4,5.675E3,1.2339E4,7.46E3,3.285E3,2.39E3,5.076E3,7.263E3,6.663E3,7.97E2,2.189E3,1.096E3,1.59E3,8E2,4.281E3,7.95E2,2.985E3,4.278E3,4.676E3,1.987E3,2.98E2,4.99E2,1.592E3,5.97E2,5.96E2,5E2,9.95E2,5.95E2,5E2,3E2],"tree_param":{"num_deleted":"0","num_feature":"32","num_nodes":"31","size_leaf_vector":"1"}},{"base_weights":[5.308953E-3,-2.162416E1,7.545695E1,-3.0304173E1,-8.192707E0,4.837196E1,1.10068474E2,-3.754043E1,-2.5207851E1,-1.1396473E1,1.9828434E1,3.760848E1,6.88629E1,9.573667E1,1.314128E2,-3.8303322E-1,-3.275498E-1,-2.8800124E-1,-2.2848354E-1,-1.4522228E-1,-6.102893E-2,1.3006172E-1,2.3890257E-1,3.2673717E-1,4.4115222E-1,6.2878096E-1,7.365168E-1,8.646356E-1,1.0369456E0,1.21599E0,1.4572012E0],"categories":[],"categories_nodes":[],"categories_segments":[],"categories_sizes":[],"default_left":[0,0,0,0,0,0,0,0,0,0,0,0,0,0,0,0,0,0,0,0,0,0,0,0,0,0,0,0,0,0,0],"id":24,"left_children":[1,3,5,7,9,11,13,15,17,19,21,23,25,27,29,-1,-1,-1,-1,-1,-1,-1,-1,-1,-1,-1,-1,-1,-1,-1,-1],"loss_changes":[4.1576292E7,2.308139E6,5.315656E6,4.42588E5,6.981227E5,7.00095E5,7.49422E5,1.68825E4,5.91825E4,1.1535575E5,2.1802531E4,6.5699E4,2.678E4,1.01283E5,1.2241E5,0E0,0E0,0E0,0E0,0E0,0E0,0E0,0E0,0E0,0E0,0E0,0E0,0E0,0E0,0E0,0E0],"parents":[2147483647,0,0,1,1,2,2,3,3,4,4,5,5,6,6,7,7,8,8,9,9,10,10,11,11,12,12,13,13,14,14],"right_children":[2,4,6,8,10,12,14,16,18,20,22,24,26,28,30,-1,-1,-1,-1,-1,-1,-1,-1,-1,-1,-1,-1,-1,-1,-1,-1],"split_conditions":[8.67E1,2.76E1,1.544E2,1.19E1,5.445E1,1.194E2,1.957E2,6.5E0,1.88E1,3.85E1,7.62E1,1.005E2,1.3905E2,1.719E2,2.218E2,-3.8303322E-1,-3.275498E-1,-2.8800124E-1,-2.2848354E-1,-1.4522228E-1,-6.102893E-2,1.3006172E-1,2.3890257E-1,3.2673717E-1,4.4115222E-1,6.2878096E-1,7.365168E-1,8.646356E-1,1.0369456E0,1.21599E0,1.4572012E0],"split_indices":[3,3,1,3,6,1,3,14,2,3,1,3,3,3,3,0,0,0,0,0,0,0,0,0,0,0,0,0,0,0,0],"split_type":[0,0,0,0,0,0,0,0,0,0,0,0,0,0,0,0,0,0,0,0,0,0,0,0,0,0,0,0,0,0,0],"sum_hessian":[2.5474E4,1.9799E4,5.675E3,1.2026E4,7.773E3,3.185E3,2.49E3,4.967E3,7.059E3,6.976E3,7.97E2,2.09E3,1.095E3,1.493E3,9.97E2,4.278E3,6.89E2,2.794E3,4.265E3,4.385E3,2.591E3,2.99E2,4.98E2,1.192E3,8.98E2,4.93E2,6.02E2,6.95E2,7.98E2,5.97E2,4E2],"tree_param":{"num_deleted":"0","num_feature":"32","num_nodes":"31","size_leaf_vector":"1"}},{"base_weights":[5.477404E-3,-2.1653097E1,7.385908E1,-3.0444801E1,-9.209272E0,4.528633E1,1.0660907E2,-3.740027E1,-2.5528502E1,-1.2014151E1,1.6743895E1,3.602246E1,6.469871E1,9.0312614E1,1.2684303E2,-3.7980762E-1,-3.3271265E-1,-2.902513E-1,-2.323505E-1,-1.5661202E-1,-7.4755654E-2,4.970385E-2,2.0660073E-1,3.031435E-1,4.11623E-1,5.511486E-1,6.8730927E-1,8.1265783E-1,9.8101246E-1,1.1611911E0,1.4158139E0],"categories":[],"categories_nodes":[],"categories_segments":[],"categories_sizes":[],"default_left":[0,0,0,0,0,0,0,0,0,0,0,0,0,0,0,0,0,0,0,0,0,0,0,0,0,0,0,0,0,0,0],"id":25,"left_children":[1,3,5,7,9,11,13,15,17,19,21,23,25,27,29,-1,-1,-1,-1,-1,-1,-1,-1,-1,-1,-1,-1,-1,-1,-1,-1],"loss_changes":[4.075049E7,2.154838E6,5.401044E6,3.9376E5,5.939939E5,5.52816E5,8.7588E5,1.0189E4,5.35845E4,1.21742E5,3.659861E4,6.0129E4,3.470175E4,9.7299E4,1.72908E5,0E0,0E0,0E0,0E0,0E0,0E0,0E0,0E0,0E0,0E0,0E0,0E0,0E0,0E0,0E0,0E0],"parents":[2147483647,0,0,1,1,2,2,3,3,4,4,5,5,6,6,7,7,8,8,9,9,10,10,11,11,12,12,13,13,14,14],"right_children":[2,4,6,8,10,12,14,16,18,20,22,24,26,28,30,-1,-1,-1,-1,-1,-1,-1,-1,-1,-1,-1,-1,-1,-1,-1,-1],"split_conditions":[8.375E1,2.525E1,1.4725E2,1.12E1,5.23E1,1.145E2,1.901E2,5.15E0,1.725E1,3.565E1,6.7E1,9.66E1,1.3405E2,1.669E2,2.1485E2,-3.7980762E-1,-3.3271265E-1,-2.902513E-1,-2.323505E-1,-1.5661202E-1,-7.4755654E-2,4.970385E-2,2.0660073E-1,3.031435E-1,4.11623E-1,5.511486E-1,6.8730927E-1,8.1265783E-1,9.8101246E-1,1.1611911E0,1.4158139E0],"split_indices":[2,3,3,5,3,3,3,28,3,3,3,3,1,3,3,0,0,0,0,0,0,0,0,0,0,0,0,0,0,0,0],"split_type":[0,0,0,0,0,0,0,0,0,0,0,0,0,0,0,0,0,0,0,0,0,0,0,0,0,0,0,0,0,0,0],"sum_hessian":[2.5474E4,1.9698E4,5.776E3,1.1542E4,8.156E3,3.086E3,2.69E3,4.777E3,6.765E3,7.361E3,7.95E2,2.091E3,9.95E2,1.493E3,1.197E3,4.181E3,5.96E2,2.675E3,4.09E3,4.08E3,3.281E3,1.99E2,5.96E2,9.94E2,1.097E3,2.99E2,6.96E2,6.96E2,7.97E2,6.98E2,4.99E2],"tree_param":{"num_deleted":"0","num_feature":"32","num_nodes":"31","size_leaf_vector":"1"}},{"base_weights":[5.6232405E-3,-2.0970669E1,7.474705E1,-2.9336378E1,-7.006299E0,4.897653E1,1.0913036E2,-3.6543625E1,-2.4194088E1,-1.0695941E1,2.0183172E1,3.8075447E1,6.9770134E1,9.716278E1,1.3276494E2,-3.7538588E-1,-3.1740302E-1,-2.763998E-1,-2.1788707E-1,-1.3235387E-1,-4.8439607E-2,1.270823E-1,2.391812E-1,3.4165442E-1,4.7819486E-1,6.53002E-1,7.495732E-1,9.007572E-1,1.0884322E0,1.2451869E0,1.4604933E0],"categories":[],"categories_nodes":[],"categories_segments":[],"categories_sizes":[],"default_left":[0,0,0,0,0,0,0,0,0,0,0,0,0,0,0,0,0,0,0,0,0,0,0,0,0,0,0,0,0,0,0],"id":26,"left_children":[1,3,5,7,9,11,13,15,17,19,21,23,25,27,29,-1,-1,-1,-1,-1,-1,-1,-1,-1,-1,-1,-1,-1,-1,-1,-1],"loss_changes":[3.9941216E7,2.323732E6,4.941618E6,4.60164E5,7.479969E5,7.2111E5,6.6339E5,2.3555E4,5.95985E4,9.748206E4,2.4571438E4,7.826025E4,2.05405E4,1.21899E5,6.9561E4,0E0,0E0,0E0,0E0,0E0,0E0,0E0,0E0,0E0,0E0,0E0,0E0,0E0,0E0,0E0,0E0],"parents":[2147483647,0,0,1,1,2,2,3,3,4,4,5,5,6,6,7,7,8,8,9,9,10,10,11,11,12,12,13,13,14,14],"right_children":[2,4,6,8,10,12,14,16,18,20,22,24,26,28,30,-1,-1,-1,-1,-1,-1,-1,-1,-1,-1,-1,-1,-1,-1,-1,-1],"split_conditions":[8.785E1,2.885E1,1.5715E2,1.265E1,5.445E1,1.2285E2,2.0185E2,6.7E0,1.995E1,4.04E1,7.405E1,1.0545E2,1.426E2,1.8265E2,2.2645E2,-3.7538588E-1,-3.1740302E-1,-2.763998E-1,-2.1788707E-1,-1.3235387E-1,-4.8439607E-2,1.270823E-1,2.391812E-1,3.4165442E-1,4.7819486E-1,6.53002E-1,7.495732E-1,9.007572E-1,1.0884322E0,1.2451869E0,1.4604933E0],"split_indices":[3,3,1,1,10,2,3,3,3,3,2,3,3,3,2,0,0,0,0,0,0,0,0,0,0,0,0,0,0,0,0],"split_type":[0,0,0,0,0,0,0,0,0,0,0,0,0,0,0,0,0,0,0,0,0,0,0,0,0,0,0,0,0,0,0],"sum_hessian":[2.5474E4,1.9892E4,5.582E3,1.2439E4,7.453E3,3.192E3,2.39E3,5.177E3,7.262E3,6.563E3,8.9E2,2.096E3,1.096E3,1.59E3,8E2,4.283E3,8.94E2,2.981E3,4.281E3,4.576E3,1.987E3,2.98E2,5.92E2,1.499E3,5.97E2,5.96E2,5E2,9.95E2,5.95E2,5E2,3E2],"tree_param":{"num_deleted":"0","num_feature":"32","num_nodes":"31","size_leaf_vector":"1"}},{"base_weights":[5.7995263E-3,-2.1220205E1,7.240059E1,-2.9935495E1,-9.151043E0,4.4392334E1,1.0449314E2,-3.666331E1,-2.5114464E1,-1.1880319E1,1.6427275E1,3.5309505E1,6.3416237E1,8.851602E1,1.24330635E2,-3.7225795E-1,-3.2627884E-1,-2.8564247E-1,-2.2926971E-1,-1.5456164E-1,-7.317004E-2,4.884874E-2,2.0260137E-1,2.9141194E-1,3.991006E-1,5.40076E-1,6.735573E-1,7.9619896E-1,9.6175265E-1,1.138052E0,1.3879652E0],"categories":[],"categories_nodes":[],"categories_segments":[],"categories_sizes":[],"default_left":[0,0,0,0,0,0,0,0,0,0,0,0,0,0,0,0,0,0,0,0,0,0,0,0,0,0,0,0,0,0,0],"id":27,"left_children":[1,3,5,7,9,11,13,15,17,19,21,23,25,27,29,-1,-1,-1,-1,-1,-1,-1,-1,-1,-1,-1,-1,-1,-1,-1,-1],"loss_changes":[3.9147748E7,2.071895E6,5.187158E6,3.70103E5,5.769677E5,5.30993E5,8.41896E5,9.6195E3,4.9657E4,1.21714875E5,3.5160688E4,5.81745E4,3.327925E4,9.4142E4,1.66612E5,0E0,0E0,0E0,0E0,0E0,0E0,0E0,0E0,0E0,0E0,0E0,0E0,0E0,0E0,0E0,0E0],"parents":[2147483647,0,0,1,1,2,2,3,3,4,4,5,5,6,6,7,7,8,8,9,9,10,10,11,11,12,12,13,13,14,14],"right_children":[2,4,6,8,10,12,14,16,18,20,22,24,26,28,30,-1,-1,-1,-1,-1,-1,-1,-1,-1,-1,-1,-1,-1,-1,-1,-1],"split_conditions":[8.575E1,2.485E1,1.4725E2,1.105E1,5.23E1,1.134E2,1.901E2,5.15E0,1.685E1,3.565E1,6.7E1,9.54E1,1.3265E2,1.669E2,2.1485E2,-3.7225795E-1,-3.2627884E-1,-2.8564247E-1,-2.2926971E-1,-1.5456164E-1,-7.317004E-2,4.884874E-2,2.0260137E-1,2.9141194E-1,3.991006E-1,5.40076E-1,6.735573E-1,7.9619896E-1,9.6175265E-1,1.138052E0,1.3879652E0],"split_indices":[1,3,3,8,3,2,3,14,3,3,3,3,3,3,3,0,0,0,0,0,0,0,0,0,0,0,0,0,0,0,0],"split_type":[0,0,0,0,0,0,0,0,0,0,0,0,0,0,0,0,0,0,0,0,0,0,0,0,0,0,0,0,0,0,0],"sum_hessian":[2.5474E4,1.9699E4,5.775E3,1.1438E4,8.261E3,3.085E3,2.69E3,4.772E3,6.666E3,7.465E3,7.96E2,2.09E3,9.95E2,1.493E3,1.197E3,4.181E3,5.91E2,2.582E3,4.084E3,4.184E3,3.281E3,1.99E2,5.97E2,8.96E2,1.194E3,2.98E2,6.97E2,6.96E2,7.97E2,6.98E2,4.99E2],"tree_param":{"num_deleted":"0","num_feature":"32","num_nodes":"31","size_leaf_vector":"1"}},{"base_weights":[5.9373956E-3,-2.0553755E1,7.326296E1,-2.8675049E1,-6.726453E0,4.8001816E1,1.06966675E2,-3.581816E1,-2.3642323E1,-1.0374469E1,1.977937E1,3.7318897E1,6.837928E1,9.522847E1,1.3014835E2,-3.6793593E-1,-3.11218E-1,-2.7014208E-1,-2.1228324E-1,-1.2789951E-1,-4.5292385E-2,1.24534965E-1,2.3458393E-1,3.347565E-1,4.6896744E-1,6.3998E-1,7.34636E-1,8.8280904E-1,1.0667905E0,1.2203952E0,1.432127E0],"categories":[],"categories_nodes":[],"categories_segments":[],"categories_sizes":[],"default_left":[0,0,0,0,0,0,0,0,0,0,0,0,0,0,0,0,0,0,0,0,0,0,0,0,0,0,0,0,0,0,0],"id":28,"left_children":[1,3,5,7,9,11,13,15,17,19,21,23,25,27,29,-1,-1,-1,-1,-1,-1,-1,-1,-1,-1,-1,-1,-1,-1,-1,-1],"loss_changes":[3.837047E7,2.233704E6,4.748202E6,4.49669E5,7.1206406E5,6.925345E5,6.38224E5,2.25755E4,5.92945E4,9.13205E4,2.3722125E4,7.562075E4,1.9735E4,1.17152E5,6.7378E4,0E0,0E0,0E0,0E0,0E0,0E0,0E0,0E0,0E0,0E0,0E0,0E0,0E0,0E0,0E0,0E0],"parents":[2147483647,0,0,1,1,2,2,3,3,4,4,5,5,6,6,7,7,8,8,9,9,10,10,11,11,12,12,13,13,14,14],"right_children":[2,4,6,8,10,12,14,16,18,20,22,24,26,28,30,-1,-1,-1,-1,-1,-1,-1,-1,-1,-1,-1,-1,-1,-1,-1,-1],"split_conditions":[8.785E1,2.93E1,1.5715E2,1.265E1,5.625E1,1.2285E2,2.0185E2,6.45E0,2.01E1,4.065E1,7.62E1,1.0545E2,1.426E2,1.8265E2,2.3195E2,-3.6793593E-1,-3.11218E-1,-2.7014208E-1,-2.1228324E-1,-1.2789951E-1,-4.5292385E-2,1.24534965E-1,2.3458393E-1,3.347565E-1,4.6896744E-1,6.3998E-1,7.34636E-1,8.8280904E-1,1.0667905E0,1.2203952E0,1.432127E0],"split_indices":[3,3,1,1,1,2,3,30,3,3,1,3,3,3,1,0,0,0,0,0,0,0,0,0,0,0,0,0,0,0,0],"split_type":[0,0,0,0,0,0,0,0,0,0,0,0,0,0,0,0,0,0,0,0,0,0,0,0,0,0,0,0,0,0,0],"sum_hessian":[2.5474E4,1.9892E4,5.582E3,1.2531E4,7.361E3,3.192E3,2.39E3,5.177E3,7.354E3,6.471E3,8.9E2,2.096E3,1.096E3,1.59E3,8E2,4.281E3,8.96E2,3.064E3,4.29E3,4.578E3,1.893E3,2.99E2,5.91E2,1.499E3,5.97E2,5.96E2,5E2,9.95E2,5.95E2,5E2,3E2],"tree_param":{"num_deleted":"0","num_feature":"32","num_nodes":"31","size_leaf_vector":"1"}},{"base_weights":[6.1058146E-3,-2.0798302E1,7.096296E1,-2.9250359E1,-8.836681E0,4.443094E1,1.0351483E2,-3.5927753E1,-2.4528923E1,-1.1535566E1,1.6104385E1,3.460515E1,6.3170692E1,8.887741E1,1.23363716E2,-3.6486423E-1,-3.1968272E-1,-2.7996847E-1,-2.238966E-1,-1.4956856E-1,-7.039014E-2,4.7972728E-2,1.9859098E-1,2.9079035E-1,3.9576328E-1,5.2971065E-1,6.6940147E-1,8.0024517E-1,9.649999E-1,1.1255456E0,1.3606634E0],"categories":[],"categories_nodes":[],"categories_segments":[],"categories_sizes":[],"default_left":[0,0,0,0,0,0,0,0,0,0,0,0,0,0,0,0,0,0,0,0,0,0,0,0,0,0,0,0,0,0,0],"id":29,"left_children":[1,3,5,7,9,11,13,15,17,19,21,23,25,27,29,-1,-1,-1,-1,-1,-1,-1,-1,-1,-1,-1,-1,-1,-1,-1,-1],"loss_changes":[3.7608064E7,1.991418E6,4.98394E6,3.63033E5,5.493258E5,5.84093E5,7.42396E5,9.405E3,4.956125E4,1.1315175E5,3.374133E4,5.62915E4,3.8515E4,9.3231E4,1.35447E5,0E0,0E0,0E0,0E0,0E0,0E0,0E0,0E0,0E0,0E0,0E0,0E0,0E0,0E0,0E0,0E0],"parents":[2147483647,0,0,1,1,2,2,3,3,4,4,5,5,6,6,7,7,8,8,9,9,10,10,11,11,12,12,13,13,14,14],"right_children":[2,4,6,8,10,12,14,16,18,20,22,24,26,28,30,-1,-1,-1,-1,-1,-1,-1,-1,-1,-1,-1,-1,-1,-1,-1,-1],"split_conditions":[8.465E1,2.525E1,1.4945E2,1.11E1,5.23E1,1.145E2,1.925E2,5.2E0,1.685E1,3.635E1,6.7E1,9.66E1,1.3405E2,1.6955E2,2.1485E2,-3.6486423E-1,-3.1968272E-1,-2.7996847E-1,-2.238966E-1,-1.4956856E-1,-7.039014E-2,4.7972728E-2,1.9859098E-1,2.9079035E-1,3.9576328E-1,5.2971065E-1,6.6940147E-1,8.0024517E-1,9.649999E-1,1.1255456E0,1.3606634E0],"split_indices":[3,3,3,3,3,3,3,3,3,1,3,3,1,3,3,0,0,0,0,0,0,0,0,0,0,0,0,0,0,0,0],"split_type":[0,0,0,0,0,0,0,0,0,0,0,0,0,0,0,0,0,0,0,0,0,0,0,0,0,0,0,0,0,0,0],"sum_hessian":[2.5474E4,1.9699E4,5.775E3,1.1542E4,8.157E3,3.183E3,2.592E3,4.778E3,6.764E3,7.361E3,7.96E2,2.09E3,1.093E3,1.495E3,1.097E3,4.18E3,5.98E2,2.576E3,4.188E3,4.179E3,3.182E3,1.99E2,5.97E2,9.93E2,1.097E3,2.99E2,7.94E2,6.97E2,7.98E2,5.98E2,4.99E2],"tree_param":{"num_deleted":"0","num_feature":"32","num_nodes":"31","size_leaf_vector":"1"}},{"base_weights":[6.2396056E-3,-1.9900187E1,7.269359E1,-2.8107264E1,-6.125282E0,4.7766983E1,1.0484572E2,-3.5107075E1,-2.3175497E1,-1.0163428E1,2.0094389E1,3.7136852E1,6.7016594E1,9.3334305E1,1.2757956E2,-3.6060843E-1,-3.0502543E-1,-2.6558515E-1,-2.0863806E-1,-1.24521405E-1,-4.2022813E-2,1.3699546E-1,2.430281E-1,3.331285E-1,4.598889E-1,6.2714213E-1,7.2009605E-1,8.651683E-1,1.0457066E0,1.1960037E0,1.4043667E0],"categories":[],"categories_nodes":[],"categories_segments":[],"categories_sizes":[],"default_left":[0,0,0,0,0,0,0,0,0,0,0,0,0,0,0,0,0,0,0,0,0,0,0,0,0,0,0,0,0,0,0],"id":30,"left_children":[1,3,5,7,9,11,13,15,17,19,21,23,25,27,29,-1,-1,-1,-1,-1,-1,-1,-1,-1,-1,-1,-1,-1,-1,-1,-1],"loss_changes":[3.686238E7,2.260749E6,4.384496E6,4.31809E5,7.9090775E5,6.291905E5,6.13812E5,2.164E4,5.696525E4,8.824744E4,2.6498531E4,6.586375E4,1.905E4,1.12829E5,6.5378E4,0E0,0E0,0E0,0E0,0E0,0E0,0E0,0E0,0E0,0E0,0E0,0E0,0E0,0E0,0E0,0E0],"parents":[2147483647,0,0,1,1,2,2,3,3,4,4,5,5,6,6,7,7,8,8,9,9,10,10,11,11,12,12,13,13,14,14],"right_children":[2,4,6,8,10,12,14,16,18,20,22,24,26,28,30,-1,-1,-1,-1,-1,-1,-1,-1,-1,-1,-1,-1,-1,-1,-1,-1],"split_conditions":[8.885E1,2.93E1,1.5715E2,1.265E1,5.445E1,1.2285E2,2.0185E2,6.7E0,1.995E1,4.095E1,7.935E1,1.0545E2,1.426E2,1.8265E2,2.2645E2,-3.6060843E-1,-3.0502543E-1,-2.6558515E-1,-2.0863806E-1,-1.24521405E-1,-4.2022813E-2,1.3699546E-1,2.430281E-1,3.331285E-1,4.598889E-1,6.2714213E-1,7.2009605E-1,8.651683E-1,1.0457066E0,1.1960037E0,1.4043667E0],"split_indices":[3,3,1,1,10,2,3,3,3,3,3,3,3,3,2,0,0,0,0,0,0,0,0,0,0,0,0,0,0,0,0],"split_type":[0,0,0,0,0,0,0,0,0,0,0,0,0,0,0,0,0,0,0,0,0,0,0,0,0,0,0,0,0,0,0],"sum_hessian":[2.5474E4,1.9998E4,5.476E3,1.2531E4,7.467E3,3.086E3,2.39E3,5.177E3,7.354E3,6.471E3,9.96E2,1.99E3,1.096E3,1.59E3,8E2,4.283E3,8.94E2,2.981E3,4.373E3,4.675E3,1.796E3,3.97E2,5.99E2,1.393E3,5.97E2,5.96E2,5E2,9.95E2,5.95E2,5E2,3E2],"tree_param":{"num_deleted":"0","num_feature":"32","num_nodes":"31","size_leaf_vector":"1"}},{"base_weights":[6.402044E-3,-1.9701231E1,7.1967865E1,-2.7735498E1,-5.9094667E0,4.8165062E1,1.0497404E2,-3.4756134E1,-2.2858746E1,-9.949278E0,1.9895332E1,3.677333E1,6.714592E1,9.4507454E1,1.2857559E2,-3.570167E-1,-3.020368E-1,-2.602447E-1,-2.0367056E-1,-1.21336326E-1,-3.9164416E-2,1.3566665E-1,2.4060188E-1,3.297996E-1,4.5539916E-1,6.2865657E-1,7.301352E-1,8.6692554E-1,1.0448024E0,1.2041895E0,1.3904201E0],"categories":[],"categories_nodes":[],"categories_segments":[],"categories_sizes":[],"default_left":[0,0,0,0,0,0,0,0,0,0,0,0,0,0,0,0,0,0,0,0,0,0,0,0,0,0,0,0,0,0,0],"id":31,"left_children":[1,3,5,7,9,11,13,15,17,19,21,23,25,27,29,-1,-1,-1,-1,-1,-1,-1,-1,-1,-1,-1,-1,-1,-1,-1,-1],"loss_changes":[3.612981E7,2.21586E6,4.29789E6,4.3187E5,7.6776494E5,6.859905E5,5.5453E5,2.1211E4,5.83145E4,8.3855875E4,2.59525E4,6.474175E4,2.53725E4,1.15095E5,4.3187E4,0E0,0E0,0E0,0E0,0E0,0E0,0E0,0E0,0E0,0E0,0E0,0E0,0E0,0E0,0E0,0E0],"parents":[2147483647,0,0,1,1,2,2,3,3,4,4,5,5,6,6,7,7,8,8,9,9,10,10,11,11,12,12,13,13,14,14],"right_children":[2,4,6,8,10,12,14,16,18,20,22,24,26,28,30,-1,-1,-1,-1,-1,-1,-1,-1,-1,-1,-1,-1,-1,-1,-1,-1],"split_conditions":[8.885E1,2.98E1,1.577E2,1.265E1,5.445E1,1.268E2,2.0475E2,6.5E0,2.04E1,4.13E1,7.935E1,1.0545E2,1.4495E2,1.8265E2,2.2935E2,-3.570167E-1,-3.020368E-1,-2.602447E-1,-2.0367056E-1,-1.21336326E-1,-3.9164416E-2,1.3566665E-1,2.4060188E-1,3.297996E-1,4.5539916E-1,6.2865657E-1,7.301352E-1,8.6692554E-1,1.0448024E0,1.2041895E0,1.3904201E0],"split_indices":[3,3,3,1,2,1,3,26,3,3,3,3,3,3,3,0,0,0,0,0,0,0,0,0,0,0,0,0,0,0,0],"split_type":[0,0,0,0,0,0,0,0,0,0,0,0,0,0,0,0,0,0,0,0,0,0,0,0,0,0,0,0,0,0,0],"sum_hessian":[2.5474E4,1.9998E4,5.476E3,1.2636E4,7.362E3,3.183E3,2.293E3,5.177E3,7.459E3,6.366E3,9.96E2,1.991E3,1.192E3,1.592E3,7.01E2,4.281E3,8.96E2,3.281E3,4.178E3,4.673E3,1.693E3,3.97E2,5.99E2,1.393E3,5.98E2,6.96E2,4.96E2,8.98E2,6.94E2,4.01E2,3E2],"tree_param":{"num_deleted":"0","num_feature":"32","num_nodes":"31","size_leaf_vector":"1"}},{"base_weights":[6.564317E-3,-1.9504263E1,7.1249405E1,-2.7548399E1,-6.0028415E0,4.7684086E1,1.0392626E2,-3.44087E1,-2.2714926E1,-9.961038E0,1.9697706E1,3.639737E1,6.6464806E1,9.3563576E1,1.27293526E2,-3.5344818E-1,-2.9901594E-1,-2.5956383E-1,-2.0394304E-1,-1.237208E-1,-4.5166254E-2,1.3433719E-1,2.3819989E-1,3.2645646E-1,4.5061392E-1,6.22255E-1,7.228485E-1,8.582659E-1,1.0343693E0,1.1921504E0,1.3765984E0],"categories":[],"categories_nodes":[],"categories_segments":[],"categories_sizes":[],"default_left":[0,0,0,0,0,0,0,0,0,0,0,0,0,0,0,0,0,0,0,0,0,0,0,0,0,0,0,0,0,0,0],"id":32,"left_children":[1,3,5,7,9,11,13,15,17,19,21,23,25,27,29,-1,-1,-1,-1,-1,-1,-1,-1,-1,-1,-1,-1,-1,-1,-1,-1],"loss_changes":[3.5411812E7,2.171871E6,4.212554E6,4.14768E5,7.598994E5,6.72502E5,5.43578E5,2.079E4,5.479625E4,8.490025E4,2.54245E4,6.324625E4,2.49615E4,1.12812E5,4.2377E4,0E0,0E0,0E0,0E0,0E0,0E0,0E0,0E0,0E0,0E0,0E0,0E0,0E0,0E0,0E0,0E0],"parents":[2147483647,0,0,1,1,2,2,3,3,4,4,5,5,6,6,7,7,8,8,9,9,10,10,11,11,12,12,13,13,14,14],"right_children":[2,4,6,8,10,12,14,16,18,20,22,24,26,28,30,-1,-1,-1,-1,-1,-1,-1,-1,-1,-1,-1,-1,-1,-1,-1,-1],"split_conditions":[8.885E1,2.93E1,1.577E2,1.265E1,5.445E1,1.2285E2,2.0475E2,6.75E0,2.01E1,4.04E1,7.935E1,1.0625E2,1.4495E2,1.8265E2,2.2645E2,-3.5344818E-1,-2.9901594E-1,-2.5956383E-1,-2.0394304E-1,-1.237208E-1,-4.5166254E-2,1.3433719E-1,2.3819989E-1,3.2645646E-1,4.5061392E-1,6.22255E-1,7.228485E-1,8.582659E-1,1.0343693E0,1.1921504E0,1.3765984E0],"split_indices":[3,3,3,1,10,2,3,1,3,3,3,1,3,3,2,0,0,0,0,0,0,0,0,0,0,0,0,0,0,0,0],"split_type":[0,0,0,0,0,0,0,0,0,0,0,0,0,0,0,0,0,0,0,0,0,0,0,0,0,0,0,0,0,0,0],"sum_hessian":[2.5474E4,1.9998E4,5.476E3,1.2531E4,7.467E3,3.183E3,2.293E3,5.177E3,7.354E3,6.471E3,9.96E2,1.99E3,1.193E3,1.592E3,7.01E2,4.281E3,8.96E2,3.064E3,4.29E3,4.484E3,1.987E3,3.97E2,5.99E2,1.392E3,5.98E2,6.97E2,4.96E2,8.98E2,6.94E2,4.01E2,3E2],"tree_param":{"num_deleted":"0","num_feature":"32","num_nodes":"31","size_leaf_vector":"1"}},{"base_weights":[6.7207017E-3,-1.976471E1,6.891433E1,-2.7857195E1,-7.730741E0,4.503763E1,1.0173969E2,-3.4400307E1,-2.3265114E1,-1.0782564E1,1.6436188E1,3.433563E1,6.3746365E1,9.056227E1,1.23814026E2,-3.5049778E-1,-3.0453187E-1,-2.6613328E-1,-2.115499E-1,-1.3924205E-1,-6.494519E-2,4.615754E-2,1.9818969E-1,2.9752654E-1,4.039957E-1,5.8329415E-1,6.9012177E-1,8.3019775E-1,1.0014203E0,1.1606878E0,1.3629426E0],"categories":[],"categories_nodes":[],"categories_segments":[],"categories_sizes":[],"default_left":[0,0,0,0,0,0,0,0,0,0,0,0,0,0,0,0,0,0,0,0,0,0,0,0,0,0,0,0,0,0,0],"id":33,"left_children":[1,3,5,7,9,11,13,15,17,19,21,23,25,27,29,-1,-1,-1,-1,-1,-1,-1,-1,-1,-1,-1,-1,-1,-1,-1,-1],"loss_changes":[3.470855E7,1.9276125E6,4.447184E6,3.5483E5,5.873263E5,6.56538E5,5.7873E5,1.144E4,4.859625E4,9.5139625E4,3.5615953E4,5.701975E4,3.009E4,1.06643E5,6.1607E4,0E0,0E0,0E0,0E0,0E0,0E0,0E0,0E0,0E0,0E0,0E0,0E0,0E0,0E0,0E0,0E0],"parents":[2147483647,0,0,1,1,2,2,3,3,4,4,5,5,6,6,7,7,8,8,9,9,10,10,11,11,12,12,13,13,14,14],"right_children":[2,4,6,8,10,12,14,16,18,20,22,24,26,28,30,-1,-1,-1,-1,-1,-1,-1,-1,-1,-1,-1,-1,-1,-1,-1,-1],"split_conditions":[8.75E1,2.71E1,1.5715E2,1.145E1,5.23E1,1.168E2,2.0185E2,5.15E0,1.775E1,3.66E1,6.7E1,1.005E2,1.406E2,1.796E2,2.3195E2,-3.5049778E-1,-3.0453187E-1,-2.6613328E-1,-2.115499E-1,-1.3924205E-1,-6.494519E-2,4.615754E-2,1.9818969E-1,2.9752654E-1,4.039957E-1,5.8329415E-1,6.9012177E-1,8.3019775E-1,1.0014203E0,1.1606878E0,1.3629426E0],"split_indices":[1,1,1,3,3,2,3,18,2,3,3,3,3,3,1,0,0,0,0,0,0,0,0,0,0,0,0,0,0,0,0],"split_type":[0,0,0,0,0,0,0,0,0,0,0,0,0,0,0,0,0,0,0,0,0,0,0,0,0,0,0,0,0,0,0],"sum_hessian":[2.5474E4,1.9795E4,5.679E3,1.1835E4,7.96E3,3.289E3,2.39E3,4.878E3,6.957E3,7.068E3,8.92E2,2.094E3,1.195E3,1.59E3,8E2,4.182E3,6.96E2,2.685E3,4.272E3,4.078E3,2.99E3,1.99E2,6.93E2,1.196E3,8.98E2,5.95E2,6E2,8.95E2,6.95E2,5E2,3E2],"tree_param":{"num_deleted":"0","num_feature":"32","num_nodes":"31","size_leaf_vector":"1"}},{"base_weights":[6.8586622E-3,-1.91167E1,6.98356E1,-2.6914448E1,-5.7309527E0,4.673684E1,1.01865524E2,-3.3616257E1,-2.2106356E1,-9.649737E0,1.9300776E1,3.5681263E1,6.51576E1,9.170421E1,1.2477878E2,-3.464219E-1,-2.9171816E-1,-2.4737006E-1,-1.9358654E-1,-1.16879E-1,-3.5189234E-2,1.1630706E-1,2.2554065E-1,3.1995422E-1,4.4199428E-1,6.100698E-1,7.0847386E-1,8.4120953E-1,1.0138139E0,1.1686082E0,1.3493905E0],"categories":[],"categories_nodes":[],"categories_segments":[],"categories_sizes":[],"default_left":[0,0,0,0,0,0,0,0,0,0,0,0,0,0,0,0,0,0,0,0,0,0,0,0,0,0,0,0,0,0,0],"id":34,"left_children":[1,3,5,7,9,11,13,15,17,19,21,23,25,27,29,-1,-1,-1,-1,-1,-1,-1,-1,-1,-1,-1,-1,-1,-1,-1,-1],"loss_changes":[3.401999E7,2.0873155E6,4.047408E6,4.06458E5,7.22452E5,6.461035E5,5.22666E5,2.3051E4,5.272825E4,7.9518375E4,2.461575E4,6.112775E4,2.3852E4,1.08373E5,4.0706E4,0E0,0E0,0E0,0E0,0E0,0E0,0E0,0E0,0E0,0E0,0E0,0E0,0E0,0E0,0E0,0E0],"parents":[2147483647,0,0,1,1,2,2,3,3,4,4,5,5,6,6,7,7,8,8,9,9,10,10,11,11,12,12,13,13,14,14],"right_children":[2,4,6,8,10,12,14,16,18,20,22,24,26,28,30,-1,-1,-1,-1,-1,-1,-1,-1,-1,-1,-1,-1,-1,-1,-1,-1],"split_conditions":[8.885E1,2.98E1,1.577E2,1.3E1,5.625E1,1.268E2,2.0475E2,6.45E0,2.09E1,4.17E1,7.405E1,1.0545E2,1.4495E2,1.8265E2,2.2935E2,-3.464219E-1,-2.9171816E-1,-2.4737006E-1,-1.9358654E-1,-1.16879E-1,-3.5189234E-2,1.1630706E-1,2.2554065E-1,3.1995422E-1,4.4199428E-1,6.100698E-1,7.0847386E-1,8.4120953E-1,1.0138139E0,1.1686082E0,1.3493905E0],"split_indices":[3,3,3,3,1,1,3,30,3,3,2,3,3,3,3,0,0,0,0,0,0,0,0,0,0,0,0,0,0,0,0],"split_type":[0,0,0,0,0,0,0,0,0,0,0,0,0,0,0,0,0,0,0,0,0,0,0,0,0,0,0,0,0,0,0],"sum_hessian":[2.5474E4,1.9998E4,5.476E3,1.2636E4,7.362E3,3.183E3,2.293E3,5.276E3,7.36E3,6.366E3,9.96E2,1.991E3,1.192E3,1.592E3,7.01E2,4.281E3,9.95E2,3.756E3,3.604E3,4.777E3,1.589E3,2.98E2,6.98E2,1.393E3,5.98E2,6.96E2,4.96E2,8.98E2,6.94E2,4.01E2,3E2],"tree_param":{"num_deleted":"0","num_feature":"32","num_nodes":"31","size_leaf_vector":"1"}},{"base_weights":[7.0086773E-3,-1.9584808E1,6.681317E1,-2.7722584E1,-8.550783E0,4.184487E1,9.749906E1,-3.395046E1,-2.3351904E1,-1.122376E1,1.3654244E1,3.2570248E1,5.950972E1,8.474248E1,1.17776115E2,-3.4402123E-1,-3.0778757E-1,-2.6567513E-1,-2.1301597E-1,-1.4653943E-1,-7.300046E-2,3.6677916E-2,1.8699874E-1,2.67714E-1,3.690062E-1,4.9894056E-1,6.3054496E-1,7.524559E-1,9.200064E-1,1.0890331E0,1.3071417E0],"categories":[],"categories_nodes":[],"categories_segments":[],"categories_sizes":[],"default_left":[0,0,0,0,0,0,0,0,0,0,0,0,0,0,0,0,0,0,0,0,0,0,0,0,0,0,0,0,0,0,0],"id":35,"left_children":[1,3,5,7,9,11,13,15,17,19,21,23,25,27,29,-1,-1,-1,-1,-1,-1,-1,-1,-1,-1,-1,-1,-1,-1,-1,-1],"loss_changes":[3.3344366E7,1.768584E6,4.42211E6,3.07801E5,4.9652662E5,5.202035E5,6.60224E5,5.6355E3,4.337625E4,1.0036494E5,4.5230188E4,5.154475E4,3.42115E4,1.02952E5,1.00331E5,0E0,0E0,0E0,0E0,0E0,0E0,0E0,0E0,0E0,0E0,0E0,0E0,0E0,0E0,0E0,0E0],"parents":[2147483647,0,0,1,1,2,2,3,3,4,4,5,5,6,6,7,7,8,8,9,9,10,10,11,11,12,12,13,13,14,14],"right_children":[2,4,6,8,10,12,14,16,18,20,22,24,26,28,30,-1,-1,-1,-1,-1,-1,-1,-1,-1,-1,-1,-1,-1,-1,-1,-1],"split_conditions":[8.375E1,2.46E1,1.509E2,1E1,5.04E1,1.145E2,1.957E2,4.35E0,1.655E1,3.49E1,6.7E1,9.54E1,1.3405E2,1.6955E2,2.24E2,-3.4402123E-1,-3.0778757E-1,-2.6567513E-1,-2.1301597E-1,-1.4653943E-1,-7.300046E-2,3.6677916E-2,1.8699874E-1,2.67714E-1,3.690062E-1,4.9894056E-1,6.3054496E-1,7.524559E-1,9.200064E-1,1.0890331E0,1.3071417E0],"split_indices":[2,3,1,3,3,3,3,3,3,3,3,3,1,3,5,0,0,0,0,0,0,0,0,0,0,0,0,0,0,0,0],"split_type":[0,0,0,0,0,0,0,0,0,0,0,0,0,0,0,0,0,0,0,0,0,0,0,0,0,0,0,0,0,0,0],"sum_hessian":[2.5474E4,1.9698E4,5.776E3,1.1336E4,8.362E3,3.186E3,2.59E3,4.672E3,6.664E3,7.464E3,8.98E2,2.091E3,1.095E3,1.593E3,9.97E2,4.081E3,5.91E2,2.59E3,4.074E3,3.981E3,3.483E3,3.02E2,5.96E2,8.97E2,1.194E3,2.99E2,7.96E2,6.95E2,8.98E2,5.97E2,4E2],"tree_param":{"num_deleted":"0","num_feature":"32","num_nodes":"31","size_leaf_vector":"1"}},{"base_weights":[7.1233166E-3,-1.873674E1,6.8449425E1,-2.6381697E1,-5.613277E0,4.5806873E1,9.984674E1,-3.306395E1,-2.175061E1,-9.45293E0,1.8912989E1,3.496517E1,6.3847088E1,8.987936E1,1.22322815E2,-3.39525E-1,-2.8740045E-1,-2.4648915E-1,-1.9271329E-1,-1.15445256E-1,-3.6763236E-2,1.2856874E-1,2.2898689E-1,3.1345773E-1,4.3323866E-1,5.977437E-1,6.943845E-1,8.243587E-1,9.9378365E-1,1.1454842E0,1.322995E0],"categories":[],"categories_nodes":[],"categories_segments":[],"categories_sizes":[],"default_left":[0,0,0,0,0,0,0,0,0,0,0,0,0,0,0,0,0,0,0,0,0,0,0,0,0,0,0,0,0,0,0],"id":36,"left_children":[1,3,5,7,9,11,13,15,17,19,21,23,25,27,29,-1,-1,-1,-1,-1,-1,-1,-1,-1,-1,-1,-1,-1,-1,-1,-1],"loss_changes":[3.2682476E7,2.0063175E6,3.889112E6,3.90347E5,6.935699E5,6.20515E5,5.02922E5,1.8891E4,5.318075E4,7.688569E4,2.3771031E4,5.887675E4,2.3039E4,1.04443E5,3.9295E4,0E0,0E0,0E0,0E0,0E0,0E0,0E0,0E0,0E0,0E0,0E0,0E0,0E0,0E0,0E0,0E0],"parents":[2147483647,0,0,1,1,2,2,3,3,4,4,5,5,6,6,7,7,8,8,9,9,10,10,11,11,12,12,13,13,14,14],"right_children":[2,4,6,8,10,12,14,16,18,20,22,24,26,28,30,-1,-1,-1,-1,-1,-1,-1,-1,-1,-1,-1,-1,-1,-1,-1,-1],"split_conditions":[8.885E1,2.98E1,1.577E2,1.25E1,5.625E1,1.2285E2,2.0475E2,6.7E0,2.055E1,4.13E1,7.935E1,1.0625E2,1.4495E2,1.8265E2,2.2645E2,-3.39525E-1,-2.8740045E-1,-2.4648915E-1,-1.9271329E-1,-1.15445256E-1,-3.6763236E-2,1.2856874E-1,2.2898689E-1,3.1345773E-1,4.3323866E-1,5.977437E-1,6.943845E-1,8.243587E-1,9.9378365E-1,1.1454842E0,1.322995E0],"split_indices":[3,3,3,3,5,2,3,3,3,3,3,1,3,3,2,0,0,0,0,0,0,0,0,0,0,0,0,0,0,0,0],"split_type":[0,0,0,0,0,0,0,0,0,0,0,0,0,0,0,0,0,0,0,0,0,0,0,0,0,0,0,0,0,0,0],"sum_hessian":[2.5474E4,1.9998E4,5.476E3,1.2636E4,7.362E3,3.183E3,2.293E3,5.17E3,7.466E3,6.366E3,9.96E2,1.99E3,1.193E3,1.592E3,7.01E2,4.283E3,8.87E2,3.438E3,4.028E3,4.673E3,1.693E3,3.97E2,5.99E2,1.392E3,5.98E2,6.97E2,4.96E2,8.98E2,6.94E2,4.01E2,3E2],"tree_param":{"num_deleted":"0","num_feature":"32","num_nodes":"31","size_leaf_vector":"1"}},{"base_weights":[7.2664646E-3,-1.8549416E1,6.776609E1,-2.6117964E1,-5.5571175E0,4.53569E1,9.886312E1,-3.2620457E1,-2.1452866E1,-9.35865E0,1.872565E1,3.4615395E1,6.321546E1,8.89942E1,1.211031E2,-3.361371E-1,-2.8312197E-1,-2.3732318E-1,-1.8456718E-1,-1.1343091E-1,-3.389459E-2,1.12733066E-1,2.1901836E-1,3.103624E-1,4.290088E-1,5.843611E-1,6.787332E-1,8.162638E-1,9.838601E-1,1.1340443E0,1.3098271E0],"categories":[],"categories_nodes":[],"categories_segments":[],"categories_sizes":[],"default_left":[0,0,0,0,0,0,0,0,0,0,0,0,0,0,0,0,0,0,0,0,0,0,0,0,0,0,0,0,0,0,0],"id":37,"left_children":[1,3,5,7,9,11,13,15,17,19,21,23,25,27,29,-1,-1,-1,-1,-1,-1,-1,-1,-1,-1,-1,-1,-1,-1,-1,-1],"loss_changes":[3.2032984E7,1.966413E6,3.812214E6,3.82641E5,6.798667E5,6.087835E5,4.925E5,2.16295E4,4.98345E4,7.5381875E4,2.3352125E4,5.7712E4,2.2636E4,1.02132E5,3.854E4,0E0,0E0,0E0,0E0,0E0,0E0,0E0,0E0,0E0,0E0,0E0,0E0,0E0,0E0,0E0,0E0],"parents":[2147483647,0,0,1,1,2,2,3,3,4,4,5,5,6,6,7,7,8,8,9,9,10,10,11,11,12,12,13,13,14,14],"right_children":[2,4,6,8,10,12,14,16,18,20,22,24,26,28,30,-1,-1,-1,-1,-1,-1,-1,-1,-1,-1,-1,-1,-1,-1,-1,-1],"split_conditions":[8.885E1,2.98E1,1.594E2,1.3E1,5.445E1,1.2485E2,2.0475E2,6.65E0,2.14E1,4.17E1,7.62E1,1.0545E2,1.426E2,1.8265E2,2.3195E2,-3.361371E-1,-2.8312197E-1,-2.3732318E-1,-1.8456718E-1,-1.1343091E-1,-3.389459E-2,1.12733066E-1,2.1901836E-1,3.103624E-1,4.290088E-1,5.843611E-1,6.787332E-1,8.162638E-1,9.838601E-1,1.1340443E0,1.3098271E0],"split_indices":[3,3,1,3,14,3,3,12,1,3,5,3,3,3,1,0,0,0,0,0,0,0,0,0,0,0,0,0,0,0,0],"split_type":[0,0,0,0,0,0,0,0,0,0,0,0,0,0,0,0,0,0,0,0,0,0,0,0,0,0,0,0,0,0,0],"sum_hessian":[2.5474E4,1.9998E4,5.476E3,1.2636E4,7.362E3,3.184E3,2.292E3,5.276E3,7.36E3,6.366E3,9.96E2,1.99E3,1.194E3,1.591E3,7.01E2,4.282E3,9.94E2,4.176E3,3.184E3,4.777E3,1.589E3,2.99E2,6.97E2,1.393E3,5.97E2,5.96E2,5.98E2,8.97E2,6.94E2,4.01E2,3E2],"tree_param":{"num_deleted":"0","num_feature":"32","num_nodes":"31","size_leaf_vector":"1"}},{"base_weights":[7.4050515E-3,-1.9001621E1,6.484082E1,-2.6820362E1,-8.174027E0,3.9748116E1,9.359268E1,-3.2937737E1,-2.258282E1,-1.079505E1,1.3277928E1,3.1604355E1,5.6805195E1,7.923049E1,1.1142532E2,-3.339089E-1,-2.9900318E-1,-2.579515E-1,-2.0589414E-1,-1.4048232E-1,-6.953137E-2,3.5253048E-2,1.8124032E-1,2.5943103E-1,3.5827398E-1,4.8413473E-1,6.031855E-1,7.110539E-1,8.622795E-1,1.019311E0,1.244754E0],"categories":[],"categories_nodes":[],"categories_segments":[],"categories_sizes":[],"default_left":[0,0,0,0,0,0,0,0,0,0,0,0,0,0,0,0,0,0,0,0,0,0,0,0,0,0,0,0,0,0,0],"id":38,"left_children":[1,3,5,7,9,11,13,15,17,19,21,23,25,27,29,-1,-1,-1,-1,-1,-1,-1,-1,-1,-1,-1,-1,-1,-1,-1,-1],"loss_changes":[3.1397134E7,1.667546E6,4.163444E6,2.95785E5,4.6468294E5,4.26877E5,6.8038E5,5.442E3,4.276275E4,9.192844E4,4.247211E4,4.906175E4,2.6445E4,7.8809E4,1.35745E5,0E0,0E0,0E0,0E0,0E0,0E0,0E0,0E0,0E0,0E0,0E0,0E0,0E0,0E0,0E0,0E0],"parents":[2147483647,0,0,1,1,2,2,3,3,4,4,5,5,6,6,7,7,8,8,9,9,10,10,11,11,12,12,13,13,14,14],"right_children":[2,4,6,8,10,12,14,16,18,20,22,24,26,28,30,-1,-1,-1,-1,-1,-1,-1,-1,-1,-1,-1,-1,-1,-1,-1,-1],"split_conditions":[8.575E1,2.485E1,1.4725E2,1.01E1,5.04E1,1.134E2,1.901E2,4.35E0,1.655E1,3.515E1,6.825E1,9.54E1,1.3265E2,1.669E2,2.1695E2,-3.339089E-1,-2.9900318E-1,-2.579515E-1,-2.0589414E-1,-1.4048232E-1,-6.953137E-2,3.5253048E-2,1.8124032E-1,2.5943103E-1,3.5827398E-1,4.8413473E-1,6.031855E-1,7.110539E-1,8.622795E-1,1.019311E0,1.244754E0],"split_indices":[1,3,3,1,3,2,3,1,3,3,1,3,3,3,1,0,0,0,0,0,0,0,0,0,0,0,0,0,0,0,0],"split_type":[0,0,0,0,0,0,0,0,0,0,0,0,0,0,0,0,0,0,0,0,0,0,0,0,0,0,0,0,0,0,0],"sum_hessian":[2.5474E4,1.9699E4,5.775E3,1.1438E4,8.261E3,3.085E3,2.69E3,4.678E3,6.76E3,7.362E3,8.99E2,2.09E3,9.95E2,1.493E3,1.197E3,4.062E3,6.16E2,2.584E3,4.176E3,3.985E3,3.377E3,2.99E2,6E2,8.96E2,1.194E3,2.98E2,6.97E2,6.96E2,7.97E2,6.98E2,4.99E2],"tree_param":{"num_deleted":"0","num_feature":"32","num_nodes":"31","size_leaf_vector":"1"}},{"base_weights":[7.505573E-3,-1.8180723E1,6.642094E1,-2.5684853E1,-5.5856576E0,4.444657E1,9.689171E1,-3.2076668E1,-2.1181454E1,-9.278556E0,1.8309288E1,3.3934975E1,6.1960957E1,8.7241806E1,1.18786354E2,-3.2945105E-1,-2.7883953E-1,-2.4292234E-1,-1.9055818E-1,-1.1542555E-1,-4.1585002E-2,1.0950731E-1,2.1462327E-1,3.040597E-1,4.207158E-1,5.8012533E-1,6.7373604E-1,7.998973E-1,9.645724E-1,1.1120381E0,1.2844298E0],"categories":[],"categories_nodes":[],"categories_segments":[],"categories_sizes":[],"default_left":[0,0,0,0,0,0,0,0,0,0,0,0,0,0,0,0,0,0,0,0,0,0,0,0,0,0,0,0,0,0,0],"id":39,"left_children":[1,3,5,7,9,11,13,15,17,19,21,23,25,27,29,-1,-1,-1,-1,-1,-1,-1,-1,-1,-1,-1,-1,-1,-1,-1,-1],"loss_changes":[3.0773544E7,1.8900625E6,3.66296E6,3.600525E5,6.5915825E5,5.84085E5,4.74316E5,1.79355E4,4.81715E4,7.4939375E4,2.2966781E4,5.591925E4,2.15875E4,9.8947E4,3.6898E4,0E0,0E0,0E0,0E0,0E0,0E0,0E0,0E0,0E0,0E0,0E0,0E0,0E0,0E0,0E0,0E0],"parents":[2147483647,0,0,1,1,2,2,3,3,4,4,5,5,6,6,7,7,8,8,9,9,10,10,11,11,12,12,13,13,14,14],"right_children":[2,4,6,8,10,12,14,16,18,20,22,24,26,28,30,-1,-1,-1,-1,-1,-1,-1,-1,-1,-1,-1,-1,-1,-1,-1,-1],"split_conditions":[8.885E1,2.93E1,1.577E2,1.265E1,5.52E1,1.268E2,2.0705E2,6.7E0,1.995E1,4.04E1,7.405E1,1.0625E2,1.4495E2,1.8265E2,2.2645E2,-3.2945105E-1,-2.7883953E-1,-2.4292234E-1,-1.9055818E-1,-1.1542555E-1,-4.1585002E-2,1.0950731E-1,2.1462327E-1,3.040597E-1,4.207158E-1,5.8012533E-1,6.7373604E-1,7.998973E-1,9.645724E-1,1.1120381E0,1.2844298E0],"split_indices":[3,3,3,1,3,1,1,3,3,3,2,1,3,3,2,0,0,0,0,0,0,0,0,0,0,0,0,0,0,0,0],"split_type":[0,0,0,0,0,0,0,0,0,0,0,0,0,0,0,0,0,0,0,0,0,0,0,0,0,0,0,0,0,0,0],"sum_hessian":[2.5474E4,1.9998E4,5.476E3,1.2531E4,7.467E3,3.183E3,2.293E3,5.177E3,7.354E3,6.468E3,9.99E2,1.991E3,1.192E3,1.595E3,6.98E2,4.283E3,8.94E2,2.981E3,4.373E3,4.484E3,1.984E3,3.01E2,6.98E2,1.392E3,5.99E2,6.96E2,4.96E2,8.98E2,6.97E2,3.98E2,3E2],"tree_param":{"num_deleted":"0","num_feature":"32","num_nodes":"31","size_leaf_vector":"1"}},{"base_weights":[7.6376647E-3,-1.8626005E1,6.3546524E1,-2.6453747E1,-8.234596E0,3.9795807E1,9.2736015E1,-3.228999E1,-2.2294182E1,-1.0911226E1,1.1825567E1,3.0971529E1,5.660292E1,8.058085E1,1.12057274E2,-3.272769E-1,-2.9326552E-1,-2.5291824E-1,-2.033365E-1,-1.420837E-1,-7.329369E-2,2.857258E-2,1.7754836E-1,2.5407648E-1,3.5126665E-1,4.7479215E-1,5.9966165E-1,7.1513706E-1,8.75466E-1,1.0359597E0,1.2439591E0],"categories":[],"categories_nodes":[],"categories_segments":[],"categories_sizes":[],"default_left":[0,0,0,0,0,0,0,0,0,0,0,0,0,0,0,0,0,0,0,0,0,0,0,0,0,0,0,0,0,0,0],"id":40,"left_children":[1,3,5,7,9,11,13,15,17,19,21,23,25,27,29,-1,-1,-1,-1,-1,-1,-1,-1,-1,-1,-1,-1,-1,-1,-1,-1],"loss_changes":[3.0162588E7,1.6021245E6,4.001338E6,2.72023E5,4.5464562E5,4.70913E5,5.99476E5,5.1015E3,3.805625E4,8.8104E4,5.2965266E4,4.747175E4,3.078375E4,9.4415E4,9.1306E4,0E0,0E0,0E0,0E0,0E0,0E0,0E0,0E0,0E0,0E0,0E0,0E0,0E0,0E0,0E0,0E0],"parents":[2147483647,0,0,1,1,2,2,3,3,4,4,5,5,6,6,7,7,8,8,9,9,10,10,11,11,12,12,13,13,14,14],"right_children":[2,4,6,8,10,12,14,16,18,20,22,24,26,28,30,-1,-1,-1,-1,-1,-1,-1,-1,-1,-1,-1,-1,-1,-1,-1,-1],"split_conditions":[8.375E1,2.44E1,1.509E2,1E1,4.905E1,1.134E2,1.957E2,4.35E0,1.655E1,3.445E1,6.825E1,9.54E1,1.3405E2,1.711E2,2.1945E2,-3.272769E-1,-2.9326552E-1,-2.5291824E-1,-2.033365E-1,-1.420837E-1,-7.329369E-2,2.857258E-2,1.7754836E-1,2.5407648E-1,3.5126665E-1,4.7479215E-1,5.9966165E-1,7.1513706E-1,8.75466E-1,1.0359597E0,1.2439591E0],"split_indices":[2,3,1,3,3,2,3,1,3,3,1,3,1,1,2,0,0,0,0,0,0,0,0,0,0,0,0,0,0,0,0],"split_type":[0,0,0,0,0,0,0,0,0,0,0,0,0,0,0,0,0,0,0,0,0,0,0,0,0,0,0,0,0,0,0],"sum_hessian":[2.5474E4,1.9698E4,5.776E3,1.1234E4,8.464E3,3.186E3,2.59E3,4.672E3,6.562E3,7.468E3,9.96E2,2.091E3,1.095E3,1.593E3,9.97E2,4.062E3,6.1E2,2.59E3,3.972E3,3.887E3,3.581E3,3.97E2,5.99E2,8.97E2,1.194E3,2.99E2,7.96E2,6.97E2,8.96E2,5.97E2,4E2],"tree_param":{"num_deleted":"0","num_feature":"32","num_nodes":"31","size_leaf_vector":"1"}},{"base_weights":[7.736856E-3,-1.8038939E1,6.431053E1,-2.5247955E1,-6.0053735E0,4.212687E1,9.390825E1,-3.1447308E1,-2.0835012E1,-9.173596E0,1.734168E1,3.275545E1,6.000266E1,8.3570366E1,1.1436325E2,-3.2291588E-1,-2.7349934E-1,-2.3901415E-1,-1.8805125E-1,-1.157631E-1,-4.4217374E-2,1.080026E-1,2.0627294E-1,2.934359E-1,4.1258845E-1,5.6117815E-1,6.451214E-1,7.561676E-1,9.140912E-1,1.0717E0,1.2593224E0],"categories":[],"categories_nodes":[],"categories_segments":[],"categories_sizes":[],"default_left":[0,0,0,0,0,0,0,0,0,0,0,0,0,0,0,0,0,0,0,0,0,0,0,0,0,0,0,0,0,0,0],"id":41,"left_children":[1,3,5,7,9,11,13,15,17,19,21,23,25,27,29,-1,-1,-1,-1,-1,-1,-1,-1,-1,-1,-1,-1,-1,-1,-1,-1],"loss_changes":[2.9563668E7,1.7255695E6,3.661762E6,3.396705E5,5.515216E5,5.32931E5,4.96048E5,1.7006E4,4.48025E4,7.489231E4,1.8927125E4,5.96285E4,1.55975E4,9.2343E4,5.3079E4,0E0,0E0,0E0,0E0,0E0,0E0,0E0,0E0,0E0,0E0,0E0,0E0,0E0,0E0,0E0,0E0],"parents":[2147483647,0,0,1,1,2,2,3,3,4,4,5,5,6,6,7,7,8,8,9,9,10,10,11,11,12,12,13,13,14,14],"right_children":[2,4,6,8,10,12,14,16,18,20,22,24,26,28,30,-1,-1,-1,-1,-1,-1,-1,-1,-1,-1,-1,-1,-1,-1,-1,-1],"split_conditions":[8.785E1,2.885E1,1.5715E2,1.25E1,5.445E1,1.2285E2,2.0005E2,6.5E0,1.965E1,3.975E1,7.62E1,1.0545E2,1.426E2,1.769E2,2.3195E2,-3.2291588E-1,-2.7349934E-1,-2.3901415E-1,-1.8805125E-1,-1.157631E-1,-4.4217374E-2,1.080026E-1,2.0627294E-1,2.934359E-1,4.1258845E-1,5.6117815E-1,6.451214E-1,7.561676E-1,9.140912E-1,1.0717E0,1.2593224E0],"split_indices":[3,3,1,3,26,2,2,26,3,3,1,3,3,3,5,0,0,0,0,0,0,0,0,0,0,0,0,0,0,0,0],"split_type":[0,0,0,0,0,0,0,0,0,0,0,0,0,0,0,0,0,0,0,0,0,0,0,0,0,0,0,0,0,0,0],"sum_hessian":[2.5474E4,1.9892E4,5.582E3,1.2439E4,7.453E3,3.192E3,2.39E3,5.17E3,7.269E3,6.563E3,8.9E2,2.096E3,1.096E3,1.591E3,7.99E2,4.281E3,8.89E2,2.891E3,4.378E3,4.358E3,2.205E3,2.99E2,5.91E2,1.499E3,5.97E2,5.96E2,5E2,7.95E2,7.96E2,4.99E2,3E2],"tree_param":{"num_deleted":"0","num_feature":"32","num_nodes":"31","size_leaf_vector":"1"}},{"base_weights":[7.857696E-3,-1.7442316E1,6.518977E1,-2.469614E1,-4.641459E0,4.455013E1,9.5187325E1,-3.0943047E1,-2.020781E1,-8.492742E0,1.9598852E1,3.3407608E1,6.082081E1,8.57141E1,1.1529862E2,-3.1967595E-1,-2.6842752E-1,-2.2419824E-1,-1.7243132E-1,-1.0463688E-1,-2.163099E-2,1.4284617E-1,2.186569E-1,3.033367E-1,4.1877043E-1,5.628246E-1,6.6000116E-1,7.8687423E-1,9.3614596E-1,1.0792911E0,1.2468444E0],"categories":[],"categories_nodes":[],"categories_segments":[],"categories_sizes":[],"default_left":[0,0,0,0,0,0,0,0,0,0,0,0,0,0,0,0,0,0,0,0,0,0,0,0,0,0,0,0,0,0,0],"id":42,"left_children":[1,3,5,7,9,11,13,15,17,19,21,23,25,27,29,-1,-1,-1,-1,-1,-1,-1,-1,-1,-1,-1,-1,-1,-1,-1,-1],"loss_changes":[2.8977312E7,1.8659025E6,3.326724E6,3.590205E5,6.7886675E5,5.76122E5,4.07736E5,2.16635E4,4.858125E4,7.8247875E4,1.1698031E4,4.806525E4,2.6725E4,7.5572E4,3.4892E4,0E0,0E0,0E0,0E0,0E0,0E0,0E0,0E0,0E0,0E0,0E0,0E0,0E0,0E0,0E0,0E0],"parents":[2147483647,0,0,1,1,2,2,3,3,4,4,5,5,6,6,7,7,8,8,9,9,10,10,11,11,12,12,13,13,14,14],"right_children":[2,4,6,8,10,12,14,16,18,20,22,24,26,28,30,-1,-1,-1,-1,-1,-1,-1,-1,-1,-1,-1,-1,-1,-1,-1,-1],"split_conditions":[8.98E1,3.04E1,1.597E2,1.32E1,6.825E1,1.268E2,2.0705E2,6.7E0,2.17E1,4.245E1,7.935E1,1.08E2,1.4495E2,1.8265E2,2.2935E2,-3.1967595E-1,-2.6842752E-1,-2.2419824E-1,-1.7243132E-1,-1.0463688E-1,-2.163099E-2,1.4284617E-1,2.186569E-1,3.033367E-1,4.1877043E-1,5.628246E-1,6.6000116E-1,7.8687423E-1,9.3614596E-1,1.0792911E0,1.2468444E0],"split_indices":[3,3,3,3,1,1,1,3,1,3,3,3,3,3,3,0,0,0,0,0,0,0,0,0,0,0,0,0,0,0,0],"split_type":[0,0,0,0,0,0,0,0,0,0,0,0,0,0,0,0,0,0,0,0,0,0,0,0,0,0,0,0,0,0,0],"sum_hessian":[2.5474E4,2.0095E4,5.379E3,1.2826E4,7.269E3,3.188E3,2.191E3,5.36E3,7.466E3,6.273E3,9.96E2,1.894E3,1.294E3,1.493E3,6.98E2,4.283E3,1.077E3,4.272E3,3.194E3,4.783E3,1.49E3,3E2,6.96E2,1.393E3,5.01E2,6.96E2,5.98E2,7.96E2,6.97E2,3.98E2,3E2],"tree_param":{"num_deleted":"0","num_feature":"32","num_nodes":"31","size_leaf_vector":"1"}},{"base_weights":[7.984621E-3,-1.746523E1,6.3810585E1,-2.4596128E1,-5.2242136E0,4.2702934E1,9.3101494E1,-3.0633726E1,-2.0144823E1,-8.801912E0,1.7628777E1,3.2596016E1,5.9506428E1,8.381761E1,1.1415255E2,-3.1648144E-1,-2.6573983E-1,-2.219568E-1,-1.7221873E-1,-1.0686648E-1,-3.1326845E-2,1.1955731E-1,2.1362513E-1,2.9201552E-1,4.043556E-1,5.499931E-1,6.3899153E-1,7.6838636E-1,9.26762E-1,1.0685637E0,1.2344499E0],"categories":[],"categories_nodes":[],"categories_segments":[],"categories_sizes":[],"default_left":[0,0,0,0,0,0,0,0,0,0,0,0,0,0,0,0,0,0,0,0,0,0,0,0,0,0,0,0,0,0,0],"id":43,"left_children":[1,3,5,7,9,11,13,15,17,19,21,23,25,27,29,-1,-1,-1,-1,-1,-1,-1,-1,-1,-1,-1,-1,-1,-1,-1,-1],"loss_changes":[2.8401574E7,1.7455725E6,3.382248E6,3.390045E5,6.0216225E5,5.38974E5,4.38564E5,2.12375E4,4.32405E4,6.799794E4,2.0862719E4,5.180175E4,2.01445E4,9.1489E4,3.4201E4,0E0,0E0,0E0,0E0,0E0,0E0,0E0,0E0,0E0,0E0,0E0,0E0,0E0,0E0,0E0,0E0],"parents":[2147483647,0,0,1,1,2,2,3,3,4,4,5,5,6,6,7,7,8,8,9,9,10,10,11,11,12,12,13,13,14,14],"right_children":[2,4,6,8,10,12,14,16,18,20,22,24,26,28,30,-1,-1,-1,-1,-1,-1,-1,-1,-1,-1,-1,-1,-1,-1,-1,-1],"split_conditions":[8.885E1,2.98E1,1.594E2,1.32E1,5.625E1,1.2285E2,2.031E2,6.7E0,2.17E1,4.17E1,8.02E1,1.0625E2,1.426E2,1.8265E2,2.3195E2,-3.1648144E-1,-2.6573983E-1,-2.219568E-1,-1.7221873E-1,-1.0686648E-1,-3.1326845E-2,1.1955731E-1,2.1362513E-1,2.9201552E-1,4.043556E-1,5.499931E-1,6.3899153E-1,7.6838636E-1,9.26762E-1,1.0685637E0,1.2344499E0],"split_indices":[3,3,1,3,1,2,2,29,1,3,1,1,3,3,5,0,0,0,0,0,0,0,0,0,0,0,0,0,0,0,0],"split_type":[0,0,0,0,0,0,0,0,0,0,0,0,0,0,0,0,0,0,0,0,0,0,0,0,0,0,0,0,0,0,0],"sum_hessian":[2.5474E4,1.9998E4,5.476E3,1.2636E4,7.362E3,3.184E3,2.292E3,5.36E3,7.276E3,6.366E3,9.96E2,1.99E3,1.194E3,1.594E3,6.98E2,4.283E3,1.077E3,4.272E3,3.004E3,4.777E3,1.589E3,3.97E2,5.99E2,1.392E3,5.98E2,5.96E2,5.98E2,8.97E2,6.97E2,3.98E2,3E2],"tree_param":{"num_deleted":"0","num_feature":"32","num_nodes":"31","size_leaf_vector":"1"}},{"base_weights":[8.104838E-3,-1.709557E1,6.3895733E1,-2.420543E1,-4.548765E0,4.3655087E1,9.329076E1,-3.02348E1,-1.97384E1,-8.534179E0,1.7958042E1,3.2745388E1,5.9598076E1,8.397717E1,1.12952545E2,-3.1277436E-1,-2.5990054E-1,-2.1844667E-1,-1.6821358E-1,-1.04144044E-1,-3.1033533E-2,1.1842799E-1,2.1424195E-1,2.973085E-1,4.1051203E-1,5.516126E-1,6.4669746E-1,7.7127296E-1,9.1721374E-1,1.0573058E0,1.2222255E0],"categories":[],"categories_nodes":[],"categories_segments":[],"categories_sizes":[],"default_left":[0,0,0,0,0,0,0,0,0,0,0,0,0,0,0,0,0,0,0,0,0,0,0,0,0,0,0,0,0,0,0],"id":44,"left_children":[1,3,5,7,9,11,13,15,17,19,21,23,25,27,29,-1,-1,-1,-1,-1,-1,-1,-1,-1,-1,-1,-1,-1,-1,-1,-1],"loss_changes":[2.7837962E7,1.7925745E6,3.19689E6,3.44877E5,6.522645E5,5.525475E5,3.92098E5,2.33385E4,4.492025E4,6.3042156E4,2.2935125E4,4.622675E4,2.55505E4,7.2071E4,3.4075E4,0E0,0E0,0E0,0E0,0E0,0E0,0E0,0E0,0E0,0E0,0E0,0E0,0E0,0E0,0E0,0E0],"parents":[2147483647,0,0,1,1,2,2,3,3,4,4,5,5,6,6,7,7,8,8,9,9,10,10,11,11,12,12,13,13,14,14],"right_children":[2,4,6,8,10,12,14,16,18,20,22,24,26,28,30,-1,-1,-1,-1,-1,-1,-1,-1,-1,-1,-1,-1,-1,-1,-1,-1],"split_conditions":[8.98E1,3.04E1,1.6135E2,1.335E1,5.445E1,1.268E2,2.0475E2,8.05E0,2.17E1,4.17E1,7.935E1,1.08E2,1.4495E2,1.8265E2,2.2645E2,-3.1277436E-1,-2.5990054E-1,-2.1844667E-1,-1.6821358E-1,-1.04144044E-1,-3.1033533E-2,1.1842799E-1,2.1424195E-1,2.973085E-1,4.1051203E-1,5.516126E-1,6.4669746E-1,7.7127296E-1,9.1721374E-1,1.0573058E0,1.2222255E0],"split_indices":[3,3,1,3,30,1,3,2,3,3,3,3,3,3,2,0,0,0,0,0,0,0,0,0,0,0,0,0,0,0,0],"split_type":[0,0,0,0,0,0,0,0,0,0,0,0,0,0,0,0,0,0,0,0,0,0,0,0,0,0,0,0,0,0,0],"sum_hessian":[2.5474E4,2.0095E4,5.379E3,1.2826E4,7.269E3,3.187E3,2.192E3,5.456E3,7.37E3,6.176E3,1.093E3,1.894E3,1.293E3,1.491E3,7.01E2,4.375E3,1.081E3,4.276E3,3.094E3,4.587E3,1.589E3,3.97E2,6.96E2,1.393E3,5.01E2,6.96E2,5.97E2,7.97E2,6.94E2,4.01E2,3E2],"tree_param":{"num_deleted":"0","num_feature":"32","num_nodes":"31","size_leaf_vector":"1"}},{"base_weights":[8.2241325E-3,-1.6924652E1,6.3257866E1,-2.3963451E1,-4.5032496E0,4.3980446E1,9.351152E1,-2.9932558E1,-1.9541069E1,-8.241448E0,1.9025297E1,3.241086E1,5.965702E1,8.518666E1,1.1408457E2,-3.0964732E-1,-2.5730395E-1,-2.1626274E-1,-1.6653198E-1,-1.01541966E-1,-2.0987067E-2,1.389999E-1,2.121137E-1,2.943375E-1,4.0629768E-1,5.459135E-1,6.462285E-1,7.8386605E-1,9.282916E-1,1.0874271E0,1.2392099E0],"categories":[],"categories_nodes":[],"categories_segments":[],"categories_sizes":[],"default_left":[0,0,0,0,0,0,0,0,0,0,0,0,0,0,0,0,0,0,0,0,0,0,0,0,0,0,0,0,0,0,0],"id":45,"left_children":[1,3,5,7,9,11,13,15,17,19,21,23,25,27,29,-1,-1,-1,-1,-1,-1,-1,-1,-1,-1,-1,-1,-1,-1,-1,-1],"loss_changes":[2.7284756E7,1.7569205E6,3.13357E6,3.38018E5,6.395851E5,5.944155E5,3.48744E5,2.28725E4,4.402675E4,7.3695125E4,1.0875875E4,4.51475E4,3.1564E4,7.0366E4,1.80515E4,0E0,0E0,0E0,0E0,0E0,0E0,0E0,0E0,0E0,0E0,0E0,0E0,0E0,0E0,0E0,0E0],"parents":[2147483647,0,0,1,1,2,2,3,3,4,4,5,5,6,6,7,7,8,8,9,9,10,10,11,11,12,12,13,13,14,14],"right_children":[2,4,6,8,10,12,14,16,18,20,22,24,26,28,30,-1,-1,-1,-1,-1,-1,-1,-1,-1,-1,-1,-1,-1,-1,-1,-1],"split_conditions":[8.98E1,3.04E1,1.6205E2,1.335E1,6.825E1,1.2485E2,2.0995E2,8.05E0,2.17E1,4.245E1,7.935E1,1.08E2,1.4635E2,1.872E2,2.392E2,-3.0964732E-1,-2.5730395E-1,-2.1626274E-1,-1.6653198E-1,-1.01541966E-1,-2.0987067E-2,1.389999E-1,2.121137E-1,2.943375E-1,4.0629768E-1,5.459135E-1,6.462285E-1,7.8386605E-1,9.282916E-1,1.0874271E0,1.2392099E0],"split_indices":[3,3,3,3,1,3,3,2,3,3,7,3,1,3,1,0,0,0,0,0,0,0,0,0,0,0,0,0,0,0,0],"split_type":[0,0,0,0,0,0,0,0,0,0,0,0,0,0,0,0,0,0,0,0,0,0,0,0,0,0,0,0,0,0,0],"sum_hessian":[2.5474E4,2.0095E4,5.379E3,1.2826E4,7.269E3,3.287E3,2.092E3,5.456E3,7.37E3,6.273E3,9.96E2,1.893E3,1.394E3,1.493E3,5.99E2,4.375E3,1.081E3,4.276E3,3.094E3,4.783E3,1.49E3,3E2,6.96E2,1.393E3,5E2,6.96E2,6.98E2,7.96E2,6.97E2,3.96E2,2.03E2],"tree_param":{"num_deleted":"0","num_feature":"32","num_nodes":"31","size_leaf_vector":"1"}},{"base_weights":[8.34687E-3,-1.7733582E1,5.9175274E1,-2.507255E1,-8.287866E0,3.618124E1,8.638554E1,-3.0405378E1,-2.114847E1,-1.0568626E1,9.068894E0,2.8220675E1,5.134303E1,7.309038E1,1.0289353E2,-3.0856234E-1,-2.781971E-1,-2.395761E-1,-1.9334634E-1,-1.3664325E-1,-7.1602575E-2,2.2464799E-2,1.5914242E-1,2.3051222E-1,3.206663E-1,4.3650004E-1,5.566706E-1,6.552966E-1,7.9602575E-1,9.4089407E-1,1.149959E0],"categories":[],"categories_nodes":[],"categories_segments":[],"categories_sizes":[],"default_left":[0,0,0,0,0,0,0,0,0,0,0,0,0,0,0,0,0,0,0,0,0,0,0,0,0,0,0,0,0,0,0],"id":46,"left_children":[1,3,5,7,9,11,13,15,17,19,21,23,25,27,29,-1,-1,-1,-1,-1,-1,-1,-1,-1,-1,-1,-1,-1,-1,-1,-1],"loss_changes":[2.6743058E7,1.35843E6,3.67396E6,2.301555E5,3.393928E5,3.832105E5,5.8309E5,4.5895E3,3.192775E4,7.9838625E4,4.6479242E4,4.0853E4,3.402825E4,6.8344E4,1.16828E5,0E0,0E0,0E0,0E0,0E0,0E0,0E0,0E0,0E0,0E0,0E0,0E0,0E0,0E0,0E0,0E0],"parents":[2147483647,0,0,1,1,2,2,3,3,4,4,5,5,6,6,7,7,8,8,9,9,10,10,11,11,12,12,13,13,14,14],"right_children":[2,4,6,8,10,12,14,16,18,20,22,24,26,28,30,-1,-1,-1,-1,-1,-1,-1,-1,-1,-1,-1,-1,-1,-1,-1,-1],"split_conditions":[8.26E1,2.4E1,1.4725E2,1E1,4.75E1,1.1235E2,1.901E2,4E0,1.605E1,3.415E1,6.7E1,9.41E1,1.3265E2,1.669E2,2.1485E2,-3.0856234E-1,-2.781971E-1,-2.395761E-1,-1.9334634E-1,-1.3664325E-1,-7.1602575E-2,2.2464799E-2,1.5914242E-1,2.3051222E-1,3.206663E-1,4.3650004E-1,5.566706E-1,6.552966E-1,7.9602575E-1,9.4089407E-1,1.149959E0],"split_indices":[3,3,3,3,3,3,3,3,2,3,3,3,3,3,3,0,0,0,0,0,0,0,0,0,0,0,0,0,0,0,0],"split_type":[0,0,0,0,0,0,0,0,0,0,0,0,0,0,0,0,0,0,0,0,0,0,0,0,0,0,0,0,0,0,0],"sum_hessian":[2.5474E4,1.9598E4,5.876E3,1.1028E4,8.57E3,3.186E3,2.69E3,4.672E3,6.356E3,7.575E3,9.95E2,2.091E3,1.095E3,1.493E3,1.197E3,3.969E3,7.03E2,